{"sizes":[102,30,30,30,3],"layers":[{"0":{},"1":{},"2":{},"3":{},"4":{},"5":{},"6":{},"7":{},"8":{},"9":{},"10":{},"11":{},"12":{},"13":{},"14":{},"15":{},"16":{},"17":{},"18":{},"19":{},"20":{},"21":{},"22":{},"23":{},"24":{},"25":{},"26":{},"27":{},"28":{},"29":{},"30":{},"31":{},"32":{},"33":{},"34":{},"35":{},"36":{},"37":{},"38":{},"39":{},"40":{},"41":{},"42":{},"43":{},"44":{},"45":{},"46":{},"47":{},"48":{},"49":{},"50":{},"51":{},"52":{},"53":{},"54":{},"55":{},"56":{},"57":{},"58":{},"59":{},"60":{},"61":{},"62":{},"63":{},"64":{},"65":{},"66":{},"67":{},"68":{},"69":{},"70":{},"71":{},"72":{},"73":{},"74":{},"75":{},"76":{},"77":{},"78":{},"79":{},"80":{},"81":{},"82":{},"83":{},"84":{},"85":{},"86":{},"87":{},"88":{},"89":{},"90":{},"91":{},"92":{},"93":{},"94":{},"95":{},"96":{},"97":{},"98":{},"99":{},"100":{},"101":{}},{"0":{"bias":-1.4326553344726562,"weights":{"0":0.07223702222108841,"1":0.19264763593673706,"2":0.18124964833259583,"3":0.17293943464756012,"4":0.05382407829165459,"5":-0.1703520119190216,"6":0.1680029034614563,"7":-0.057269636541604996,"8":-0.054334595799446106,"9":-0.19752797484397888,"10":-0.035366907715797424,"11":0.10507520288228989,"12":-0.19786764681339264,"13":0.02344299852848053,"14":0.13638608157634735,"15":-0.0001996920327655971,"16":-0.09613724052906036,"17":0.14379744231700897,"18":-0.010978035628795624,"19":0.16533809900283813,"20":0.0703807920217514,"21":-0.10186278820037842,"22":-0.14324165880680084,"23":-0.06297429651021957,"24":0.18500998616218567,"25":-0.19296447932720184,"26":-0.08613558858633041,"27":0.08007526397705078,"28":-0.10834947973489761,"29":-0.023726217448711395,"30":-0.15631632506847382,"31":0.08408840000629425,"32":-0.10335823893547058,"33":0.124507836997509,"34":0.09170617163181305,"35":0.0006238440982997417,"36":-0.013608870096504688,"37":0.18486502766609192,"38":0.013759145513176918,"39":0.2078811526298523,"40":-0.16092103719711304,"41":-0.13261950016021729,"42":0.7036416530609131,"43":-4.066601753234863,"44":3.0000805854797363,"45":0.20474989712238312,"46":1.6033082008361816,"47":-2.1473193168640137,"48":-0.49183154106140137,"49":-1.4107877016067505,"50":0.01803584210574627,"51":0.13651375472545624,"52":0.8986664414405823,"53":-0.68443363904953,"54":1.2651827335357666,"55":-1.29617440700531,"56":-0.028668664395809174,"57":-1.3895938396453857,"58":0.42740169167518616,"59":-0.23242418467998505,"60":0.44720739126205444,"61":0.25283125042915344,"62":0.5666012763977051,"63":-0.08094488084316254,"64":-0.7651792168617249,"65":-0.36422422528266907,"66":-0.6939865946769714,"67":-0.3973188102245331,"68":-0.13703574240207672,"69":0.21488720178604126,"70":-0.3523426353931427,"71":-0.31141120195388794,"72":-0.023080462589859962,"73":0.18401969969272614,"74":-0.3391472101211548,"75":0.2119864672422409,"76":0.003970643039792776,"77":0.2265222817659378,"78":-0.08760232478380203,"79":-0.13305912911891937,"80":-0.24014224112033844,"81":-0.0638892650604248,"82":-0.02650458924472332,"83":0.0961265116930008,"84":-0.04810651019215584,"85":0.02604282833635807,"86":-0.17225603759288788,"87":-0.03349747508764267,"88":-0.007688574492931366,"89":-0.1245279461145401,"90":-0.1425156593322754,"91":-0.1834573596715927,"92":-0.010796376504004002,"93":0.0837564766407013,"94":0.165607750415802,"95":0.18121817708015442,"96":0.15448884665966034,"97":0.033638253808021545,"98":-0.15655717253684998,"99":0.17240707576274872,"100":3.99249005317688,"101":4.342852592468262}},"1":{"bias":-0.06230676546692848,"weights":{"0":-0.049127690494060516,"1":0.17484520375728607,"2":0.040738776326179504,"3":-0.06355457007884979,"4":-0.07302996516227722,"5":-0.13835591077804565,"6":0.03671183064579964,"7":-0.15594063699245453,"8":-0.11724001169204712,"9":-0.15037469565868378,"10":-0.16704072058200836,"11":-0.07428797334432602,"12":-0.17626141011714935,"13":-0.06510033458471298,"14":0.0864383652806282,"15":0.02600071206688881,"16":-0.062403418123722076,"17":0.03180181235074997,"18":-0.14597730338573456,"19":-0.1045553907752037,"20":-0.0789015144109726,"21":0.19693152606487274,"22":-0.09559927135705948,"23":-0.17666564881801605,"24":0.19350817799568176,"25":-0.03840639069676399,"26":-0.11832816153764725,"27":0.18413932621479034,"28":0.02764846384525299,"29":0.07405807822942734,"30":0.16819538176059723,"31":0.143295556306839,"32":0.1909588724374771,"33":0.08560045063495636,"34":-0.06063007935881615,"35":-0.060353148728609085,"36":-0.1823466718196869,"37":-0.10549496114253998,"38":-0.09964869171380997,"39":0.5862119793891907,"40":0.12002412974834442,"41":0.24764207005500793,"42":0.2679860293865204,"43":-0.045445095747709274,"44":0.3137878179550171,"45":-0.40202605724334717,"46":-0.5598451495170593,"47":0.11320838332176208,"48":0.11523532122373581,"49":-1.4578946828842163,"50":-0.8178619146347046,"51":-0.6524222493171692,"52":-0.3318203389644623,"53":0.07443154603242874,"54":0.35991764068603516,"55":-0.2276306450366974,"56":0.3962758481502533,"57":0.2788132131099701,"58":0.005270679015666246,"59":0.06693955510854721,"60":-0.37994384765625,"61":-0.2061503529548645,"62":-0.4818725287914276,"63":-0.5726357698440552,"64":-0.28831684589385986,"65":-0.1429585963487625,"66":-0.25818178057670593,"67":-0.1562303900718689,"68":-0.2979649603366852,"69":-0.20670925080776215,"70":0.046999163925647736,"71":-0.03968615084886551,"72":0.10019300878047943,"73":0.009587693028151989,"74":-0.11927922070026398,"75":-0.06592018902301788,"76":-0.12184735387563705,"77":-0.23069489002227783,"78":0.02699775993824005,"79":-0.23299263417720795,"80":0.17428404092788696,"81":0.015982070937752724,"82":0.11440321803092957,"83":0.1757347583770752,"84":0.23112231492996216,"85":0.14953939616680145,"86":0.07123034447431564,"87":0.05396886542439461,"88":-0.08742938190698624,"89":-0.015690678730607033,"90":-0.13220910727977753,"91":0.17165833711624146,"92":0.14297693967819214,"93":-0.1449323296546936,"94":0.05330386757850647,"95":0.03654846176505089,"96":-0.05907623469829559,"97":-0.1736629754304886,"98":-0.019849909469485283,"99":-0.13372549414634705,"100":-0.5934194922447205,"101":0.3048873841762543}},"2":{"bias":0.768722414970398,"weights":{"0":0.1414596438407898,"1":0.1504916548728943,"2":-0.13726305961608887,"3":-0.1681194305419922,"4":0.06804841011762619,"5":0.04302569106221199,"6":-0.029011612758040428,"7":0.14496512711048126,"8":-0.04686327651143074,"9":-0.03326793387532234,"10":0.042533379048109055,"11":0.07052828371524811,"12":-0.19760507345199585,"13":0.09810109436511993,"14":0.10148904472589493,"15":0.15913879871368408,"16":-0.13543343544006348,"17":0.13174700736999512,"18":0.18157730996608734,"19":-0.07641857117414474,"20":0.050508979707956314,"21":0.11173887550830841,"22":-0.05673108994960785,"23":-0.04622979089617729,"24":-0.1321982890367508,"25":-0.16215938329696655,"26":0.16229471564292908,"27":-0.1239638403058052,"28":0.1176401674747467,"29":-0.00849156267940998,"30":0.05573657900094986,"31":-0.13760428130626678,"32":0.04678106680512428,"33":-0.18653079867362976,"34":-0.08817268162965775,"35":0.027400152757763863,"36":0.13898144662380219,"37":0.07428920269012451,"38":-0.14962853491306305,"39":-0.48183855414390564,"40":-0.08438306301832199,"41":-0.11667730659246445,"42":0.10145692527294159,"43":1.8300535678863525,"44":-0.43492695689201355,"45":-0.7507064938545227,"46":-1.3103625774383545,"47":0.5669153332710266,"48":1.1869933605194092,"49":0.8339333534240723,"50":0.42606091499328613,"51":0.3304879367351532,"52":-0.2716652452945709,"53":0.12196873128414154,"54":-0.8596517443656921,"55":1.0598965883255005,"56":0.2821773588657379,"57":1.3152844905853271,"58":-0.4102979600429535,"59":0.6826809048652649,"60":-0.6030660271644592,"61":-0.9644395112991333,"62":-0.8238019347190857,"63":-0.0861135795712471,"64":-0.6666457653045654,"65":-0.23356451094150543,"66":-0.2888747751712799,"67":-0.4682896137237549,"68":-0.77448970079422,"69":-0.9957602620124817,"70":0.6429071426391602,"71":0.3437199592590332,"72":0.34306660294532776,"73":0.30190756916999817,"74":0.23389297723770142,"75":0.2021045684814453,"76":0.2948377728462219,"77":0.0908198207616806,"78":0.11109451949596405,"79":0.2900446653366089,"80":0.17002472281455994,"81":0.05974776670336723,"82":-0.15620717406272888,"83":0.20889365673065186,"84":0.101176917552948,"85":-0.10140027105808258,"86":-0.02986575849354267,"87":0.20210754871368408,"88":-0.00408774521201849,"89":0.12632989883422852,"90":0.13124118745326996,"91":-0.03116587921977043,"92":-0.07301929593086243,"93":0.10946732759475708,"94":0.12334048002958298,"95":-0.16655535995960236,"96":-0.047453466802835464,"97":0.12703335285186768,"98":0.11411808431148529,"99":-0.09486626088619232,"100":-0.8879711031913757,"101":-3.123739004135132}},"3":{"bias":-0.46197786927223206,"weights":{"0":0.16062259674072266,"1":-0.0580059252679348,"2":-0.12483269721269608,"3":-0.16680996119976044,"4":-0.14225883781909943,"5":-0.02984531596302986,"6":0.11214125156402588,"7":-0.19458653032779694,"8":-0.03168713301420212,"9":-0.13399948179721832,"10":-0.18000271916389465,"11":-0.1644095778465271,"12":0.13933637738227844,"13":-0.12820397317409515,"14":-0.17565159499645233,"15":-0.12682022154331207,"16":-0.1981220245361328,"17":0.07314307987689972,"18":0.15141145884990692,"19":-0.07689118385314941,"20":-0.19360071420669556,"21":0.019826926290988922,"22":0.018934011459350586,"23":-0.14433102309703827,"24":-0.16274568438529968,"25":0.1891603320837021,"26":0.010144396685063839,"27":0.05247606709599495,"28":0.0009396388195455074,"29":0.1490166336297989,"30":0.0787932351231575,"31":-0.07873882353305817,"32":-0.07081681489944458,"33":0.1364111751317978,"34":0.1420770287513733,"35":-0.06209905818104744,"36":-0.019416049122810364,"37":0.22003668546676636,"38":-0.11545554548501968,"39":-0.09307266026735306,"40":-0.13779853284358978,"41":0.04593576490879059,"42":-0.268935889005661,"43":-0.2808278799057007,"44":-0.030284835025668144,"45":0.8709198832511902,"46":-0.43110260367393494,"47":-0.5010647773742676,"48":0.24811828136444092,"49":-0.035962752997875214,"50":-0.275900274515152,"51":0.5170869827270508,"52":-0.11196637153625488,"53":-0.2899875342845917,"54":-0.4446079134941101,"55":0.08834793418645859,"56":-0.5025743246078491,"57":-0.5671905875205994,"58":-1.2082397937774658,"59":-0.07518170773983002,"60":0.036444664001464844,"61":0.10781929641962051,"62":-0.29319095611572266,"63":-0.41315600275993347,"64":-0.32926398515701294,"65":-0.26918354630470276,"66":-0.041523922234773636,"67":-0.3531113564968109,"68":-0.13023103773593903,"69":-0.00894832331687212,"70":-0.2720879018306732,"71":-0.254472553730011,"72":-0.11586374044418335,"73":-0.18936991691589355,"74":-0.32953059673309326,"75":-0.23821407556533813,"76":-0.27829787135124207,"77":0.027490869164466858,"78":-0.08246063441038132,"79":-0.2429301142692566,"80":-0.12105966359376907,"81":0.029799088835716248,"82":-0.14584119617938995,"83":-0.05930780619382858,"84":0.03004923276603222,"85":0.042472876608371735,"86":-0.2644575536251068,"87":-0.07284961640834808,"88":-0.04732503741979599,"89":0.015197859145700932,"90":0.019564468413591385,"91":0.061177048832178116,"92":0.04076499119400978,"93":-0.1492343544960022,"94":-0.18153932690620422,"95":0.11881998926401138,"96":0.014122746884822845,"97":0.014374824240803719,"98":-0.11761020123958588,"99":0.00868276972323656,"100":0.2346336990594864,"101":1.5461440086364746}},"4":{"bias":1.3748151063919067,"weights":{"0":0.040488820523023605,"1":-0.15501634776592255,"2":0.034196142107248306,"3":-0.19766438007354736,"4":0.1862000674009323,"5":-0.05260731279850006,"6":0.12603624165058136,"7":0.04840889200568199,"8":0.014045228250324726,"9":0.1525564193725586,"10":-0.06269285827875137,"11":0.19498369097709656,"12":-0.15921741724014282,"13":-0.044471144676208496,"14":-0.12057970464229584,"15":-0.06763100624084473,"16":-0.0305097084492445,"17":0.043296653777360916,"18":-0.1442827731370926,"19":0.035647399723529816,"20":0.13264824450016022,"21":-0.055711932480335236,"22":0.012890338897705078,"23":0.0472666397690773,"24":0.13786396384239197,"25":-0.035322848707437515,"26":0.0007655711960978806,"27":0.18319302797317505,"28":0.029818052425980568,"29":-0.11661090701818466,"30":0.15630502998828888,"31":0.17355109751224518,"32":0.10962432622909546,"33":-0.07450635731220245,"34":-0.017391687259078026,"35":0.16661061346530914,"36":0.09848623722791672,"37":-0.047822125256061554,"38":0.13591517508029938,"39":-0.4195544421672821,"40":-0.11753501743078232,"41":0.08629165589809418,"42":-0.9633779525756836,"43":3.4835622310638428,"44":-2.4769446849823,"45":-0.5655778646469116,"46":-0.9351820349693298,"47":1.150645136833191,"48":0.8858190178871155,"49":1.3487063646316528,"50":-0.027963707223534584,"51":-0.4418416917324066,"52":-0.9331285953521729,"53":0.5669376254081726,"54":-1.3340868949890137,"55":1.0122427940368652,"56":-0.06836479902267456,"57":1.1253477334976196,"58":-0.637642502784729,"59":0.01978381536900997,"60":-0.5185174345970154,"61":-0.25747719407081604,"62":-0.06382790952920914,"63":0.1335105299949646,"64":0.6029137372970581,"65":0.45160821080207825,"66":0.3585236966609955,"67":0.4428716003894806,"68":0.20912766456604004,"69":-0.049579016864299774,"70":0.4338614344596863,"71":0.2652930021286011,"72":0.021662501618266106,"73":0.010882465168833733,"74":0.24288088083267212,"75":0.08707841485738754,"76":-0.019242605194449425,"77":-0.1430988907814026,"78":-0.10304898023605347,"79":0.0590163990855217,"80":0.2258952558040619,"81":0.07039207220077515,"82":-0.05659279227256775,"83":0.009012828581035137,"84":0.17181697487831116,"85":0.1858850121498108,"86":-0.1272081434726715,"87":0.11606187373399734,"88":0.002689426764845848,"89":-0.1430828869342804,"90":-0.09442384541034698,"91":0.14677584171295166,"92":-0.12127715349197388,"93":0.11760753393173218,"94":-0.11227679252624512,"95":-0.09273867309093475,"96":-0.12358488142490387,"97":-0.05264484882354736,"98":-0.08310535550117493,"99":-0.09077544510364532,"100":-3.427436590194702,"101":-4.330957412719727}},"5":{"bias":-1.1899570226669312,"weights":{"0":-0.12678229808807373,"1":0.1657400280237198,"2":-0.13746242225170135,"3":-0.18639026582241058,"4":-0.12639184296131134,"5":-0.07224118709564209,"6":0.17353399097919464,"7":-0.1447235345840454,"8":-0.0680665671825409,"9":-0.09312199801206589,"10":0.1683116853237152,"11":-0.0671086311340332,"12":0.04493313655257225,"13":0.07982494682073593,"14":-0.059243228286504745,"15":0.17473125457763672,"16":-0.0004209618200547993,"17":0.19191186130046844,"18":-0.16652275621891022,"19":-0.08097673952579498,"20":-0.14633724093437195,"21":-0.05765923485159874,"22":0.03941187262535095,"23":-0.060892026871442795,"24":-0.07254459708929062,"25":0.13989375531673431,"26":0.03509212285280228,"27":0.0013739494606852531,"28":-0.011414793320000172,"29":0.23497214913368225,"30":-0.1257675290107727,"31":0.14514994621276855,"32":-0.06602341681718826,"33":-0.16608291864395142,"34":0.13007262349128723,"35":-0.15078791975975037,"36":0.14842088520526886,"37":0.009819526225328445,"38":0.044587187469005585,"39":0.33598724007606506,"40":-0.10876671224832535,"41":0.07708089053630829,"42":0.24808143079280853,"43":-1.3159842491149902,"44":1.619384765625,"45":-0.05376046895980835,"46":-1.4633314609527588,"47":-0.25768300890922546,"48":0.19223441183567047,"49":0.2214314490556717,"50":-0.3510977029800415,"51":-0.23212122917175293,"52":-0.043543532490730286,"53":-0.6251272559165955,"54":0.22937996685504913,"55":-1.0465019941329956,"56":-0.8713377118110657,"57":-1.0960800647735596,"58":0.27848654985427856,"59":-0.27062901854515076,"60":0.8597152829170227,"61":0.9699928164482117,"62":0.2111371010541916,"63":0.182200625538826,"64":0.061381302773952484,"65":0.052325110882520676,"66":-0.03189558535814285,"67":0.28298524022102356,"68":0.37008699774742126,"69":0.4129248857498169,"70":-0.3704407215118408,"71":-0.15185806155204773,"72":-0.07875695079565048,"73":0.21589823067188263,"74":0.0701066181063652,"75":-0.0028417427092790604,"76":0.09595625102519989,"77":0.05754885822534561,"78":0.1243637353181839,"79":0.15625682473182678,"80":-0.024462221190333366,"81":-0.03840555623173714,"82":-0.09581734240055084,"83":0.0026474192272871733,"84":-0.01078595407307148,"85":-0.007692054379731417,"86":-0.13174624741077423,"87":-0.07908584177494049,"88":-0.1579051911830902,"89":-0.12615031003952026,"90":0.17767921090126038,"91":0.12175555527210236,"92":0.16003358364105225,"93":0.13358476758003235,"94":0.10106842964887619,"95":0.06071405112743378,"96":0.1732371747493744,"97":0.0014558341354131699,"98":-0.19035440683364868,"99":0.18122544884681702,"100":0.729953944683075,"101":1.8752187490463257}},"6":{"bias":0.604621410369873,"weights":{"0":-0.16575533151626587,"1":-0.049456637352705,"2":-0.06039413437247276,"3":0.1986539214849472,"4":-0.11721007525920868,"5":0.08630836009979248,"6":0.06364365667104721,"7":0.041088130325078964,"8":-0.07370589673519135,"9":-0.12948937714099884,"10":-0.06020001694560051,"11":-0.1682083010673523,"12":0.06625022739171982,"13":-0.04117150977253914,"14":-0.03910648077726364,"15":0.107746921479702,"16":-0.16491848230361938,"17":-0.16926351189613342,"18":0.1064501628279686,"19":0.16219769418239594,"20":-0.19650138914585114,"21":-0.06462561339139938,"22":-0.13170555233955383,"23":-0.17759059369564056,"24":0.1088678315281868,"25":0.18492498993873596,"26":0.07559988647699356,"27":0.019765270873904228,"28":-0.1591387689113617,"29":0.17535510659217834,"30":-0.13536019623279572,"31":0.0009819663828238845,"32":0.002107484731823206,"33":-0.17685584723949432,"34":-0.012604810297489166,"35":0.06791943311691284,"36":-0.046081602573394775,"37":0.03703245893120766,"38":-0.052395936101675034,"39":0.1942855715751648,"40":-0.03257499262690544,"41":-0.043011415749788284,"42":-0.017028281465172768,"43":1.2619966268539429,"44":0.48709601163864136,"45":-0.6730128526687622,"46":-1.0469725131988525,"47":0.5051974654197693,"48":0.7711900472640991,"49":-1.265062689781189,"50":-0.07018549740314484,"51":-0.20131231844425201,"52":-0.07849197834730148,"53":0.19699139893054962,"54":-0.22683893144130707,"55":0.4820912480354309,"56":0.6839180588722229,"57":0.6419042348861694,"58":-0.06871417164802551,"59":0.0983414351940155,"60":-0.6028761267662048,"61":-0.9181845784187317,"62":-0.8110928535461426,"63":-0.4036470949649811,"64":-0.4086548089981079,"65":-0.5108763575553894,"66":-0.4091029167175293,"67":-0.3355178236961365,"68":-0.7643222808837891,"69":-0.5532453060150146,"70":0.05153762549161911,"71":0.05638524889945984,"72":0.001687389682047069,"73":0.017211686819791794,"74":-0.08043663948774338,"75":0.0072116730734705925,"76":0.0032036753837019205,"77":0.015642419457435608,"78":-0.21727396547794342,"79":0.02562566101551056,"80":0.16633018851280212,"81":-0.006580427289009094,"82":0.19446519017219543,"83":0.09920496493577957,"84":0.08759845793247223,"85":0.09112124890089035,"86":-0.006430875044316053,"87":0.15814349055290222,"88":-0.020032981410622597,"89":0.22775425016880035,"90":0.11229851841926575,"91":-0.14837013185024261,"92":-0.19335691630840302,"93":-0.09477324783802032,"94":-0.16343030333518982,"95":0.11026149243116379,"96":0.03363081067800522,"97":0.02148338593542576,"98":-0.1750967651605606,"99":0.1918564885854721,"100":-0.5970505475997925,"101":-1.8307099342346191}},"7":{"bias":0.21858541667461395,"weights":{"0":-0.013088463805615902,"1":-0.16143758594989777,"2":0.1068672463297844,"3":-0.09918414801359177,"4":0.009058237075805664,"5":0.11347714066505432,"6":0.15051788091659546,"7":-0.014647085219621658,"8":-0.09162832051515579,"9":-0.1229284256696701,"10":0.020217416808009148,"11":-0.17014233767986298,"12":0.025228645652532578,"13":-0.14456307888031006,"14":-0.14722640812397003,"15":-0.1873035430908203,"16":0.02681811898946762,"17":-0.14481550455093384,"18":0.12481033802032471,"19":0.19385437667369843,"20":0.06382520496845245,"21":0.1406724750995636,"22":0.11607278138399124,"23":-0.19642779231071472,"24":0.10230259597301483,"25":0.10508318245410919,"26":0.10773118585348129,"27":-0.08895725011825562,"28":-0.08025084435939789,"29":-0.1630701869726181,"30":0.004469580948352814,"31":0.07539568096399307,"32":-0.15120404958724976,"33":-0.031196510419249535,"34":0.12865470349788666,"35":0.04802723601460457,"36":-0.1629730463027954,"37":0.0818452537059784,"38":-0.13801613450050354,"39":-0.3025987148284912,"40":-0.005429313518106937,"41":-0.4372215270996094,"42":0.5857769250869751,"43":0.5635136961936951,"44":-0.366268515586853,"45":-1.2052128314971924,"46":0.7812135219573975,"47":0.17370617389678955,"48":-0.08911534398794174,"49":0.5671667456626892,"50":1.0261346101760864,"51":0.3018557131290436,"52":-0.018246613442897797,"53":-0.004647832363843918,"54":0.2819668650627136,"55":-0.291902631521225,"56":0.09651094675064087,"57":-0.10081176459789276,"58":0.1366468369960785,"59":-0.027951663359999657,"60":-0.14795692265033722,"61":0.15616630017757416,"62":-0.0010593399638310075,"63":-0.01498238556087017,"64":0.017230240628123283,"65":-0.13292615115642548,"66":-0.10184230655431747,"67":-0.12507736682891846,"68":-0.012085521593689919,"69":-0.08123452216386795,"70":0.2345258742570877,"71":-0.047460656613111496,"72":-0.14625905454158783,"73":-0.07360385358333588,"74":-0.01881450228393078,"75":-0.09939150512218475,"76":-0.08818209171295166,"77":0.09862598031759262,"78":-0.10066688805818558,"79":0.05216594412922859,"80":-0.08868040144443512,"81":-0.016301745548844337,"82":0.07009686529636383,"83":0.08910998702049255,"84":-0.14561928808689117,"85":0.09984090924263,"86":-0.17327149212360382,"87":0.22158576548099518,"88":0.09991123527288437,"89":-0.03787823021411896,"90":-0.10572988539934158,"91":-0.017131265252828598,"92":-0.1468552201986313,"93":-0.21998319029808044,"94":-0.13827763497829437,"95":0.17557989060878754,"96":0.046694811433553696,"97":0.007932746782898903,"98":0.047476302832365036,"99":-0.006782348267734051,"100":-0.04919413477182388,"101":-2.9119133949279785}},"8":{"bias":0.9700986742973328,"weights":{"0":-0.1090364083647728,"1":-0.183231383562088,"2":-0.10073661804199219,"3":-0.1381358653306961,"4":0.11482590436935425,"5":-0.03349611535668373,"6":0.1533890813589096,"7":-0.19863665103912354,"8":0.12817464768886566,"9":-0.15029020607471466,"10":0.15170027315616608,"11":0.19214268028736115,"12":0.08029382675886154,"13":0.10943930596113205,"14":0.14880651235580444,"15":-0.09302204102277756,"16":-0.0781286284327507,"17":-0.0642649456858635,"18":0.016971806064248085,"19":-0.13466611504554749,"20":0.052391912788152695,"21":-0.17478244006633759,"22":0.05356016382575035,"23":-0.08917064964771271,"24":-0.11684909462928772,"25":-0.1399843990802765,"26":-0.05831426382064819,"27":0.18844659626483917,"28":0.18494759500026703,"29":-0.24637188017368317,"30":-0.09057404100894928,"31":-0.044418755918741226,"32":0.04788326099514961,"33":-0.07301079481840134,"34":0.10709180682897568,"35":-0.1042400524020195,"36":-0.07777520269155502,"37":0.04020915552973747,"38":-0.09641404449939728,"39":-0.12396851927042007,"40":-0.15539638698101044,"41":0.13720238208770752,"42":0.025195734575390816,"43":1.7565745115280151,"44":-2.1128382682800293,"45":-0.44641751050949097,"46":-0.701156735420227,"47":1.6197724342346191,"48":0.21046601235866547,"49":0.670547366142273,"50":-0.05764464661478996,"51":-0.5297908782958984,"52":-0.7126073837280273,"53":0.41925248503685,"54":-0.7936384677886963,"55":1.1467514038085938,"56":-0.046852342784404755,"57":1.1410554647445679,"58":-0.5103699564933777,"59":0.2288246750831604,"60":-0.6080644130706787,"61":-0.2948184013366699,"62":-0.006076239049434662,"63":0.22660835087299347,"64":0.3433084189891815,"65":0.2376256138086319,"66":0.26124709844589233,"67":0.30763936042785645,"68":0.02077830396592617,"69":-0.052556853741407394,"70":0.3212675452232361,"71":0.24570590257644653,"72":0.1683228760957718,"73":-0.16396354138851166,"74":0.27801525592803955,"75":-0.05285320803523064,"76":-0.02623586729168892,"77":-0.07930878549814224,"78":0.12076859921216965,"79":0.23401696979999542,"80":0.0738411545753479,"81":0.06395281106233597,"82":0.21730835735797882,"83":0.047544416040182114,"84":0.015631938353180885,"85":-0.05973248928785324,"86":-0.006504449062049389,"87":-0.0006758671952411532,"88":-0.053833503276109695,"89":0.19394288957118988,"90":0.08448753505945206,"91":-0.16501493752002716,"92":-0.17395131289958954,"93":-0.03726165369153023,"94":0.07030000537633896,"95":0.1693468987941742,"96":-0.10596133023500443,"97":0.16089539229869843,"98":0.03699159622192383,"99":-0.1872425079345703,"100":-2.4865963459014893,"101":-3.6973631381988525}},"9":{"bias":-0.18797063827514648,"weights":{"0":0.05009029060602188,"1":-0.16673199832439423,"2":-0.0856514424085617,"3":-0.16702045500278473,"4":-0.10023358464241028,"5":0.0561177022755146,"6":-0.18978191912174225,"7":-0.06955933570861816,"8":-0.0475216768682003,"9":-0.06500137597322464,"10":0.165121927857399,"11":0.06542586535215378,"12":0.17724129557609558,"13":0.13627293705940247,"14":0.19107207655906677,"15":0.0843287780880928,"16":0.05242752656340599,"17":0.12961682677268982,"18":0.1629236489534378,"19":0.0865643322467804,"20":0.02229560911655426,"21":0.056571416556835175,"22":0.10753979533910751,"23":-0.1340186893939972,"24":-0.16796311736106873,"25":-0.09344017505645752,"26":-0.040721502155065536,"27":-0.17467741668224335,"28":0.13482649624347687,"29":0.03515566512942314,"30":0.10835230350494385,"31":0.18152457475662231,"32":0.10402507334947586,"33":-0.08100173622369766,"34":-0.1538451910018921,"35":0.0829949826002121,"36":-0.056717969477176666,"37":0.00549444230273366,"38":-0.1158880665898323,"39":1.2307510375976562,"40":0.1427418291568756,"41":1.9847298860549927,"42":0.6189464926719666,"43":0.595964252948761,"44":0.19985556602478027,"45":-2.2359492778778076,"46":-1.3864973783493042,"47":0.8931578993797302,"48":0.7379757165908813,"49":-2.7604386806488037,"50":-2.227216958999634,"51":-1.625571608543396,"52":0.27407774329185486,"53":0.96366286277771,"54":1.695397973060608,"55":-0.706699788570404,"56":1.455885410308838,"57":1.2439007759094238,"58":0.7054981589317322,"59":1.0044817924499512,"60":-0.5292811989784241,"61":-0.5639330744743347,"62":-0.5739040970802307,"63":-0.23846811056137085,"64":0.2216450721025467,"65":-0.06025378406047821,"66":0.09231512248516083,"67":0.22854940593242645,"68":0.3251521587371826,"69":0.31155434250831604,"70":-0.24884812533855438,"71":-0.36440080404281616,"72":-0.2740415930747986,"73":-0.2925649881362915,"74":-0.035422202199697495,"75":0.03919324651360512,"76":0.07125921547412872,"77":-0.21636243164539337,"78":-0.18264350295066833,"79":-0.1384345144033432,"80":0.09515182673931122,"81":-0.029262948781251907,"82":0.13984470069408417,"83":0.1331052929162979,"84":0.0897403135895729,"85":0.01724868081510067,"86":-0.0898306742310524,"87":0.05624458193778992,"88":0.14739957451820374,"89":0.11514545977115631,"90":0.1454743593931198,"91":-0.07180412858724594,"92":-0.09121104329824448,"93":-0.13353689014911652,"94":0.1066795289516449,"95":0.10813509672880173,"96":0.04907909408211708,"97":0.1227395087480545,"98":0.18348821997642517,"99":-0.036641743034124374,"100":-3.0530245304107666,"101":0.7532461285591125}},"10":{"bias":-0.39362654089927673,"weights":{"0":-0.02915499545633793,"1":0.008340406231582165,"2":0.14795294404029846,"3":0.094630666077137,"4":-0.07990941405296326,"5":-0.015098260715603828,"6":0.023746667429804802,"7":0.1139325201511383,"8":-0.06125406548380852,"9":0.06896811723709106,"10":-0.19839845597743988,"11":0.07573471963405609,"12":-0.10388834029436111,"13":-0.18089759349822998,"14":-0.05345585569739342,"15":0.010704795829951763,"16":0.1668347418308258,"17":0.12670081853866577,"18":-0.0393914058804512,"19":0.1583574414253235,"20":-0.01741185411810875,"21":-0.1076389029622078,"22":-0.08157453685998917,"23":0.19887535274028778,"24":0.07317505031824112,"25":-0.13220623135566711,"26":0.15239588916301727,"27":-0.13690538704395294,"28":0.11993618309497833,"29":0.15981525182724,"30":-0.054420363157987595,"31":0.011441204696893692,"32":-0.1374981850385666,"33":-0.06217317655682564,"34":0.005151316989213228,"35":-0.04481760412454605,"36":-0.17186693847179413,"37":0.17264480888843536,"38":-0.1165686547756195,"39":0.6588938236236572,"40":-0.011056946590542793,"41":0.6883268356323242,"42":0.3634812533855438,"43":0.08878447115421295,"44":0.15139244496822357,"45":-0.624547004699707,"46":0.06605827063322067,"47":-0.10558036714792252,"48":-0.7077151536941528,"49":-1.1590789556503296,"50":-0.7102110981941223,"51":-0.627008318901062,"52":-0.4014940559864044,"53":-0.15600541234016418,"54":0.7123844623565674,"55":-0.7800799012184143,"56":0.18163926899433136,"57":-0.21561893820762634,"58":0.10594579577445984,"59":-0.3000788390636444,"60":-0.24866504967212677,"61":-0.22009173035621643,"62":0.03158530592918396,"63":-1.0976202487945557,"64":-0.6207499504089355,"65":-0.1737944632768631,"66":-0.5034219622612,"67":0.46507248282432556,"68":-0.41734203696250916,"69":0.4498746991157532,"70":0.08394755423069,"71":0.04783215373754501,"72":0.05199629068374634,"73":0.4586259424686432,"74":0.11158444732427597,"75":0.20049209892749786,"76":0.36375513672828674,"77":0.3142293393611908,"78":0.2500855028629303,"79":0.0902678370475769,"80":0.011924873106181622,"81":-0.056979950517416,"82":-0.019860031083226204,"83":0.036426156759262085,"84":-0.10037567466497421,"85":0.09955804795026779,"86":-0.0988246500492096,"87":0.2213640809059143,"88":0.09918352961540222,"89":-0.050675153732299805,"90":-0.039515420794487,"91":-0.05304618924856186,"92":0.16742287576198578,"93":0.09137080609798431,"94":-0.13759952783584595,"95":0.15732745826244354,"96":-0.021724853664636612,"97":0.1341264396905899,"98":-0.10668026655912399,"99":0.05731354281306267,"100":-1.3252272605895996,"101":1.9344969987869263}},"11":{"bias":-1.394495964050293,"weights":{"0":0.15673547983169556,"1":0.1820540875196457,"2":0.11222080141305923,"3":0.09651034325361252,"4":-0.09552434831857681,"5":0.09946714341640472,"6":0.03689558058977127,"7":0.048561941832304,"8":-0.18131622672080994,"9":-0.08089042454957962,"10":-0.12304232269525528,"11":0.14700435101985931,"12":-0.11630798131227493,"13":0.1648416519165039,"14":-0.08947598189115524,"15":-0.19952437281608582,"16":0.14522388577461243,"17":0.1903820037841797,"18":-0.0029154131188988686,"19":-0.10271493345499039,"20":0.010768307372927666,"21":-0.1999569982290268,"22":0.018343642354011536,"23":0.08349891752004623,"24":0.17305277287960052,"25":0.10169590264558792,"26":-0.18500161170959473,"27":0.022873463109135628,"28":0.11914511770009995,"29":-0.10061462223529816,"30":-0.015113224275410175,"31":-0.026727672666311264,"32":0.1507563591003418,"33":0.004389049950987101,"34":0.1355930119752884,"35":0.028101148083806038,"36":-0.05023326352238655,"37":-0.08676064759492874,"38":0.1176133006811142,"39":0.2867591679096222,"40":0.16680040955543518,"41":0.2364763617515564,"42":0.46129533648490906,"43":-1.131060242652893,"44":1.630410075187683,"45":0.1862579584121704,"46":-2.16989803314209,"47":-0.19823089241981506,"48":0.6263797283172607,"49":-0.5221523642539978,"50":-0.8750753998756409,"51":-0.5480929017066956,"52":0.2211439609527588,"53":-0.25167861580848694,"54":0.3007122576236725,"55":-0.9902474880218506,"56":-1.0959670543670654,"57":-1.01897394657135,"58":0.006991092581301928,"59":-0.15871360898017883,"60":0.7251538634300232,"61":0.7465064525604248,"62":0.7042083144187927,"63":0.08787044137716293,"64":0.39269259572029114,"65":0.29580581188201904,"66":-0.027934053912758827,"67":0.4161994755268097,"68":0.5895864367485046,"69":0.42962709069252014,"70":-0.29302212595939636,"71":-0.12159683555364609,"72":0.09427186101675034,"73":0.3095695674419403,"74":0.18092870712280273,"75":0.31447383761405945,"76":0.04711192101240158,"77":0.09153375029563904,"78":0.27212414145469666,"79":0.12357672303915024,"80":-0.29201793670654297,"81":-0.14850229024887085,"82":0.08081479370594025,"83":0.12276358157396317,"84":0.02787409909069538,"85":0.13440056145191193,"86":-0.1224726140499115,"87":-0.25103047490119934,"88":0.07177775353193283,"89":-0.037379585206508636,"90":0.1819542944431305,"91":0.013357649557292461,"92":-0.008203335106372833,"93":0.090824194252491,"94":-0.0643387958407402,"95":0.1565232127904892,"96":0.1708783507347107,"97":0.058062247931957245,"98":-0.1838761419057846,"99":-0.05982329696416855,"100":0.3851354718208313,"101":1.6528639793395996}},"12":{"bias":-0.0700889378786087,"weights":{"0":-0.1727324277162552,"1":-0.0027041719295084476,"2":0.0028338399715721607,"3":0.094454824924469,"4":-0.12813039124011993,"5":0.1879568248987198,"6":-0.11950855702161789,"7":0.020727122202515602,"8":0.10431225597858429,"9":-0.14682094752788544,"10":-0.03710510581731796,"11":0.011771717108786106,"12":-0.04758255183696747,"13":-0.13920775055885315,"14":-0.16434457898139954,"15":0.03387530520558357,"16":-0.18217484652996063,"17":-0.09746995568275452,"18":0.07845449447631836,"19":-0.18643403053283691,"20":-0.0014097800012677908,"21":0.02905239537358284,"22":0.06918774545192719,"23":0.11200685054063797,"24":-0.010570283979177475,"25":-0.13971063494682312,"26":0.1953384280204773,"27":0.19843149185180664,"28":-0.017001129686832428,"29":-0.239463210105896,"30":0.12248948216438293,"31":0.05275089666247368,"32":0.04203524440526962,"33":0.02826903574168682,"34":-0.0822523981332779,"35":0.12837353348731995,"36":-0.17842718958854675,"37":-0.1436632126569748,"38":-0.13863679766654968,"39":-2.0249695777893066,"40":-0.006432514172047377,"41":-2.3658554553985596,"42":-0.7163382768630981,"43":0.30796223878860474,"44":0.37766119837760925,"45":0.741788387298584,"46":-1.5301692485809326,"47":0.17924179136753082,"48":1.954119086265564,"49":-1.309375524520874,"50":0.40186578035354614,"51":-0.664345383644104,"52":-0.5447410345077515,"53":-0.010715262964367867,"54":-0.8762392401695251,"55":0.22492021322250366,"56":-0.17375336587429047,"57":-0.252736359834671,"58":0.5388215184211731,"59":-1.5654797554016113,"60":-0.20887669920921326,"61":-0.41673415899276733,"62":1.9306654930114746,"63":0.7554968595504761,"64":0.32423365116119385,"65":1.165583848953247,"66":0.10875056684017181,"67":0.5243493914604187,"68":0.3659617006778717,"69":0.4841868579387665,"70":0.6821125149726868,"71":0.3433440327644348,"72":0.3678296208381653,"73":-0.051343824714422226,"74":0.2714449465274811,"75":0.010328763164579868,"76":0.2067435085773468,"77":0.10330027341842651,"78":0.39319318532943726,"79":0.16272789239883423,"80":-0.05578785017132759,"81":-0.08372808992862701,"82":0.1424759477376938,"83":0.005753532517701387,"84":0.15785588324069977,"85":-0.18975697457790375,"86":-0.06083140894770622,"87":0.05060478672385216,"88":-0.19438643753528595,"89":0.06507426500320435,"90":-0.09283401072025299,"91":0.01152569055557251,"92":-0.1747695356607437,"93":0.14866715669631958,"94":0.0014869177248328924,"95":-0.014816388487815857,"96":-0.03640994429588318,"97":0.06280769407749176,"98":-0.09366483241319656,"99":-0.051741402596235275,"100":3.2374038696289062,"101":-4.659039497375488}},"13":{"bias":-0.14923714101314545,"weights":{"0":-0.001446224981918931,"1":0.17005744576454163,"2":-0.1013009250164032,"3":-0.10894117504358292,"4":0.17769230902194977,"5":0.15588508546352386,"6":0.15965747833251953,"7":-0.12159198522567749,"8":0.05443775653839111,"9":-0.08515243977308273,"10":0.09084583818912506,"11":-0.04897014796733856,"12":0.037472404539585114,"13":0.03945562615990639,"14":0.16551531851291656,"15":-0.08793925493955612,"16":0.14399993419647217,"17":-0.1863860785961151,"18":0.15861792862415314,"19":-0.06703416258096695,"20":-0.17468449473381042,"21":-0.08828401565551758,"22":0.19434422254562378,"23":0.06691942363977432,"24":-0.15334957838058472,"25":0.1967582404613495,"26":-0.014573737047612667,"27":0.07417836785316467,"28":-0.1800135225057602,"29":0.17799215018749237,"30":0.028811803087592125,"31":-0.09134206920862198,"32":0.012183967046439648,"33":-0.04113704338669777,"34":-0.015684720128774643,"35":0.14525656402111053,"36":0.10373060405254364,"37":0.1060619056224823,"38":0.09068306535482407,"39":0.5447888374328613,"40":-0.03903090953826904,"41":-0.05430852621793747,"42":-0.028327884152531624,"43":-0.21694524586200714,"44":0.03083464317023754,"45":-0.7408446669578552,"46":1.278146743774414,"47":-0.4904627799987793,"48":-1.16913902759552,"49":0.33532899618148804,"50":0.11712263524532318,"51":-0.5397138595581055,"52":-0.23114345967769623,"53":-0.18616168200969696,"54":0.9837325215339661,"55":-1.0458508729934692,"56":0.18733270466327667,"57":-0.07479199767112732,"58":1.248564600944519,"59":-0.22818875312805176,"60":0.2256363332271576,"61":0.45684757828712463,"62":0.3104799687862396,"63":-0.2287844866514206,"64":0.2013213336467743,"65":0.3588302433490753,"66":-0.14070862531661987,"67":0.15478476881980896,"68":0.035478223115205765,"69":0.05940737947821617,"70":-0.00366137083619833,"71":-0.09733030200004578,"72":-0.028685957193374634,"73":-0.11772356927394867,"74":0.1848040223121643,"75":0.05329260602593422,"76":0.05426350608468056,"77":0.2505286633968353,"78":0.005371767561882734,"79":0.0683172196149826,"80":0.16249532997608185,"81":0.18882937729358673,"82":0.016227688640356064,"83":0.12396444380283356,"84":0.05433077737689018,"85":0.09834875911474228,"86":0.09259933233261108,"87":-0.19265016913414001,"88":-0.14681683480739594,"89":0.14128533005714417,"90":-0.058909762650728226,"91":0.1383235901594162,"92":-0.05353889614343643,"93":0.14155888557434082,"94":-0.03865332528948784,"95":-0.15185850858688354,"96":0.1642674058675766,"97":0.028775593265891075,"98":0.18059444427490234,"99":0.08629410713911057,"100":-0.38235196471214294,"101":-0.4926750659942627}},"14":{"bias":-0.33442801237106323,"weights":{"0":-0.12247322499752045,"1":-0.060935184359550476,"2":0.18133185803890228,"3":-0.1504763811826706,"4":-0.11254964768886566,"5":-0.16521066427230835,"6":0.07737729698419571,"7":-0.13177764415740967,"8":0.0015355159994214773,"9":-0.009011849761009216,"10":-0.08664027601480484,"11":0.17505940794944763,"12":-0.04444942995905876,"13":-0.19560737907886505,"14":-0.0468701608479023,"15":-0.09294108301401138,"16":-0.08162052929401398,"17":-0.013776327483355999,"18":0.025282463058829308,"19":-0.06379367411136627,"20":-0.10465903580188751,"21":-0.09493574500083923,"22":-0.1940133273601532,"23":0.1803937703371048,"24":0.19619670510292053,"25":0.07192700356245041,"26":0.03149370104074478,"27":0.09878852218389511,"28":0.14988507330417633,"29":-0.01878257840871811,"30":0.10755845159292221,"31":-0.16522625088691711,"32":0.16448484361171722,"33":-0.039078302681446075,"34":0.1166309043765068,"35":0.04820181056857109,"36":-0.14356787502765656,"37":-0.1021287813782692,"38":-0.12748022377490997,"39":0.5282106399536133,"40":-0.09138146787881851,"41":0.7997245192527771,"42":-0.8775033950805664,"43":-0.000602184678427875,"44":-0.2757432758808136,"45":1.4927386045455933,"46":0.04289662465453148,"47":-0.2457915097475052,"48":-0.4058994948863983,"49":-1.2813762426376343,"50":-1.6465106010437012,"51":-0.15651370584964752,"52":0.11622169613838196,"53":0.3994258642196655,"54":-0.054039131850004196,"55":0.2967265248298645,"56":0.3430376946926117,"57":0.6705416440963745,"58":-1.2441295385360718,"59":1.0936884880065918,"60":-0.41474649310112,"61":-0.37105536460876465,"62":0.17488567531108856,"63":-0.877479612827301,"64":-0.24460841715335846,"65":-0.25207266211509705,"66":-0.12452606856822968,"67":0.5456172227859497,"68":-0.09728766232728958,"69":0.7395129203796387,"70":-0.22963882982730865,"71":-0.08585412055253983,"72":-0.2294972836971283,"73":-0.16420504450798035,"74":-0.004611934535205364,"75":-0.25865060091018677,"76":-0.16068920493125916,"77":-0.07511060684919357,"78":-0.037484973669052124,"79":0.05638774856925011,"80":-0.10406271368265152,"81":-0.07098840922117233,"82":-0.07569632679224014,"83":-0.11270099133253098,"84":-0.014206423424184322,"85":0.006173631176352501,"86":0.19886565208435059,"87":-0.15989883244037628,"88":0.18534843623638153,"89":-0.14337803423404694,"90":-0.07627556473016739,"91":0.04531414806842804,"92":0.06298407912254333,"93":-0.1817968338727951,"94":0.18000264465808868,"95":0.17582744359970093,"96":0.20969337224960327,"97":0.07866699993610382,"98":-0.025102337822318077,"99":0.199055477976799,"100":-1.5550576448440552,"101":2.5169193744659424}},"15":{"bias":-0.3059825003147125,"weights":{"0":0.019016096368432045,"1":0.16150349378585815,"2":-0.0821835920214653,"3":-0.07335257530212402,"4":0.16928501427173615,"5":-0.07418966293334961,"6":0.1959681212902069,"7":-0.18485742807388306,"8":0.17596149444580078,"9":-0.043352194130420685,"10":0.1965658813714981,"11":-0.12895628809928894,"12":0.09018399566411972,"13":0.03032083623111248,"14":0.1860278993844986,"15":-0.15495559573173523,"16":-0.11993079632520676,"17":0.15279830992221832,"18":-0.17489410936832428,"19":0.17869552969932556,"20":-0.1756608486175537,"21":-0.13871121406555176,"22":-0.05569899454712868,"23":-0.15058539807796478,"24":0.15117500722408295,"25":-0.034474726766347885,"26":-0.038428787142038345,"27":-0.049796607345342636,"28":-0.19518384337425232,"29":0.04512292891740799,"30":0.14578673243522644,"31":0.15106752514839172,"32":-0.12044505774974823,"33":0.1371084749698639,"34":0.17996154725551605,"35":-0.06904304027557373,"36":0.13019277155399323,"37":-0.09120958298444748,"38":0.15526895225048065,"39":0.20927131175994873,"40":-0.1942000389099121,"41":-0.031235160306096077,"42":0.08209934830665588,"43":-0.03409247845411301,"44":-0.20231685042381287,"45":-0.29293879866600037,"46":0.2107856571674347,"47":-0.30190029740333557,"48":-0.4907289743423462,"49":-0.2614539563655853,"50":-0.41352567076683044,"51":-0.4714861512184143,"52":-0.004041491542011499,"53":-0.15408353507518768,"54":0.28412720561027527,"55":-0.5354389548301697,"56":-0.2364308387041092,"57":-0.32890641689300537,"58":-0.23779010772705078,"59":-0.43091195821762085,"60":-0.27959394454956055,"61":-0.020419877022504807,"62":-0.040923163294792175,"63":-0.5193272829055786,"64":-0.11401261389255524,"65":-0.09277208894491196,"66":-0.4256725609302521,"67":-0.15402795374393463,"68":-0.15057888627052307,"69":-0.1277628093957901,"70":-0.09170108288526535,"71":0.1181822121143341,"72":-0.005290063098073006,"73":0.2250664383172989,"74":0.1546066552400589,"75":0.3380151689052582,"76":0.29535016417503357,"77":0.0076720453798770905,"78":0.32087090611457825,"79":0.30015459656715393,"80":-0.10636021196842194,"81":-0.15679293870925903,"82":0.19999389350414276,"83":-0.05458836257457733,"84":-0.06438019871711731,"85":0.017705317586660385,"86":0.042192794382572174,"87":-0.1089770570397377,"88":-0.11404052376747131,"89":-0.09201785176992416,"90":0.1530190408229828,"91":0.17134462296962738,"92":0.14904780685901642,"93":0.023509623482823372,"94":0.17413072288036346,"95":0.029576724395155907,"96":0.1270790845155716,"97":-0.16598418354988098,"98":-0.052454911172389984,"99":0.06688936799764633,"100":-0.1500251442193985,"101":0.3961629867553711}},"16":{"bias":-0.8448837995529175,"weights":{"0":0.08473940193653107,"1":-0.08639649301767349,"2":-0.11074736714363098,"3":-0.036580558866262436,"4":0.1527235358953476,"5":0.09907237440347672,"6":-0.03183712065219879,"7":-0.10404963791370392,"8":-0.07727522403001785,"9":-0.09953702986240387,"10":0.024756312370300293,"11":-0.02252570353448391,"12":-0.1571713536977768,"13":-0.059698332101106644,"14":0.06562599539756775,"15":-0.1570170372724533,"16":-0.04660125449299812,"17":0.13878625631332397,"18":-0.04231744259595871,"19":-0.1638612449169159,"20":0.15025050938129425,"21":0.10727106034755707,"22":-0.18522924184799194,"23":0.019835103303194046,"24":0.00978870503604412,"25":0.16638749837875366,"26":-0.1490732580423355,"27":0.09103243052959442,"28":-0.07140294462442398,"29":0.05167265981435776,"30":-0.04197915643453598,"31":-0.09057977795600891,"32":-0.07930467277765274,"33":0.08237379789352417,"34":0.19521717727184296,"35":0.15406030416488647,"36":-0.11750949919223785,"37":0.1605490744113922,"38":0.16447465121746063,"39":0.349102258682251,"40":-0.19583061337471008,"41":0.680642306804657,"42":-0.7243205904960632,"43":-0.3750773072242737,"44":-0.31738024950027466,"45":0.9688926935195923,"46":0.8810269832611084,"47":0.08286354690790176,"48":0.5214608907699585,"49":0.2974979281425476,"50":-1.0008494853973389,"51":-0.36135271191596985,"52":0.02272764779627323,"53":-0.018631795421242714,"54":-1.2435413599014282,"55":0.6788897514343262,"56":-0.44364774227142334,"57":-0.3911697566509247,"58":-0.9474713802337646,"59":0.29208609461784363,"60":-0.29280486702919006,"61":-0.6859052777290344,"62":-0.26021379232406616,"63":-0.17369475960731506,"64":-0.5659772157669067,"65":0.2013225555419922,"66":-0.0016732211224734783,"67":0.08628810942173004,"68":-0.2675285339355469,"69":0.26258447766304016,"70":-0.4350481629371643,"71":0.15342244505882263,"72":0.27203646302223206,"73":0.041491057723760605,"74":0.11473046243190765,"75":0.331673264503479,"76":0.13687708973884583,"77":0.20127326250076294,"78":0.04113585129380226,"79":0.06983128190040588,"80":-0.309611976146698,"81":-0.1643856316804886,"82":-0.005583092104643583,"83":-0.04323479160666466,"84":-0.2311972975730896,"85":-0.029924996197223663,"86":-0.0012554534478113055,"87":0.11888545751571655,"88":0.09587619453668594,"89":-0.10789380222558975,"90":-0.11199676990509033,"91":-0.1294633448123932,"92":0.1483246088027954,"93":0.15342654287815094,"94":-0.1435004472732544,"95":0.08481840044260025,"96":0.030847813934087753,"97":-0.09414349496364594,"98":0.07047504186630249,"99":-0.10693559050559998,"100":-0.18303745985031128,"101":5.8612565994262695}},"17":{"bias":0.3989045321941376,"weights":{"0":0.1582409143447876,"1":0.175487220287323,"2":0.12731459736824036,"3":0.015993913635611534,"4":-0.14895841479301453,"5":0.08698669075965881,"6":0.15843375027179718,"7":0.07446274906396866,"8":0.048783961683511734,"9":0.19243234395980835,"10":0.13126233220100403,"11":-0.06081359460949898,"12":0.0011529948096722364,"13":-0.029114117845892906,"14":-0.13074395060539246,"15":0.029475489631295204,"16":-0.10742680728435516,"17":-0.11671802401542664,"18":-0.003477265825495124,"19":0.10266854614019394,"20":-0.1658714860677719,"21":0.005191866774111986,"22":-0.14788605272769928,"23":-0.00558400759473443,"24":-0.1647779792547226,"25":-0.08585982024669647,"26":-0.12698371708393097,"27":-0.13534687459468842,"28":0.10233359038829803,"29":0.11244562268257141,"30":0.1195584163069725,"31":-0.1381358504295349,"32":0.04728233441710472,"33":0.14367014169692993,"34":0.19850867986679077,"35":0.19106821715831757,"36":0.16802144050598145,"37":0.16758760809898376,"38":0.09527090191841125,"39":0.06502898782491684,"40":-0.16803260147571564,"41":0.2943573296070099,"42":0.6116399168968201,"43":0.7050942778587341,"44":0.541959285736084,"45":-0.5904943943023682,"46":-1.371667504310608,"47":0.6204800605773926,"48":0.44479629397392273,"49":-2.5009610652923584,"50":-0.36098161339759827,"51":-0.5864325761795044,"52":-0.5301910638809204,"53":0.07132285088300705,"54":-0.23473212122917175,"55":0.3839435279369354,"56":0.5889591574668884,"57":0.7561312913894653,"58":0.027760447934269905,"59":-0.08326847851276398,"60":-0.5995393991470337,"61":-0.5528430342674255,"62":-0.4351458251476288,"63":-0.6038769483566284,"64":-0.582344114780426,"65":-0.5705608129501343,"66":-0.2637648582458496,"67":-0.3091512620449066,"68":-0.35488542914390564,"69":-0.30014896392822266,"70":0.04720386862754822,"71":0.06665212661027908,"72":-0.11435570567846298,"73":-0.2150939702987671,"74":-0.14007966220378876,"75":-0.2794085443019867,"76":-0.007605975028127432,"77":-0.02067420445382595,"78":-0.08702913671731949,"79":-0.12189757078886032,"80":0.025865895673632622,"81":-0.049905095249414444,"82":0.17546114325523376,"83":0.21518266201019287,"84":0.02123936638236046,"85":0.010234429500997066,"86":0.03130406141281128,"87":0.2236792892217636,"88":0.13587282598018646,"89":0.09553708136081696,"90":0.20384575426578522,"91":0.14867930114269257,"92":0.20111846923828125,"93":0.10115539282560349,"94":-0.15447454154491425,"95":-0.1586531102657318,"96":0.19175536930561066,"97":-0.0365687720477581,"98":0.13511352241039276,"99":-0.010031978599727154,"100":-0.5963563323020935,"101":-0.6946475505828857}},"18":{"bias":0.24206198751926422,"weights":{"0":0.06826967000961304,"1":0.021391944959759712,"2":-0.09790370613336563,"3":-0.19422951340675354,"4":-0.1908964067697525,"5":0.13086113333702087,"6":0.12935777008533478,"7":0.08517736196517944,"8":-0.011885875836014748,"9":0.1862393468618393,"10":-0.11734353750944138,"11":-0.004599249456077814,"12":0.10918743908405304,"13":0.059763915836811066,"14":-0.18537643551826477,"15":0.10870888084173203,"16":-0.06924344599246979,"17":0.10702063143253326,"18":-0.01997857540845871,"19":0.14465118944644928,"20":-0.19235917925834656,"21":-0.1379481852054596,"22":-0.19265097379684448,"23":0.09331563115119934,"24":-0.03774720057845116,"25":0.04058610275387764,"26":-0.14253941178321838,"27":0.14480043947696686,"28":-0.15594683587551117,"29":-0.09712191671133041,"30":0.13451436161994934,"31":-0.008924445137381554,"32":0.1457887887954712,"33":0.13915026187896729,"34":-0.18478955328464508,"35":-0.06437594443559647,"36":0.14390189945697784,"37":0.013311445713043213,"38":-0.06031811237335205,"39":-1.330165982246399,"40":-0.1517564207315445,"41":-3.3678550720214844,"42":-1.9089810848236084,"43":-0.13550245761871338,"44":0.14109593629837036,"45":1.5564990043640137,"46":-1.8257219791412354,"47":-0.9438020586967468,"48":1.6963276863098145,"49":2.648533344268799,"50":0.2885703444480896,"51":-1.2192667722702026,"52":-0.2569294571876526,"53":0.38135725259780884,"54":-1.4455740451812744,"55":1.174222469329834,"56":-0.6261405348777771,"57":1.3907887935638428,"58":-0.14612628519535065,"59":0.16342954337596893,"60":-0.31088128685951233,"61":-0.6106746196746826,"62":-0.012681739404797554,"63":1.1019084453582764,"64":0.15646596252918243,"65":-0.085623599588871,"66":0.1280340701341629,"67":-0.847449004650116,"68":0.4555884897708893,"69":-0.9525396823883057,"70":0.15422049164772034,"71":0.1409914642572403,"72":-0.10978508740663528,"73":0.018429763615131378,"74":-0.22664493322372437,"75":-0.1279621124267578,"76":-0.0658373162150383,"77":-0.22211027145385742,"78":0.007045701611787081,"79":-0.16862113773822784,"80":0.06606949865818024,"81":-0.09978678822517395,"82":-0.220017671585083,"83":-0.15130650997161865,"84":0.036641642451286316,"85":0.10936637967824936,"86":-0.22329357266426086,"87":0.11522874981164932,"88":-0.1294589340686798,"89":0.022789865732192993,"90":-0.02376392111182213,"91":0.12109162658452988,"92":0.14233393967151642,"93":-0.18918320536613464,"94":-0.09891171008348465,"95":-0.0961848720908165,"96":-0.12859898805618286,"97":-0.16085435450077057,"98":-0.09441854059696198,"99":-0.10664337873458862,"100":4.136868000030518,"101":-2.5760715007781982}},"19":{"bias":-0.5202112197875977,"weights":{"0":0.11359836906194687,"1":0.047097641974687576,"2":0.10995657742023468,"3":0.030326738953590393,"4":0.191098153591156,"5":-0.07913298159837723,"6":-0.12159764766693115,"7":-0.0122016416862607,"8":-0.058284468948841095,"9":-0.1220918595790863,"10":-0.1530335247516632,"11":-0.1460205465555191,"12":0.19508050382137299,"13":0.10045157372951508,"14":-0.08422315120697021,"15":-0.04323748126626015,"16":0.14407898485660553,"17":-0.0015025720931589603,"18":0.09820853173732758,"19":-0.09482519328594208,"20":0.006200193893164396,"21":-0.004753793124109507,"22":-0.019421933218836784,"23":-0.04702217876911163,"24":0.07434262335300446,"25":0.19519835710525513,"26":0.13673046231269836,"27":0.050524596124887466,"28":-0.12762339413166046,"29":0.32491108775138855,"30":0.12049456685781479,"31":0.04773900657892227,"32":-0.13966558873653412,"33":-0.051130250096321106,"34":-0.01724090240895748,"35":0.19377154111862183,"36":-0.11108814924955368,"37":0.174778014421463,"38":0.18096131086349487,"39":3.1260812282562256,"40":-0.15016736090183258,"41":1.7587659358978271,"42":-0.9397023916244507,"43":-0.11774002015590668,"44":-0.18259963393211365,"45":1.501507043838501,"46":3.0409786701202393,"47":-0.7643491625785828,"48":-2.787501096725464,"49":2.7452168464660645,"50":-1.8497785329818726,"51":-0.8885018825531006,"52":-1.0293327569961548,"53":0.5196560025215149,"54":2.161550998687744,"55":-1.7591041326522827,"56":1.1102409362792969,"57":-1.2366890907287598,"58":-0.6231721043586731,"59":-1.4549611806869507,"60":0.5101098418235779,"61":0.8379011154174805,"62":-0.41066864132881165,"63":-1.2783936262130737,"64":-0.3421519696712494,"65":0.5047754645347595,"66":-0.11954011023044586,"67":1.3432807922363281,"68":-0.5340182185173035,"69":1.3626984357833862,"70":-0.45157480239868164,"71":-0.16513217985630035,"72":0.09408982843160629,"73":0.19255037605762482,"74":-0.14518573880195618,"75":0.2481536567211151,"76":0.26672282814979553,"77":0.1794273406267166,"78":-0.03376178443431854,"79":-0.050196003168821335,"80":-0.10155639052391052,"81":0.02610589563846588,"82":0.10125892609357834,"83":-0.1156734824180603,"84":-0.07303468137979507,"85":-0.12988270819187164,"86":-0.10819708555936813,"87":0.045191843062639236,"88":0.17470316588878632,"89":0.004258106462657452,"90":0.21268579363822937,"91":-0.12960326671600342,"92":-0.1604614406824112,"93":0.17800463736057281,"94":-0.018289508298039436,"95":0.12168204039335251,"96":0.01579936593770981,"97":0.060905274003744125,"98":0.04969785362482071,"99":0.054992467164993286,"100":-3.837632417678833,"101":3.757056713104248}},"20":{"bias":-0.4805925786495209,"weights":{"0":-0.016840780153870583,"1":0.05446954444050789,"2":0.0813329890370369,"3":0.06276515871286392,"4":-0.1739656925201416,"5":0.15360118448734283,"6":0.09893790632486343,"7":-0.0019187383586540818,"8":-0.16645021736621857,"9":0.11974509805440903,"10":-0.15096813440322876,"11":0.018782014027237892,"12":-0.09939170628786087,"13":0.1385302096605301,"14":-0.058015309274196625,"15":-0.10712186247110367,"16":-0.11546328663825989,"17":-0.09136933088302612,"18":0.12302277982234955,"19":-0.03219600394368172,"20":0.002471501473337412,"21":0.0864534080028534,"22":-0.02155379019677639,"23":0.17098675668239594,"24":0.09682093560695648,"25":-0.1534789353609085,"26":-0.15136709809303284,"27":0.14803561568260193,"28":-0.12885518372058868,"29":0.11763212084770203,"30":0.07374244928359985,"31":0.06577122956514359,"32":0.08359058946371078,"33":-0.03343222290277481,"34":-0.1473054438829422,"35":-0.13310979306697845,"36":0.12558917701244354,"37":0.20603500306606293,"38":-0.07996180653572083,"39":0.5168136954307556,"40":0.1950988918542862,"41":0.41562986373901367,"42":-0.10302369296550751,"43":0.016286630183458328,"44":-0.44812944531440735,"45":-0.19260844588279724,"46":2.332319736480713,"47":-0.42128199338912964,"48":-1.3546231985092163,"49":-0.4925801753997803,"50":0.09629401564598083,"51":-0.2049437165260315,"52":0.38771286606788635,"53":0.1030249372124672,"54":0.4517410099506378,"55":-0.4043627083301544,"56":0.20621083676815033,"57":0.09345535933971405,"58":0.2207278460264206,"59":0.10243678092956543,"60":-0.03911523520946503,"61":0.34271547198295593,"62":0.08674365282058716,"63":-0.39876657724380493,"64":-0.2136189192533493,"65":0.04919371381402016,"66":-0.11341632902622223,"67":0.11719886213541031,"68":0.018589287996292114,"69":0.28170642256736755,"70":-0.04806995764374733,"71":-0.10753899067640305,"72":0.15107086300849915,"73":0.003115579253062606,"74":0.10304264724254608,"75":0.1509513109922409,"76":-0.049011774361133575,"77":-0.03778480738401413,"78":0.028051625937223434,"79":0.14183224737644196,"80":0.05321229621767998,"81":0.20624826848506927,"82":0.07815645635128021,"83":0.1143220067024231,"84":0.07063860446214676,"85":0.038138993084430695,"86":0.13817442953586578,"87":-0.05287729576230049,"88":0.11244811117649078,"89":0.03921806812286377,"90":0.1584114134311676,"91":-0.026459315791726112,"92":-0.10197512805461884,"93":-0.0942358747124672,"94":0.07814720273017883,"95":-0.029105953872203827,"96":0.058903299272060394,"97":0.007265336811542511,"98":0.07542582601308823,"99":0.08454229682683945,"100":-1.1337000131607056,"101":-0.09251391887664795}},"21":{"bias":0.36530330777168274,"weights":{"0":0.13916338980197906,"1":0.14291122555732727,"2":0.13729976117610931,"3":0.16686591506004333,"4":0.104090616106987,"5":0.035243116319179535,"6":-0.18334820866584778,"7":-0.18098776042461395,"8":-0.15919646620750427,"9":0.030913615599274635,"10":-0.13147227466106415,"11":0.002439271192997694,"12":-0.10186683386564255,"13":0.11393839865922928,"14":-0.01115696132183075,"15":0.16157256066799164,"16":-0.10936696082353592,"17":0.09800039976835251,"18":0.17066523432731628,"19":0.08568062633275986,"20":-0.0475490465760231,"21":-0.1555231213569641,"22":0.10975202172994614,"23":-0.12788228690624237,"24":0.0495494119822979,"25":0.06263528019189835,"26":-0.1582835614681244,"27":0.15135131776332855,"28":-0.10823933035135269,"29":-0.12921421229839325,"30":0.14438804984092712,"31":0.013911646790802479,"32":-0.0015905301552265882,"33":0.11646195501089096,"34":-0.11194593459367752,"35":-0.11863762140274048,"36":-0.19991512596607208,"37":0.025346096605062485,"38":0.0116804214194417,"39":0.024338729679584503,"40":0.17387382686138153,"41":-0.4628831446170807,"42":0.18052631616592407,"43":0.27785372734069824,"44":0.15087853372097015,"45":-0.9266074299812317,"46":0.6783649921417236,"47":0.06080983579158783,"48":-0.3510550260543823,"49":0.19312909245491028,"50":0.7839328646659851,"51":-0.2115294188261032,"52":0.021297909319400787,"53":-0.19934387505054474,"54":0.37247857451438904,"55":-0.5000669360160828,"56":-0.15151259303092957,"57":0.13299760222434998,"58":0.8384193181991577,"59":-0.09732915461063385,"60":-0.02713385783135891,"61":0.08332375437021255,"62":0.1044679582118988,"63":0.25191405415534973,"64":0.4312133193016052,"65":0.1681642085313797,"66":-0.12037532776594162,"67":-0.11620034277439117,"68":0.06283797323703766,"69":-0.17395365238189697,"70":0.11264568567276001,"71":-0.09725955128669739,"72":0.07919692993164062,"73":-0.01031425315886736,"74":-0.18429526686668396,"75":-0.07755714654922485,"76":-0.2802911698818207,"77":-0.23896771669387817,"78":-0.06943666934967041,"79":0.10191122442483902,"80":-0.05445260927081108,"81":-0.11808616667985916,"82":-0.0053292918018996716,"83":-0.06644485145807266,"84":-0.06687679886817932,"85":0.09392010420560837,"86":-0.036692775785923004,"87":0.050300367176532745,"88":0.08412841707468033,"89":0.026477841660380363,"90":-0.10333489626646042,"91":-0.06357347965240479,"92":-0.1526341587305069,"93":0.07943175733089447,"94":-0.14915168285369873,"95":-0.09367720782756805,"96":-0.19109223783016205,"97":0.16883328557014465,"98":-0.1081898957490921,"99":0.029602963477373123,"100":0.014622264541685581,"101":-2.839466094970703}},"22":{"bias":0.5531039237976074,"weights":{"0":0.15042634308338165,"1":-0.1952393800020218,"2":-0.12624098360538483,"3":-0.05832016468048096,"4":0.10905522108078003,"5":-0.054321397095918655,"6":0.07478833943605423,"7":-0.015879319980740547,"8":-0.19143357872962952,"9":0.0009631127468310297,"10":0.06492677330970764,"11":0.08462231606245041,"12":-0.07978399842977524,"13":-0.001949524157680571,"14":0.1264067143201828,"15":0.14022572338581085,"16":0.09329675137996674,"17":-0.10370486229658127,"18":0.017507031559944153,"19":-0.1360352635383606,"20":-0.0930640771985054,"21":-0.018682140856981277,"22":-0.12996482849121094,"23":-0.14599955081939697,"24":0.1480199247598648,"25":-0.0447126105427742,"26":-0.02076755464076996,"27":-0.17111845314502716,"28":-0.08784174174070358,"29":0.09342461079359055,"30":-0.18996761739253998,"31":0.04037543758749962,"32":0.06278706341981888,"33":-0.0012199732009321451,"34":0.07866427302360535,"35":0.19782672822475433,"36":-0.11890427768230438,"37":-0.06774354726076126,"38":0.19986166059970856,"39":-0.08128343522548676,"40":0.1405089646577835,"41":0.02023771032691002,"42":-0.0009096917347051203,"43":1.6835036277770996,"44":-0.6492838859558105,"45":-0.3801804780960083,"46":-0.44975629448890686,"47":0.7409762144088745,"48":-0.04486973211169243,"49":-0.5105186700820923,"50":-0.31573304533958435,"51":-0.41211941838264465,"52":-0.3454075753688812,"53":-0.12596696615219116,"54":-0.6756536960601807,"55":0.6339260935783386,"56":0.03705672547221184,"57":0.8958731293678284,"58":-0.2817673683166504,"59":0.04023749753832817,"60":-0.1627318114042282,"61":-0.15177612006664276,"62":-0.06255348026752472,"63":0.26036834716796875,"64":0.03757992759346962,"65":0.2702987790107727,"66":0.07609130442142487,"67":0.0440329983830452,"68":-0.14086458086967468,"69":-0.2976907193660736,"70":0.1729164719581604,"71":0.30191388726234436,"72":-0.000981511315330863,"73":-0.12830038368701935,"74":0.01928524114191532,"75":0.19514603912830353,"76":-0.0519767627120018,"77":0.046569518744945526,"78":0.2470223754644394,"79":-0.06212019547820091,"80":0.025792816653847694,"81":0.23640866577625275,"82":-0.06111469492316246,"83":0.01375642605125904,"84":0.21330678462982178,"85":-0.049187615513801575,"86":0.0026275035925209522,"87":0.05038918927311897,"88":-0.027900338172912598,"89":-0.03721129894256592,"90":-0.1200653612613678,"91":0.09034941345453262,"92":-0.21129658818244934,"93":0.16449180245399475,"94":-0.1842697113752365,"95":-0.0018243301892653108,"96":-0.07936500757932663,"97":-0.05480512976646423,"98":0.12009280174970627,"99":0.15317648649215698,"100":-1.2899601459503174,"101":-2.348212242126465}},"23":{"bias":-0.218353733420372,"weights":{"0":0.1413249671459198,"1":0.19363638758659363,"2":0.09172718971967697,"3":0.060690876096487045,"4":-0.04986994341015816,"5":0.08310248702764511,"6":-0.17277966439723969,"7":0.04077998548746109,"8":0.02173466794192791,"9":-0.16904029250144958,"10":-0.07235074788331985,"11":-0.17453545331954956,"12":-0.13499633967876434,"13":-0.049758464097976685,"14":-0.16378486156463623,"15":0.06392063200473785,"16":0.025466259568929672,"17":-0.11360926181077957,"18":-0.1327807605266571,"19":-0.09436534345149994,"20":0.13339322805404663,"21":-0.037328384816646576,"22":-0.10924236476421356,"23":-0.15724165737628937,"24":-0.14392074942588806,"25":-0.034577593207359314,"26":0.12483608722686768,"27":-0.1082189753651619,"28":-0.09321653097867966,"29":0.0814080610871315,"30":0.12450770288705826,"31":-0.18598401546478271,"32":0.045924920588731766,"33":-0.04878964647650719,"34":0.04737231135368347,"35":0.08871213346719742,"36":-0.13990998268127441,"37":-0.04729079082608223,"38":0.1743137687444687,"39":1.071706771850586,"40":-0.09673576802015305,"41":0.8474629521369934,"42":0.6945093870162964,"43":-0.2647755742073059,"44":-0.16837772727012634,"45":-1.498831033706665,"46":-0.0906403660774231,"47":-0.21522408723831177,"48":-0.8039219975471497,"49":-1.9926759004592896,"50":-1.4740537405014038,"51":-0.7753573060035706,"52":-0.3014240264892578,"53":0.21891626715660095,"54":1.742868423461914,"55":-0.888099730014801,"56":0.9283995032310486,"57":-1.1487507820129395,"58":0.7115155458450317,"59":-0.8849844336509705,"60":-0.328704833984375,"61":-0.3249339461326599,"62":-0.10004556179046631,"63":-1.5214296579360962,"64":-0.5169258713722229,"65":-0.4383286237716675,"66":-0.3497040867805481,"67":0.20304249227046967,"68":-0.7626874446868896,"69":0.314762145280838,"70":-0.4247882664203644,"71":0.0722033753991127,"72":-0.028781859204173088,"73":0.14915750920772552,"74":0.09022868424654007,"75":0.22928547859191895,"76":-0.014354756101965904,"77":0.29527032375335693,"78":0.172330841422081,"79":0.22531355917453766,"80":-0.1277879774570465,"81":-0.04598746448755264,"82":-0.10645836591720581,"83":-0.024468090385198593,"84":-0.18335819244384766,"85":0.07858916372060776,"86":0.12259142100811005,"87":-0.06889434158802032,"88":0.1051321029663086,"89":0.1967317909002304,"90":0.13676007091999054,"91":0.16025370359420776,"92":0.05510414019227028,"93":-0.08525791019201279,"94":0.19824953377246857,"95":-0.13321197032928467,"96":-0.002721555298194289,"97":-0.02695208042860031,"98":-0.06960582733154297,"99":0.00016832324035931379,"100":-0.9910193681716919,"101":2.3332223892211914}},"24":{"bias":-0.3391872048377991,"weights":{"0":0.14774459600448608,"1":0.08581315726041794,"2":-0.08507918566465378,"3":0.049591463059186935,"4":0.07210209220647812,"5":0.07548177242279053,"6":0.0385516881942749,"7":0.11218804866075516,"8":0.08736591041088104,"9":0.06916055083274841,"10":0.05530012771487236,"11":0.08589337766170502,"12":-0.007704332936555147,"13":-0.04773379862308502,"14":-0.08700550347566605,"15":-0.15724453330039978,"16":0.036553896963596344,"17":-0.16983415186405182,"18":0.10689277201890945,"19":0.1198708564043045,"20":0.1654222458600998,"21":-0.0662643238902092,"22":0.009310446679592133,"23":-0.023499745875597,"24":-0.037948865443468094,"25":0.002579812426120043,"26":0.016412517055869102,"27":-0.019188381731510162,"28":0.12447868287563324,"29":-0.0008153388625942171,"30":0.003309162799268961,"31":-0.0461314432322979,"32":0.07658717036247253,"33":-0.0059453160502016544,"34":0.06466510146856308,"35":-0.14428825676441193,"36":-0.17210495471954346,"37":-0.09175713360309601,"38":-0.09540389478206635,"39":0.1743912249803543,"40":-0.1923063099384308,"41":0.9245098233222961,"42":-0.7314060926437378,"43":-0.07800991833209991,"44":-0.10959173738956451,"45":1.1681532859802246,"46":0.052233051508665085,"47":-0.1804693639278412,"48":0.15235042572021484,"49":-0.5476719737052917,"50":-1.1826422214508057,"51":-0.5951191186904907,"52":-0.0583839975297451,"53":0.024100754410028458,"54":-0.6557556390762329,"55":0.4900857210159302,"56":-0.2583625614643097,"57":-0.09920282661914825,"58":-0.6856824159622192,"59":0.33664920926094055,"60":-0.3351667821407318,"61":-0.4127143323421478,"62":-0.07667019218206406,"63":-0.2325618863105774,"64":-0.020994195714592934,"65":-0.1495037078857422,"66":0.2515130043029785,"67":0.4197639226913452,"68":0.04849608987569809,"69":0.4547837972640991,"70":-0.19466955959796906,"71":-0.20410741865634918,"72":-0.002193594118580222,"73":-0.08421057462692261,"74":-0.04892026633024216,"75":-0.04583556577563286,"76":0.12697379291057587,"77":0.28388938307762146,"78":0.18852479755878448,"79":-0.00832092110067606,"80":-0.023097144439816475,"81":-0.10291855782270432,"82":-0.08884277939796448,"83":-0.20465710759162903,"84":0.09952948242425919,"85":-0.0033460035920143127,"86":0.11975771933794022,"87":0.12919172644615173,"88":0.015644947066903114,"89":-0.015059447847306728,"90":-0.16686291992664337,"91":-0.1405307650566101,"92":0.11461997032165527,"93":-0.14967390894889832,"94":0.13160277903079987,"95":-0.15693537890911102,"96":-0.13344933092594147,"97":0.20294654369354248,"98":0.13763538002967834,"99":0.06277106702327728,"100":-0.6743797063827515,"101":3.522265672683716}},"25":{"bias":0.090969979763031,"weights":{"0":-0.0626140832901001,"1":0.09858018904924393,"2":-0.13471832871437073,"3":-0.17815840244293213,"4":0.09703462570905685,"5":0.10827381163835526,"6":-0.0703335702419281,"7":-0.06098819524049759,"8":0.12138732522726059,"9":0.09857182949781418,"10":-0.14040501415729523,"11":0.1145925223827362,"12":-0.005707284435629845,"13":-0.03186531737446785,"14":-0.07457135617733002,"15":-0.08814237266778946,"16":0.17629069089889526,"17":0.07165923714637756,"18":-0.18035615980625153,"19":-0.032272301614284515,"20":-0.13817952573299408,"21":0.00017189026402775198,"22":0.1932702213525772,"23":-0.11264804005622864,"24":0.15755273401737213,"25":-0.05090901628136635,"26":0.13676464557647705,"27":-0.009701159782707691,"28":-0.17271319031715393,"29":0.21828365325927734,"30":-0.16451044380664825,"31":0.015081614255905151,"32":-0.1633681058883667,"33":0.15906541049480438,"34":-0.1941959410905838,"35":0.09540511667728424,"36":-0.014852439053356647,"37":-0.05010247975587845,"38":-0.09290912747383118,"39":0.09033198654651642,"40":-0.1968623250722885,"41":0.2443903088569641,"42":0.31694066524505615,"43":0.5896116495132446,"44":0.23904749751091003,"45":-0.3565260171890259,"46":-0.7508738040924072,"47":0.32849469780921936,"48":0.1243077889084816,"49":-1.4235624074935913,"50":-0.2999628782272339,"51":-0.2569653391838074,"52":0.1503729522228241,"53":0.2126893848180771,"54":-0.2049935907125473,"55":-0.08016832172870636,"56":0.011248324066400528,"57":0.08508485555648804,"58":0.2634372413158417,"59":0.06570381671190262,"60":-0.27085810899734497,"61":-0.24488751590251923,"62":-0.35230088233947754,"63":-0.2330855131149292,"64":-0.48417678475379944,"65":-0.37428122758865356,"66":-0.3447743356227875,"67":-0.2141481190919876,"68":-0.4550267457962036,"69":-0.2449040710926056,"70":-0.14941036701202393,"71":0.07252039760351181,"72":-0.06307929754257202,"73":-0.25131794810295105,"74":-0.009225590154528618,"75":0.014926979318261147,"76":0.06325473636388779,"77":-0.3314926028251648,"78":-0.06130629777908325,"79":0.03268725797533989,"80":-0.13648973405361176,"81":-0.04180718958377838,"82":0.21301794052124023,"83":-0.07759860157966614,"84":0.09755489975214005,"85":0.022291239351034164,"86":0.22804443538188934,"87":0.039656009525060654,"88":-0.08876438438892365,"89":-0.02942357026040554,"90":0.04589615389704704,"91":0.1424441784620285,"92":0.04528074339032173,"93":0.03167543560266495,"94":-0.19539904594421387,"95":-0.09244471788406372,"96":0.09099478274583817,"97":0.05513766035437584,"98":-0.05948245897889137,"99":-0.03469017520546913,"100":-0.47315502166748047,"101":-0.8508170247077942}},"26":{"bias":-0.10980518907308578,"weights":{"0":0.1755787879228592,"1":-0.18659530580043793,"2":-0.01774565875530243,"3":-0.07950486242771149,"4":0.02981012687087059,"5":0.1044798418879509,"6":0.07905801385641098,"7":-0.08128918707370758,"8":-0.05457388609647751,"9":0.046177033334970474,"10":0.02831379510462284,"11":0.19293269515037537,"12":-0.03657641261816025,"13":-0.06243659183382988,"14":-0.07320006191730499,"15":-0.16400279104709625,"16":0.1734316200017929,"17":0.07505632936954498,"18":0.1345130205154419,"19":0.08783530443906784,"20":-0.03132767602801323,"21":-0.13813772797584534,"22":0.03105100989341736,"23":0.11735384166240692,"24":0.04206923395395279,"25":0.02950991503894329,"26":-0.19173932075500488,"27":-0.05380707606673241,"28":-0.17986200749874115,"29":0.013783318921923637,"30":-0.09443455934524536,"31":-0.16525883972644806,"32":0.1868024617433548,"33":-0.05839134380221367,"34":-0.07288269698619843,"35":-0.15676149725914001,"36":0.010911836288869381,"37":0.10866589844226837,"38":0.04881805181503296,"39":-0.26737233996391296,"40":-0.0905488133430481,"41":-0.2831107974052429,"42":-0.1790817826986313,"43":-0.028626680374145508,"44":0.5832259654998779,"45":-0.6874109506607056,"46":0.6097081899642944,"47":-0.0646476000547409,"48":-0.3774987757205963,"49":-0.008076016791164875,"50":0.4634472131729126,"51":-0.1563340425491333,"52":0.11183874309062958,"53":0.10514924675226212,"54":1.0400803089141846,"55":-0.8900735378265381,"56":-0.26030054688453674,"57":-0.2964547872543335,"58":0.8735172748565674,"59":-0.4123796224594116,"60":0.48166123032569885,"61":0.48214128613471985,"62":0.0897781178355217,"63":0.18972916901111603,"64":0.2341989129781723,"65":0.23432502150535583,"66":-0.05058233439922333,"67":-0.3019713759422302,"68":0.32725703716278076,"69":-0.3540191650390625,"70":-0.1215875968337059,"71":0.09817317873239517,"72":-0.25202226638793945,"73":-0.21441422402858734,"74":-0.013086921535432339,"75":-0.2630685865879059,"76":0.08863207697868347,"77":-0.016514798626303673,"78":-0.28462207317352295,"79":-0.01515138242393732,"80":-0.09076128154993057,"81":-0.0028587658889591694,"82":0.050341252237558365,"83":0.022817235440015793,"84":-0.19966448843479156,"85":0.0019503348739817739,"86":0.08720342814922333,"87":0.1073346808552742,"88":-0.13859933614730835,"89":0.13417986035346985,"90":-0.03146705776453018,"91":-0.08024612814188004,"92":0.10553106665611267,"93":-0.12665602564811707,"94":-0.007891668006777763,"95":0.0197629202157259,"96":-0.1984490156173706,"97":-0.09363396465778351,"98":0.021004533395171165,"99":-0.15384820103645325,"100":0.22381995618343353,"101":-2.8786065578460693}},"27":{"bias":-0.04936724156141281,"weights":{"0":0.08958468586206436,"1":0.12782403826713562,"2":-0.05873392894864082,"3":0.07109203934669495,"4":0.08396516740322113,"5":-0.03599851578474045,"6":-0.09694372862577438,"7":0.0419665202498436,"8":0.003521411446854472,"9":-0.05913051217794418,"10":0.05919969081878662,"11":0.1794898509979248,"12":0.11578939855098724,"13":0.02718261070549488,"14":-0.0917344018816948,"15":-0.04039150848984718,"16":-0.06324346363544464,"17":0.026038724929094315,"18":-0.1758093386888504,"19":0.061387453228235245,"20":0.009827765636146069,"21":-0.07081921398639679,"22":-0.030703414231538773,"23":0.002382934093475342,"24":-0.1277657151222229,"25":-0.1551666408777237,"26":0.18734396994113922,"27":0.12236624211072922,"28":0.17075671255588531,"29":-0.13515570759773254,"30":0.14883637428283691,"31":0.009952425956726074,"32":-0.03484765812754631,"33":0.08204256743192673,"34":0.01971537247300148,"35":-0.1394466757774353,"36":-0.021798379719257355,"37":-0.017549391835927963,"38":-0.1402941346168518,"39":-0.3800586462020874,"40":-0.1324208527803421,"41":-0.72673499584198,"42":0.040370211005210876,"43":-0.31715914607048035,"44":0.7123855352401733,"45":-2.132054328918457,"46":0.058354467153549194,"47":-0.24410279095172882,"48":-0.1660541594028473,"49":-0.5027211904525757,"50":0.35523101687431335,"51":-1.8799500465393066,"52":-0.6972137689590454,"53":-0.739211916923523,"54":-0.7650154232978821,"55":-0.2858999967575073,"56":-0.9250978231430054,"57":-1.3424742221832275,"58":2.5019798278808594,"59":-1.2856581211090088,"60":0.38236895203590393,"61":0.2653862237930298,"62":-0.12241915613412857,"63":1.3771367073059082,"64":0.7726855874061584,"65":0.4283049702644348,"66":0.3180808126926422,"67":-0.5302689671516418,"68":0.5923091173171997,"69":-0.5681179165840149,"70":0.348151296377182,"71":0.0471801795065403,"72":0.19026131927967072,"73":0.015217451378703117,"74":-0.031267229467630386,"75":0.05148940533399582,"76":-0.0520847849547863,"77":0.2629682719707489,"78":0.2197442650794983,"79":-0.02371174842119217,"80":-0.12474968284368515,"81":0.14470262825489044,"82":0.027941124513745308,"83":0.045001912862062454,"84":-0.000588351278565824,"85":-0.15959690511226654,"86":0.10671792179346085,"87":-0.02377532236278057,"88":0.05376986414194107,"89":0.031144440174102783,"90":-0.05322086438536644,"91":-0.04583067074418068,"92":0.1110684797167778,"93":-0.036703117191791534,"94":-0.18859048187732697,"95":-0.20121152698993683,"96":0.11681770533323288,"97":-0.005894762463867664,"98":-0.10235662013292313,"99":0.031302858144044876,"100":1.368643045425415,"101":-2.6818253993988037}},"28":{"bias":0.6250588297843933,"weights":{"0":0.18547117710113525,"1":0.12938416004180908,"2":0.18865975737571716,"3":0.0172609630972147,"4":-0.11392582207918167,"5":-0.11874520778656006,"6":0.12767867743968964,"7":0.1113227903842926,"8":-0.1402388960123062,"9":-0.05723029375076294,"10":-0.04300937056541443,"11":-0.039930470287799835,"12":-0.12333592772483826,"13":-0.03642228990793228,"14":-0.1632576733827591,"15":-0.07077931612730026,"16":0.16598919034004211,"17":0.14397422969341278,"18":-0.18926434218883514,"19":0.16059252619743347,"20":-0.01294614840298891,"21":-0.18577605485916138,"22":-0.0067714205943048,"23":-0.14026464521884918,"24":-0.09132451564073563,"25":0.0605737566947937,"26":-0.1010766550898552,"27":0.114368736743927,"28":-0.03900615870952606,"29":-0.2372148185968399,"30":0.04075250402092934,"31":0.032259419560432434,"32":0.1628870964050293,"33":0.04783324524760246,"34":-0.06790289282798767,"35":-0.07459098845720291,"36":0.19808879494667053,"37":-0.05697743222117424,"38":-0.05373939871788025,"39":-1.5048761367797852,"40":0.19692951440811157,"41":-1.864851951599121,"42":-0.5082784295082092,"43":0.07112825661897659,"44":0.1543377786874771,"45":-2.5525753498077393,"46":-0.5984167456626892,"47":0.8372513651847839,"48":1.0183711051940918,"49":0.45906901359558105,"50":2.4305384159088135,"51":1.2037920951843262,"52":-1.0697139501571655,"53":-1.1469504833221436,"54":-2.314168691635132,"55":1.1753278970718384,"56":-1.5387368202209473,"57":-0.4182019829750061,"58":0.9312050342559814,"59":0.7121968269348145,"60":0.6772354245185852,"61":0.43458282947540283,"62":0.007416795007884502,"63":1.5056788921356201,"64":0.47955772280693054,"65":0.023066572844982147,"66":0.1819344013929367,"67":-1.2253285646438599,"68":0.6874262094497681,"69":-1.391923427581787,"70":0.19594009220600128,"71":-0.11996375024318695,"72":-0.06427063792943954,"73":-0.30199554562568665,"74":-0.15314467251300812,"75":-0.10180824249982834,"76":-0.1330859363079071,"77":-0.1198146715760231,"78":0.05440999194979668,"79":-0.2652760148048401,"80":0.22388403117656708,"81":-0.0607476569712162,"82":-0.04824458435177803,"83":-0.08812092989683151,"84":0.13368184864521027,"85":0.23805096745491028,"86":-0.006116188131272793,"87":-0.06089285388588905,"88":-0.08854477852582932,"89":-0.13534893095493317,"90":-0.08189398795366287,"91":-0.20434725284576416,"92":-0.15557628870010376,"93":-0.16654261946678162,"94":-0.17970074713230133,"95":0.13311071693897247,"96":0.16328473389148712,"97":0.005994171369820833,"98":-0.17347820103168488,"99":0.010174148716032505,"100":3.6705639362335205,"101":-4.793625354766846}},"29":{"bias":-0.613547146320343,"weights":{"0":-0.10006073862314224,"1":0.0029446554835885763,"2":-0.17774568498134613,"3":-0.1582789570093155,"4":0.0736590251326561,"5":-0.038561590015888214,"6":0.04152461513876915,"7":-0.10261307656764984,"8":-0.07254143059253693,"9":-0.1992894411087036,"10":-0.10446255654096603,"11":0.1292741745710373,"12":-0.17914648354053497,"13":-0.0533369779586792,"14":-0.13038012385368347,"15":-0.18842022120952606,"16":-0.06739203631877899,"17":0.08701180666685104,"18":0.045569587498903275,"19":0.14064368605613708,"20":0.08355238288640976,"21":-0.09038285166025162,"22":-0.009857533499598503,"23":-0.174635112285614,"24":-0.14116361737251282,"25":0.14915575087070465,"26":-0.13962507247924805,"27":-0.08479978144168854,"28":-0.08331164717674255,"29":0.14749786257743835,"30":0.11099831014871597,"31":-0.19747623801231384,"32":-0.1910082995891571,"33":-0.18252582848072052,"34":0.06981371343135834,"35":0.06992311775684357,"36":0.050484973937273026,"37":0.11744645982980728,"38":0.13287471234798431,"39":0.012195752933621407,"40":0.01872166618704796,"41":-0.1468408852815628,"42":0.011621222831308842,"43":-0.5552219152450562,"44":0.38598403334617615,"45":-0.3323410451412201,"46":-1.5347332954406738,"47":-0.35557955503463745,"48":-0.1318444013595581,"49":-0.2701554298400879,"50":-0.4950137436389923,"51":-0.6718745827674866,"52":-0.11997891962528229,"53":-0.635766327381134,"54":0.547696590423584,"55":-1.3171792030334473,"56":-0.5504206418991089,"57":-1.1672348976135254,"58":0.7694985270500183,"59":-0.5822458267211914,"60":0.3076324164867401,"61":0.20339681208133698,"62":0.0671755000948906,"63":0.2652568817138672,"64":0.14249873161315918,"65":0.16840335726737976,"66":-0.24396273493766785,"67":-0.17759187519550323,"68":0.12420056015253067,"69":-0.07826635241508484,"70":-0.1506822407245636,"71":-0.07739241421222687,"72":-0.037853870540857315,"73":0.1575678437948227,"74":-0.017838891595602036,"75":0.22735221683979034,"76":0.2336755096912384,"77":0.1727767288684845,"78":0.22296179831027985,"79":0.20275981724262238,"80":0.08187079429626465,"81":-0.05622512102127075,"82":0.03538678213953972,"83":0.0961630716919899,"84":0.05423477664589882,"85":-0.059912826865911484,"86":-0.04842878505587578,"87":-0.053404610604047775,"88":-0.1607954502105713,"89":-0.26235431432724,"90":-0.11489894241094589,"91":0.12926232814788818,"92":0.16606691479682922,"93":-0.061141155660152435,"94":-0.1848507821559906,"95":0.06642759591341019,"96":-0.07257475703954697,"97":0.09484449028968811,"98":-0.051771268248558044,"99":-0.1651817113161087,"100":1.0171796083450317,"101":0.060221850872039795}}},{"0":{"bias":-0.5783809423446655,"weights":{"0":-0.28927502036094666,"1":0.28102508187294006,"2":-0.9101682901382446,"3":-0.04582230746746063,"4":-0.32122260332107544,"5":-0.015443626791238785,"6":-0.07147244364023209,"7":-0.48137909173965454,"8":-0.25614067912101746,"9":0.8489541411399841,"10":0.5899791121482849,"11":0.13799947500228882,"12":-2.0030367374420166,"13":0.0828724130988121,"14":0.02584576979279518,"15":0.2751888036727905,"16":0.5367935299873352,"17":0.06742362678050995,"18":-1.979684829711914,"19":1.78641676902771,"20":0.25925788283348083,"21":-0.5347840785980225,"22":-0.13213524222373962,"23":0.8947868943214417,"24":0.2493901550769806,"25":-0.03677903115749359,"26":-0.4573386013507843,"27":-1.0036298036575317,"28":-1.2906111478805542,"29":0.15235251188278198}},"1":{"bias":-0.16749170422554016,"weights":{"0":-0.800771951675415,"1":0.26073217391967773,"2":-0.03699469938874245,"3":-0.23033031821250916,"4":0.17242835462093353,"5":-0.44442808628082275,"6":-0.11863940954208374,"7":-0.1769803762435913,"8":0.1713486611843109,"9":0.20450769364833832,"10":0.055814340710639954,"11":-0.579727292060852,"12":-0.06364712119102478,"13":-0.09637955576181412,"14":0.01312827318906784,"15":-0.009770618751645088,"16":-0.15720079839229584,"17":0.11200598627328873,"18":-0.33989518880844116,"19":-0.1734214872121811,"20":-0.026736954227089882,"21":-0.28079700469970703,"22":-0.017499450594186783,"23":-0.05172460898756981,"24":-0.010694111697375774,"25":0.0027952794916927814,"26":-0.12016331404447556,"27":-0.2114674299955368,"28":-0.22247281670570374,"29":-0.21631936728954315}},"2":{"bias":-0.8157739043235779,"weights":{"0":0.062133610248565674,"1":0.024575339630246162,"2":-0.45389848947525024,"3":0.5025275945663452,"4":-0.5396996736526489,"5":0.02856636978685856,"6":-0.3539083003997803,"7":-0.5724487900733948,"8":-0.47053736448287964,"9":-0.12772874534130096,"10":0.04513977840542793,"11":-0.1500718891620636,"12":-1.346428632736206,"13":-0.4615119695663452,"14":0.49529188871383667,"15":-0.17980583012104034,"16":1.3350683450698853,"17":-0.17043957114219666,"18":-0.4304167330265045,"19":-0.027761517092585564,"20":-0.3437912166118622,"21":-0.7931436896324158,"22":-0.5029030442237854,"23":0.20488359034061432,"24":0.7117813229560852,"25":-0.14838746190071106,"26":-0.9549083113670349,"27":-0.8196617960929871,"28":-1.0229015350341797,"29":-0.06071630120277405}},"3":{"bias":-0.5945513248443604,"weights":{"0":-0.16171778738498688,"1":-0.1642206311225891,"2":-1.0030268430709839,"3":-0.2513072192668915,"4":-0.5397703647613525,"5":0.46645447611808777,"6":-0.6000048518180847,"7":-0.3881276547908783,"8":-0.7240898013114929,"9":1.0135318040847778,"10":0.8044345378875732,"11":0.11159929633140564,"12":-3.360877752304077,"13":0.6672731041908264,"14":0.2429383099079132,"15":0.45430058240890503,"16":0.9060875177383423,"17":-0.23016983270645142,"18":-2.9038655757904053,"19":3.092461347579956,"20":0.5252304673194885,"21":-0.33612531423568726,"22":-0.362465500831604,"23":1.3611763715744019,"24":0.17664572596549988,"25":0.06335315108299255,"26":-0.47907590866088867,"27":-1.033053994178772,"28":-2.0144152641296387,"29":0.3885311484336853}},"4":{"bias":-0.5905106663703918,"weights":{"0":0.4355447590351105,"1":-0.18800273537635803,"2":0.060129303485155106,"3":0.3021220266819,"4":-0.9002261161804199,"5":-0.1368587613105774,"6":-0.218906432390213,"7":-0.6552225947380066,"8":-0.7602323889732361,"9":-1.9493341445922852,"10":-0.6382119059562683,"11":-0.35044342279434204,"12":-1.1159214973449707,"13":-0.5481235980987549,"14":-0.254102498292923,"15":-0.3271413743495941,"16":1.2052239179611206,"17":-0.7327348589897156,"18":0.4462834596633911,"19":-0.9346057176589966,"20":-0.31281495094299316,"21":-0.9057427048683167,"22":-0.28641724586486816,"23":-0.6946613192558289,"24":0.23071376979351044,"25":-0.07417871057987213,"26":-0.7423092722892761,"27":0.7379414439201355,"28":0.13346609473228455,"29":0.3632974922657013}},"5":{"bias":-0.5591566562652588,"weights":{"0":-0.06358924508094788,"1":0.36311227083206177,"2":-0.6916753649711609,"3":-0.2061854749917984,"4":-0.7760344743728638,"5":0.2539523243904114,"6":0.033486999571323395,"7":-0.6877243518829346,"8":-0.8048030734062195,"9":1.3069308996200562,"10":0.9452050924301147,"11":0.014993240125477314,"12":-3.641160011291504,"13":0.5535805225372314,"14":0.25560417771339417,"15":0.30650144815444946,"16":0.8886081576347351,"17":0.3828749358654022,"18":-2.5030107498168945,"19":2.8692872524261475,"20":0.5239056348800659,"21":-0.3562976121902466,"22":-0.6315167546272278,"23":1.358829379081726,"24":0.307298868894577,"25":0.2220049351453781,"26":-0.2195369154214859,"27":-1.0188599824905396,"28":-1.9238572120666504,"29":0.2000543177127838}},"6":{"bias":-0.4338187575340271,"weights":{"0":-0.5591280460357666,"1":-0.06318560987710953,"2":-0.0644555389881134,"3":-0.2652929723262787,"4":-0.08855153620243073,"5":-0.18683433532714844,"6":-0.22999517619609833,"7":-0.17545484006404877,"8":-0.2092919945716858,"9":-0.1927049458026886,"10":-0.08274910598993301,"11":-0.1962171196937561,"12":-0.09091773629188538,"13":-0.1464846134185791,"14":-0.1217304915189743,"15":-0.1786397397518158,"16":-0.23980465531349182,"17":-0.280061811208725,"18":-0.3660482168197632,"19":-0.35839012265205383,"20":-0.1450708955526352,"21":-0.3482731580734253,"22":0.03174910694360733,"23":-0.12292692810297012,"24":-0.3636540174484253,"25":0.030127551406621933,"26":-0.2520703673362732,"27":-0.20672424137592316,"28":-0.27464768290519714,"29":-0.29618653655052185}},"7":{"bias":-0.589712381362915,"weights":{"0":-0.08816645294427872,"1":0.23808813095092773,"2":-0.3975456953048706,"3":0.6157726049423218,"4":-0.470009982585907,"5":-0.006332111079245806,"6":-0.12887990474700928,"7":-0.780184805393219,"8":-0.5828039646148682,"9":0.4203440546989441,"10":0.13253001868724823,"11":0.1740514189004898,"12":-1.0807256698608398,"13":-0.8637021780014038,"14":1.146419644355774,"15":-0.01749621145427227,"16":1.7101596593856812,"17":0.004042272921651602,"18":-0.7377971410751343,"19":0.4046458303928375,"20":-0.4391642212867737,"21":-1.0472253561019897,"22":-0.29296618700027466,"23":0.28456777334213257,"24":0.746415376663208,"25":-0.031288404017686844,"26":-0.9131420254707336,"27":-1.6460446119308472,"28":-1.418841004371643,"29":-0.6598862409591675}},"8":{"bias":-0.7790045738220215,"weights":{"0":-0.29559463262557983,"1":-0.02379569597542286,"2":-0.9063462615013123,"3":-0.06110774725675583,"4":-0.48171839118003845,"5":0.059396784752607346,"6":-0.15385819971561432,"7":-0.4995384216308594,"8":-0.47003573179244995,"9":0.7428354024887085,"10":0.6484161615371704,"11":0.03562147542834282,"12":-1.9200193881988525,"13":0.38065317273139954,"14":-0.04051736369729042,"15":0.022846177220344543,"16":0.8600437641143799,"17":-0.05043007805943489,"18":-2.1114745140075684,"19":2.062478542327881,"20":0.3743717074394226,"21":-0.5068661570549011,"22":-0.4669685661792755,"23":0.9848294258117676,"24":0.31769412755966187,"25":-0.2903304994106293,"26":-0.35222694277763367,"27":-0.9734172821044922,"28":-1.4393219947814941,"29":0.05933908745646477}},"9":{"bias":-0.6206822395324707,"weights":{"0":0.148642897605896,"1":0.2368921935558319,"2":-0.7180175185203552,"3":0.20873111486434937,"4":-0.5993819832801819,"5":-0.24473384022712708,"6":-0.26470085978507996,"7":-0.7072524428367615,"8":-0.5687516927719116,"9":1.0071251392364502,"10":0.35125255584716797,"11":-0.0025157651398330927,"12":-1.3446365594863892,"13":-0.2966480553150177,"14":0.7985551953315735,"15":-0.1247439831495285,"16":1.236572027206421,"17":0.21081706881523132,"18":-0.7783907055854797,"19":0.9726301431655884,"20":-0.0943683609366417,"21":-0.44703608751296997,"22":-0.15654151141643524,"23":0.6302953958511353,"24":0.659024178981781,"25":0.057777803391218185,"26":-0.7793300151824951,"27":-1.3467527627944946,"28":-1.5408892631530762,"29":-0.2986631393432617}},"10":{"bias":-0.5655946731567383,"weights":{"0":2.8509559631347656,"1":-0.8828790783882141,"2":-2.965221405029297,"3":-0.11375714093446732,"4":-2.7124857902526855,"5":1.0266705751419067,"6":-1.9384567737579346,"7":0.12817539274692535,"8":-1.3199275732040405,"9":-1.3685624599456787,"10":-0.1787092536687851,"11":1.1607677936553955,"12":-0.3943846821784973,"13":0.3650980293750763,"14":-0.4006507098674774,"15":0.2485077977180481,"16":1.232658863067627,"17":-1.5292772054672241,"18":0.1026601642370224,"19":-0.11307182163000107,"20":0.45360636711120605,"21":0.05554370954632759,"22":-0.9520639777183533,"23":-0.0814155787229538,"24":-0.0777551457285881,"25":-0.9415644407272339,"26":0.29997768998146057,"27":0.6273144483566284,"28":-0.2073056399822235,"29":0.541107714176178}},"11":{"bias":-0.4230809807777405,"weights":{"0":-0.3164737820625305,"1":0.01865030638873577,"2":-0.480074018239975,"3":-0.04898534715175629,"4":-0.06985271722078323,"5":0.14594927430152893,"6":-0.25383085012435913,"7":-0.36874279379844666,"8":-0.23090942203998566,"9":0.5777843594551086,"10":0.3332996368408203,"11":-0.03347606584429741,"12":-1.0953236818313599,"13":-0.16385957598686218,"14":0.2972140312194824,"15":0.1727515459060669,"16":0.11190036684274673,"17":-0.03910219296813011,"18":-1.32433021068573,"19":0.5516138076782227,"20":-0.06705476343631744,"21":-0.441880464553833,"22":-0.19897252321243286,"23":0.3467482328414917,"24":-0.06691879034042358,"25":0.12342908978462219,"26":-0.4283789098262787,"27":-0.5328930020332336,"28":-0.7952926158905029,"29":-0.17512032389640808}},"12":{"bias":-0.9564720392227173,"weights":{"0":0.21569956839084625,"1":-0.3260174095630646,"2":-0.2689247727394104,"3":0.18619300425052643,"4":-0.713086724281311,"5":-0.018366940319538116,"6":-0.28919658064842224,"7":-0.7822951674461365,"8":-0.5834120512008667,"9":-0.822490394115448,"10":-0.3856184482574463,"11":-0.4436675012111664,"12":-0.7094894051551819,"13":-0.3669292628765106,"14":0.2657689154148102,"15":-0.23057696223258972,"16":1.5717437267303467,"17":-0.5993144512176514,"18":-0.02200067602097988,"19":-0.7985172271728516,"20":-0.4851335883140564,"21":-0.6412031650543213,"22":-0.4326245188713074,"23":-0.557586133480072,"24":0.5400396585464478,"25":-0.09260356426239014,"26":-1.0195682048797607,"27":-0.3243570923805237,"28":-0.22342927753925323,"29":0.044938188046216965}},"13":{"bias":-0.16951292753219604,"weights":{"0":3.2079102993011475,"1":-0.3890572786331177,"2":-0.3798651695251465,"3":0.3155413866043091,"4":-2.56322979927063,"5":0.8421652317047119,"6":0.0467304103076458,"7":0.2178623378276825,"8":-1.926879644393921,"9":-1.1318598985671997,"10":-0.12216101586818695,"11":0.5339031219482422,"12":-0.6043794751167297,"13":0.3500267565250397,"14":-0.386658638715744,"15":0.024509087204933167,"16":0.9370002746582031,"17":-0.6121182441711426,"18":0.793242871761322,"19":-0.01608862169086933,"20":0.1668255478143692,"21":0.1880718320608139,"22":-0.9177074432373047,"23":-0.13604477047920227,"24":-0.0022575356997549534,"25":-0.4036141037940979,"26":0.3237203061580658,"27":-0.24712035059928894,"28":0.28899383544921875,"29":0.6118536591529846}},"14":{"bias":-0.9002189636230469,"weights":{"0":0.1890929937362671,"1":-0.28964629769325256,"2":-0.34444254636764526,"3":0.29906898736953735,"4":-0.8547946214675903,"5":-0.03543367609381676,"6":-0.3558720350265503,"7":-0.6500389575958252,"8":-0.7367336750030518,"9":-1.2885479927062988,"10":-0.4919666051864624,"11":-0.4608033001422882,"12":-1.0666157007217407,"13":-0.6349273324012756,"14":0.12782703340053558,"15":-0.2833384573459625,"16":1.4350734949111938,"17":-0.2975383996963501,"18":0.29058563709259033,"19":-1.0485343933105469,"20":-0.2631716728210449,"21":-0.7285422086715698,"22":-0.4231766164302826,"23":-0.518666684627533,"24":0.415079265832901,"25":-0.42430803179740906,"26":-1.0435948371887207,"27":-0.06683670729398727,"28":-0.11841514706611633,"29":-0.0375014953315258}},"15":{"bias":-0.7098975777626038,"weights":{"0":0.2573518455028534,"1":0.12285497039556503,"2":-0.8467857837677002,"3":0.5157002806663513,"4":-0.7737718224525452,"5":0.2160053253173828,"6":-0.41817840933799744,"7":-0.9222372174263,"8":-0.6290680170059204,"9":0.2751857340335846,"10":0.48238205909729004,"11":0.3348514437675476,"12":-0.8908089995384216,"13":-0.4850110709667206,"14":0.8613229990005493,"15":-0.04475286230444908,"16":2.2636234760284424,"17":0.0015786526491865516,"18":-0.7311901450157166,"19":0.45962420105934143,"20":-0.2741580307483673,"21":-0.6614623069763184,"22":-0.19967618584632874,"23":0.13028739392757416,"24":1.3805086612701416,"25":-0.04439786821603775,"26":-0.8957890868186951,"27":-0.9270914196968079,"28":-0.7471641302108765,"29":0.06487714499235153}},"16":{"bias":-0.6644261479377747,"weights":{"0":1.9074280261993408,"1":-0.4991821050643921,"2":-1.3592495918273926,"3":0.0024718553759157658,"4":-2.0482378005981445,"5":2.3257861137390137,"6":-1.5265817642211914,"7":-1.0745389461517334,"8":-1.5834951400756836,"9":-0.43627482652664185,"10":-0.18392659723758698,"11":3.1012520790100098,"12":-0.616986095905304,"13":-0.8134976625442505,"14":-0.7727000713348389,"15":0.38252729177474976,"16":1.2048721313476562,"17":-1.4950826168060303,"18":2.0072154998779297,"19":-1.8661279678344727,"20":-2.3452398777008057,"21":-1.0939229726791382,"22":-0.743849515914917,"23":0.0561104454100132,"24":-0.08440887182950974,"25":-0.8384900689125061,"26":-0.602066159248352,"27":0.34441614151000977,"28":-0.5994399189949036,"29":2.2483272552490234}},"17":{"bias":-0.4818357527256012,"weights":{"0":-0.7133514285087585,"1":0.21711622178554535,"2":-0.3484521210193634,"3":-0.15808726847171783,"4":0.11955747753381729,"5":-0.14560601115226746,"6":0.29121801257133484,"7":-0.3759920001029968,"8":0.19523952901363373,"9":0.7112883925437927,"10":0.358540803194046,"11":-0.20220299065113068,"12":-0.8458303809165955,"13":0.09956952184438705,"14":0.2366471290588379,"15":0.16435196995735168,"16":-0.029923701658844948,"17":0.2509736120700836,"18":-1.532627820968628,"19":0.9283741116523743,"20":0.16444039344787598,"21":-0.0021267763804644346,"22":0.04395555332303047,"23":0.6237013936042786,"24":0.03547218441963196,"25":0.20159320533275604,"26":-0.35147199034690857,"27":-0.7493565082550049,"28":-0.738663911819458,"29":-0.08152476698160172}},"18":{"bias":-0.0374043807387352,"weights":{"0":-0.8696237802505493,"1":-0.19731591641902924,"2":-0.12760651111602783,"3":-0.22935590147972107,"4":0.2952156662940979,"5":-0.41424915194511414,"6":-0.32113081216812134,"7":-0.020506538450717926,"8":0.057294201105833054,"9":-0.006092436611652374,"10":-0.25162193179130554,"11":-0.4067530930042267,"12":0.06925593316555023,"13":-0.21948933601379395,"14":0.00135910848621279,"15":-0.20526118576526642,"16":-0.4743349850177765,"17":-0.036768026649951935,"18":-0.4297316074371338,"19":0.17642022669315338,"20":0.09003070741891861,"21":-0.31381452083587646,"22":-0.009828328154981136,"23":-0.008409052155911922,"24":-0.3342311382293701,"25":-0.21370930969715118,"26":-0.06622223556041718,"27":-0.23275773227214813,"28":-0.17066621780395508,"29":-0.5145508646965027}},"19":{"bias":-0.9957560300827026,"weights":{"0":0.2657381594181061,"1":-0.3568333685398102,"2":-0.2016034573316574,"3":0.45816928148269653,"4":-0.8055927753448486,"5":-0.02399490587413311,"6":-0.4717285633087158,"7":-0.6856421232223511,"8":-0.7171115875244141,"9":-1.494212031364441,"10":-0.3058319389820099,"11":-0.26363223791122437,"12":-0.9645049571990967,"13":-0.49717414379119873,"14":-0.22761374711990356,"15":-0.2908079922199249,"16":1.5123616456985474,"17":-0.442667692899704,"18":0.3163571059703827,"19":-1.059696912765503,"20":-0.25969699025154114,"21":-0.8168412446975708,"22":-0.4628496468067169,"23":-0.6962035894393921,"24":0.36354172229766846,"25":-0.3527509868144989,"26":-0.7435213923454285,"27":0.250618577003479,"28":-0.017522215843200684,"29":0.05901426449418068}},"20":{"bias":-0.31823810935020447,"weights":{"0":0.8227717280387878,"1":0.07672126591205597,"2":-0.6092697978019714,"3":0.8775328397750854,"4":-1.068757176399231,"5":0.2908237874507904,"6":-0.1502036303281784,"7":-0.8856796622276306,"8":-0.7832818627357483,"9":0.22170528769493103,"10":0.10082393884658813,"11":0.05572822317481041,"12":-1.1775617599487305,"13":-0.6182959079742432,"14":1.5849729776382446,"15":0.0038840805646032095,"16":4.318377494812012,"17":-0.08496759086847305,"18":0.05953403189778328,"19":0.5826319456100464,"20":-0.48695340752601624,"21":-0.85931396484375,"22":-0.636267364025116,"23":0.03787478059530258,"24":1.8944075107574463,"25":-0.27852219343185425,"26":-1.550801396369934,"27":-0.7910009026527405,"28":-0.9008011817932129,"29":-0.2801566421985626}},"21":{"bias":-0.7208127379417419,"weights":{"0":0.2794596254825592,"1":-0.27286261320114136,"2":-0.26366859674453735,"3":0.2966785728931427,"4":-0.6717418432235718,"5":0.04997628182172775,"6":-0.26723188161849976,"7":-0.5208006501197815,"8":-0.5330301523208618,"9":-0.8152180910110474,"10":-0.2970263361930847,"11":0.042314935475587845,"12":-0.9131695628166199,"13":-0.2583610415458679,"14":0.0711759626865387,"15":-0.25020620226860046,"16":1.9187203645706177,"17":-0.32972174882888794,"18":0.04450765252113342,"19":-0.9365673065185547,"20":-0.4409223198890686,"21":-0.7746902704238892,"22":-0.4213586747646332,"23":-0.3249911367893219,"24":0.5745894312858582,"25":-0.27150169014930725,"26":-1.1294574737548828,"27":-0.13941217958927155,"28":-0.26537755131721497,"29":0.013203049078583717}},"22":{"bias":-0.7027161717414856,"weights":{"0":0.14306959509849548,"1":0.37715643644332886,"2":-0.6401501893997192,"3":0.6616066098213196,"4":-0.7521984577178955,"5":-0.2776772081851959,"6":-0.0199210774153471,"7":-0.7318308353424072,"8":-0.38693368434906006,"9":1.2442388534545898,"10":0.4334922432899475,"11":0.19695398211479187,"12":-0.7952043414115906,"13":-0.9242798089981079,"14":1.4798396825790405,"15":0.10210137069225311,"16":1.881147027015686,"17":0.25627657771110535,"18":-0.887168288230896,"19":0.7994109392166138,"20":-0.21249306201934814,"21":-1.0760693550109863,"22":-0.2605810761451721,"23":0.5406874418258667,"24":0.884171724319458,"25":-0.22084274888038635,"26":-0.8995768427848816,"27":-2.1296658515930176,"28":-2.2827630043029785,"29":-0.44716665148735046}},"23":{"bias":-0.6631906628608704,"weights":{"0":0.22940710186958313,"1":-0.2731606960296631,"2":-0.038172170519828796,"3":0.22804296016693115,"4":-0.759489893913269,"5":-0.0916583389043808,"6":-0.487309068441391,"7":-0.521380603313446,"8":-0.603092610836029,"9":-1.3928866386413574,"10":-0.30326756834983826,"11":-0.1946868747472763,"12":-1.0375596284866333,"13":-0.5368450880050659,"14":0.06055111065506935,"15":-0.3008129596710205,"16":1.0447534322738647,"17":-0.28493478894233704,"18":0.051217708736658096,"19":-0.8433578014373779,"20":-0.5593886971473694,"21":-0.8464238047599792,"22":-0.30739063024520874,"23":-0.3071526885032654,"24":0.2504411041736603,"25":-0.08433481305837631,"26":-0.579596757888794,"27":0.46177542209625244,"28":0.1684202402830124,"29":-0.02952696941792965}},"24":{"bias":-0.24159109592437744,"weights":{"0":3.396615982055664,"1":-0.09065341204404831,"2":-0.19169728457927704,"3":0.08369883894920349,"4":-2.7459044456481934,"5":0.7713161706924438,"6":-0.19447475671768188,"7":0.02663041651248932,"8":-1.7295528650283813,"9":-1.0205351114273071,"10":-0.14062438905239105,"11":0.5632448792457581,"12":-0.2960124909877777,"13":0.38897377252578735,"14":-0.23901206254959106,"15":0.04050484299659729,"16":0.7144878506660461,"17":-0.5538888573646545,"18":0.9388012290000916,"19":-0.7016380429267883,"20":0.3242786228656769,"21":0.015289410948753357,"22":-0.8554544448852539,"23":-0.10795025527477264,"24":-0.05659602954983711,"25":-0.03788749501109123,"26":0.3487560749053955,"27":-0.31652241945266724,"28":0.2671475112438202,"29":0.7398452162742615}},"25":{"bias":-0.7083709836006165,"weights":{"0":0.3212135434150696,"1":-0.17869354784488678,"2":-0.1787397563457489,"3":0.21593093872070312,"4":-0.641331672668457,"5":-0.25956466794013977,"6":-0.06851508468389511,"7":-0.1224200651049614,"8":-0.5733502507209778,"9":-0.850997269153595,"10":-0.15619675815105438,"11":-0.1783362329006195,"12":-0.9713619947433472,"13":-0.3313954770565033,"14":-0.408799409866333,"15":-0.09152667224407196,"16":0.35256463289260864,"17":-0.6362888813018799,"18":0.3824285864830017,"19":-0.726717472076416,"20":-0.4190186858177185,"21":-0.7240477800369263,"22":-0.4382111430168152,"23":-0.509139358997345,"24":-0.10206679999828339,"25":-0.28665563464164734,"26":-0.554709792137146,"27":0.21067586541175842,"28":-0.08047455549240112,"29":-0.19134236872196198}},"26":{"bias":-0.796360194683075,"weights":{"0":-0.23322932422161102,"1":0.17949450016021729,"2":-0.6838981509208679,"3":-0.052112940698862076,