{"sizes":[102,30,30,30,3],"layers":[{"0":{},"1":{},"2":{},"3":{},"4":{},"5":{},"6":{},"7":{},"8":{},"9":{},"10":{},"11":{},"12":{},"13":{},"14":{},"15":{},"16":{},"17":{},"18":{},"19":{},"20":{},"21":{},"22":{},"23":{},"24":{},"25":{},"26":{},"27":{},"28":{},"29":{},"30":{},"31":{},"32":{},"33":{},"34":{},"35":{},"36":{},"37":{},"38":{},"39":{},"40":{},"41":{},"42":{},"43":{},"44":{},"45":{},"46":{},"47":{},"48":{},"49":{},"50":{},"51":{},"52":{},"53":{},"54":{},"55":{},"56":{},"57":{},"58":{},"59":{},"60":{},"61":{},"62":{},"63":{},"64":{},"65":{},"66":{},"67":{},"68":{},"69":{},"70":{},"71":{},"72":{},"73":{},"74":{},"75":{},"76":{},"77":{},"78":{},"79":{},"80":{},"81":{},"82":{},"83":{},"84":{},"85":{},"86":{},"87":{},"88":{},"89":{},"90":{},"91":{},"92":{},"93":{},"94":{},"95":{},"96":{},"97":{},"98":{},"99":{},"100":{},"101":{}},{"0":{"bias":0.027811653912067413,"weights":{"0":0.007253560237586498,"1":-0.15056683123111725,"2":0.06646238267421722,"3":-0.07608046382665634,"4":-0.007724064867943525,"5":-0.17624758183956146,"6":0.1986159086227417,"7":0.006994936615228653,"8":0.19682547450065613,"9":-0.14348243176937103,"10":-0.07384731620550156,"11":-0.18133032321929932,"12":0.01430081482976675,"13":-0.1734408587217331,"14":0.1601533144712448,"15":-0.04858829453587532,"16":-0.1926455795764923,"17":-0.05455521494150162,"18":0.0433102510869503,"19":0.08738109469413757,"20":-0.1420513093471527,"21":-0.056965649127960205,"22":-0.09286569803953171,"23":-0.18979796767234802,"24":-0.12290799617767334,"25":-0.012113222852349281,"26":0.09137506037950516,"27":-0.10899653285741806,"28":-0.012896832078695297,"29":0.18020226061344147,"30":-0.046857498586177826,"31":0.0618537999689579,"32":-0.15495344996452332,"33":0.09582112729549408,"34":0.0011384548852220178,"35":-0.12256927043199539,"36":0.11740434169769287,"37":0.012477556243538857,"38":-0.3107292950153351,"39":-0.06281166523694992,"40":0.12251336872577667,"41":0.2854059338569641,"42":-0.05418282374739647,"43":0.1298045814037323,"44":-0.12625771760940552,"45":0.0014634841354563832,"46":0.49717003107070923,"47":0.09370850771665573,"48":0.3202545642852783,"49":-0.8253838419914246,"50":0.10567351430654526,"51":0.384600967168808,"52":0.5629425048828125,"53":-0.0637790635228157,"54":-0.43571415543556213,"55":1.0159064531326294,"56":-0.031172800809144974,"57":-0.06012852489948273,"58":0.27165886759757996,"59":-0.9834097027778625,"60":0.36201852560043335,"61":0.30369576811790466,"62":0.8007305264472961,"63":0.1042381003499031,"64":0.18490032851696014,"65":-0.1454959362745285,"66":0.08806534111499786,"67":0.10642567276954651,"68":0.12310422211885452,"69":0.19535036385059357,"70":0.6179631948471069,"71":0.4792522192001343,"72":0.06536464393138885,"73":0.06940211355686188,"74":-0.14460265636444092,"75":0.04601506143808365,"76":-0.042947761714458466,"77":0.16079755127429962,"78":0.08311866968870163,"79":0.1959209144115448,"80":-0.14191216230392456,"81":-0.04044462740421295,"82":0.030663082376122475,"83":-0.042082011699676514,"84":0.08344283699989319,"85":0.12776128947734833,"86":0.10154277086257935,"87":0.01866474747657776,"88":0.038818493485450745,"89":0.015047351829707623,"90":0.029057873412966728,"91":0.0820462629199028,"92":-0.18700964748859406,"93":0.18641364574432373,"94":-0.13868841528892517,"95":-0.09293966740369797,"96":-0.0906364694237709,"97":0.1414557546377182,"98":0.12765830755233765,"99":-0.06188362091779709,"100":1.1944949626922607,"101":-2.4142062664031982}},"1":{"bias":0.4118727743625641,"weights":{"0":0.016390901058912277,"1":-0.08794596046209335,"2":0.17560821771621704,"3":-0.059539273381233215,"4":-0.037228070199489594,"5":-0.06280162930488586,"6":-0.1531631350517273,"7":-0.05801701173186302,"8":0.16828086972236633,"9":-0.0338657908141613,"10":0.045339684933423996,"11":0.15408626198768616,"12":0.06300977617502213,"13":-0.032400887459516525,"14":-0.05706493556499481,"15":0.17283181846141815,"16":0.10089313983917236,"17":-0.003566249506548047,"18":0.060143906623125076,"19":-0.038917649537324905,"20":0.03435789793729782,"21":-0.10399328172206879,"22":-0.19777418673038483,"23":-0.06744954735040665,"24":0.03608588129281998,"25":0.17449389398097992,"26":-0.011080360040068626,"27":0.1137067973613739,"28":-0.08378713577985764,"29":-0.12651531398296356,"30":-0.18118876218795776,"31":0.10366448760032654,"32":-0.07589314132928848,"33":-0.032267384231090546,"34":-0.17378057539463043,"35":0.07666262239217758,"36":0.005272585432976484,"37":-0.13485383987426758,"38":-0.34615129232406616,"39":0.0031303148716688156,"40":-0.5321053862571716,"41":-0.2453751266002655,"42":-0.3149908185005188,"43":-0.14315542578697205,"44":0.04176531732082367,"45":0.05795669928193092,"46":0.10311806946992874,"47":0.04764718934893608,"48":0.22231577336788177,"49":-0.21893270313739777,"50":0.12448970973491669,"51":0.2519083619117737,"52":0.7401731610298157,"53":0.13975116610527039,"54":-0.9431729912757874,"55":0.6552680730819702,"56":0.02661444991827011,"57":0.060535185039043427,"58":0.17495884001255035,"59":0.1985413283109665,"60":0.2857925295829773,"61":0.16599571704864502,"62":0.11197712272405624,"63":-0.10935115069150925,"64":-0.19511446356773376,"65":-0.5948455929756165,"66":-0.08107469230890274,"67":-0.01074345875531435,"68":-0.03623054921627045,"69":0.0031366131734102964,"70":0.34706515073776245,"71":0.35973671078681946,"72":-0.002797406632453203,"73":0.010909199714660645,"74":-0.19858375191688538,"75":-0.1401819884777069,"76":-0.3780502676963806,"77":-0.13060636818408966,"78":-0.08693826198577881,"79":0.14033262431621552,"80":-0.057877253741025925,"81":0.04902348667383194,"82":-0.0036478633992373943,"83":0.13017752766609192,"84":0.1220722422003746,"85":0.03919203579425812,"86":-0.0488889105618,"87":0.04561964422464371,"88":0.03686262667179108,"89":0.08043744415044785,"90":-0.056008778512477875,"91":0.08158069849014282,"92":0.12880879640579224,"93":-0.1302732229232788,"94":0.04963228479027748,"95":0.01356529351323843,"96":-0.039422351866960526,"97":0.1760222464799881,"98":0.13704554736614227,"99":-0.16561216115951538,"100":-0.790569007396698,"101":-2.2227530479431152}},"2":{"bias":-0.13358274102210999,"weights":{"0":-0.07447216659784317,"1":-0.09395432472229004,"2":-0.04916975647211075,"3":0.15301312506198883,"4":0.006461573764681816,"5":0.14147208631038666,"6":0.18820297718048096,"7":0.10593928396701813,"8":-0.19338458776474,"9":-0.12047205120325089,"10":-0.010499176569283009,"11":0.08648543059825897,"12":0.05616452172398567,"13":-0.04711763933300972,"14":0.03216349333524704,"15":0.06031300127506256,"16":-0.1558171659708023,"17":-0.12537634372711182,"18":-0.15128497779369354,"19":-0.005885062273591757,"20":-0.13362659513950348,"21":-0.0732789859175682,"22":-0.06740006804466248,"23":0.041814595460891724,"24":0.06241390109062195,"25":0.09909398853778839,"26":0.1561424732208252,"27":-0.195828378200531,"28":0.033537182956933975,"29":-0.11127383261919022,"30":-0.0818900614976883,"31":-0.14325359463691711,"32":0.19289520382881165,"33":0.18349085748195648,"34":-0.05050824582576752,"35":0.0848158448934555,"36":-0.021913308650255203,"37":0.15836243331432343,"38":0.09206382930278778,"39":0.09161052107810974,"40":-0.0796486884355545,"41":-0.20703884959220886,"42":-0.028999265283346176,"43":0.08658942580223083,"44":-0.054180119186639786,"45":0.07070036977529526,"46":-0.15822583436965942,"47":0.13408347964286804,"48":-0.03748864307999611,"49":0.004568364471197128,"50":-0.1914519965648651,"51":-0.04331287369132042,"52":-0.2868156433105469,"53":-0.08199652284383774,"54":0.2644207775592804,"55":-0.30396077036857605,"56":0.1261514276266098,"57":0.09388986229896545,"58":0.04507794976234436,"59":0.00005365133984014392,"60":-0.19897939264774323,"61":0.12200609594583511,"62":-0.10156061500310898,"63":-0.05138442665338516,"64":-0.22953087091445923,"65":-0.19294151663780212,"66":0.021492136642336845,"67":-0.0789548009634018,"68":-0.29400330781936646,"69":-0.19520820677280426,"70":0.07208561152219772,"71":-0.17370633780956268,"72":0.03663734719157219,"73":-0.014863953925669193,"74":-0.031096825376152992,"75":-0.10735597461462021,"76":0.053743693977594376,"77":-0.16885755956172943,"78":0.04655223712325096,"79":0.07660631090402603,"80":-0.10934650152921677,"81":-0.04750175029039383,"82":0.03273100405931473,"83":-0.09918636828660965,"84":0.04447135701775551,"85":-0.08397384732961655,"86":-0.028383921831846237,"87":0.17590059340000153,"88":0.1470300853252411,"89":0.02947237528860569,"90":0.14972494542598724,"91":0.03706458956003189,"92":-0.07308528572320938,"93":0.17953501641750336,"94":0.17904941737651825,"95":-0.09638859331607819,"96":-0.17995359003543854,"97":-0.06701300293207169,"98":-0.06986768543720245,"99":0.03441975265741348,"100":0.02916429005563259,"101":0.13312679529190063}},"3":{"bias":-0.054539721459150314,"weights":{"0":0.01327493041753769,"1":-0.07537084072828293,"2":0.10414057224988937,"3":-0.18350203335285187,"4":-0.15168477594852448,"5":0.053775250911712646,"6":0.1719808727502823,"7":-0.12128818035125732,"8":0.04081970453262329,"9":-0.13453009724617004,"10":-0.15838123857975006,"11":-0.05599973350763321,"12":0.18723000586032867,"13":-0.020493322983384132,"14":0.1872389018535614,"15":-0.0005565176834352314,"16":0.06900426000356674,"17":0.10051269829273224,"18":0.15240982174873352,"19":-0.18598483502864838,"20":0.1228397935628891,"21":0.11953268200159073,"22":0.17335228621959686,"23":0.13189859688282013,"24":0.18706850707530975,"25":0.029840931296348572,"26":0.18808740377426147,"27":0.09391040354967117,"28":-0.12032899260520935,"29":0.02963109500706196,"30":-0.1827142834663391,"31":-0.1973954439163208,"32":0.12637433409690857,"33":0.12451763451099396,"34":0.01933605968952179,"35":0.16818049550056458,"36":-0.05657161399722099,"37":0.060946669429540634,"38":0.11109759658575058,"39":0.003638260765001178,"40":-0.0990755558013916,"41":0.031698018312454224,"42":0.10251906514167786,"43":0.11159928888082504,"44":-0.18671636283397675,"45":-0.1369108259677887,"46":-0.06458962708711624,"47":0.042988747358322144,"48":-0.25047677755355835,"49":0.01126764714717865,"50":-0.10661399364471436,"51":-0.03274106606841087,"52":-0.2608419358730316,"53":-0.08113986253738403,"54":-0.1411304771900177,"55":0.039699818938970566,"56":0.11847482621669769,"57":0.08481291681528091,"58":-0.24407991766929626,"59":0.35227516293525696,"60":0.13315264880657196,"61":0.1713877022266388,"62":-0.1633259803056717,"63":-0.046404048800468445,"64":-0.3607538938522339,"65":-0.012120513245463371,"66":-0.20172584056854248,"67":-0.0430627278983593,"68":0.08728323131799698,"69":-0.16617517173290253,"70":-0.09049047529697418,"71":-0.05292296037077904,"72":-0.024836935102939606,"73":0.11049394309520721,"74":0.13090655207633972,"75":0.19777527451515198,"76":-0.11515577137470245,"77":-0.09571600705385208,"78":0.09147067368030548,"79":0.27305418252944946,"80":0.0940774455666542,"81":0.14144378900527954,"82":0.14504174888134003,"83":0.012472319416701794,"84":0.23313383758068085,"85":0.23724088072776794,"86":0.1635284721851349,"87":0.13020546734333038,"88":0.06664467602968216,"89":0.28296953439712524,"90":-0.13032804429531097,"91":-0.1857425719499588,"92":-0.12575314939022064,"93":0.10578752309083939,"94":0.11705219000577927,"95":0.1659291684627533,"96":-0.09471957385540009,"97":0.007885348051786423,"98":0.12975750863552094,"99":0.1045134961605072,"100":-0.622584342956543,"101":0.16587813198566437}},"4":{"bias":-0.26467621326446533,"weights":{"0":0.023972125723958015,"1":0.05239253491163254,"2":-0.030885016545653343,"3":-0.17361116409301758,"4":-0.020714184269309044,"5":0.16681210696697235,"6":0.0543072335422039,"7":-0.16667765378952026,"8":-0.0060516479425132275,"9":0.17778493463993073,"10":-0.033083729445934296,"11":-0.06265932321548462,"12":0.19666403532028198,"13":0.014267165213823318,"14":-0.06255325675010681,"15":0.007077663205564022,"16":0.09980613738298416,"17":-0.1897067427635193,"18":0.005322896409779787,"19":0.09318610280752182,"20":0.11715564131736755,"21":0.12986643612384796,"22":-0.12417587637901306,"23":-0.10970082879066467,"24":-0.1910310685634613,"25":0.034707196056842804,"26":-0.021186547353863716,"27":0.11645293980836868,"28":-0.16676065325737,"29":-0.08829876780509949,"30":-0.09301738440990448,"31":-0.09415658563375473,"32":0.136386439204216,"33":-0.007097580935806036,"34":-0.010318716056644917,"35":-0.04674733430147171,"36":0.08503630757331848,"37":0.15458722412586212,"38":-0.07655715197324753,"39":0.12644048035144806,"40":0.19816386699676514,"41":0.10562557727098465,"42":-0.0283640269190073,"43":0.18562641739845276,"44":0.026601077988743782,"45":0.10298898816108704,"46":0.268777459859848,"47":-0.14569979906082153,"48":0.3756210207939148,"49":-0.17570768296718597,"50":-0.08668981492519379,"51":-0.07288976013660431,"52":0.08890140056610107,"53":-0.11437326669692993,"54":-0.012392139062285423,"55":0.2427392452955246,"56":-0.16692838072776794,"57":-0.11620185524225235,"58":0.22766785323619843,"59":-0.1588415652513504,"60":-0.30336320400238037,"61":-0.020185545086860657,"62":-0.026365363970398903,"63":0.06746385246515274,"64":0.23624774813652039,"65":0.17153076827526093,"66":-0.14453484117984772,"67":-0.23648810386657715,"68":0.012402667663991451,"69":0.025035560131072998,"70":-0.06569992005825043,"71":0.08461305499076843,"72":0.05013454332947731,"73":-0.16747261583805084,"74":-0.14623704552650452,"75":-0.22375431656837463,"76":0.015772348269820213,"77":-0.222892165184021,"78":-0.0023422949016094208,"79":0.01370748970657587,"80":0.04756921902298927,"81":-0.050260625779628754,"82":-0.2788870334625244,"83":-0.15176154673099518,"84":-0.03732436150312424,"85":-0.24142420291900635,"86":-0.03256337344646454,"87":-0.057345613837242126,"88":-0.12206774204969406,"89":-0.0733022391796112,"90":-0.12986038625240326,"91":-0.030335785821080208,"92":0.07658181339502335,"93":0.1826660931110382,"94":-0.10232889652252197,"95":-0.04892278462648392,"96":0.09590491652488708,"97":-0.0066649168729782104,"98":0.12033501267433167,"99":0.08277130872011185,"100":0.6168001294136047,"101":-0.24213910102844238}},"5":{"bias":0.10757817327976227,"weights":{"0":0.03581007197499275,"1":0.10659423470497131,"2":0.02499808557331562,"3":-0.10563170909881592,"4":-0.09043021500110626,"5":-0.19766470789909363,"6":0.07713761180639267,"7":0.09016018360853195,"8":0.03839409723877907,"9":-0.08051054924726486,"10":-0.19627852737903595,"11":-0.12138340622186661,"12":-0.0641460195183754,"13":0.16979654133319855,"14":0.03896947577595711,"15":0.14906862378120422,"16":0.15097811818122864,"17":-0.03371775895357132,"18":-0.18954826891422272,"19":0.03882217034697533,"20":-0.16183015704154968,"21":-0.06808581948280334,"22":0.17751182615756989,"23":0.18947941064834595,"24":0.15836438536643982,"25":0.19385604560375214,"26":0.19114798307418823,"27":0.11155327409505844,"28":-0.12112808972597122,"29":-0.15605540573596954,"30":0.04840296506881714,"31":-0.028673604130744934,"32":-0.14595308899879456,"33":0.15158064663410187,"34":-0.14163735508918762,"35":0.05495327338576317,"36":-0.06656681001186371,"37":0.14715656638145447,"38":-0.16518789529800415,"39":0.10768100619316101,"40":-0.034619204699993134,"41":-0.054449815303087234,"42":-0.14564773440361023,"43":-0.017429716885089874,"44":-0.068076491355896,"45":-0.12193884700536728,"46":-0.22098533809185028,"47":-0.3045153319835663,"48":-0.21581391990184784,"49":-0.11236191540956497,"50":0.15733765065670013,"51":0.038981858640909195,"52":0.05313907563686371,"53":-0.11454347521066666,"54":-0.49193626642227173,"55":0.10038537532091141,"56":-0.06515326350927353,"57":0.06730711460113525,"58":-0.019587140530347824,"59":0.013923733495175838,"60":0.02588897943496704,"61":-0.08784570544958115,"62":0.07280650734901428,"63":-0.03437243402004242,"64":-0.2353142499923706,"65":-0.1001741886138916,"66":0.00627060467377305,"67":-0.1495106965303421,"68":-0.1012144535779953,"69":-0.10333403944969177,"70":0.0007707373588345945,"71":0.05928993225097656,"72":0.15055663883686066,"73":-0.09533430635929108,"74":0.08492597937583923,"75":-0.07735700905323029,"76":-0.00010539780487306416,"77":0.23232080042362213,"78":-0.04974719509482384,"79":0.2884058356285095,"80":0.06358170509338379,"81":-0.0824165940284729,"82":-0.057190071791410446,"83":-0.11088170111179352,"84":-0.10941077768802643,"85":0.0647519901394844,"86":-0.08448226749897003,"87":0.19929134845733643,"88":0.013408828526735306,"89":0.24825990200042725,"90":0.089890256524086,"91":0.12592054903507233,"92":-0.19897431135177612,"93":-0.16338960826396942,"94":-0.08559471368789673,"95":-0.15658940374851227,"96":-0.11598803102970123,"97":0.1581169068813324,"98":0.13387860357761383,"99":-0.15947364270687103,"100":-0.38367122411727905,"101":-0.6895485520362854}},"6":{"bias":-0.13073883950710297,"weights":{"0":-0.013550333678722382,"1":0.1363839954137802,"2":-0.0967741534113884,"3":-0.061545904725790024,"4":-0.1652514934539795,"5":0.019500864669680595,"6":-0.12402898818254471,"7":-0.1689550131559372,"8":0.020532259717583656,"9":-0.11193553358316422,"10":-0.0730745866894722,"11":0.14150288701057434,"12":-0.15677973628044128,"13":-0.14811597764492035,"14":-0.0512007512152195,"15":-0.03553876280784607,"16":-0.035245828330516815,"17":0.04462325945496559,"18":0.1632828265428543,"19":-0.029287714511156082,"20":0.0838325098156929,"21":-0.0014394924510270357,"22":-0.0830732136964798,"23":-0.08343231678009033,"24":-0.11386364698410034,"25":0.17751586437225342,"26":-0.1733565479516983,"27":0.06809984892606735,"28":-0.14444006979465485,"29":0.16251856088638306,"30":0.052847929298877716,"31":0.13152053952217102,"32":0.1639237254858017,"33":0.18394717574119568,"34":-0.12769469618797302,"35":-0.1782144159078598,"36":-0.15199054777622223,"37":0.02430223673582077,"38":-0.07046454399824142,"39":-0.032937247306108475,"40":0.1074812114238739,"41":0.13871175050735474,"42":-0.2463151067495346,"43":-0.042427368462085724,"44":0.1261499673128128,"45":-0.16830545663833618,"46":0.020647995173931122,"47":0.09730232506990433,"48":-0.17983192205429077,"49":0.20336341857910156,"50":0.1277996152639389,"51":0.03267452120780945,"52":0.06251930445432663,"53":0.2031591236591339,"54":-0.15922878682613373,"55":-0.2575264573097229,"56":0.11068225651979446,"57":0.043715909123420715,"58":-0.15422005951404572,"59":-0.05195816233754158,"60":0.07950223982334137,"61":-0.11837876588106155,"62":-0.2241709679365158,"63":-0.03374369814991951,"64":-0.13758574426174164,"65":-0.1738024353981018,"66":-0.17848379909992218,"67":0.10713022947311401,"68":-0.07896241545677185,"69":-0.19415199756622314,"70":0.10063444077968597,"71":0.09621304273605347,"72":0.0879640206694603,"73":0.19122891128063202,"74":0.20685835182666779,"75":-0.13499614596366882,"76":0.1675710529088974,"77":-0.06813064217567444,"78":0.06070247292518616,"79":0.00036606425419449806,"80":0.13611723482608795,"81":-0.003023340366780758,"82":0.153434619307518,"83":0.20765788853168488,"84":-0.11084908992052078,"85":0.05558166280388832,"86":0.026415469124913216,"87":0.2439817488193512,"88":0.1213596910238266,"89":-0.03300211951136589,"90":-0.07911036163568497,"91":-0.11375164985656738,"92":-0.16031426191329956,"93":0.08337905257940292,"94":-0.16400839388370514,"95":0.09222502261400223,"96":0.1884811520576477,"97":0.1436374932527542,"98":-0.0936003103852272,"99":0.17186376452445984,"100":-0.4083167314529419,"101":0.15295876562595367}},"7":{"bias":0.20063082873821259,"weights":{"0":-0.006872265599668026,"1":0.15084616839885712,"2":0.07127386331558228,"3":0.02586016058921814,"4":-0.0033922074362635612,"5":0.009897728450596333,"6":0.15215431153774261,"7":0.16990354657173157,"8":-0.17049932479858398,"9":-0.1631973832845688,"10":0.07719749212265015,"11":0.02748309262096882,"12":0.06816484779119492,"13":0.13608022034168243,"14":0.019847866147756577,"15":-0.07910647243261337,"16":-0.11168284714221954,"17":0.15734003484249115,"18":0.1521172672510147,"19":-0.07545598596334457,"20":-0.08625207096338272,"21":-0.08456743508577347,"22":0.030789565294981003,"23":-0.08448158204555511,"24":0.08451768755912781,"25":-0.04982401803135872,"26":0.07527739554643631,"27":-0.11086121201515198,"28":0.07874184101819992,"29":-0.02962828055024147,"30":-0.06822097301483154,"31":0.06457193195819855,"32":-0.103565514087677,"33":-0.031171370297670364,"34":0.10966995358467102,"35":-0.15439245104789734,"36":-0.19494067132472992,"37":-0.16962935030460358,"38":-0.27969589829444885,"39":0.054311104118824005,"40":-0.12155973166227341,"41":-0.05263478308916092,"42":-0.3473646640777588,"43":-0.025129089131951332,"44":0.15929177403450012,"45":0.049433186650276184,"46":-0.2276007980108261,"47":-0.235454723238945,"48":-0.11449214816093445,"49":-0.18787990510463715,"50":-0.10151497274637222,"51":0.13292643427848816,"52":0.08842618763446808,"53":0.22277575731277466,"54":-0.7596681714057922,"55":0.19120270013809204,"56":-0.14583738148212433,"57":0.09700219333171844,"58":-0.013216768391430378,"59":-0.01512190792709589,"60":0.21429960429668427,"61":0.061689164489507675,"62":0.08982815593481064,"63":0.046166226267814636,"64":-0.19537310302257538,"65":-0.2610059380531311,"66":-0.02390066348016262,"67":-0.06496236473321915,"68":0.126569002866745,"69":-0.15728242695331573,"70":0.10339735448360443,"71":0.10094403475522995,"72":0.1504790186882019,"73":0.1915300488471985,"74":0.02858034521341324,"75":-0.2160552591085434,"76":-0.02228427678346634,"77":-0.016737058758735657,"78":0.039104562252759933,"79":-0.09881766885519028,"80":0.17481756210327148,"81":0.1564575433731079,"82":-0.11735343188047409,"83":-0.08413713425397873,"84":0.14576968550682068,"85":-0.06180122494697571,"86":0.16587500274181366,"87":0.13271450996398926,"88":-0.09199853986501694,"89":0.04633608087897301,"90":0.015592741779983044,"91":0.01769266091287136,"92":0.12364425510168076,"93":-0.06032618135213852,"94":0.15600822865962982,"95":0.035879723727703094,"96":-0.18780456483364105,"97":0.18337076902389526,"98":-0.11865849792957306,"99":-0.03557320684194565,"100":-0.6256264448165894,"101":-1.3099266290664673}},"8":{"bias":-0.1927042305469513,"weights":{"0":0.0945344939827919,"1":0.05073752626776695,"2":-0.16871728003025055,"3":0.13666722178459167,"4":0.05502182990312576,"5":-0.0354827344417572,"6":-0.18346092104911804,"7":0.04761848226189613,"8":0.15624792873859406,"9":-0.03862900286912918,"10":0.16193605959415436,"11":0.08635503053665161,"12":-0.19466914236545563,"13":0.13708817958831787,"14":-0.046892035752534866,"15":0.07972731441259384,"16":-0.02216431498527527,"17":0.12109255790710449,"18":0.12787353992462158,"19":0.11284355074167252,"20":0.19827990233898163,"21":-0.10447792708873749,"22":0.0017383700469508767,"23":0.009620916098356247,"24":-0.009064603596925735,"25":-0.1709914207458496,"26":0.10176103562116623,"27":-0.02985450066626072,"28":-0.011124076321721077,"29":-0.019633512943983078,"30":-0.136576309800148,"31":-0.14592258632183075,"32":0.19578790664672852,"33":-0.1711212694644928,"34":-0.1881958544254303,"35":-0.11563438922166824,"36":0.1426856517791748,"37":0.143216073513031,"38":-0.18157954514026642,"39":0.1770167052745819,"40":0.07016180455684662,"41":-0.14145143330097198,"42":-0.03586658835411072,"43":0.18139326572418213,"44":0.04782900959253311,"45":-0.15985405445098877,"46":0.0271317046135664,"47":-0.17590628564357758,"48":-0.09958650916814804,"49":0.0896528884768486,"50":-0.17679525911808014,"51":0.028043217957019806,"52":-0.11481782048940659,"53":0.08920956403017044,"54":-0.10041796416044235,"55":0.0677352100610733,"56":0.08617694675922394,"57":-0.2906862795352936,"58":-0.14118702709674835,"59":-0.0710987076163292,"60":-0.08708968013525009,"61":-0.030093250796198845,"62":0.1967531442642212,"63":-0.1943129450082779,"64":0.07785485684871674,"65":0.1407538652420044,"66":-0.03754328936338425,"67":-0.12376519292593002,"68":-0.17296260595321655,"69":-0.1611260026693344,"70":-0.19169117510318756,"71":0.08858734369277954,"72":-0.16951273381710052,"73":0.0020537949167191982,"74":0.0008350833668373525,"75":0.09423844516277313,"76":-0.15107698738574982,"77":0.01962606981396675,"78":-0.20262908935546875,"79":-0.03177087754011154,"80":-0.071773000061512,"81":-0.028511356562376022,"82":-0.22589629888534546,"83":0.015811190009117126,"84":-0.19756299257278442,"85":0.12298115342855453,"86":0.09981907904148102,"87":-0.02846299111843109,"88":0.051966506987810135,"89":-0.07994188368320465,"90":0.13154228031635284,"91":0.19778384268283844,"92":-0.11849081516265869,"93":-0.0012254074681550264,"94":0.09961871802806854,"95":-0.01531746331602335,"96":-0.032934967428445816,"97":0.15121909976005554,"98":-0.16830582916736603,"99":-0.018191849812865257,"100":0.132706880569458,"101":-0.30154678225517273}},"9":{"bias":-0.20700065791606903,"weights":{"0":0.09719819575548172,"1":0.0010827588848769665,"2":0.19102248549461365,"3":-0.01113347988575697,"4":0.1195908710360527,"5":0.17020560801029205,"6":-0.013660653494298458,"7":0.15835459530353546,"8":-0.11712176352739334,"9":-0.11010594666004181,"10":-0.11103855818510056,"11":-0.08921167254447937,"12":-0.17739951610565186,"13":-0.16945427656173706,"14":-0.179290771484375,"15":-0.07275441288948059,"16":0.193485289812088,"17":0.1271483153104782,"18":-0.19396814703941345,"19":0.15802784264087677,"20":-0.114434152841568,"21":0.0156612079590559,"22":0.048634059727191925,"23":0.04906952753663063,"24":0.0800071582198143,"25":0.0907495766878128,"26":0.11596854776144028,"27":-0.005582330282777548,"28":-0.08425836265087128,"29":-0.033949654549360275,"30":0.024369899183511734,"31":-0.09791719168424606,"32":0.07234226912260056,"33":-0.04758321866393089,"34":-0.04204832762479782,"35":-0.16611318290233612,"36":-0.1118524894118309,"37":0.11770090460777283,"38":0.19683565199375153,"39":0.17115868628025055,"40":0.06838728487491608,"41":0.03432993218302727,"42":0.15639562904834747,"43":0.17053242027759552,"44":-0.11171228438615799,"45":0.1468699425458908,"46":-0.21027882397174835,"47":-0.04508939012885094,"48":-0.04628826677799225,"49":0.4032984673976898,"50":0.06457637250423431,"51":-0.41979724168777466,"52":-0.452006071805954,"53":-0.24007603526115417,"54":0.17724768817424774,"55":-0.399563729763031,"56":-0.2544139325618744,"57":-0.11090447753667831,"58":-0.10796578973531723,"59":0.09817593544721603,"60":-0.46285203099250793,"61":-0.19825074076652527,"62":-0.3295711576938629,"63":-0.2078610360622406,"64":0.26438185572624207,"65":0.3378479480743408,"66":0.09303344786167145,"67":-0.03122011199593544,"68":-0.03654373064637184,"69":-0.1309889554977417,"70":-0.2852908670902252,"71":-0.16519638895988464,"72":0.09494249522686005,"73":-0.1603919416666031,"74":0.08453062921762466,"75":0.29612380266189575,"76":0.3335537314414978,"77":0.22312793135643005,"78":-0.04644156992435455,"79":0.04080967232584953,"80":0.07055899500846863,"81":-0.16846051812171936,"82":-0.07241613417863846,"83":0.08050290495157242,"84":-0.006236993707716465,"85":-0.14497841894626617,"86":0.0846615582704544,"87":0.008897485211491585,"88":-0.07324616611003876,"89":-0.09211708605289459,"90":-0.07666019350290298,"91":-0.09139107167720795,"92":0.00026333212736062706,"93":-0.10098986327648163,"94":0.001219571684487164,"95":0.18157972395420074,"96":-0.01703534834086895,"97":0.0019224169664084911,"98":0.1316094845533371,"99":0.08220396935939789,"100":0.42596015334129333,"101":2.1015007495880127}},"10":{"bias":-0.19787855446338654,"weights":{"0":-0.19927209615707397,"1":0.02439548261463642,"2":0.08244701474905014,"3":-0.13553424179553986,"4":0.034537795931100845,"5":-0.19154316186904907,"6":0.09972644597291946,"7":0.05348344147205353,"8":-0.1708488017320633,"9":0.017889320850372314,"10":0.013414767570793629,"11":-0.16572079062461853,"12":0.029598381370306015,"13":-0.08151417970657349,"14":0.0540081262588501,"15":-0.04980437457561493,"16":-0.008965887129306793,"17":0.1464664787054062,"18":-0.02954312413930893,"19":-0.06192026659846306,"20":0.0778157040476799,"21":-0.06710372865200043,"22":0.017751285806298256,"23":-0.1370602697134018,"24":0.16574661433696747,"25":0.050377149134874344,"26":-0.12907397747039795,"27":0.054063234478235245,"28":0.19246849417686462,"29":0.05628494545817375,"30":-0.11942117661237717,"31":-0.10117222368717194,"32":-0.12066014856100082,"33":0.18896842002868652,"34":-0.010717167519032955,"35":0.13986727595329285,"36":-0.057797856628894806,"37":0.10700961202383041,"38":0.11203518509864807,"39":-0.05853814631700516,"40":0.3049220144748688,"41":0.11224674433469772,"42":0.20863115787506104,"43":-0.17797240614891052,"44":-0.18957756459712982,"45":-0.1287456899881363,"46":-0.034976422786712646,"47":0.23858408629894257,"48":-0.057785723358392715,"49":0.39185941219329834,"50":-0.1812988817691803,"51":-0.23746146261692047,"52":-0.5653411149978638,"53":-0.19368253648281097,"54":0.44281601905822754,"55":-0.3578183054924011,"56":-0.1524914652109146,"57":-0.0024434388615190983,"58":-0.16182740032672882,"59":-0.013481334783136845,"60":-0.2953292429447174,"61":-0.10721299052238464,"62":-0.3212728202342987,"63":0.12810835242271423,"64":0.3087279200553894,"65":0.4270143210887909,"66":-0.11886249482631683,"67":-0.0625624731183052,"68":0.07196219265460968,"69":-0.08854934573173523,"70":-0.30784791707992554,"71":-0.1750478744506836,"72":0.15517102181911469,"73":-0.0729263499379158,"74":0.07348357886075974,"75":0.22753557562828064,"76":0.13833491504192352,"77":0.1959441900253296,"78":-0.04554513469338417,"79":-0.12456756830215454,"80":-0.13698627054691315,"81":-0.1833411008119583,"82":0.12095676362514496,"83":-0.16897188127040863,"84":0.15251891314983368,"85":-0.16217446327209473,"86":0.03177705779671669,"87":0.009568260051310062,"88":-0.03564085438847542,"89":-0.05554919317364693,"90":0.12749561667442322,"91":0.0940699353814125,"92":-0.02838202752172947,"93":0.16644464433193207,"94":-0.04375898838043213,"95":-0.14500276744365692,"96":-0.07696201652288437,"97":0.16595175862312317,"98":0.17875497043132782,"99":0.10022030770778656,"100":0.7691676616668701,"101":1.7112146615982056}},"11":{"bias":-0.009082095697522163,"weights":{"0":0.03648684173822403,"1":0.04992054030299187,"2":-0.08188308775424957,"3":0.12121201306581497,"4":0.045139461755752563,"5":-0.0628141388297081,"6":-0.06219746544957161,"7":-0.19867171347141266,"8":-0.06554646044969559,"9":-0.058652207255363464,"10":-0.13525065779685974,"11":0.1356872320175171,"12":0.1538005918264389,"13":-0.1813897043466568,"14":-0.11937914788722992,"15":0.0008740292978473008,"16":-0.13637030124664307,"17":-0.029290543869137764,"18":-0.028827564790844917,"19":0.024958636611700058,"20":0.18241620063781738,"21":0.13374455273151398,"22":0.012726052664220333,"23":-0.04319414123892784,"24":0.08693353086709976,"25":-0.00398584920912981,"26":0.014901602640748024,"27":-0.12405472993850708,"28":0.16752813756465912,"29":-0.12734809517860413,"30":-0.13922595977783203,"31":0.13808368146419525,"32":-0.1449025720357895,"33":0.0416758731007576,"34":-0.014554223977029324,"35":-0.10739193856716156,"36":-0.050681207329034805,"37":-0.18092980980873108,"38":-0.2607167363166809,"39":-0.11292407661676407,"40":-0.23328275978565216,"41":-0.1309787482023239,"42":-0.2209196835756302,"43":0.173919677734375,"44":-0.010177585296332836,"45":0.17665112018585205,"46":0.3360174000263214,"47":-0.0688328891992569,"48":0.4311785399913788,"49":-0.3662945032119751,"50":-0.19056786596775055,"51":0.2551515996456146,"52":0.11482803523540497,"53":-0.14062809944152832,"54":-0.15260343253612518,"55":0.20884177088737488,"56":-0.2689622640609741,"57":-0.10412178188562393,"58":0.3590153455734253,"59":-0.6449047327041626,"60":-0.0419960618019104,"61":-0.0333615317940712,"62":0.25784313678741455,"63":-0.08411166071891785,"64":0.24230197072029114,"65":-0.13940376043319702,"66":-0.02049063704907894,"67":0.012901500798761845,"68":-0.018695350736379623,"69":0.1371120810508728,"70":-0.02497350051999092,"71":0.2521439790725708,"72":0.07059130817651749,"73":-0.03638559579849243,"74":-0.1710793524980545,"75":-0.09175711125135422,"76":-0.3070826530456543,"77":-0.10396735370159149,"78":0.13929300010204315,"79":0.05652811750769615,"80":0.009939434938132763,"81":-0.23902541399002075,"82":-0.23842033743858337,"83":0.0018263979582116008,"84":0.07478451728820801,"85":-0.0784689411520958,"86":-0.20351412892341614,"87":-0.06407826393842697,"88":-0.019912438467144966,"89":-0.044716302305459976,"90":-0.027014004066586494,"91":-0.12409079074859619,"92":-0.19100114703178406,"93":0.052597686648368835,"94":0.008995244279503822,"95":-0.09487896412611008,"96":-0.18306994438171387,"97":-0.12374081462621689,"98":-0.1681382954120636,"99":0.04538100212812424,"100":0.5414533019065857,"101":-0.9713617563247681}},"12":{"bias":0.06399064511060715,"weights":{"0":-0.13060881197452545,"1":0.024150336161255836,"2":0.15003877878189087,"3":0.07233194261789322,"4":0.11499974876642227,"5":-0.00879477895796299,"6":0.11490652710199356,"7":0.18000760674476624,"8":0.04522746428847313,"9":0.07572369277477264,"10":-0.10880851000547409,"11":-0.03786011040210724,"12":0.07999372482299805,"13":0.08246152102947235,"14":0.1950775682926178,"15":0.14797814190387726,"16":0.1259215772151947,"17":0.03819020092487335,"18":0.09761685878038406,"19":0.19671982526779175,"20":-0.0072458162903785706,"21":-0.12269865721464157,"22":0.02613195590674877,"23":-0.18328091502189636,"24":-0.12461354583501816,"25":-0.039135806262493134,"26":0.17363546788692474,"27":0.11103011667728424,"28":-0.18382270634174347,"29":0.1640070080757141,"30":-0.058143917471170425,"31":0.10543482005596161,"32":-0.14907632768154144,"33":-0.10834165662527084,"34":0.17993803322315216,"35":-0.057849809527397156,"36":-0.1906624436378479,"37":0.16869305074214935,"38":0.03310767933726311,"39":0.017607014626264572,"40":-0.22724370658397675,"41":-0.12991687655448914,"42":0.08205898851156235,"43":0.15342453122138977,"44":-0.17655310034751892,"45":0.17994795739650726,"46":-0.2566450238227844,"47":-0.2001446932554245,"48":-0.015978602692484856,"49":-0.02884506806731224,"50":-0.19324679672718048,"51":0.05715661868453026,"52":0.2607595920562744,"53":-0.07700379937887192,"54":-0.41491249203681946,"55":0.2185610979795456,"56":-0.32129234075546265,"57":0.14258429408073425,"58":-0.21086542308330536,"59":-0.024382835254073143,"60":-0.010523716919124126,"61":0.2668205201625824,"62":0.027359772473573685,"63":0.050849203020334244,"64":-0.014280028641223907,"65":-0.19007115066051483,"66":-0.0899207592010498,"67":-0.19045589864253998,"68":0.13242942094802856,"69":0.06126454845070839,"70":0.17351418733596802,"71":0.2919268012046814,"72":-0.01647309400141239,"73":0.04033375158905983,"74":-0.06571726500988007,"75":0.12337791174650192,"76":-0.1423204392194748,"77":0.13256952166557312,"78":-0.04803280159831047,"79":-0.057520076632499695,"80":0.2268570065498352,"81":-0.05070897191762924,"82":0.23682160675525665,"83":-0.12556546926498413,"84":0.091880664229393,"85":-0.15804250538349152,"86":0.15183758735656738,"87":0.20429901778697968,"88":0.18456700444221497,"89":0.08439665287733078,"90":-0.17815996706485748,"91":0.0701647475361824,"92":0.14084143936634064,"93":0.04902683570981026,"94":0.17976437509059906,"95":0.15458765625953674,"96":0.13449984788894653,"97":-0.003090755781158805,"98":0.17516903579235077,"99":-0.1755058765411377,"100":-0.6497765779495239,"101":-1.0343551635742188}},"13":{"bias":-0.277724951505661,"weights":{"0":0.08388739824295044,"1":0.16057603061199188,"2":-0.18386943638324738,"3":-0.06463839113712311,"4":0.16372011601924896,"5":-0.1578209549188614,"6":0.03898102790117264,"7":0.19461452960968018,"8":0.17169927060604095,"9":-0.17815865576267242,"10":-0.10144577920436859,"11":0.14968962967395782,"12":0.16971798241138458,"13":-0.1557331532239914,"14":0.009140274487435818,"15":-0.19382163882255554,"16":-0.16190874576568604,"17":0.107734814286232,"18":-0.02654181979596615,"19":0.07785230129957199,"20":-0.06183149665594101,"21":-0.04128215089440346,"22":0.1886632740497589,"23":-0.1905761957168579,"24":0.19393138587474823,"25":-0.1276424080133438,"26":-0.08147570490837097,"27":-0.015057560056447983,"28":0.20928776264190674,"29":0.15964606404304504,"30":-0.07350862771272659,"31":-0.05301957577466965,"32":-0.04285896196961403,"33":-0.08982989937067032,"34":-0.05891010910272598,"35":-0.15565891563892365,"36":0.19076865911483765,"37":0.12239468097686768,"38":0.054865457117557526,"39":-0.12600962817668915,"40":0.133353590965271,"41":0.16967466473579407,"42":0.1273445188999176,"43":-0.13247837126255035,"44":0.173655167222023,"45":-0.06656105071306229,"46":0.28241950273513794,"47":0.24511967599391937,"48":0.02942168526351452,"49":0.23813778162002563,"50":-0.007785644847899675,"51":-0.20815686881542206,"52":-0.5320040583610535,"53":-0.21435754001140594,"54":0.7941885590553284,"55":0.110373355448246,"56":0.16081883013248444,"57":-0.04494665563106537,"58":0.24213914573192596,"59":-0.15131016075611115,"60":-0.36869287490844727,"61":-0.20264846086502075,"62":-0.18669170141220093,"63":-0.15632176399230957,"64":0.29559749364852905,"65":0.3147566318511963,"66":-0.1449245810508728,"67":0.17324601113796234,"68":-0.2567320466041565,"69":-0.16129334270954132,"70":-0.2199222892522812,"71":-0.36259499192237854,"72":-0.04725490137934685,"73":0.04647187143564224,"74":0.037330858409404755,"75":0.0027013530489057302,"76":0.2839648127555847,"77":-0.050080787390470505,"78":0.0581422783434391,"79":-0.09791722893714905,"80":-0.02988491766154766,"81":-0.09624318033456802,"82":0.021368900313973427,"83":-0.12522457540035248,"84":-0.039012838155031204,"85":-0.06442788988351822,"86":-0.15039147436618805,"87":-0.10594277083873749,"88":-0.2086123675107956,"89":0.07385643571615219,"90":0.14338131248950958,"91":-0.02739480510354042,"92":-0.07335809618234634,"93":-0.19880914688110352,"94":0.12637124955654144,"95":-0.1950099766254425,"96":-0.07450533658266068,"97":0.032650165259838104,"98":0.06961711496114731,"99":-0.12151192128658295,"100":1.421694278717041,"101":1.5420995950698853}},"14":{"bias":-0.13525639474391937,"weights":{"0":-0.07677946239709854,"1":-0.007390295621007681,"2":-0.1509743183851242,"3":0.16839316487312317,"4":0.050972145050764084,"5":-0.08208665996789932,"6":0.03040153905749321,"7":-0.13164548575878143,"8":-0.07389355450868607,"9":0.11506393551826477,"10":-0.016787150874733925,"11":-0.033979564905166626,"12":-0.14149725437164307,"13":0.025532137602567673,"14":-0.05446787178516388,"15":0.13986511528491974,"16":0.1218644306063652,"17":-0.07662876695394516,"18":0.06241908669471741,"19":-0.1904931515455246,"20":-0.18194453418254852,"21":-0.1518232375383377,"22":-0.059187110513448715,"23":-0.07145185023546219,"24":0.010671069845557213,"25":-0.02248198352754116,"26":0.17582201957702637,"27":0.17580187320709229,"28":-0.09268569201231003,"29":0.0662936195731163,"30":0.10079485177993774,"31":-0.0812196210026741,"32":-0.077756367623806,"33":0.03672163933515549,"34":0.14262041449546814,"35":0.07302426546812057,"36":0.11508463323116302,"37":-0.022274751216173172,"38":-0.2984815537929535,"39":-0.1416069120168686,"40":-0.1560312658548355,"41":0.2279372662305832,"42":0.07789523899555206,"43":0.10467343032360077,"44":0.15039567649364471,"45":0.05494248867034912,"46":0.11118332296609879,"47":0.1645871251821518,"48":0.40802839398384094,"49":-0.6881388425827026,"50":-0.0590643584728241,"51":0.34640562534332275,"52":0.24655218422412872,"53":0.06894335150718689,"54":-0.31512686610221863,"55":0.4552393853664398,"56":0.20769482851028442,"57":-0.40278539061546326,"58":0.47315508127212524,"59":-0.6188835501670837,"60":-0.0971265658736229,"61":-0.02507002465426922,"62":0.25818943977355957,"63":-0.027514271438121796,"64":0.1601535528898239,"65":0.004316351842135191,"66":0.059151262044906616,"67":0.054391998797655106,"68":-0.07597921043634415,"69":0.24392053484916687,"70":0.2267281711101532,"71":0.18304693698883057,"72":-0.09613202512264252,"73":-0.024899765849113464,"74":-0.19943194091320038,"75":-0.34128037095069885,"76":-0.2826492488384247,"77":0.02501736767590046,"78":0.11625796556472778,"79":0.14844278991222382,"80":0.0436500646173954,"81":-0.04715477675199509,"82":0.025446826592087746,"83":-0.12389830499887466,"84":-0.02290510945022106,"85":0.015701331198215485,"86":-0.026598675176501274,"87":-0.051920175552368164,"88":0.12352423369884491,"89":-0.11524117738008499,"90":-0.19168095290660858,"91":-0.18701064586639404,"92":-0.09131722897291183,"93":-0.1394505649805069,"94":0.09151780605316162,"95":-0.034850090742111206,"96":-0.12359306216239929,"97":0.06819523125886917,"98":0.044758159667253494,"99":-0.07240409404039383,"100":0.6219020485877991,"101":-1.4007713794708252}},"15":{"bias":-0.13461561501026154,"weights":{"0":0.14404110610485077,"1":-0.05957680568099022,"2":0.16080524027347565,"3":-0.12658025324344635,"4":-0.1468488723039627,"5":0.0790492445230484,"6":-0.007623867131769657,"7":0.10023842006921768,"8":-0.14815574884414673,"9":-0.08243190497159958,"10":0.15938881039619446,"11":0.1410929411649704,"12":0.08647449314594269,"13":-0.15530149638652802,"14":0.15708571672439575,"15":-0.1408226490020752,"16":0.042129818350076675,"17":0.025276336818933487,"18":-0.09424374997615814,"19":0.0991763323545456,"20":0.08020111918449402,"21":-0.03795621916651726,"22":0.1990543007850647,"23":0.007259946316480637,"24":0.09741496294736862,"25":-0.17659372091293335,"26":-0.14118076860904694,"27":0.12246202677488327,"28":-0.097135990858078,"29":-0.014079762622714043,"30":0.03707659989595413,"31":-0.1056918203830719,"32":-0.0064680189825594425,"33":0.0738641694188118,"34":-0.14744405448436737,"35":0.1500660628080368,"36":-0.09376437962055206,"37":-0.20280157029628754,"38":0.0579899363219738,"39":0.022696910426020622,"40":0.11648261547088623,"41":0.1280231773853302,"42":-0.11098957061767578,"43":-0.14371030032634735,"44":-0.004030873998999596,"45":-0.10756023228168488,"46":0.21163491904735565,"47":0.0508919283747673,"48":0.4272308349609375,"49":-0.48498690128326416,"50":-0.12321531027555466,"51":0.09765193611383438,"52":0.07725071907043457,"53":-0.4244493842124939,"54":0.12877842783927917,"55":0.28914889693260193,"56":-0.04452839121222496,"57":-0.4008852541446686,"58":0.10434788465499878,"59":-0.5466036200523376,"60":-0.2533104121685028,"61":-0.17818109691143036,"62":0.277651846408844,"63":-0.010792730376124382,"64":0.12777061760425568,"65":0.17135831713676453,"66":-0.2549930214881897,"67":-0.09494637697935104,"68":-0.09041649848222733,"69":0.08082778751850128,"70":0.184106707572937,"71":0.005946281366050243,"72":0.10381349921226501,"73":0.025554746389389038,"74":0.05939515307545662,"75":0.08336759358644485,"76":-0.24956698715686798,"77":-0.28733396530151367,"78":-0.2065037488937378,"79":-0.24733704328536987,"80":-0.08094635605812073,"81":-0.0784686952829361,"82":-0.14467380940914154,"83":-0.2714945375919342,"84":-0.10558880865573883,"85":0.04573740437626839,"86":-0.24543771147727966,"87":0.08472462743520737,"88":-0.2601947486400604,"89":-0.07144445180892944,"90":-0.12000597268342972,"91":0.029826859012246132,"92":-0.18495652079582214,"93":-0.1182815283536911,"94":0.18451784551143646,"95":-0.024545667693018913,"96":0.19422399997711182,"97":0.10150352120399475,"98":0.194374218583107,"99":0.021263981238007545,"100":1.0262645483016968,"101":-0.667052686214447}},"16":{"bias":-0.05197181552648544,"weights":{"0":-0.16543927788734436,"1":0.09702925384044647,"2":0.17175760865211487,"3":-0.15545032918453217,"4":-0.12651735544204712,"5":0.19788436591625214,"6":-0.008999982848763466,"7":-0.07189250737428665,"8":0.13366274535655975,"9":0.0290837325155735,"10":0.05238012969493866,"11":-0.11995158344507217,"12":0.1410432904958725,"13":-0.0743178054690361,"14":-0.06306291371583939,"15":0.005973125342279673,"16":-0.02612992562353611,"17":-0.18269553780555725,"18":0.009705871343612671,"19":0.11674424260854721,"20":-0.06354765594005585,"21":-0.17498180270195007,"22":0.18568943440914154,"23":-0.038753390312194824,"24":-0.16035807132720947,"25":0.049609750509262085,"26":-0.08193856477737427,"27":0.1949295550584793,"28":0.16060014069080353,"29":-0.007790884468704462,"30":0.031973373144865036,"31":-0.1443740874528885,"32":0.15789954364299774,"33":-0.1317710429430008,"34":0.07755901664495468,"35":0.16925041377544403,"36":0.1937319040298462,"37":-0.12791313230991364,"38":-0.045007068663835526,"39":0.22703038156032562,"40":-0.046678442507982254,"41":0.10148806124925613,"42":0.18772029876708984,"43":-0.09539125859737396,"44":0.05091043561697006,"45":-0.02421381138265133,"46":0.09863283485174179,"47":-0.02707362174987793,"48":-0.27016597986221313,"49":0.33691877126693726,"50":-0.13392236828804016,"51":-0.054370325058698654,"52":-0.37070825695991516,"53":-0.11912040412425995,"54":0.08130617439746857,"55":-0.1874045431613922,"56":-0.02695966139435768,"57":0.020364774391055107,"58":-0.22000524401664734,"59":0.14315275847911835,"60":0.07044476270675659,"61":-0.000013778630091110244,"62":-0.13632498681545258,"63":-0.06053723022341728,"64":-0.03559410944581032,"65":-0.18258681893348694,"66":-0.2883983254432678,"67":-0.07336259633302689,"68":-0.10593928396701813,"69":-0.2952408790588379,"70":0.006326805334538221,"71":-0.059327609837055206,"72":-0.09157920628786087,"73":-0.1888301819562912,"74":0.12468720972537994,"75":0.20313403010368347,"76":0.09022101759910583,"77":-0.13984018564224243,"78":-0.17620490491390228,"79":-0.04172946885228157,"80":0.0769142210483551,"81":-0.10669281333684921,"82":0.022289181128144264,"83":0.016783880069851875,"84":0.05375469848513603,"85":-0.07780934870243073,"86":0.10686478763818741,"87":-0.012688097544014454,"88":0.11594005674123764,"89":0.025652043521404266,"90":0.09081361442804337,"91":-0.14706507325172424,"92":0.18942531943321228,"93":0.089811772108078,"94":0.01488522719591856,"95":-0.026478908956050873,"96":-0.1826505810022354,"97":0.012286183424293995,"98":-0.09565802663564682,"99":0.19569668173789978,"100":-0.06546750664710999,"101":0.9162945747375488}},"17":{"bias":0.08778461813926697,"weights":{"0":-0.056817904114723206,"1":-0.13508334755897522,"2":0.14662784337997437,"3":0.052134767174720764,"4":-0.03928932547569275,"5":-0.06360704451799393,"6":0.14287233352661133,"7":-0.15501058101654053,"8":-0.041643112897872925,"9":-0.020874880254268646,"10":0.05712741240859032,"11":0.07331836223602295,"12":0.18671098351478577,"13":-0.10096404701471329,"14":-0.024322666227817535,"15":0.04902533441781998,"16":-0.05404431000351906,"17":-0.18245135247707367,"18":0.005528060719370842,"19":0.1003207340836525,"20":-0.11874854564666748,"21":-0.06058871001005173,"22":0.13188813626766205,"23":-0.16657182574272156,"24":0.012416328303515911,"25":-0.06579948216676712,"26":0.16794078052043915,"27":0.10977509617805481,"28":0.003436758415773511,"29":0.1958286613225937,"30":0.021248912438750267,"31":-0.08639448881149292,"32":-0.15003377199172974,"33":0.07701930403709412,"34":-0.02978755161166191,"35":0.0352979339659214,"36":0.0927218571305275,"37":0.01456430647522211,"38":-0.14798997342586517,"39":-0.16915595531463623,"40":-0.24222524464130402,"41":0.15198998153209686,"42":0.038846418261528015,"43":-0.04083750769495964,"44":-0.005792056210339069,"45":-0.1583741158246994,"46":-0.15525944530963898,"47":-0.10895749926567078,"48":-0.47402697801589966,"49":-0.1867644339799881,"50":0.23195764422416687,"51":0.16498175263404846,"52":0.16310906410217285,"53":-0.09091373533010483,"54":-0.3634527325630188,"55":0.09700515866279602,"56":0.09644649922847748,"57":-0.10327538102865219,"58":-0.23950530588626862,"59":0.023400943726301193,"60":0.044152818620204926,"61":-0.019061295315623283,"62":-0.13953466713428497,"63":-0.19967034459114075,"64":-0.37279289960861206,"65":-0.3685871362686157,"66":-0.2928188145160675,"67":0.037725601345300674,"68":-0.08969643712043762,"69":-0.06550324708223343,"70":0.21591167151927948,"71":-0.031306616961956024,"72":0.16749307513237,"73":-0.0083511583507061,"74":0.22230111062526703,"75":0.1910603642463684,"76":0.011519111692905426,"77":0.06439980864524841,"78":0.20703549683094025,"79":0.27759817242622375,"80":-0.008225906640291214,"81":0.02037290297448635,"82":0.023640967905521393,"83":0.06761165708303452,"84":0.18172280490398407,"85":0.15238310396671295,"86":0.22858421504497528,"87":0.1166648119688034,"88":0.12340980023145676,"89":0.04775223508477211,"90":0.17725932598114014,"91":0.07575182616710663,"92":-0.016707491129636765,"93":0.12030793726444244,"94":0.18400734663009644,"95":0.059187278151512146,"96":-0.0344943143427372,"97":-0.1982487142086029,"98":-0.019228534772992134,"99":0.17225638031959534,"100":-0.4803800582885742,"101":-0.46762338280677795}},"18":{"bias":-0.2157951444387436,"weights":{"0":0.1255589723587036,"1":-0.01503391470760107,"2":0.14023911952972412,"3":0.06159224733710289,"4":0.018547961488366127,"5":0.03248947858810425,"6":-0.08074086904525757,"7":-0.1313144713640213,"8":-0.15412700176239014,"9":-0.10409502685070038,"10":-0.025182519108057022,"11":-0.03902338817715645,"12":0.1042654886841774,"13":0.15022799372673035,"14":0.19874243438243866,"15":0.044606804847717285,"16":-0.08365258574485779,"17":-0.14032793045043945,"18":-0.04109978675842285,"19":-0.0647706463932991,"20":0.040652260184288025,"21":-0.03784314915537834,"22":-0.10036145150661469,"23":-0.0833822712302208,"24":-0.07661560922861099,"25":-0.06796859204769135,"26":-0.0693511813879013,"27":-0.1970720738172531,"28":-0.04511326923966408,"29":0.11004842072725296,"30":-0.17249681055545807,"31":-0.0634407252073288,"32":-0.04004945233464241,"33":-0.06968759000301361,"34":0.03308861702680588,"35":0.19725558161735535,"36":0.024121660739183426,"37":0.11472148448228836,"38":0.002461247844621539,"39":-0.17517274618148804,"40":-0.2109283059835434,"41":-0.07119603455066681,"42":0.1316753327846527,"43":0.11552903056144714,"44":-0.18464459478855133,"45":0.1097644791007042,"46":0.13525183498859406,"47":-0.060199178755283356,"48":0.06218721345067024,"49":-0.07597217708826065,"50":0.09299686551094055,"51":0.16208516061306,"52":0.2938055694103241,"53":0.08761758357286453,"54":-0.28554767370224,"55":0.00003329402534291148,"56":-0.09044120460748672,"57":-0.09975533187389374,"58":0.03432770445942879,"59":-0.07227453589439392,"60":0.11055807769298553,"61":-0.06262752413749695,"62":0.04707580432295799,"63":-0.09026483446359634,"64":-0.2797202467918396,"65":-0.12638986110687256,"66":-0.07019709795713425,"67":-0.09698067605495453,"68":0.12879963219165802,"69":-0.09627913683652878,"70":0.0542277954518795,"71":-0.01611977629363537,"72":0.0472930446267128,"73":-0.14050471782684326,"74":-0.1122678816318512,"75":-0.1490412801504135,"76":-0.13473902642726898,"77":-0.12928488850593567,"78":-0.023615432903170586,"79":0.09898722171783447,"80":0.06334343552589417,"81":0.11551745235919952,"82":-0.07542205601930618,"83":0.18778608739376068,"84":-0.10835576057434082,"85":-0.12156084179878235,"86":-0.2001064568758011,"87":0.05352356657385826,"88":-0.18545545637607574,"89":0.01959601230919361,"90":0.09569833427667618,"91":-0.12460444867610931,"92":-0.1756473183631897,"93":0.1326189488172531,"94":-0.1419941484928131,"95":0.15721607208251953,"96":0.19223381578922272,"97":-0.11631043255329132,"98":0.1473497450351715,"99":-0.08930673450231552,"100":0.0007550608133897185,"101":-0.5849970579147339}},"19":{"bias":0.012491905130445957,"weights":{"0":-0.19276908040046692,"1":-0.18547827005386353,"2":-0.07660554349422455,"3":0.16687434911727905,"4":0.0355047807097435,"5":-0.005917930509895086,"6":-0.1831256002187729,"7":-0.19429433345794678,"8":-0.0485679917037487,"9":-0.11414020508527756,"10":0.0865098387002945,"11":0.08698011189699173,"12":-0.043586235493421555,"13":0.13468007743358612,"14":0.12146924436092377,"15":-0.03424863517284393,"16":-0.034449443221092224,"17":-0.08832458406686783,"18":0.07910769432783127,"19":0.057782046496868134,"20":0.1554301679134369,"21":0.05186271294951439,"22":-0.08601965755224228,"23":0.0074768271297216415,"24":0.06755849719047546,"25":-0.1494918316602707,"26":-0.11143022775650024,"27":-0.10062278807163239,"28":-0.14956235885620117,"29":0.08143123239278793,"30":-0.13921862840652466,"31":-0.11839086562395096,"32":0.021200543269515038,"33":0.004784881137311459,"34":0.036922864615917206,"35":0.14561504125595093,"36":0.06442193686962128,"37":-0.07681278139352798,"38":-0.17298808693885803,"39":-0.2019929736852646,"40":0.09546072781085968,"41":-0.16602598130702972,"42":0.08119230717420578,"43":-0.030792485922574997,"44":-0.027955394238233566,"45":0.03909991309046745,"46":-0.11766594648361206,"47":0.0644816979765892,"48":0.002160628093406558,"49":-0.15025927126407623,"50":0.028810087591409683,"51":0.18870581686496735,"52":-0.09211084246635437,"53":0.11194739490747452,"54":-0.07631154358386993,"55":0.10037419945001602,"56":-0.1644754409790039,"57":-0.019430670887231827,"58":0.05281951278448105,"59":-0.17864547669887543,"60":-0.14512284100055695,"61":-0.012284576892852783,"62":0.15874949097633362,"63":0.03051929362118244,"64":-0.16028955578804016,"65":-0.3519955575466156,"66":-0.06863728910684586,"67":0.022416891530156136,"68":0.059280771762132645,"69":-0.17974884808063507,"70":0.005846361164003611,"71":0.1189303919672966,"72":-0.08815301209688187,"73":-0.008109347894787788,"74":-0.08516589552164078,"75":-0.025197328999638557,"76":0.10451796650886536,"77":-0.030387114733457565,"78":0.04037631303071976,"79":-0.10088886320590973,"80":0.16478131711483002,"81":-0.14350047707557678,"82":-0.07613539695739746,"83":-0.013987560756504536,"84":0.19309066236019135,"85":0.05695406720042229,"86":0.1416512280702591,"87":-0.02112811617553234,"88":-0.14419852197170258,"89":0.16384686529636383,"90":-0.1617690771818161,"91":0.10963746160268784,"92":0.03543959558010101,"93":0.027083808556199074,"94":-0.1807304471731186,"95":0.054635677486658096,"96":0.08850965648889542,"97":0.1533849686384201,"98":-0.18036307394504547,"99":-0.013519932515919209,"100":-0.15152481198310852,"101":-0.5905207991600037}},"20":{"bias":-0.2964317798614502,"weights":{"0":-0.1738230139017105,"1":-0.07871507108211517,"2":0.15123552083969116,"3":-0.03297515958547592,"4":-0.15843765437602997,"5":0.077020063996315,"6":-0.050558045506477356,"7":0.18165217339992523,"8":-0.0011776527389883995,"9":0.005942394025623798,"10":-0.08016220480203629,"11":0.10726819187402725,"12":0.05525589734315872,"13":0.10379241406917572,"14":-0.028487585484981537,"15":-0.01445971243083477,"16":0.02316620759665966,"17":0.15590377151966095,"18":0.10881694406270981,"19":0.18394164741039276,"20":0.011964784935116768,"21":-0.025464003905653954,"22":0.035213589668273926,"23":-0.02938673086464405,"24":0.09830748289823532,"25":-0.11722040921449661,"26":0.07627879083156586,"27":0.006673478987067938,"28":-0.2022760510444641,"29":0.08846960961818695,"30":0.15328890085220337,"31":0.029276933521032333,"32":-0.07689932733774185,"33":-0.16173268854618073,"34":0.10562694817781448,"35":-0.13735957443714142,"36":0.16500186920166016,"37":0.10460835695266724,"38":0.01715346798300743,"39":0.04149988666176796,"40":-0.10053260624408722,"41":0.02285967767238617,"42":-0.07600486278533936,"43":0.006263522431254387,"44":0.11692243069410324,"45":0.09870867431163788,"46":0.36860883235931396,"47":0.02793571725487709,"48":0.34363487362861633,"49":-0.49228307604789734,"50":-0.002212362363934517,"51":0.24949748814105988,"52":-0.054084181785583496,"53":-0.07918144017457962,"54":-0.022908993065357208,"55":0.3154333829879761,"56":-0.14768162369728088,"57":-0.4076296091079712,"58":0.20538416504859924,"59":-0.6630276441574097,"60":-0.13531938195228577,"61":-0.08993358910083771,"62":0.36413368582725525,"63":0.145216166973114,"64":0.18287058174610138,"65":-0.025072656571865082,"66":-0.1676635444164276,"67":-0.13184159994125366,"68":-0.020897869020700455,"69":0.11635976284742355,"70":-0.10429785400629044,"71":-0.06389503180980682,"72":-0.2284681499004364,"73":0.11128328740596771,"74":0.03115345723927021,"75":-0.2804836332798004,"76":-0.26137077808380127,"77":-0.2370152324438095,"78":-0.18470875918865204,"79":-0.008312122896313667,"80":-0.021273529157042503,"81":-0.19115976989269257,"82":-0.22655273973941803,"83":-0.1348145455121994,"84":-0.0019573906902223825,"85":-0.15936559438705444,"86":-0.045584045350551605,"87":-0.12127022445201874,"88":-0.15903718769550323,"89":-0.045132070779800415,"90":0.16008351743221283,"91":-0.02697385847568512,"92":0.06041484326124191,"93":-0.1467059701681137,"94":0.10456263273954391,"95":0.002728199353441596,"96":-0.14946435391902924,"97":-0.05681753531098366,"98":-0.030532633885741234,"99":0.07891156524419785,"100":0.7108673453330994,"101":-0.81810063123703}},"21":{"bias":-0.05330413207411766,"weights":{"0":-0.1199110820889473,"1":0.15765909850597382,"2":0.06416463851928711,"3":-0.14490704238414764,"4":-0.06166930869221687,"5":0.014121625572443008,"6":-0.056534215807914734,"7":0.01577727124094963,"8":-0.03940216451883316,"9":0.1958422213792801,"10":-0.19764968752861023,"11":0.156158447265625,"12":0.13571114838123322,"13":0.028649885207414627,"14":-0.03138813003897667,"15":-0.11964784562587738,"16":0.10213153809309006,"17":-0.12645894289016724,"18":0.04347803443670273,"19":-0.09932293742895126,"20":-0.1318640261888504,"21":-0.191503643989563,"22":0.03643821179866791,"23":-0.1654210388660431,"24":0.16852986812591553,"25":-0.19054456055164337,"26":0.05927411466836929,"27":-0.07000350952148438,"28":0.028450259938836098,"29":-0.04168814420700073,"30":0.020374804735183716,"31":0.11832147091627121,"32":0.037807028740644455,"33":0.014777653850615025,"34":0.12319941073656082,"35":0.13613756000995636,"36":-0.09605496376752853,"37":-0.133719339966774,"38":0.4094220697879791,"39":0.19455434381961823,"40":0.17476028203964233,"41":-0.0651489719748497,"42":0.07044511288404465,"43":0.11483388394117355,"44":-0.06681795418262482,"45":-0.018920520320534706,"46":-0.32867416739463806,"47":0.21613231301307678,"48":-0.22183069586753845,"49":0.7657555937767029,"50":0.21083708107471466,"51":-0.34165501594543457,"52":-0.5681612491607666,"53":0.17769528925418854,"54":0.0934981107711792,"55":-0.7958091497421265,"56":-0.042254962027072906,"57":0.06808344274759293,"58":-0.4664813280105591,"59":0.6779463887214661,"60":-0.3530035614967346,"61":-0.0351780503988266,"62":-0.6028082370758057,"63":-0.14924120903015137,"64":0.03590968996286392,"65":-0.01791691780090332,"66":-0.17224928736686707,"67":-0.008395322598516941,"68":-0.1541191190481186,"69":-0.24977870285511017,"70":-0.5404559373855591,"71":-0.5383946895599365,"72":-0.07254870980978012,"73":-0.18816348910331726,"74":-0.0409182533621788,"75":0.0712057426571846,"76":0.2914218008518219,"77":-0.04483046755194664,"78":-0.09722217172384262,"79":-0.11356019228696823,"80":-0.28717365860939026,"81":0.010298657231032848,"82":0.00565720908343792,"83":0.10297124087810516,"84":-0.09585447609424591,"85":-0.0912163108587265,"86":0.1246391013264656,"87":-0.015692459419369698,"88":-0.05783117562532425,"89":0.14712601900100708,"90":0.16471992433071136,"91":-0.015349045395851135,"92":-0.13457663357257843,"93":-0.08648299425840378,"94":-0.18541750311851501,"95":0.050462327897548676,"96":0.12274166941642761,"97":-0.11318457126617432,"98":-0.017078185454010963,"99":0.1270516961812973,"100":-0.7412992119789124,"101":2.098548650741577}},"22":{"bias":-0.11454872041940689,"weights":{"0":0.019969182088971138,"1":0.022177215665578842,"2":0.16868914663791656,"3":0.034323498606681824,"4":0.14188078045845032,"5":0.11060831695795059,"6":-0.15372033417224884,"7":-0.026811327785253525,"8":0.03734287619590759,"9":-0.03428465873003006,"10":-0.1881357729434967,"11":0.058540333062410355,"12":-0.005963760893791914,"13":0.08836371451616287,"14":-0.11841507256031036,"15":0.13370025157928467,"16":-0.10204663872718811,"17":0.19520726799964905,"18":0.11617999523878098,"19":0.015563761815428734,"20":-0.08660430461168289,"21":-0.06233355402946472,"22":-0.18164171278476715,"23":-0.09452524036169052,"24":-0.017799032852053642,"25":-0.08745487034320831,"26":0.12577609717845917,"27":0.03179316595196724,"28":-0.044077157974243164,"29":0.08257155865430832,"30":-0.08446666598320007,"31":-0.02743956632912159,"32":0.12534169852733612,"33":-0.011261330917477608,"34":0.1306428611278534,"35":-0.049436673521995544,"36":0.03229700028896332,"37":0.016985906288027763,"38":0.09298393875360489,"39":-0.08346033096313477,"40":-0.08661077171564102,"41":0.12067198753356934,"42":0.006048594135791063,"43":0.12322890758514404,"44":-0.10161702334880829,"45":-0.15929928421974182,"46":-0.07039844244718552,"47":-0.1284177303314209,"48":0.04907245188951492,"49":0.19906501471996307,"50":-0.12358222156763077,"51":-0.0195692777633667,"52":0.12134607136249542,"53":-0.14453867077827454,"54":-0.04712031036615372,"55":0.0218683872371912,"56":-0.10065843164920807,"57":0.06031452491879463,"58":0.01985687017440796,"59":-0.13823474943637848,"60":-0.033291108906269073,"61":-0.16441814601421356,"62":-0.2821657955646515,"63":-0.029426179826259613,"64":-0.022894246503710747,"65":-0.2643201947212219,"66":-0.002359654288738966,"67":-0.066777303814888,"68":-0.23259775340557098,"69":0.031933221966028214,"70":0.05440249294042587,"71":-0.1770688146352768,"72":-0.029502037912607193,"73":-0.13962705433368683,"74":-0.11877109110355377,"75":-0.1507641226053238,"76":-0.021912505850195885,"77":-0.18465065956115723,"78":0.17759372293949127,"79":-0.01663989946246147,"80":0.022006947547197342,"81":-0.13058911263942719,"82":-0.027214502915740013,"83":-0.02592379041016102,"84":0.060204438865184784,"85":0.02297094836831093,"86":-0.09365587681531906,"87":0.08583992719650269,"88":-0.07656137645244598,"89":0.21634182333946228,"90":-0.18292225897312164,"91":-0.18619473278522491,"92":-0.05312206968665123,"93":0.056117285043001175,"94":-0.09158076345920563,"95":-0.07904433459043503,"96":-0.16527993977069855,"97":0.09516694396734238,"98":0.13326801359653473,"99":-0.007049361243844032,"100":-0.1160847619175911,"101":0.33324697613716125}},"23":{"bias":0.18411846458911896,"weights":{"0":0.1309935301542282,"1":-0.13723835349082947,"2":-0.13722945749759674,"3":0.17580541968345642,"4":-0.04541441425681114,"5":-0.008706430904567242,"6":-0.17664965987205505,"7":-0.05761507898569107,"8":0.0941559299826622,"9":0.16322265565395355,"10":0.1073470413684845,"11":0.08303139358758926,"12":-0.04357914626598358,"13":-0.19419771432876587,"14":-0.034973856061697006,"15":0.19147050380706787,"16":-0.0779120996594429,"17":-0.19328957796096802,"18":0.1023445874452591,"19":-0.007067263592034578,"20":-0.17255188524723053,"21":0.14283011853694916,"22":-0.12110590934753418,"23":-0.1905749887228012,"24":-0.11642418056726456,"25":0.033595070242881775,"26":-0.09674983471632004,"27":0.10481644421815872,"28":-0.07046329230070114,"29":-0.15331417322158813,"30":-0.001118181855417788,"31":-0.035774752497673035,"32":-0.10625427961349487,"33":0.051453348249197006,"34":-0.0391087532043457,"35":0.1142943874001503,"36":-0.18359261751174927,"37":0.08698117733001709,"38":0.005702391732484102,"39":-0.07381528615951538,"40":-0.09466668963432312,"41":0.047886673361063004,"42":0.04143707454204559,"43":0.12824304401874542,"44":0.02122042514383793,"45":0.08877429366111755,"46":0.1595587283372879,"47":-0.23878099024295807,"48":0.017022786661982536,"49":-0.57735675573349,"50":0.07229066640138626,"51":0.09164206683635712,"52":0.2143801897764206,"53":0.1313094049692154,"54":-0.23150794208049774,"55":0.17890778183937073,"56":-0.05939171835780144,"57":-0.09405256062746048,"58":0.02533864602446556,"59":-0.3025353252887726,"60":0.030497558414936066,"61":-0.11213778704404831,"62":0.1171247735619545,"63":0.22446534037590027,"64":0.18632662296295166,"65":-0.1788041740655899,"66":0.010419437661767006,"67":-0.20478090643882751,"68":0.07595265656709671,"69":0.21416042745113373,"70":0.20249643921852112,"71":-0.08408482372760773,"72":0.07955200970172882,"73":-0.04495888575911522,"74":-0.14803755283355713,"75":-0.2075255811214447,"76":-0.0652678981423378,"77":0.058958400040864944,"78":0.0051933699287474155,"79":0.030743589624762535,"80":0.14455141127109528,"81":0.10879170894622803,"82":-0.11621040850877762,"83":-0.18312475085258484,"84":0.08484470844268799,"85":-0.16384361684322357,"86":-0.16028331220149994,"87":-0.13340014219284058,"88":-0.07231634855270386,"89":0.13978029787540436,"90":-0.018625324591994286,"91":0.12788864970207214,"92":0.1474686861038208,"93":-0.09024952352046967,"94":-0.037768106907606125,"95":-0.1503440886735916,"96":-0.10734909027814865,"97":0.15696077048778534,"98":-0.10275178402662277,"99":-0.032565947622060776,"100":0.14774668216705322,"101":-1.3938887119293213}},"24":{"bias":-0.011183425784111023,"weights":{"0":-0.02382911555469036,"1":0.09656061232089996,"2":0.17408381402492523,"3":0.12291295826435089,"4":0.0373552180826664,"5":0.1534140408039093,"6":-0.1454162895679474,"7":-0.18032489717006683,"8":-0.10584249347448349,"9":0.07677944004535675,"10":0.17796127498149872,"11":-0.1340017169713974,"12":0.153182715177536,"13":-0.12361130863428116,"14":0.18939490616321564,"15":0.0674077719449997,"16":0.1953023374080658,"17":0.07638860493898392,"18":-0.05748838931322098,"19":0.16020670533180237,"20":0.16495205461978912,"21":-0.17141808569431305,"22":-0.05721880868077278,"23":-0.009408178739249706,"24":0.05875847488641739,"25":-0.15453439950942993,"26":-0.180201455950737,"27":-0.1872708797454834,"28":-0.06759613007307053,"29":0.1745593398809433,"30":-0.10954714566469193,"31":-0.11994800716638565,"32":0.059818729758262634,"33":0.0054918332025408745,"34":-0.08874395489692688,"35":-0.013696780428290367,"36":-0.1570146530866623,"37":-0.15101252496242523,"38":0.3676987290382385,"39":0.23950442671775818,"40":0.2869409918785095,"41":0.2887355089187622,"42":0.29992207884788513,"43":0.18079429864883423,"44":-0.150115966796875,"45":0.006692667491734028,"46":0.4302491545677185,"47":0.01121909823268652,"48":-0.1595972329378128,"49":0.10697715729475021,"50":0.21893583238124847,"51":-0.3457353115081787,"52":-0.4791741669178009,"53":-0.05647146701812744,"54":1.2301523685455322,"55":-0.3568948805332184,"56":0.31516221165657043,"57":-0.06356237083673477,"58":0.037930816411972046,"59":0.0851273164153099,"60":-0.7605496644973755,"61":-0.5013173818588257,"62":-0.27798518538475037,"63":-0.318467915058136,"64":0.14876075088977814,"65":0.4313484728336334,"66":-0.020561160519719124,"67":-0.01176148746162653,"68":-0.12789985537528992,"69":-0.2348100244998932,"70":-0.3072020411491394,"71":-0.21434403955936432,"72":0.0011484039714559913,"73":-0.12982335686683655,"74":0.18059751391410828,"75":0.17411448061466217,"76":0.48549434542655945,"77":0.1855911910533905,"78":-0.14868298172950745,"79":-0.0755758062005043,"80":-0.2716120481491089,"81":-0.05357280373573303,"82":0.04869856685400009,"83":-0.21971473097801208,"84":0.11006104201078415,"85":0.02530895173549652,"86":-0.16713660955429077,"87":0.0062126293778419495,"88":-0.1144614890217781,"89":0.01568092778325081,"90":-0.11667528748512268,"91":-0.0370679534971714,"92":-0.11005666106939316,"93":0.14644834399223328,"94":-0.0831214040517807,"95":-0.19238093495368958,"96":-0.030476326122879982,"97":-0.18129590153694153,"98":-0.1372101753950119,"99":0.051250383257865906,"100":1.8750866651535034,"101":2.614973783493042}},"25":{"bias":-0.029745984822511673,"weights":{"0":0.11731424182653427,"1":0.14015425741672516,"2":0.16949018836021423,"3":0.12580537796020508,"4":-0.11794791370630264,"5":0.13903509080410004,"6":-0.017226476222276688,"7":-0.11407916247844696,"8":-0.03350304812192917,"9":-0.06641340255737305,"10":-0.04150007292628288,"11":-0.027023250237107277,"12":-0.027997903525829315,"13":-0.1957848072052002,"14":0.10277532041072845,"15":0.03337956964969635,"16":-0.17227552831172943,"17":-0.022472193464636803,"18":-0.04385180398821831,"19":0.039948586374521255,"20":-0.07478291541337967,"21":-0.15681734681129456,"22":0.032716840505599976,"23":-0.048775866627693176,"24":0.1705647110939026,"25":0.15079720318317413,"26":0.08027289807796478,"27":-0.15298694372177124,"28":-0.0077598015777766705,"29":-0.18884003162384033,"30":0.1295166164636612,"31":0.04930936172604561,"32":0.16010434925556183,"33":0.1634320467710495,"34":-0.19963087141513824,"35":0.14025551080703735,"36":-0.14339232444763184,"37":-0.07085393369197845,"38":0.041018046438694,"39":-0.17654819786548615,"40":-0.22368204593658447,"41":-0.1528749018907547,"42":0.003908390179276466,"43":-0.02585713192820549,"44":0.15310361981391907,"45":-0.16805049777030945,"46":-0.008320066146552563,"47":-0.335088312625885,"48":0.1248726099729538,"49":-0.4889174699783325,"50":0.08369451016187668,"51":-0.1253652125597,"52":0.3648633658885956,"53":-0.05603163316845894,"54":-0.6330477595329285,"55":0.5463247299194336,"56":-0.10032746195793152,"57":-0.18499067425727844,"58":0.15071503818035126,"59":-0.2718390226364136,"60":0.00035090389428660274,"61":-0.12073079496622086,"62":0.15447059273719788,"63":0.019024336710572243,"64":-0.038596853613853455,"65":-0.41922274231910706,"66":-0.3082345128059387,"67":-0.038636207580566406,"68":-0.01942775398492813,"69":-0.025358930230140686,"70":0.3263300061225891,"71":0.032382212579250336,"72":0.05310814827680588,"73":0.08222049474716187,"74":0.08376215398311615,"75":0.013738145120441914,"76":-0.23662066459655762,"77":0.004726451821625233,"78":-0.07394073903560638,"79":-0.08821157366037369,"80":-0.03740410879254341,"81":0.039572615176439285,"82":-0.005784799810498953,"83":0.04123133048415184,"84":0.2013477385044098,"85":-0.03401413932442665,"86":0.030862970277667046,"87":0.12776532769203186,"88":-0.187444806098938,"89":0.08681564033031464,"90":0.09981924295425415,"91":0.1471676230430603,"92":-0.15370959043502808,"93":-0.09094718098640442,"94":0.12133524566888809,"95":-0.05668602138757706,"96":0.03228360041975975,"97":0.11734937876462936,"98":0.1847778707742691,"99":0.19011268019676208,"100":-0.12261732667684555,"101":-1.1887502670288086}},"26":{"bias":-0.16145868599414825,"weights":{"0":-0.05200968682765961,"1":0.03861653804779053,"2":0.18491850793361664,"3":-0.18021872639656067,"4":0.0030046275351196527,"5":-0.12008599191904068,"6":-0.009065447375178337,"7":-0.14426815509796143,"8":-0.1250220537185669,"9":-0.0244841817766428,"10":0.12405221909284592,"11":0.08141107857227325,"12":0.03106379136443138,"13":0.09919584542512894,"14":0.04122823476791382,"15":0.11590985953807831,"16":-0.10902421921491623,"17":0.06995837390422821,"18":-0.0986768826842308,"19":0.171217679977417,"20":-0.0744563564658165,"21":0.07867379486560822,"22":0.18016891181468964,"23":0.062288422137498856,"24":0.19971169531345367,"25":0.08195900917053223,"26":0.04838165268301964,"27":-0.009643587283790112,"28":0.18821671605110168,"29":0.038667965680360794,"30":0.06453374773263931,"31":-0.08080937713384628,"32":-0.18913836777210236,"33":0.09258904308080673,"34":0.18631212413311005,"35":0.07681479305028915,"36":-0.03860277682542801,"37":0.20662300288677216,"38":0.34551674127578735,"39":-0.10446659475564957,"40":-0.1319786012172699,"41":-0.2199784517288208,"42":0.06044450402259827,"43":-0.003330724313855171,"44":0.17984147369861603,"45":-0.10985609143972397,"46":-0.23958003520965576,"47":-0.13088899850845337,"48":-0.5265138745307922,"49":0.7000167369842529,"50":0.31270653009414673,"51":-0.2253674864768982,"52":-0.3363938331604004,"53":-0.02976974844932556,"54":-0.003363053547218442,"55":-0.7141547203063965,"56":-0.11210456490516663,"57":0.2759079933166504,"58":-0.2559605538845062,"59":0.8271499872207642,"60":0.19707249104976654,"61":0.29821550846099854,"62":-0.5931577086448669,"63":-0.018761802464723587,"64":-0.19536519050598145,"65":-0.07054826617240906,"66":0.030101943761110306,"67":0.050520721822977066,"68":-0.05288979783654213,"69":-0.1921042799949646,"70":-0.29337191581726074,"71":-0.13661904633045197,"72":0.15265466272830963,"73":-0.1404254287481308,"74":0.23400801420211792,"75":0.23672331869602203,"76":0.15819521248340607,"77":-0.11221391707658768,"78":0.14195911586284637,"79":-0.20011082291603088,"80":-0.10966712981462479,"81":0.009349759668111801,"82":0.14375504851341248,"83":-0.11551886796951294,"84":0.16816958785057068,"85":0.0994071438908577,"86":-0.010167177766561508,"87":-0.06905680149793625,"88":-0.014749962836503983,"89":0.20195133984088898,"90":0.1444852501153946,"91":-0.058010686188936234,"92":0.12805406749248505,"93":0.19907505810260773,"94":0.07574788480997086,"95":0.015036960132420063,"96":-0.049699366092681885,"97":0.04645197466015816,"98":-0.01873042806982994,"99":-0.0920361801981926,"100":-0.739682137966156,"101":1.7092158794403076}},"27":{"bias":-0.09213371574878693,"weights":{"0":-0.16713131964206696,"1":-0.058277908712625504,"2":-0.16610725224018097,"3":0.1163957342505455,"4":-0.0035097773652523756,"5":0.14267632365226746,"6":0.17352649569511414,"7":-0.18089279532432556,"8":-0.07600346952676773,"9":-0.1527860015630722,"10":-0.13985216617584229,"11":-0.15302838385105133,"12":-0.09045112133026123,"13":0.16817377507686615,"14":-0.0967961847782135,"15":-0.002267845207825303,"16":0.07614019513130188,"17":0.0547984316945076,"18":-0.14050835371017456,"19":0.13856817781925201,"20":-0.043349236249923706,"21":0.10176088660955429,"22":-0.1679503172636032,"23":-0.12623539566993713,"24":-0.04693196341395378,"25":-0.0632561668753624,"26":0.01745852269232273,"27":0.011438624933362007,"28":0.011384502053260803,"29":0.019465381279587746,"30":-0.1016063243150711,"31":-0.11355698853731155,"32":0.16463041305541992,"33":-0.015535084530711174,"34":0.09429092705249786,"35":0.023924173787236214,"36":-0.10816216468811035,"37":-0.04837225377559662,"38":-0.14398358762264252,"39":-0.14353612065315247,"40":-0.030413879081606865,"41":-0.0714246928691864,"42":0.045472607016563416,"43":-0.11683398485183716,"44":0.10675831884145737,"45":0.15853844583034515,"46":0.061075903475284576,"47":0.15012846887111664,"48":0.2657032608985901,"49":-0.519340991973877,"50":-0.2153133898973465,"51":0.26855888962745667,"52":0.20996306836605072,"53":-0.17709624767303467,"54":-0.22053183615207672,"55":0.2579662799835205,"56":-0.07093822956085205,"57":-0.2531578540802002,"58":0.1601506471633911,"59":-0.5631151795387268,"60":-0.14166200160980225,"61":0.039652105420827866,"62":0.3755476176738739,"63":0.03181532025337219,"64":0.06534698605537415,"65":0.028067106381058693,"66":-0.1788788139820099,"67":0.033145904541015625,"68":0.16062168776988983,"69":0.10757993906736374,"70":0.09367832541465759,"71":0.11290056258440018,"72":-0.06551927328109741,"73":-0.05319344624876976,"74":-0.056364063173532486,"75":-0.031168252229690552,"76":-0.02314755693078041,"77":0.10293915867805481,"78":0.06683774292469025,"79":-0.009231272153556347,"80":0.06482402980327606,"81":-0.07674027234315872,"82":-0.2276337593793869,"83":-0.1329951137304306,"84":-0.15365800261497498,"85":-0.10561830550432205,"86":-0.15314745903015137,"87":0.08466803282499313,"88":0.08429926633834839,"89":-0.018423615023493767,"90":-0.18076948821544647,"91":0.07406730204820633,"92":-0.086869016289711,"93":0.027952367439866066,"94":0.041289325803518295,"95":0.14717592298984528,"96":0.014527334831655025,"97":0.1711546629667282,"98":0.12602302432060242,"99":-0.15686102211475372,"100":0.5845949053764343,"101":-1.0812369585037231}},"28":{"bias":-0.2486264556646347,"weights":{"0":0.011435208842158318,"1":0.05668008700013161,"2":0.19683027267456055,"3":-0.053594253957271576,"4":-0.010419853031635284,"5":0.1955210566520691,"6":0.05141220614314079,"7":0.12723949551582336,"8":-0.10583461076021194,"9":-0.16986903548240662,"10":-0.012510044500231743,"11":-0.041494227945804596,"12":0.07559016346931458,"13":0.0960269644856453,"14":0.06124809756875038,"15":-0.16801591217517853,"16":0.13686645030975342,"17":-0.11218719929456711,"18":0.08664857596158981,"19":0.09776636213064194,"20":-0.18499746918678284,"21":0.18216601014137268,"22":0.012328552082180977,"23":0.15381939709186554,"24":-0.028992269188165665,"25":0.07606226205825806,"26":-0.021173443645238876,"27":-0.1150631457567215,"28":0.04322491213679314,"29":-0.0415860079228878,"30":-0.037322405725717545,"31":0.17409086227416992,"32":-0.024378778412938118,"33":-0.06054626405239105,"34":0.089845210313797,"35":0.12154251337051392,"36":0.008859631605446339,"37":-0.02821623906493187,"38":0.19826936721801758,"39":0.08944260329008102,"40":0.3332524597644806,"41":0.31815844774246216,"42":0.133936807513237,"43":0.15654140710830688,"44":0.13346602022647858,"45":0.15158237516880035,"46":-0.24937041103839874,"47":-0.036688182502985,"48":-0.2512764632701874,"49":0.31773900985717773,"50":-0.2999076545238495,"51":-0.46159058809280396,"52":-0.7871041893959045,"53":-0.6580607891082764,"54":0.9736262559890747,"55":-0.6476181149482727,"56":-0.15214817225933075,"57":-0.3500390648841858,"58":-0.33141595125198364,"59":-0.18042926490306854,"60":-0.38135865330696106,"61":-0.12452463805675507,"62":-0.2907073199748993,"63":0.06756294518709183,"64":0.24202582240104675,"65":0.6400523781776428,"66":0.031329188495874405,"67":0.14879098534584045,"68":-0.058954473584890366,"69":-0.188170924782753,"70":-0.42922595143318176,"71":-0.2973262369632721,"72":0.04057870805263519,"73":-0.17658592760562897,"74":0.23079533874988556,"75":0.41571223735809326,"76":0.3271245062351227,"77":0.21765901148319244,"78":-0.12887686491012573,"79":-0.04365808144211769,"80":-0.17042185366153717,"81":-0.02811417169868946,"82":-0.1045234352350235,"83":-0.2378249317407608,"84":0.0810285359621048,"85":0.1312887966632843,"86":0.012244648300111294,"87":-0.003891178173944354,"88":-0.25525957345962524,"89":0.11903572827577591,"90":-0.08223555237054825,"91":-0.05996154248714447,"92":0.10756419599056244,"93":-0.07704441249370575,"94":-0.09163200110197067,"95":0.07087499648332596,"96":0.15192532539367676,"97":-0.19226005673408508,"98":0.17420272529125214,"99":-0.04461909830570221,"100":1.0992354154586792,"101":2.6477415561676025}},"29":{"bias":0.0002479397808201611,"weights":{"0":-0.0678066834807396,"1":-0.1286371946334839,"2":-0.18168118596076965,"3":0.16669540107250214,"4":0.006822605151683092,"5":-0.1011740043759346,"6":-0.16258960962295532,"7":0.1563464105129242,"8":-0.0680280402302742,"9":0.030459173023700714,"10":-0.11922154575586319,"11":0.14174596965312958,"12":0.08992873877286911,"13":0.027316853404045105,"14":-0.1969958245754242,"15":-0.13534289598464966,"16":-0.02710479311645031,"17":-0.0005819692742079496,"18":-0.16634808480739594,"19":0.16891135275363922,"20":-0.1419987678527832,"21":-0.0047125001437962055,"22":0.03485211357474327,"23":0.1064365953207016,"24":-0.0866846963763237,"25":0.06240883842110634,"26":-0.08339402079582214,"27":-0.1492997258901596,"28":-0.08397621661424637,"29":-0.10512784868478775,"30":0.11054886132478714,"31":-0.16259360313415527,"32":-0.013795392587780952,"33":0.1630239337682724,"34":-0.07322665303945541,"35":0.008590804412961006,"36":-0.19744272530078888,"37":-0.09385152906179428,"38":-0.23602810502052307,"39":0.1353149116039276,"40":-0.2278238981962204,"41":-0.09976822137832642,"42":-0.14264734089374542,"43":0.06671980023384094,"44":-0.08125926554203033,"45":0.17281551659107208,"46":-0.07549726963043213,"47":-0.166741281747818,"48":-0.10770097374916077,"49":0.04321282356977463,"50":0.07960417866706848,"51":0.1165853887796402,"52":0.009001894854009151,"53":0.2501166760921478,"54":-0.4246129095554352,"55":-0.2007707953453064,"56":0.018881550058722496,"57":-0.01301028486341238,"58":-0.16623316705226898,"59":-0.05956588685512543,"60":0.3756064772605896,"61":0.023074660450220108,"62":0.0984673872590065,"63":0.03217625245451927,"64":-0.21427689492702484,"65":-0.3970104455947876,"66":-0.02371174283325672,"67":0.06346970796585083,"68":0.07449959218502045,"69":-0.06877210736274719,"70":0.17295141518115997,"71":0.27780720591545105,"72":-0.021726982668042183,"73":0.2311297506093979,"74":0.03894370049238205,"75":0.11551502346992493,"76":-0.06323068588972092,"77":-0.05580994486808777,"78":0.2361602783203125,"79":0.18188096582889557,"80":-0.05251727253198624,"81":-0.002385876141488552,"82":0.25305861234664917,"83":0.18629786372184753,"84":-0.08439186215400696,"85":0.26406288146972656,"86":0.016008662059903145,"87":0.24088051915168762,"88":0.03888282924890518,"89":0.24882981181144714,"90":-0.008263719268143177,"91":-0.07063072919845581,"92":-0.1313709020614624,"93":0.11354093253612518,"94":-0.12313508242368698,"95":0.0528956800699234,"96":0.041268233209848404,"97":0.0753135085105896,"98":0.0804627388715744,"99":0.0016589609440416098,"100":-0.8495709896087646,"101":-0.3757317364215851}}},{"0":{"bias":0.11577082425355911,"weights":{"0":0.6247594952583313,"1":0.699658215045929,"2":0.05018213391304016,"3":0.0571804903447628,"4":-0.25980573892593384,"5":0.3023934066295624,"6":-0.04089807718992233,"7":0.6507313251495361,"8":0.08393847942352295,"9":-0.5493237376213074,"10":-0.6224846243858337,"11":-0.004592420998960733,"12":0.517686665058136,"13":-0.7913639545440674,"14":0.16741986572742462,"15":-0.3123232126235962,"16":-0.1272112876176834,"17":0.18544043600559235,"18":-0.02625824324786663,"19":0.1224132552742958,"20":0.06338438391685486,"21":-0.632106363773346,"22":-0.07928278297185898,"23":0.01654069684445858,"24":-0.9568383693695068,"25":0.38362234830856323,"26":-0.3581297993659973,"27":0.24427466094493866,"28":-1.0121489763259888,"29":0.5160952806472778}},"1":{"bias":-0.022591616958379745,"weights":{"0":0.5270696878433228,"1":0.07720406353473663,"2":-0.039952442049980164,"3":-0.39813336730003357,"4":0.24069686233997345,"5":-0.032860491424798965,"6":-0.1591431051492691,"7":0.05731281265616417,"8":0.09683896601200104,"9":-0.21408674120903015,"10":-0.11395768076181412,"11":0.44204720854759216,"12":-0.13906526565551758,"13":0.0313117690384388,"14":0.38039469718933105,"15":0.44786500930786133,"16":-0.23944301903247833,"17":-0.44008496403694153,"18":0.08731906116008759,"19":-0.06429615616798401,"20":0.5319374203681946,"21":-0.26588988304138184,"22":-0.13155941665172577,"23":-0.027333756908774376,"24":-0.22193598747253418,"25":-0.012979100458323956,"26":-0.33150380849838257,"27":0.2573908865451813,"28":-0.07287591695785522,"29":-0.3809097409248352}},"2":{"bias":-0.011555676348507404,"weights":{"0":-1.079137921333313,"1":-0.5002132058143616,"2":0.10627157986164093,"3":0.3198418617248535,"4":-0.4372806251049042,"5":0.056338999420404434,"6":0.2461628019809723,"7":-0.054164767265319824,"8":-0.0634814202785492,"9":0.3942710757255554,"10":0.14056077599525452,"11":-0.5634278059005737,"12":-0.04724114015698433,"13":0.10314861685037613,"14":-0.5415542125701904,"15":-0.6163597106933594,"16":-0.025278599932789803,"17":0.23694413900375366,"18":-0.2299477905035019,"19":-0.20198892056941986,"20":-0.7212257981300354,"21":0.5558124780654907,"22":0.12218015640974045,"23":-0.29859185218811035,"24":0.6254003643989563,"25":-0.23952531814575195,"26":0.7414109110832214,"27":-0.4370182454586029,"28":0.3699786067008972,"29":0.06679664552211761}},"3":{"bias":-0.07235993444919586,"weights":{"0":0.10105050355195999,"1":-0.11590033024549484,"2":-0.059554941952228546,"3":-0.323638379573822,"4":-0.10426876693964005,"5":-0.226959228515625,"6":-0.023325257003307343,"7":-0.12122906744480133,"8":-0.13996398448944092,"9":-0.1003037616610527,"10":-0.08433760702610016,"11":0.21378588676452637,"12":-0.1780780553817749,"13":0.04571863263845444,"14":0.15538929402828217,"15":0.3359377384185791,"16":0.10523445159196854,"17":-0.12110134214162827,"18":-0.1245650202035904,"19":-0.21604390442371368,"20":0.2439894676208496,"21":-0.11306499689817429,"22":-0.19878539443016052,"23":-0.20313596725463867,"24":0.2792006731033325,"25":-0.17049938440322876,"26":-0.26890212297439575,"27":0.15476422011852264,"28":0.22550398111343384,"29":-0.1617863029241562}},"4":{"bias":-0.16394327580928802,"weights":{"0":0.397634357213974,"1":0.15545044839382172,"2":-0.239508718252182,"3":-0.4674699604511261,"4":0.41229379177093506,"5":-0.24360868334770203,"6":-0.04450993612408638,"7":-0.007623288780450821,"8":0.12186010181903839,"9":-0.3202356994152069,"10":-0.1466190367937088,"11":0.3872833847999573,"12":-0.12419912964105606,"13":0.21992135047912598,"14":0.3402634561061859,"15":0.42759180068969727,"16":-0.2598493993282318,"17":-0.2741510570049286,"18":-0.11138582229614258,"19":0.15769292414188385,"20":0.4439871311187744,"21":-0.3224964737892151,"22":-0.048886675387620926,"23":0.17563945055007935,"24":0.01783091202378273,"25":0.26895758509635925,"26":-0.6002093553543091,"27":0.35327616333961487,"28":-0.21917575597763062,"29":-0.27130547165870667}},"5":{"bias":0.06365947425365448,"weights":{"0":-0.6658830642700195,"1":-0.820176899433136,"2":0.11862334609031677,"3":-0.3311173915863037,"4":0.2198188155889511,"5":-0.3312664330005646,"6":-0.11957968026399612,"7":-0.647569477558136,"8":0.028251418843865395,"9":0.5505199432373047,"10":0.666677713394165,"11":0.035813745111227036,"12":-0.4888767600059509,"13":0.8661194443702698,"14":-0.13829460740089417,"15":0.03404585272073746,"16":0.2450942099094391,"17":-0.27242255210876465,"18":-0.08522963523864746,"19":-0.13770326972007751,"20":0.2102500945329666,"21":0.45976555347442627,"22":0.2085532546043396,"23":-0.25484901666641235,"24":1.303252100944519,"25":-0.37147974967956543,"26":0.05107780173420906,"27":0.0451621375977993,"28":0.7759672403335571,"29":-0.549120306968689}},"6":{"bias":0.03725188970565796,"weights":{"0":-0.5368322730064392,"1":-0.6061049699783325,"2":0.1546756476163864,"3":-0.050190288573503494,"4":0.0619109608232975,"5":-0.376987099647522,"6":-0.32083597779273987,"7":-0.4214532673358917,"8":-0.08657464385032654,"9":0.5095301270484924,"10":0.4791780114173889,"11":-0.16015037894248962,"12":-0.2353964000940323,"13":0.6619951725006104,"14":-0.04881567507982254,"15":0.08417311310768127,"16":-0.01619195193052292,"17":-0.5598741769790649,"18":-0.16475142538547516,"19":-0.2472948431968689,"20":0.23583969473838806,"21":0.4449428915977478,"22":-0.12843932211399078,"23":-0.11485873907804489,"24":0.9093273282051086,"25":-0.39559611678123474,"26":0.05011466518044472,"27":0.06270483136177063,"28":0.7385447025299072,"29":-0.37208157777786255}},"7":{"bias":-0.10161185264587402,"weights":{"0":-0.4887421429157257,"1":-0.3027070462703705,"2":0.2111530900001526,"3":-0.02387974038720131,"4":-0.22095203399658203,"5":-0.15005600452423096,"6":0.16050495207309723,"7":-0.2517322599887848,"8":0.07730501890182495,"9":0.07025043666362762,"10":-0.016417741775512695,"11":-0.2596440017223358,"12":-0.19388967752456665,"13":0.06869248300790787,"14":-0.24335815012454987,"15":-0.19364692270755768,"16":0.015705524012446404,"17":0.03333749622106552,"18":-0.18025043606758118,"19":-0.04850991070270538,"20":-0.023033540695905685,"21":0.2943064272403717,"22":-0.026814842596650124,"23":0.002179322298616171,"24":0.16111016273498535,"25":0.010028768330812454,"26":0.007595963776111603,"27":-0.23006989061832428,"28":0.08493054658174515,"29":0.17627032101154327}},"8":{"bias":-0.08426345884799957,"weights":{"0":0.5202101469039917,"1":0.15833398699760437,"2":-0.014529382809996605,"3":-0.1272340714931488,"4":-0.0722525492310524,"5":0.09693510085344315,"6":-0.17416194081306458,"7":0.28814807534217834,"8":0.05113614350557327,"9":-0.3290877640247345,"10":-0.16462160646915436,"11":0.06492061913013458,"12":0.0364672914147377,"13":-0.15216970443725586,"14":0.11124233156442642,"15":0.08796124160289764,"16":-0.037076257169246674,"17":-0.04685656353831291,"18":0.1514686942100525,"19":0.024031508713960648,"20":-0.013737186789512634,"21":-0.39840760827064514,"22":0.1154923141002655,"23":0.3189881145954132,"24":-0.3536002039909363,"25":0.299428790807724,"26":-0.4296931326389313,"27":-0.01660182513296604,"28":-0.31426751613616943,"29":0.11043480783700943}},"9":{"bias":0.0071577467024326324,"weights":{"0":0.5973527431488037,"1":0.24419358372688293,"2":-0.0515274778008461,"3":-0.22161060571670532,"4":0.11543085426092148,"5":-0.15237049758434296,"6":-0.10565707832574844,"7":0.15800701081752777,"8":0.12777873873710632,"9":-0.363689124584198,"10":-0.0751800388097763,"11":0.12457083910703659,"12":0.20991283655166626,"13":-0.20218446850776672,"14":0.47495898604393005,"15":0.2348054200410843,"16":-0.10308362543582916,"17":0.004351399838924408,"18":0.05630350857973099,"19":0.24260252714157104,"20":0.21467724442481995,"21":-0.2653124928474426,"22":-0.05593241751194,"23":0.31019145250320435,"24":-0.414745032787323,"25":0.11109142750501633,"26":-0.3874104917049408,"27":0.3275977075099945,"28":-0.41164207458496094,"29":-0.1735917031764984}},"10":{"bias":-0.3138093054294586,"weights":{"0":0.13685789704322815,"1":-0.1549595594406128,"2":-0.07002642750740051,"3":-0.33452707529067993,"4":0.31504735350608826,"5":-0.28985732793807983,"6":-0.42378225922584534,"7":-0.18350368738174438,"8":0.04467836767435074,"9":0.18899278342723846,"10":0.06744584441184998,"11":0.3257134258747101,"12":-0.42188239097595215,"13":0.37623152136802673,"14":-0.01605367474257946,"15":0.4732435941696167,"16":0.03367391601204872,"17":-0.4387429654598236,"18":-0.15971650183200836,"19":-0.12174862623214722,"20":0.22655975818634033,"21":-0.31752699613571167,"22":-0.21310749650001526,"23":-0.06323084235191345,"24":0.4321993887424469,"25":-0.007436676882207394,"26":-0.23274125158786774,"27":-0.03488033264875412,"28":0.3572114109992981,"29":-0.4813382923603058}},"11":{"bias":0.046149641275405884,"weights":{"0":0.9215758442878723,"1":0.611889660358429,"2":0.0720755010843277,"3":-0.02394811436533928,"4":0.29446500539779663,"5":0.20417843759059906,"6":-0.05143904313445091,"7":0.3783319890499115,"8":0.165613055229187,"9":-0.5864506363868713,"10":-0.22879399359226227,"11":0.4787079989910126,"12":0.047373514622449875,"13":-0.2908984124660492,"14":0.622204601764679,"15":0.35243427753448486,"16":-0.3079775273799896,"17":-0.1372416913509369,"18":0.1261371225118637,"19":0.17425821721553802,"20":0.25578317046165466,"21":-0.7505092024803162,"22":0.1113581508398056,"23":0.4541328251361847,"24":-0.509270191192627,"25":0.433602899312973,"26":-0.6229003071784973,"27":0.3421590328216553,"28":-0.5964984893798828,"29":0.01653851568698883}},"12":{"bias":0.043964844197034836,"weights":{"0":0.3940305709838867,"1":0.1034136563539505,"2":-0.12383074313402176,"3":-0.34096649289131165,"4":-0.04840783774852753,"5":0.1361871063709259,"6":0.06375457346439362,"7":0.1269804835319519,"8":0.20492450892925262,"9":-0.24161043763160706,"10":-0.12578682601451874,"11":0.28070417046546936,"12":-0.07333697378635406,"13":0.053919728845357895,"14":0.3705543577671051,"15":0.2514056861400604,"16":-0.1728615015745163,"17":-0.25028494000434875,"18":0.20089131593704224,"19":-0.14091791212558746,"20":0.1106705442070961,"21":-0.46574023365974426,"22":0.024830680340528488,"23":0.17462143301963806,"24":-0.10151766240596771,"25":0.27862510085105896,"26":-0.33640390634536743,"27":0.0056858365423977375,"28":-0.16751080751419067,"29":0.052728425711393356}},"13":{"bias":-0.1586151272058487,"weights":{"0":-0.12747904658317566,"1":-0.3097403347492218,"2":0.06619665771722794,"3":-0.23894917964935303,"4":-0.128726989030838,"5":-0.0028702158015221357,"6":0.017032427713274956,"7":-0.21907657384872437,"8":0.11768677830696106,"9":-0.011287551373243332,"10":-0.03727102279663086,"11":0.10874391347169876,"12":-0.016469718888401985,"13":0.13542737066745758,"14":-0.02831212244927883,"15":0.04634033888578415,"16":0.17015382647514343,"17":-0.11835473030805588,"18":-0.03617531806230545,"19":0.07370836287736893,"20":-0.10622281581163406,"21":-0.04600329324603081,"22":-0.07496234029531479,"23":-0.06717519462108612,"24":0.27165213227272034,"25":0.07797739654779434,"26":-0.0009932290995493531,"27":-0.026477504521608353,"28":0.009840819984674454,"29":-0.21323910355567932}},"14":{"bias":0.08779998123645782,"weights":{"0":1.0363906621932983,"1":0.3123219311237335,"2":-0.2913106083869934,"3":-0.2910282015800476,"4":0.38713714480400085,"5":0.01848524995148182,"6":-0.3452547490596771,"7":0.11558800935745239,"8":0.1130959615111351,"9":-0.2737102210521698,"10":-0.14061595499515533,"11":0.5610505938529968,"12":-0.035918667912483215,"13":0.07403267174959183,"14":0.673353374004364,"15":0.8100340962409973,"16":-0.3932596743106842,"17":-0.15030550956726074,"18":0.28902626037597656,"19":0.06942610442638397,"20":0.7903224229812622,"21":-0.8090576529502869,"22":0.06047831103205681,"23":0.49170055985450745,"24":-0.6967769265174866,"25":0.20984157919883728,"26":-0.8496132493019104,"27":0.4846625030040741,"28":-0.627156138420105,"29":-0.03177913278341293}},"15":{"bias":-0.11936438083648682,"weights":{"0":-0.9669461846351624,"1":-0.8807191848754883,"2":-0.05792728066444397,"3":0.022397875785827637,"4":-0.0588078536093235,"5":-0.14399059116840363,"6":0.17029443383216858,"7":-0.3674236536026001,"8":-0.255960613489151,"9":0.6147652864456177,"10":0.6065617203712463,"11":-0.4225182831287384,"12":-0.4678451418876648,"13":0.4869925379753113,"14":-0.5220454335212708,"15":-0.3043866455554962,"16":0.24635110795497894,"17":-0.27607205510139465,"18":-0.3934820592403412,"19":-0.0484699010848999,"20":-0.3637656271457672,"21":0.6872068643569946,"22":-0.17023861408233643,"23":-0.4631780683994293,"24":0.869312584400177,"25":-0.4378184676170349,"26":0.6614065170288086,"27":-0.3997412621974945,"28":0.90165114402771,"29":-0.13141658902168274}},"16":{"bias":-0.16205713152885437,"weights":{"0":0.34661224484443665,"1":0.0535738468170166,"2":-0.1664687991142273,"3":-0.022341832518577576,"4":-0.12656153738498688,"5":-0.16563674807548523,"6":-0.27756237983703613,"7":-0.138236865401268,"8":0.1789095252752304,"9":0.07576373964548111,"10":-0.07231174409389496,"11":0.011648938991129398,"12":0.11755059659481049,"13":0.0782308578491211,"14":0.16330502927303314,"15":0.25247493386268616,"16":0.0547419898211956,"17":-0.0938350111246109,"18":0.15896731615066528,"19":0.08043878525495529,"20":-0.045443784445524216,"21":-0.37354984879493713,"22":-0.11172212660312653,"23":-0.15955619513988495,"24":0.019933709874749184,"25":0.016561802476644516,"26":-0.17267142236232758,"27":0.170810729265213,"28":-0.233362078666687,"29":-0.18610209226608276}},"17":{"bias":0.11327917873859406,"weights":{"0":-0.865000307559967,"1":-1.0423437356948853,"2":0.1435118019580841,"3":-0.018298452720046043,"4":-0.0514812245965004,"5":-0.3440892994403839,"6":-0.16696511209011078,"7":-0.5183266997337341,"8":0.10256439447402954,"9":0.5802382826805115,"10":0.627836287021637,"11":-0.12246198207139969,"12":-0.44865986704826355,"13":0.8036893010139465,"14":-0.18066315352916718,"15":0.19174180924892426,"16":0.031379569321870804,"17":-0.5133340358734131,"18":-0.19352321326732635,"19":-0.08748018741607666,"20":-0.0635799691081047,"21":0.5922409892082214,"22":-0.08260929584503174,"23":-0.2936377227306366,"24":1.334869623184204,"25":-0.445323646068573,"26":0.2424972653388977,"27":-0.04315716400742531,"28":1.1777626276016235,"29":-0.4269578754901886}},"18":{"bias":-0.15460172295570374,"weights":{"0":-0.8195644617080688,"1":-0.62255859375,"2":-0.11992412060499191,"3":0.10360096395015717,"4":-0.2548213601112366,"5":-0.27551594376564026,"6":-0.1443261355161667,"7":-0.1689411997795105,"8":-0.11745312064886093,"9":0.43972527980804443,"10":0.3028237223625183,"11":-0.18804898858070374,"12":-0.2634190022945404,"13":0.3192373812198639,"14":-0.2994362413883209,"15":-0.009380638599395752,"16":0.16599485278129578,"17":-0.055344052612781525,"18":-0.23429235816001892,"19":-0.24428190290927887,"20":-0.39940783381462097,"21":0.37365075945854187,"22":-0.0039656381122767925,"23":-0.221987783908844,"24":0.7225707173347473,"25":-0.13063301146030426,"26":0.43743741512298584,"27":-0.35980135202407837,"28":0.6960538029670715,"29":-0.02636835165321827}},"19":{"bias":-0.09881804883480072,"weights":{"0":0.4204061031341553,"1":0.7779068946838379,"2":0.09687889367341995,"3":0.307075560092926,"4":-0.2797916829586029,"5":0.35419416427612305,"6":0.22411158680915833,"7":0.5010420083999634,"8":-0.06874750554561615,"9":-0.4929022490978241,"10":-0.5129556059837341,"11":0.09192834049463272,"12":0.5234049558639526,"13":-0.8140825033187866,"14":0.1975913792848587,"15":-0.21099595725536346,"16":0.02157689444720745,"17":0.43020203709602356,"18":-0.0713263675570488,"19":0.26987019181251526,"20":-0.3232067823410034,"21":-0.4510318338871002,"22":-0.22700226306915283,"23":0.15818306803703308,"24":-0.8720852136611938,"25":0.4185252785682678,"26":-0.22585448622703552,"27":0.24522270262241364,"28":-0.9779563546180725,"29":0.18283629417419434}},"20":{"bias":-0.16739681363105774,"weights":{"0":0.4026602804660797,"1":-0.009829661808907986,"2":0.14906354248523712,"3":-0.10953383147716522,"4":0.2470417469739914,"5":0.0342479832470417,"6":-0.02610638551414013,"7":-0.009902509860694408,"8":0.05809088051319122,"9":-0.14488370716571808,"10":-0.09586947411298752,"11":0.27910199761390686,"12":-0.06765386462211609,"13":0.03773226961493492,"14":0.07292604446411133,"15":0.4022216796875,"16":-0.06781376153230667,"17":-0.002395595656707883,"18":-0.08637136965990067,"19":0.1509057879447937,"20":0.24877382814884186,"21":-0.39609962701797485,"22":-0.1855686753988266,"23":-0.018529005348682404,"24":-0.286306768655777,"25":0.08173959702253342,"26":-0.5110260844230652,"27":0.3760637044906616,"28":-0.19638685882091522,"29":-0.09318600594997406}},"21":{"bias":0.006128479260951281,"weights":{"0":-0.12717615067958832,"1":-0.302426278591156,"2":-0.006988525390625,"3":-0.13290809094905853,"4":0.0033707176335155964,"5":-0.2749505639076233,"6":-0.11924930661916733,"7":-0.35286009311676025,"8":-0.017920037731528282,"9":-0.0158651415258646,"10":0.1201467216014862,"11":0.11465160548686981,"12":-0.16063536703586578,"13":0.3242133557796478,"14":-0.08534427732229233,"15":0.236554816365242,"16":-0.14215512573719025,"17":-0.4043389856815338,"18":-0.19916394352912903,"19":0.10389107465744019,"20":0.1883762627840042,"21":0.19446523487567902,"22":0.009696264751255512,"23":-0.21529218554496765,"24":0.38754886388778687,"25":0.005745405796915293,"26":-0.05864441394805908,"27":0.03296975418925285,"28":0.4662272036075592,"29":-0.2927338480949402}},"22":{"bias":0.11993709951639175,"weights":{"0":0.5178061723709106,"1":0.13921867311000824,"2":0.10803559422492981,"3":0.1287616491317749,"4":-0.03962931036949158,"5":-0.1271209418773651,"6":0.06581893563270569,"7":0.11378403007984161,"8":-0.022160476073622704,"9":-0.39118626713752747,"10":-0.328421026468277,"11":0.2878437340259552,"12":0.23987410962581635,"13":-0.1558270901441574,"14":0.12140030413866043,"15":0.1084432527422905,"16":-0.2514484226703644,"17":-0.116204634308815,"18":-0.027785077691078186,"19":0.034246984869241714,"20":0.2863304615020752,"21":-0.35487988591194153,"22":-0.22596025466918945,"23":0.3263709545135498,"24":-0.1933850646018982,"25":0.06784754991531372,"26":-0.37224864959716797,"27":0.28731513023376465,"28":-0.4473644495010376,"29":-0.05688830465078354}},"23":{"bias":-0.2735404074192047,"weights":{"0":-0.06005030870437622,"1":-0.3530426323413849,"2":-0.061646074056625366,"3":-0.445151686668396,"4":0.24997293949127197,"5":-0.015855787321925163,"6":-0.1802828311920166,"7":-0.12061842530965805,"8":0.12264086306095123,"9":-0.04166780039668083,"10":0.045476511120796204,"11":0.15739232301712036,"12":-0.15643270313739777,"13":0.3057233989238739,"14":0.24636541306972504,"15":0.35394835472106934,"16":0.07231024652719498,"17":-0.4986479580402374,"18":-0.03810570389032364,"19":-0.07185572385787964,"20":0.23225292563438416,"21":-0.24804599583148956,"22":0.031614143401384354,"23":0.18934880197048187,"24":0.35465338826179504,"25":-0.08145841956138611,"26":-0.41757965087890625,"27":0.25776582956314087,"28":0.03584448993206024,"29":-0.4129045009613037}},"24":{"bias":0.13472002744674683,"weights":{"0":-0.202780082821846,"1":-0.08575454354286194,"2":-0.1044071838259697,"3":0.0543910451233387,"4":-0.37135744094848633,"5":0.06923500448465347,"6":0.16372811794281006,"7":0.00625460222363472,"8":-0.058454304933547974,"9":0.17428149282932281,"10":-0.20509031414985657,"11":-0.14925986528396606,"12":-0.12632451951503754,"13":-0.10308999568223953,"14":-0.1757056564092636,"15":-0.4652772545814514,"16":0.13917946815490723,"17":0.26094305515289307,"18":0.07981858402490616,"19":0.0025427143555134535,"20":-0.1717514544725418,"21":0.12090406566858292,"22":0.06699571758508682,"23":-0.1477825790643692,"24":-0.0754496306180954,"25":-0.13440515100955963,"26":0.25862404704093933,"27":-0.2683427333831787,"28":0.07151437550783157,"29":0.2817001938819885}},"25":{"bias":0.029419507831335068,"weights":{"0":0.24174045026302338,"1":0.3663521409034729,"2":-0.21520590782165527,"3":0.047354426234960556,"4":-0.2684327960014343,"5":0.22996880114078522,"6":-0.03485104814171791,"7":0.32518142461776733,"8":-0.04746033996343613,"9":-0.21093390882015228,