{"sizes":[102,50,40,30,20,10,3],"layers":[{"0":{},"1":{},"2":{},"3":{},"4":{},"5":{},"6":{},"7":{},"8":{},"9":{},"10":{},"11":{},"12":{},"13":{},"14":{},"15":{},"16":{},"17":{},"18":{},"19":{},"20":{},"21":{},"22":{},"23":{},"24":{},"25":{},"26":{},"27":{},"28":{},"29":{},"30":{},"31":{},"32":{},"33":{},"34":{},"35":{},"36":{},"37":{},"38":{},"39":{},"40":{},"41":{},"42":{},"43":{},"44":{},"45":{},"46":{},"47":{},"48":{},"49":{},"50":{},"51":{},"52":{},"53":{},"54":{},"55":{},"56":{},"57":{},"58":{},"59":{},"60":{},"61":{},"62":{},"63":{},"64":{},"65":{},"66":{},"67":{},"68":{},"69":{},"70":{},"71":{},"72":{},"73":{},"74":{},"75":{},"76":{},"77":{},"78":{},"79":{},"80":{},"81":{},"82":{},"83":{},"84":{},"85":{},"86":{},"87":{},"88":{},"89":{},"90":{},"91":{},"92":{},"93":{},"94":{},"95":{},"96":{},"97":{},"98":{},"99":{},"100":{},"101":{}},{"0":{"bias":-0.40595629811286926,"weights":{"0":0.012637713924050331,"1":-0.06248900666832924,"2":-0.1778295636177063,"3":0.053098201751708984,"4":-0.016346938908100128,"5":-0.057629939168691635,"6":-0.11481337249279022,"7":0.030127668753266335,"8":0.18531948328018188,"9":-0.03487801179289818,"10":0.024202492088079453,"11":-0.19257842004299164,"12":0.15498311817646027,"13":-0.17666874825954437,"14":-0.03289906680583954,"15":0.1248038113117218,"16":-0.02252088487148285,"17":-0.1330900341272354,"18":-0.015244904905557632,"19":-0.005082362797111273,"20":0.1600392758846283,"21":-0.04998760297894478,"22":0.12329923361539841,"23":-0.1192111223936081,"24":-0.12209521234035492,"25":0.07914751768112183,"26":-0.12417203187942505,"27":0.14336125552654266,"28":0.11720452457666397,"29":0.14717958867549896,"30":0.13445991277694702,"31":-0.012360408902168274,"32":0.15215140581130981,"33":0.003615336725488305,"34":0.04420285299420357,"35":-0.12220296263694763,"36":0.13331593573093414,"37":0.049191832542419434,"38":0.1658366471529007,"39":-0.14257119596004486,"40":-0.1392699033021927,"41":0.05647508054971695,"42":-0.8251513838768005,"43":-0.04944359511137009,"44":-0.37929993867874146,"45":-0.3627602756023407,"46":0.48537206649780273,"47":0.219455748796463,"48":0.43366384506225586,"49":0.5434873700141907,"50":-0.7740417718887329,"51":-0.39762815833091736,"52":0.52886962890625,"53":0.34837815165519714,"54":-0.6190759539604187,"55":-1.1839056015014648,"56":0.643901526927948,"57":0.052085038274526596,"58":-0.048672355711460114,"59":-1.248063087463379,"60":0.548202395439148,"61":0.6096967458724976,"62":0.11512576043605804,"63":-0.13919515907764435,"64":-0.026706021279096603,"65":0.1384282261133194,"66":0.45153388381004333,"67":0.12966853380203247,"68":0.09316841512918472,"69":0.4170905351638794,"70":-0.31620538234710693,"71":-0.25803640484809875,"72":-0.23332813382148743,"73":-0.2392696887254715,"74":-0.07963717728853226,"75":0.005132909864187241,"76":-0.12466929852962494,"77":-0.2451152503490448,"78":-0.044017210602760315,"79":-0.20234091579914093,"80":0.05582001805305481,"81":-0.07789383828639984,"82":0.16880428791046143,"83":-0.16414640843868256,"84":-0.03310990333557129,"85":-0.10099423676729202,"86":-0.14716120064258575,"87":-0.006735359784215689,"88":0.0664641410112381,"89":0.05595840513706207,"90":0.21826238930225372,"91":0.19051377475261688,"92":0.18992817401885986,"93":-0.02276679500937462,"94":0.033926792442798615,"95":-0.02398376539349556,"96":0.11912013590335846,"97":-0.04208932816982269,"98":0.09532272070646286,"99":-0.016067273914813995,"100":-1.735546350479126,"101":2.0828700065612793}},"1":{"bias":0.12036702781915665,"weights":{"0":0.013892577961087227,"1":-0.16790437698364258,"2":0.14445167779922485,"3":-0.08801190555095673,"4":-0.014121106825768948,"5":0.1176333874464035,"6":-0.009814226068556309,"7":0.049522120505571365,"8":0.17241406440734863,"9":-0.03497008979320526,"10":-0.0274813212454319,"11":-0.0016898406902328134,"12":-0.19403791427612305,"13":0.19744794070720673,"14":0.10447321832180023,"15":0.0035888073034584522,"16":0.12083332985639572,"17":0.07644443213939667,"18":0.08204253762960434,"19":0.08533114194869995,"20":-0.09063071012496948,"21":0.0709124282002449,"22":-0.0005044655408710241,"23":0.08262388408184052,"24":0.19810201227664948,"25":0.011121978983283043,"26":-0.16982944309711456,"27":0.17551609873771667,"28":-0.04528767988085747,"29":-0.12623077630996704,"30":-0.009518565610051155,"31":-0.19774006307125092,"32":-0.1391940861940384,"33":-0.010199672542512417,"34":0.18150261044502258,"35":-0.16064341366291046,"36":0.05034333094954491,"37":-0.12161953002214432,"38":0.12447487562894821,"39":0.1882627010345459,"40":0.0068991174921393394,"41":0.47096875309944153,"42":0.4415963590145111,"43":0.19107043743133545,"44":-0.17017671465873718,"45":0.029492858797311783,"46":-0.5621337294578552,"47":0.3130992650985718,"48":0.36284029483795166,"49":-0.1279679834842682,"50":0.7271652221679688,"51":-0.4485313296318054,"52":-0.5092374682426453,"53":-0.019660940393805504,"54":0.21145690977573395,"55":0.23588091135025024,"56":-0.07064250111579895,"57":0.042234841734170914,"58":-0.1728798896074295,"59":0.26401594281196594,"60":-0.09479282051324844,"61":-0.24885714054107666,"62":-0.14290301501750946,"63":-0.04068666696548462,"64":-0.11141501367092133,"65":-0.2628495693206787,"66":-0.24361251294612885,"67":-0.1337222456932068,"68":-0.02612932212650776,"69":-0.20182639360427856,"70":-0.09173117578029633,"71":-0.04529956355690956,"72":-0.06283710896968842,"73":-0.0788867250084877,"74":-0.06529129296541214,"75":-0.33237895369529724,"76":-0.004560510162264109,"77":-0.22498278319835663,"78":-0.2271597981452942,"79":-0.3690500855445862,"80":-0.14951223134994507,"81":0.2047935128211975,"82":0.01493844110518694,"83":-0.1506279557943344,"84":0.06961273401975632,"85":-0.08847083896398544,"86":-0.08303437381982803,"87":0.10514763742685318,"88":-0.0940173789858818,"89":0.04812995344400406,"90":0.12383510917425156,"91":0.13920846581459045,"92":0.16411301493644714,"93":-0.1727929264307022,"94":-0.22479383647441864,"95":-0.053879957646131516,"96":-0.06296296417713165,"97":-0.11456332355737686,"98":-0.12369094043970108,"99":-0.17644467949867249,"100":0.09725432842969894,"101":-1.5458570718765259}},"2":{"bias":0.29371052980422974,"weights":{"0":-0.0005767266848124564,"1":-0.10218805819749832,"2":-0.03162654861807823,"3":-0.19226635992527008,"4":-0.1520841419696808,"5":0.010859995149075985,"6":0.069019615650177,"7":0.07807648926973343,"8":-0.06718701124191284,"9":0.021613141521811485,"10":-0.15503212809562683,"11":-0.13645154237747192,"12":-0.06133778393268585,"13":0.043993134051561356,"14":-0.07396537810564041,"15":0.09884298592805862,"16":0.16278623044490814,"17":0.07907795161008835,"18":0.022940628230571747,"19":-0.006934677250683308,"20":-0.1531636267900467,"21":0.17399923503398895,"22":-0.035707682371139526,"23":0.19845673441886902,"24":-0.17209847271442413,"25":-0.11968322098255157,"26":0.15509918332099915,"27":-0.17694483697414398,"28":-0.06176577880978584,"29":0.058704230934381485,"30":0.011946414597332478,"31":0.010288364253938198,"32":0.0823783278465271,"33":0.13509315252304077,"34":-0.08288458734750748,"35":0.035481978207826614,"36":-0.1982797086238861,"37":-0.1005139946937561,"38":-0.05666692927479744,"39":-0.15923826396465302,"40":0.2448265701532364,"41":0.34529566764831543,"42":0.007038846146315336,"43":-0.0866338387131691,"44":-0.9284408688545227,"45":0.0698944702744484,"46":0.3080798387527466,"47":0.3556906282901764,"48":-0.058033447712659836,"49":0.8066335320472717,"50":0.9294242858886719,"51":-2.3337483406066895,"52":-0.3260994553565979,"53":1.61993408203125,"54":0.40386760234832764,"55":-0.0965222492814064,"56":0.1971496194601059,"57":0.17814835906028748,"58":0.003259422956034541,"59":-2.0122578144073486,"60":0.2970640957355499,"61":0.2895168960094452,"62":-0.013065217062830925,"63":0.3833722770214081,"64":0.6695730686187744,"65":0.05273107439279556,"66":-0.10739634931087494,"67":0.3383079469203949,"68":0.12339506298303604,"69":-0.009987142868340015,"70":0.18891260027885437,"71":0.17193764448165894,"72":0.37327200174331665,"73":0.11140590161085129,"74":0.3358999490737915,"75":-0.21936973929405212,"76":0.09381195902824402,"77":0.013383294455707073,"78":0.017985939979553223,"79":0.23383942246437073,"80":0.1390032321214676,"81":-0.06511208415031433,"82":-0.09498929232358932,"83":0.054896872490644455,"84":0.04695635661482811,"85":0.13328196108341217,"86":0.2567914128303528,"87":0.22763825953006744,"88":0.13878516852855682,"89":0.037507910281419754,"90":0.051845669746398926,"91":-0.09804923087358475,"92":-0.024519057944417,"93":-0.2108362466096878,"94":-0.20098918676376343,"95":0.022244568914175034,"96":-0.010659366846084595,"97":-0.0068679084070026875,"98":0.04780173674225807,"99":-0.25102052092552185,"100":-2.4116015434265137,"101":-3.8222522735595703}},"3":{"bias":-0.2559577226638794,"weights":{"0":-0.02075180970132351,"1":-0.14593152701854706,"2":0.13202102482318878,"3":-0.07259055972099304,"4":0.16068856418132782,"5":0.00846911408007145,"6":-0.13960780203342438,"7":-0.06657576560974121,"8":-0.06817693263292313,"9":0.09157226979732513,"10":-0.17108778655529022,"11":-0.08606816083192825,"12":-0.1955244392156601,"13":-0.16131718456745148,"14":-0.17352895438671112,"15":-0.02331402339041233,"16":-0.08132938295602798,"17":0.1050352081656456,"18":-0.016835356131196022,"19":0.023351965472102165,"20":-0.16137538850307465,"21":-0.178329199552536,"22":0.06420625746250153,"23":-0.15894724428653717,"24":-0.04621187224984169,"25":0.060287706553936005,"26":0.015460505150258541,"27":0.1144934594631195,"28":-0.17843545973300934,"29":-0.17537595331668854,"30":0.16278314590454102,"31":-0.03043968416750431,"32":0.11559473723173141,"33":0.1798974722623825,"34":0.18073543906211853,"35":0.146223783493042,"36":-0.036448538303375244,"37":0.015894044190645218,"38":0.04961488023400307,"39":0.060619767755270004,"40":-0.0288919098675251,"41":-0.11818051338195801,"42":-0.15495604276657104,"43":-0.08504209667444229,"44":-0.1860620528459549,"45":-0.050769977271556854,"46":-0.4145668148994446,"47":-0.17747581005096436,"48":0.08051946759223938,"49":0.03163820505142212,"50":-0.20684967935085297,"51":-0.010612898506224155,"52":-0.040493179112672806,"53":-0.09591346979141235,"54":-0.013871971517801285,"55":-0.03468313813209534,"56":0.14143452048301697,"57":0.14585816860198975,"58":0.03294011205434799,"59":0.024056585505604744,"60":-0.22630080580711365,"61":-0.05957898870110512,"62":-0.09487267583608627,"63":-0.12085017561912537,"64":-0.2367534637451172,"65":-0.26491203904151917,"66":-0.12235952168703079,"67":-0.45063871145248413,"68":-0.39959296584129333,"69":-0.3216588497161865,"70":-0.07388049364089966,"71":0.0949559211730957,"72":-0.10689383745193481,"73":-0.02742348238825798,"74":-0.07766424864530563,"75":0.0859268307685852,"76":0.05353667959570885,"77":-0.19143490493297577,"78":-0.0025810226798057556,"79":-0.13697656989097595,"80":-0.08804668486118317,"81":0.07805351167917252,"82":-0.13979992270469666,"83":-0.08772475272417068,"84":-0.1663948893547058,"85":0.06356386095285416,"86":0.15216249227523804,"87":-0.04902853071689606,"88":-0.1316612958908081,"89":0.15189605951309204,"90":0.20574061572551727,"91":0.1464305967092514,"92":0.10734891891479492,"93":0.15485888719558716,"94":0.011275573633611202,"95":0.2014664113521576,"96":0.14466777443885803,"97":-0.1815001219511032,"98":0.06479162722826004,"99":0.18527258932590485,"100":-0.400023877620697,"101":0.20137740671634674}},"4":{"bias":-0.11559588462114334,"weights":{"0":-0.12753421068191528,"1":0.012185009196400642,"2":0.1506856083869934,"3":-0.03629112243652344,"4":-0.1941278576850891,"5":-0.14941290020942688,"6":0.05338633060455322,"7":-0.01487899012863636,"8":0.05428345128893852,"9":0.1118355318903923,"10":-0.04516563192009926,"11":0.17067906260490417,"12":-0.12096501886844635,"13":0.16032086312770844,"14":-0.1467401534318924,"15":-0.1804845929145813,"16":0.12711110711097717,"17":0.16366297006607056,"18":0.05358174443244934,"19":0.05371636897325516,"20":0.18261508643627167,"21":0.09328474849462509,"22":-0.009416664950549603,"23":-0.0491497702896595,"24":-0.11003851145505905,"25":0.18903964757919312,"26":0.1599215567111969,"27":0.08033236116170883,"28":0.06520004570484161,"29":0.006960993632674217,"30":0.18528398871421814,"31":-0.1004023402929306,"32":0.19185081124305725,"33":0.11693158745765686,"34":-0.09401419758796692,"35":0.042669396847486496,"36":0.052172910422086716,"37":0.11857929080724716,"38":-0.05162571743130684,"39":0.14832688868045807,"40":0.11175206303596497,"41":0.08048419654369354,"42":-0.13636267185211182,"43":0.00218543061055243,"44":0.12014951556921005,"45":0.029933111742138863,"46":0.1264021396636963,"47":-0.1238471195101738,"48":-0.0518723800778389,"49":0.07989469915628433,"50":-0.3426785469055176,"51":-0.20266084372997284,"52":0.08573324978351593,"53":-0.15866148471832275,"54":-0.11772646009922028,"55":-0.34887799620628357,"56":-0.13712503015995026,"57":-0.06539104878902435,"58":-0.0033655280712991953,"59":0.026036037132143974,"60":-0.15171518921852112,"61":-0.25972193479537964,"62":-0.023702463135123253,"63":-0.11593198776245117,"64":-0.14190347492694855,"65":-0.13794353604316711,"66":-0.003994201309978962,"67":-0.12409461289644241,"68":-0.4211765229701996,"69":-0.3485722839832306,"70":-0.15882135927677155,"71":0.04805034026503563,"72":0.009362570010125637,"73":0.16319020092487335,"74":0.18869814276695251,"75":0.09973857551813126,"76":-0.13032390177249908,"77":-0.0785345658659935,"78":0.09022527188062668,"79":0.14718598127365112,"80":-0.09443296492099762,"81":-0.052168961614370346,"82":-0.11874960362911224,"83":0.11020907759666443,"84":-0.17415224015712738,"85":-0.20067261159420013,"86":-0.11589840054512024,"87":-0.07663008570671082,"88":-0.12099913507699966,"89":-0.12319933623075485,"90":-0.15639011561870575,"91":-0.06156950071454048,"92":-0.06349289417266846,"93":0.17010271549224854,"94":-0.08347196877002716,"95":-0.08646329492330551,"96":0.047037944197654724,"97":0.1699202060699463,"98":0.013846579939126968,"99":-0.15720456838607788,"100":-0.5596814751625061,"101":0.5294020175933838}},"5":{"bias":-0.09342094510793686,"weights":{"0":0.17683370411396027,"1":-0.04669351875782013,"2":0.1473265290260315,"3":-0.18417154252529144,"4":0.06390197575092316,"5":0.12536799907684326,"6":0.1820669025182724,"7":0.09516594558954239,"8":0.09906534850597382,"9":0.10001276433467865,"10":-0.1320440173149109,"11":0.03121020644903183,"12":-0.036486729979515076,"13":0.13317719101905823,"14":-0.08476758003234863,"15":-0.1910729557275772,"16":-0.017617883160710335,"17":-0.05252794176340103,"18":0.09836705029010773,"19":0.09379803389310837,"20":0.032799702137708664,"21":-0.1028265431523323,"22":0.16911059617996216,"23":-0.19975382089614868,"24":-0.07691509276628494,"25":0.08852038532495499,"26":-0.19727292656898499,"27":0.11773993819952011,"28":0.06176430732011795,"29":0.19801370799541473,"30":-0.07042978703975677,"31":0.0026314822025597095,"32":-0.1776498407125473,"33":-0.11805450171232224,"34":0.18788555264472961,"35":0.12526065111160278,"36":0.07618261873722076,"37":0.051013845950365067,"38":0.01402900367975235,"39":-0.09160926938056946,"40":0.006282331421971321,"41":-0.32390880584716797,"42":-0.49024301767349243,"43":-0.17911872267723083,"44":-0.43311843276023865,"45":-0.08405455201864243,"46":0.2613722085952759,"47":-0.28784751892089844,"48":-0.10613954812288284,"49":-0.017588134855031967,"50":-0.3305448591709137,"51":-0.4029534161090851,"52":0.17274664342403412,"53":0.5823816061019897,"54":-0.39641907811164856,"55":-0.5803007483482361,"56":0.2018638402223587,"57":-0.3262827396392822,"58":0.8913983106613159,"59":-0.6640953421592712,"60":0.012267470359802246,"61":-0.05046074092388153,"62":-0.25221970677375793,"63":-0.003410675097256899,"64":-0.3921389877796173,"65":0.019356776028871536,"66":-0.13680623471736908,"67":-0.35625138878822327,"68":-0.3783358335494995,"69":-0.24700909852981567,"70":0.23404201865196228,"71":-0.08990493416786194,"72":0.14554454386234283,"73":0.30882561206817627,"74":-0.08545271307229996,"75":-0.0324830487370491,"76":-0.036576297134160995,"77":-0.02578074485063553,"78":0.3046102523803711,"79":0.28041326999664307,"80":-0.1982547491788864,"81":0.13893462717533112,"82":0.13021446764469147,"83":0.13051950931549072,"84":0.18268321454524994,"85":0.033145174384117126,"86":-0.13856659829616547,"87":0.009226817637681961,"88":-0.05210745707154274,"89":0.031868238002061844,"90":-0.04442031309008598,"91":0.06914570927619934,"92":0.10061931610107422,"93":-0.13888585567474365,"94":-0.09775115549564362,"95":0.16824418306350708,"96":0.007621331140398979,"97":-0.09531272947788239,"98":0.20649661123752594,"99":0.007908067665994167,"100":-0.6670112013816833,"101":1.0108108520507812}},"6":{"bias":-0.6198119521141052,"weights":{"0":-0.15868839621543884,"1":0.09953462332487106,"2":-0.19810006022453308,"3":-0.004971658810973167,"4":-0.0367392972111702,"5":-0.11273063719272614,"6":-0.056775808334350586,"7":0.12141703069210052,"8":-0.05569664016366005,"9":0.026531506329774857,"10":-0.08891326934099197,"11":-0.0989796370267868,"12":-0.014611509628593922,"13":0.1106172502040863,"14":0.10267674922943115,"15":-0.0532342754304409,"16":-0.002347951754927635,"17":0.022439654916524887,"18":-0.18369373679161072,"19":0.13404957950115204,"20":0.14421077072620392,"21":0.16666412353515625,"22":-0.0254091564565897,"23":-0.0960087850689888,"24":0.13019466400146484,"25":0.057312022894620895,"26":-0.13832806050777435,"27":-0.031655266880989075,"28":-0.047708552330732346,"29":0.030106620863080025,"30":0.023401664569973946,"31":0.18102134764194489,"32":-0.10629300028085709,"33":-0.19764262437820435,"34":-0.1978539377450943,"35":-0.11309903860092163,"36":-0.012857376597821712,"37":-0.01802929863333702,"38":0.19354018568992615,"39":-0.18245680630207062,"40":-0.2504962086677551,"41":0.4782680571079254,"42":-0.5620668530464172,"43":-0.17861540615558624,"44":-0.12000535428524017,"45":-0.6652725338935852,"46":-0.15361140668392181,"47":0.6818452477455139,"48":0.8542965054512024,"49":1.1395341157913208,"50":-1.179846167564392,"51":-0.8785313963890076,"52":0.9338206648826599,"53":-0.44770029187202454,"54":-0.22302460670471191,"55":-2.421435594558716,"56":0.9456648230552673,"57":0.3877527117729187,"58":-0.41909292340278625,"59":-0.44383320212364197,"60":0.47464218735694885,"61":0.7492051720619202,"62":-0.09457286447286606,"63":-0.06285569071769714,"64":-0.052876491099596024,"65":0.22312407195568085,"66":0.21272574365139008,"67":-0.05921798199415207,"68":0.1517418473958969,"69":0.04569117724895477,"70":-0.2973618805408478,"71":-0.3895684778690338,"72":-0.28934234380722046,"73":-0.06148438900709152,"74":-0.07312612980604172,"75":0.08198749274015427,"76":-0.13750669360160828,"77":0.1370232105255127,"78":0.03363962844014168,"79":0.0774056538939476,"80":-0.16856540739536285,"81":0.026494547724723816,"82":-0.15254728496074677,"83":-0.02011638507246971,"84":-0.04683397337794304,"85":0.07939790934324265,"86":-0.16613759100437164,"87":0.10233008861541748,"88":-0.10204941034317017,"89":0.1453581154346466,"90":0.161502406001091,"91":0.12690016627311707,"92":-0.02648983709514141,"93":-0.04127296432852745,"94":0.17350439727306366,"95":0.24439737200737,"96":0.13811638951301575,"97":-0.0741400420665741,"98":-0.06053711473941803,"99":0.2003737986087799,"100":-3.051713466644287,"101":3.0192911624908447}},"7":{"bias":-0.006042111199349165,"weights":{"0":0.19067558646202087,"1":0.13933119177818298,"2":-0.17708152532577515,"3":-0.06995036453008652,"4":0.07786640524864197,"5":0.15586361289024353,"6":0.19764894247055054,"7":-0.08005508035421371,"8":-0.14735396206378937,"9":-0.012773699127137661,"10":-0.0002570074575487524,"11":0.02804921194911003,"12":0.19292974472045898,"13":-0.07210959494113922,"14":-0.15468226373195648,"15":-0.12397601455450058,"16":-0.10786723345518112,"17":0.15334206819534302,"18":0.0595720149576664,"19":-0.15149420499801636,"20":-0.11827757209539413,"21":0.016625387594103813,"22":-0.05840735882520676,"23":0.07240001857280731,"24":-0.14995123445987701,"25":0.015761280432343483,"26":0.033996306359767914,"27":0.17663951218128204,"28":-0.17184112966060638,"29":0.12450314313173294,"30":0.14761853218078613,"31":-0.018267612904310226,"32":0.033969081938266754,"33":0.10837879776954651,"34":0.14953549206256866,"35":-0.1683308631181717,"36":-0.032766103744506836,"37":0.03330383077263832,"38":-0.08052970468997955,"39":-0.1501208394765854,"40":-0.26368460059165955,"41":0.12651745975017548,"42":-0.36372604966163635,"43":-0.16634993255138397,"44":0.22761808335781097,"45":0.03723909333348274,"46":-0.7947800755500793,"47":0.025016749277710915,"48":0.37941813468933105,"49":0.17611759901046753,"50":0.5482550859451294,"51":-0.36880144476890564,"52":-0.094760000705719,"53":0.22764310240745544,"54":0.04574977606534958,"55":0.11190899461507797,"56":0.07688882946968079,"57":-0.036283936351537704,"58":0.10415305197238922,"59":-0.08286573737859726,"60":0.025324977934360504,"61":-0.21675778925418854,"62":-0.3765580654144287,"63":-0.2969236671924591,"64":-0.015326550230383873,"65":-0.16523589193820953,"66":-0.41062816977500916,"67":-0.14408090710639954,"68":-0.1652042269706726,"69":-0.40405550599098206,"70":-0.03990982472896576,"71":0.010553971864283085,"72":-0.1846628189086914,"73":-0.08427862077951431,"74":-0.00010437627497594804,"75":0.10243931412696838,"76":0.016513703390955925,"77":-0.15821808576583862,"78":-0.014764033257961273,"79":-0.03823649510741234,"80":0.05772051215171814,"81":0.062219440937042236,"82":0.19535720348358154,"83":0.02937554381787777,"84":0.1874820739030838,"85":0.1220727190375328,"86":-0.05512221157550812,"87":-0.12134948372840881,"88":0.04973630607128143,"89":-0.13694824278354645,"90":0.15466128289699554,"91":-0.13468106091022491,"92":0.046667858958244324,"93":-0.04260692000389099,"94":-0.14535872638225555,"95":0.06606554239988327,"96":-0.2114560455083847,"97":-0.033216752111911774,"98":0.164061039686203,"99":0.16591154038906097,"100":-0.347129225730896,"101":-0.6680837869644165}},"8":{"bias":0.007892086170613766,"weights":{"0":-0.18351349234580994,"1":0.1738048642873764,"2":-0.09962255507707596,"3":0.17763549089431763,"4":0.006728897802531719,"5":-0.0703459158539772,"6":0.1884544938802719,"7":-0.05593094974756241,"8":0.04016753286123276,"9":-0.18154841661453247,"10":0.1418503373861313,"11":-0.0431828647851944,"12":-0.17713910341262817,"13":0.12733229994773865,"14":0.08095362037420273,"15":0.1624208241701126,"16":-0.17135700583457947,"17":0.10612770169973373,"18":-0.024205511435866356,"19":0.09399943798780441,"20":0.005581298377364874,"21":0.07688048481941223,"22":0.07818925380706787,"23":0.04277332127094269,"24":0.11670178920030594,"25":-0.0858757421374321,"26":0.16865761578083038,"27":-0.16743966937065125,"28":-0.07049695402383804,"29":-0.03235143795609474,"30":0.05527861788868904,"31":-0.007707562297582626,"32":-0.12552981078624725,"33":-0.1170896366238594,"34":0.11943353712558746,"35":-0.024881623685359955,"36":0.027004828676581383,"37":-0.08402306586503983,"38":-0.16947437822818756,"39":0.16621898114681244,"40":0.029723741114139557,"41":0.09579771757125854,"42":0.24638035893440247,"43":-0.03208734840154648,"44":0.14297036826610565,"45":-0.06948967278003693,"46":-0.4525771141052246,"47":0.31371286511421204,"48":0.3366889953613281,"49":-0.14340806007385254,"50":0.0033738368656486273,"51":0.07439759373664856,"52":-0.15190935134887695,"53":-0.11512435972690582,"54":0.015082052908837795,"55":0.13824306428432465,"56":0.23574554920196533,"57":0.1095418632030487,"58":-0.36250653862953186,"59":-0.35731568932533264,"60":-0.14240290224552155,"61":-0.25162455439567566,"62":-0.03520701825618744,"63":-0.20980185270309448,"64":-0.15787377953529358,"65":-0.17303085327148438,"66":-0.13782210648059845,"67":-0.25476935505867004,"68":-0.3130286633968353,"69":-0.3802775740623474,"70":0.1402675062417984,"71":-0.06646829843521118,"72":0.09271301329135895,"73":-0.2562271058559418,"74":0.06595171988010406,"75":0.06535423547029495,"76":-0.23200690746307373,"77":0.025925785303115845,"78":0.1383829116821289,"79":-0.2453734129667282,"80":-0.057207006961107254,"81":-0.10419510304927826,"82":-0.01747675985097885,"83":-0.17735368013381958,"84":0.15288373827934265,"85":0.0003828126355074346,"86":0.11076578497886658,"87":-0.014194915071129799,"88":-0.12745031714439392,"89":-0.11672937870025635,"90":-0.13351987302303314,"91":0.05407831817865372,"92":0.15315216779708862,"93":0.1756516844034195,"94":0.18326789140701294,"95":0.14775367081165314,"96":0.19088783860206604,"97":-0.19772933423519135,"98":0.06782060116529465,"99":-0.12300289422273636,"100":-0.19013473391532898,"101":-0.3480300009250641}},"9":{"bias":-0.3002452254295349,"weights":{"0":0.09935648739337921,"1":-0.05137736722826958,"2":0.04175994172692299,"3":0.16293831169605255,"4":-0.18580147624015808,"5":-0.025992408394813538,"6":-0.12530070543289185,"7":0.026878634467720985,"8":-0.07112341374158859,"9":0.04328853264451027,"10":0.12750636041164398,"11":0.15305450558662415,"12":-0.18760809302330017,"13":-0.12664876878261566,"14":-0.08521144837141037,"15":-0.00211629387922585,"16":0.17445629835128784,"17":0.05564523860812187,"18":0.1667407751083374,"19":-0.01376732625067234,"20":0.18623563647270203,"21":0.08961264044046402,"22":0.10831959545612335,"23":0.0020237441640347242,"24":-0.14111660420894623,"25":-0.08921042084693909,"26":-0.16464869678020477,"27":-0.10900185257196426,"28":0.15806244313716888,"29":-0.190815269947052,"30":0.1352265477180481,"31":-0.14301371574401855,"32":-0.15752564370632172,"33":-0.07523482292890549,"34":0.15094035863876343,"35":-0.17483054101467133,"36":-0.16651225090026855,"37":0.16608671844005585,"38":-0.09189721196889877,"39":-0.019522100687026978,"40":0.204006165266037,"41":0.07465528696775436,"42":-0.02420700713992119,"43":0.18606507778167725,"44":0.029916374012827873,"45":0.33187344670295715,"46":-0.21196499466896057,"47":0.05551953613758087,"48":-0.34568002820014954,"49":-0.298963338136673,"50":-0.05320246145129204,"51":0.08028513938188553,"52":-0.1278277188539505,"53":-0.5172013640403748,"54":0.025451425462961197,"55":0.10777359455823898,"56":-0.37888628244400024,"57":-0.5613316893577576,"58":-0.6182627081871033,"59":-0.06292697787284851,"60":-0.08821646124124527,"61":-0.25715258717536926,"62":0.07238248735666275,"63":0.1394137293100357,"64":0.1910683810710907,"65":0.05920839682221413,"66":-0.07442476600408554,"67":0.15510351955890656,"68":-0.07576174288988113,"69":-0.018302569165825844,"70":0.030345503240823746,"71":0.01651444099843502,"72":-0.22862181067466736,"73":-0.26018229126930237,"74":0.02528437227010727,"75":-0.15054452419281006,"76":-0.04890016093850136,"77":-0.11109445244073868,"78":0.07374430447816849,"79":-0.20956479012966156,"80":-0.09971726685762405,"81":0.17530116438865662,"82":0.08113931864500046,"83":0.16035909950733185,"84":-0.004057805985212326,"85":0.09485915303230286,"86":0.0762714222073555,"87":-0.1880565732717514,"88":-0.17386360466480255,"89":0.09413008391857147,"90":0.059926580637693405,"91":0.1513129323720932,"92":0.11577320843935013,"93":-0.20998384058475494,"94":-0.042224809527397156,"95":-0.016920754685997963,"96":0.02890479750931263,"97":-0.1099010482430458,"98":0.08269232511520386,"99":-0.21493472158908844,"100":0.539976179599762,"101":-1.1689133644104004}},"10":{"bias":0.04612351581454277,"weights":{"0":0.13745862245559692,"1":-0.13071154057979584,"2":0.12550188601016998,"3":0.17909856140613556,"4":-0.19987401366233826,"5":-0.11074372380971909,"6":0.06356227397918701,"7":0.07201386988162994,"8":-0.08446858823299408,"9":0.0466572530567646,"10":-0.17951412498950958,"11":0.14139573276042938,"12":0.13491296768188477,"13":0.06275390088558197,"14":-0.0013812062097713351,"15":0.10799580067396164,"16":-0.13024985790252686,"17":-0.14918138086795807,"18":-0.1444157510995865,"19":-0.08169607073068619,"20":-0.025551317259669304,"21":-0.12824849784374237,"22":0.05272034928202629,"23":0.00613918574526906,"24":-0.051723312586545944,"25":0.12106046825647354,"26":-0.07316142320632935,"27":0.13357840478420258,"28":-0.07189660519361496,"29":-0.18966877460479736,"30":0.14336374402046204,"31":-0.13244937360286713,"32":-0.19268636405467987,"33":0.08874943852424622,"34":0.040708646178245544,"35":-0.19559220969676971,"36":0.09222953766584396,"37":0.05742212012410164,"38":-0.1331304907798767,"39":-0.10071656107902527,"40":-0.18382444977760315,"41":0.18993502855300903,"42":-0.4903047978878021,"43":-0.23980595171451569,"44":0.12158849835395813,"45":0.10916002094745636,"46":-1.0345016717910767,"47":0.2537778913974762,"48":0.23935382068157196,"49":0.31618189811706543,"50":0.12877026200294495,"51":-0.47136417031288147,"52":-0.20314110815525055,"53":0.1591094732284546,"54":0.15931090712547302,"55":-0.12214191257953644,"56":0.357085257768631,"57":0.4441707730293274,"58":0.492168128490448,"59":-0.1032867431640625,"60":-0.20581169426441193,"61":-0.020822694525122643,"62":-0.4591255784034729,"63":-0.34760862588882446,"64":-0.34058934450149536,"65":-0.5253415703773499,"66":-0.2044806033372879,"67":-0.38856399059295654,"68":-0.15963318943977356,"69":-0.35698288679122925,"70":-0.18412771821022034,"71":0.01640275865793228,"72":0.09493295103311539,"73":-0.010984511114656925,"74":-0.058136504143476486,"75":-0.08384424448013306,"76":-0.03831610456109047,"77":-0.19113899767398834,"78":-0.07403162121772766,"79":-0.22979119420051575,"80":0.020643560215830803,"81":0.07942131161689758,"82":0.01778387650847435,"83":-0.1636361926794052,"84":-0.10253718495368958,"85":-0.16283924877643585,"86":0.08615364134311676,"87":-0.18128372728824615,"88":-0.10601910948753357,"89":-0.1591382622718811,"90":0.06671051681041718,"91":-0.10545980930328369,"92":0.049999725073575974,"93":-0.08810314536094666,"94":-0.13874220848083496,"95":-0.20474064350128174,"96":-0.08306710422039032,"97":-0.06324481219053268,"98":-0.18221142888069153,"99":0.12930354475975037,"100":-0.2590106427669525,"101":-0.3187859356403351}},"11":{"bias":-0.262501984834671,"weights":{"0":-0.034389905631542206,"1":-0.009898744523525238,"2":-0.09908154606819153,"3":0.103524349629879,"4":-0.16442377865314484,"5":-0.04572245106101036,"6":-0.038645025342702866,"7":0.03987916186451912,"8":-0.03656002879142761,"9":-0.04239508882164955,"10":-0.17432960867881775,"11":0.04919352009892464,"12":-0.058712586760520935,"13":-0.006371510215103626,"14":-0.050461459904909134,"15":-0.08307778835296631,"16":-0.039257172495126724,"17":-0.14527826011180878,"18":0.11595427989959717,"19":0.18831634521484375,"20":-0.186832994222641,"21":0.05328618735074997,"22":0.1888699233531952,"23":-0.05350518226623535,"24":-0.05927624553442001,"25":-0.05765445902943611,"26":0.06404436379671097,"27":0.10977793484926224,"28":0.0892757847905159,"29":0.13078521192073822,"30":-0.16140702366828918,"31":0.09545514732599258,"32":-0.08538227528333664,"33":0.13974657654762268,"34":-0.12520180642604828,"35":0.1428375393152237,"36":-0.10250072181224823,"37":0.020519182085990906,"38":-0.003055581822991371,"39":-0.18292336165905,"40":-0.12165328860282898,"41":-0.12096429616212845,"42":0.09892045706510544,"43":0.052235230803489685,"44":-0.15557731688022614,"45":0.017092343419790268,"46":-0.1695755124092102,"47":0.14593420922756195,"48":-0.07211373746395111,"49":0.03218189999461174,"50":-0.06697582453489304,"51":0.15679094195365906,"52":-0.014490395784378052,"53":-0.15962977707386017,"54":0.06037136912345886,"55":-0.28220996260643005,"56":-0.06847456842660904,"57":-0.11763841658830643,"58":0.12081362307071686,"59":-0.19999463856220245,"60":0.02844083309173584,"61":-0.2374849170446396,"62":-0.22343985736370087,"63":-0.2687225937843323,"64":-0.3283844292163849,"65":-0.32849279046058655,"66":-0.122358538210392,"67":-0.34614840149879456,"68":-0.3545316159725189,"69":-0.013426769524812698,"70":-0.19346804916858673,"71":0.004162590019404888,"72":-0.003713472280651331,"73":0.08009769022464752,"74":0.11306679248809814,"75":0.1095343679189682,"76":-0.24924573302268982,"77":0.13149136304855347,"78":0.12890635430812836,"79":-0.1314057856798172,"80":0.03667905554175377,"81":-0.00950639694929123,"82":-0.10536932945251465,"83":0.04634803906083107,"84":-0.049146346747875214,"85":-0.13577258586883545,"86":-0.17502714693546295,"87":-0.008155972696840763,"88":-0.03619614243507385,"89":-0.16331756114959717,"90":-0.15465575456619263,"91":-0.07189786434173584,"92":0.019900349900126457,"93":0.1619502753019333,"94":-0.09512899070978165,"95":-0.05813756585121155,"96":-0.13297373056411743,"97":0.13000701367855072,"98":0.08934738487005234,"99":-0.12439194321632385,"100":-0.24328738451004028,"101":0.4908495247364044}},"12":{"bias":0.020238813012838364,"weights":{"0":-0.11763778328895569,"1":0.17822706699371338,"2":0.06654751300811768,"3":0.05007171630859375,"4":0.09638794511556625,"5":0.16463617980480194,"6":0.1427336484193802,"7":-0.17910537123680115,"8":0.15542994439601898,"9":-0.1664542257785797,"10":0.1388479769229889,"11":-0.13958506286144257,"12":0.09504085779190063,"13":-0.16012170910835266,"14":0.17073504626750946,"15":-0.061563268303871155,"16":-0.10915324091911316,"17":-0.17827264964580536,"18":-0.08894693851470947,"19":0.029771121218800545,"20":-0.04266592487692833,"21":-0.017401576042175293,"22":0.10400041937828064,"23":-0.024605046957731247,"24":0.1703367382287979,"25":-0.19996334612369537,"26":-0.11099725216627121,"27":0.16034354269504547,"28":-0.17514581978321075,"29":-0.16087178885936737,"30":0.13743999600410461,"31":-0.11296243965625763,"32":0.11786185204982758,"33":0.12049180269241333,"34":0.08332503587007523,"35":-0.024991463869810104,"36":0.025605428963899612,"37":-0.18951764702796936,"38":0.1238866001367569,"39":0.1345217227935791,"40":-0.12234283238649368,"41":0.2790542542934418,"42":0.02049108035862446,"43":-0.13724645972251892,"44":-0.940162181854248,"45":0.16124515235424042,"46":-0.029524747282266617,"47":-0.1919839084148407,"48":0.18068735301494598,"49":0.3609297573566437,"50":0.5824372172355652,"51":-1.1792198419570923,"52":-0.07781616598367691,"53":0.5541300773620605,"54":0.229094460606575,"55":-0.007504430133849382,"56":0.24694186449050903,"57":0.08674802631139755,"58":-0.08645353466272354,"59":-0.8641085624694824,"60":0.053413987159729004,"61":0.17821016907691956,"62":0.23270919919013977,"63":0.3286939263343811,"64":0.168116495013237,"65":-0.1432574987411499,"66":0.02770061045885086,"67":-0.020529257133603096,"68":0.07624422758817673,"69":0.04826166853308678,"70":0.028234634548425674,"71":0.3493504524230957,"72":0.25198715925216675,"73":0.21796280145645142,"74":0.07980691641569138,"75":-0.1378539502620697,"76":0.09821970015764236,"77":0.1348133236169815,"78":0.10170257091522217,"79":-0.03288028761744499,"80":0.0028257856611162424,"81":0.01804460398852825,"82":-0.1195387914776802,"83":0.2107505202293396,"84":0.05582509934902191,"85":0.1744830161333084,"86":0.10779179632663727,"87":0.08974307030439377,"88":0.22571131587028503,"89":-0.0066929408349096775,"90":-0.07085485756397247,"91":0.06370504945516586,"92":0.09595412760972977,"93":-0.13521894812583923,"94":-0.11688677221536636,"95":-0.02662794105708599,"96":-0.15211479365825653,"97":-0.10845156759023666,"98":0.1385866403579712,"99":-0.003469254355877638,"100":-1.0065441131591797,"101":-2.1250603199005127}},"13":{"bias":0.056676991283893585,"weights":{"0":-0.039368484169244766,"1":0.1971484124660492,"2":0.18916790187358856,"3":-0.15229520201683044,"4":-0.05899907276034355,"5":0.18438948690891266,"6":0.13984568417072296,"7":-0.03593376651406288,"8":0.19026495516300201,"9":0.1369229406118393,"10":0.06485588848590851,"11":0.188556507229805,"12":-0.1654009222984314,"13":-0.044014476239681244,"14":-0.1847570687532425,"15":-0.17452475428581238,"16":0.06828983873128891,"17":-0.1485622078180313,"18":0.08577056974172592,"19":-0.0629618763923645,"20":0.1925390362739563,"21":-0.015419394709169865,"22":-0.005032732617110014,"23":-0.00688298000022769,"24":-0.046480875462293625,"25":-0.17929662764072418,"26":-0.10744865983724594,"27":0.17908324301242828,"28":0.19376017153263092,"29":-0.08159569650888443,"30":-0.14586102962493896,"31":0.1647554636001587,"32":0.14430728554725647,"33":-0.050951652228832245,"34":-0.08229485899209976,"35":-0.0845777839422226,"36":-0.0663037896156311,"37":-0.06571601331233978,"38":0.020394733175635338,"39":0.15378819406032562,"40":-0.05763845518231392,"41":-0.03837581351399422,"42":-0.5667018294334412,"43":-0.17922820150852203,"44":-0.49041298031806946,"45":0.00785920675843954,"46":0.39086946845054626,"47":-0.19641003012657166,"48":-0.3978665769100189,"49":0.16300156712532043,"50":-0.4758131802082062,"51":-0.35800692439079285,"52":0.2835092842578888,"53":0.42494064569473267,"54":-0.2845013439655304,"55":-0.6149869561195374,"56":0.42108678817749023,"57":0.09385297447443008,"58":1.0041253566741943,"59":-0.5760447978973389,"60":0.21840395033359528,"61":0.005042627919465303,"62":-0.2525715231895447,"63":-0.03343239799141884,"64":-0.3430976867675781,"65":0.0939454585313797,"66":-0.26857873797416687,"67":-0.19328688085079193,"68":-0.3364446759223938,"69":-0.206498384475708,"70":0.17823880910873413,"71":0.04890791326761246,"72":0.09598361700773239,"73":-0.10224790871143341,"74":0.10458209365606308,"75":0.25154006481170654,"76":0.09346615523099899,"77":-0.0023165333550423384,"78":-0.11841315031051636,"79":0.02073424682021141,"80":0.07171342521905899,"81":-0.14204707741737366,"82":0.0007974374457262456,"83":-0.146339550614357,"84":0.19699285924434662,"85":0.12392888218164444,"86":0.07049006223678589,"87":0.0833827555179596,"88":-0.03590385243296623,"89":0.08073723316192627,"90":0.09597258269786835,"91":0.056794993579387665,"92":0.15094250440597534,"93":0.13029798865318298,"94":0.004204082768410444,"95":0.04486999660730362,"96":0.14706841111183167,"97":0.02349059469997883,"98":0.10553925484418869,"99":-0.04202321916818619,"100":-1.1431355476379395,"101":1.1708964109420776}},"14":{"bias":0.33419933915138245,"weights":{"0":-0.10639207810163498,"1":-0.13837119936943054,"2":0.04973328113555908,"3":-0.1669469028711319,"4":-0.050607118755578995,"5":-0.19024556875228882,"6":0.08498983085155487,"7":0.10245252400636673,"8":-0.018056783825159073,"9":-0.12450344115495682,"10":-0.06483134627342224,"11":0.11565149575471878,"12":-0.17331358790397644,"13":0.09641053527593613,"14":0.10277955234050751,"15":0.030989835038781166,"16":0.1707201898097992,"17":-0.08876045793294907,"18":0.09999562054872513,"19":0.08386899530887604,"20":0.06365282833576202,"21":-0.11987876147031784,"22":-0.1789247691631317,"23":0.16470226645469666,"24":0.1475372463464737,"25":-0.009730610065162182,"26":0.030651532113552094,"27":-0.08042103797197342,"28":-0.17230874300003052,"29":-0.13451330363750458,"30":0.1873016208410263,"31":-0.11448436230421066,"32":-0.1337302178144455,"33":0.11094579100608826,"34":0.13917900621891022,"35":0.05308588594198227,"36":-0.037845972925424576,"37":0.0006229046848602593,"38":0.17058835923671722,"39":-0.03524722903966904,"40":0.3109932243824005,"41":1.0019760131835938,"42":-0.05946942791342735,"43":-0.14499232172966003,"44":-0.780522882938385,"45":0.2768307328224182,"46":0.8718687295913696,"47":0.9022117853164673,"48":-0.8960692286491394,"49":0.4317784607410431,"50":-0.4381927251815796,"51":-0.3474499583244324,"52":0.3755261301994324,"53":0.5584984421730042,"54":-0.3270941376686096,"55":-0.8794739842414856,"56":0.8286507725715637,"57":0.04001889005303383,"58":2.2564494609832764,"59":-0.2959122359752655,"60":-0.04172557219862938,"61":0.4271904528141022,"62":-0.6693505644798279,"63":-0.4847188889980316,"64":-0.5936038494110107,"65":-0.3225899338722229,"66":-0.4632197320461273,"67":-0.7374075651168823,"68":-0.5391579866409302,"69":-0.4807295501232147,"70":-0.21207153797149658,"71":-0.322279155254364,"72":-0.02323601208627224,"73":0.03305404633283615,"74":-0.1155213788151741,"75":0.1782637983560562,"76":-0.021662287414073944,"77":0.05185168981552124,"78":0.0922384038567543,"79":0.0002687009400688112,"80":0.11346197128295898,"81":-0.06244589760899544,"82":0.1717345267534256,"83":-0.14248886704444885,"84":0.040136780589818954,"85":0.0009012838127091527,"86":0.00414994964376092,"87":0.15121318399906158,"88":-0.2166428565979004,"89":-0.2025112360715866,"90":0.04383299499750137,"91":-0.05967232584953308,"92":0.10092137008905411,"93":0.1679004579782486,"94":0.08200366795063019,"95":-0.07457984983921051,"96":0.06763985753059387,"97":0.0020310399122536182,"98":-0.1330420821905136,"99":-0.025482280179858208,"100":-1.4495365619659424,"101":2.5386500358581543}},"15":{"bias":0.1307821422815323,"weights":{"0":0.009855237789452076,"1":0.11415722966194153,"2":-0.07962880283594131,"3":-0.008473873138427734,"4":-0.13073310256004333,"5":-0.1292622834444046,"6":0.10487355291843414,"7":-0.03474118560552597,"8":0.04971519485116005,"9":0.10991693288087845,"10":0.06141991540789604,"11":-0.16951897740364075,"12":-0.16551801562309265,"13":0.07452266663312912,"14":-0.11065957695245743,"15":0.11213628202676773,"16":0.19283489882946014,"17":0.14189137518405914,"18":0.008243114687502384,"19":0.048591505736112595,"20":-0.16205152869224548,"21":0.10600749403238297,"22":-0.11478114128112793,"23":0.15464548766613007,"24":0.19992581009864807,"25":0.04565770551562309,"26":-0.1562875509262085,"27":-0.05029631406068802,"28":0.05060533806681633,"29":0.06180969998240471,"30":-0.15864643454551697,"31":0.026751717552542686,"32":-0.0063386945985257626,"33":-0.020981254056096077,"34":-0.05011182278394699,"35":-0.16857579350471497,"36":0.0025016367435455322,"37":-0.0817258283495903,"38":-0.11874537169933319,"39":0.11786912381649017,"40":0.19385522603988647,"41":-0.6345469355583191,"42":-0.7867528200149536,"43":-0.26361751556396484,"44":-0.1661411076784134,"45":-0.2750941514968872,"46":1.2329038381576538,"47":-0.5635274052619934,"48":-0.24522458016872406,"49":-0.2939375042915344,"50":-1.0259512662887573,"51":-0.01525636576116085,"52":0.5744048357009888,"53":0.3479750156402588,"54":-0.47687339782714844,"55":-0.42966213822364807,"56":0.14175191521644592,"57":-0.17247112095355988,"58":0.10894916206598282,"59":-1.421239972114563,"60":0.07615935057401657,"61":0.27901825308799744,"62":-0.3177312910556793,"63":0.09337779134511948,"64":-0.4167037606239319,"65":0.34436219930648804,"66":0.05893760919570923,"67":-0.1725342869758606,"68":-0.3215516209602356,"69":-0.3064647614955902,"70":0.19164714217185974,"71":-0.041737113147974014,"72":0.1663840264081955,"73":0.31597700715065,"74":0.020460505038499832,"75":0.31815364956855774,"76":0.19220192730426788,"77":0.12671628594398499,"78":0.2600889801979065,"79":0.2948096692562103,"80":-0.04844891279935837,"81":-0.23048099875450134,"82":-0.13844190537929535,"83":-0.024353502318263054,"84":-0.20224015414714813,"85":-0.09485559165477753,"86":0.04223489761352539,"87":-0.008453763090074062,"88":0.09990762174129486,"89":-0.01372939720749855,"90":-0.0018503708997741342,"91":0.224320650100708,"92":0.15262889862060547,"93":-0.13163121044635773,"94":0.09293749928474426,"95":-0.03321273997426033,"96":0.13685491681098938,"97":-0.0024617379531264305,"98":0.2181132733821869,"99":-0.11617816239595413,"100":-0.4790842533111572,"101":2.4545416831970215}},"16":{"bias":-0.8796201348304749,"weights":{"0":-0.1300370991230011,"1":-0.05165832117199898,"2":-0.16033409535884857,"3":0.17394283413887024,"4":-0.007229873910546303,"5":0.19618947803974152,"6":-0.04209113493561745,"7":0.1798555999994278,"8":0.0014190716901794076,"9":-0.09129327535629272,"10":0.04196745902299881,"11":0.15860801935195923,"12":0.1557379961013794,"13":-0.11971062421798706,"14":0.05942170321941376,"15":0.046561241149902344,"16":-0.17866457998752594,"17":0.18147112429141998,"18":0.009358381852507591,"19":0.11027968674898148,"20":-0.1371827870607376,"21":0.011387129314243793,"22":0.0037058915477246046,"23":-0.04835136607289314,"24":-0.010446281172335148,"25":0.03997166082262993,"26":0.032399579882621765,"27":-0.08801082521677017,"28":0.16239959001541138,"29":0.07077512890100479,"30":0.15959900617599487,"31":0.1631101369857788,"32":0.10169848799705505,"33":0.08361399918794632,"34":0.16501939296722412,"35":0.08209962397813797,"36":0.19102123379707336,"37":-0.07765764743089676,"38":0.019061289727687836,"39":0.08771684020757675,"40":-0.2724587321281433,"41":-0.466305673122406,"42":0.23224662244319916,"43":0.8684083819389343,"44":2.7481980323791504,"45":0.49344712495803833,"46":0.1257101446390152,"47":0.04171426594257355,"48":-0.8878486752510071,"49":-2.011258840560913,"50":-1.3888616561889648,"51":2.557548761367798,"52":0.033344585448503494,"53":-2.1629409790039062,"54":-0.6171483397483826,"55":0.20865526795387268,"56":-0.4049909710884094,"57":-0.259057879447937,"58":-0.4524037539958954,"59":2.7351720333099365,"60":-0.27964651584625244,"61":-0.10398513078689575,"62":-0.00036325337714515626,"63":-0.4056705832481384,"64":-0.29993757605552673,"65":-0.12128112465143204,"66":0.2734105587005615,"67":-0.3033967614173889,"68":-0.30889958143234253,"69":0.08149160444736481,"70":-0.32073259353637695,"71":-0.25487983226776123,"72":-0.35485559701919556,"73":-0.04257890582084656,"74":-0.4680165946483612,"75":-0.07464341819286346,"76":-0.16524095833301544,"77":-0.04439255967736244,"78":-0.14629077911376953,"79":-0.04043450579047203,"80":-0.13331851363182068,"81":-0.25538647174835205,"82":0.099937804043293,"83":-0.16973039507865906,"84":-0.13102006912231445,"85":-0.07118619978427887,"86":-0.015087645500898361,"87":0.039405662566423416,"88":-0.15041150152683258,"89":-0.06433378905057907,"90":-0.036476265639066696,"91":0.03340267017483711,"92":0.009096760302782059,"93":-0.08309264481067657,"94":0.020984787493944168,"95":-0.07031220197677612,"96":-0.10968847572803497,"97":0.07566957175731659,"98":0.26843705773353577,"99":0.18744051456451416,"100":2.5862326622009277,"101":4.318503379821777}},"17":{"bias":-0.09887838363647461,"weights":{"0":-0.004371066112071276,"1":0.1314806193113327,"2":-0.06140275299549103,"3":0.032346874475479126,"4":0.1529274582862854,"5":0.13332313299179077,"6":-0.19455990195274353,"7":-0.1543826162815094,"8":-0.039431121200323105,"9":0.055562250316143036,"10":-0.05500418692827225,"11":0.18971586227416992,"12":-0.10645072162151337,"13":-0.09214069694280624,"14":-0.010118626058101654,"15":0.11382727324962616,"16":0.1481689214706421,"17":0.14294999837875366,"18":0.011724496260285378,"19":0.04210552200675011,"20":-0.19741682708263397,"21":-0.12567362189292908,"22":0.1688702404499054,"23":-0.020334402099251747,"24":-0.06778232008218765,"25":0.09019363671541214,"26":-0.015008611604571342,"27":-0.07679536193609238,"28":-0.08007128536701202,"29":-0.1646442860364914,"30":0.18993976712226868,"31":0.15136361122131348,"32":-0.0407826192677021,"33":0.15170061588287354,"34":-0.050130754709243774,"35":0.11973731219768524,"36":0.10552958399057388,"37":-0.050822433084249496,"38":-0.19037634134292603,"39":0.032803334295749664,"40":0.03041120246052742,"41":-0.4232718348503113,"42":-0.84792160987854,"43":-0.09722321480512619,"44":-0.1713627725839615,"45":0.17664654552936554,"46":1.0346382856369019,"47":-0.25829124450683594,"48":-0.09752047806978226,"49":-0.046878110617399216,"50":-0.5583869218826294,"51":-0.40326640009880066,"52":0.7377228140830994,"53":0.3776756227016449,"54":-0.317767858505249,"55":-1.2274352312088013,"56":0.35238152742385864,"57":-0.04797546565532684,"58":0.7079302072525024,"59":-0.635368287563324,"60":0.03428900986909866,"61":0.3926803469657898,"62":-0.34797680377960205,"63":-0.13566085696220398,"64":-0.2428852915763855,"65":0.019365219399333,"66":0.1299496442079544,"67":-0.16423121094703674,"68":-0.16854968667030334,"69":0.09728795289993286,"70":-0.165442556142807,"71":-0.08901406079530716,"72":0.11467130482196808,"73":0.11416006088256836,"74":0.13779594004154205,"75":0.03920618072152138,"76":0.014857479371130466,"77":0.016812535002827644,"78":0.18497523665428162,"79":0.05358130857348442,"80":-0.017449524253606796,"81":0.18659618496894836,"82":0.17096047103405,"83":-0.019539926201105118,"84":-0.062382351607084274,"85":0.05853016674518585,"86":0.013899225741624832,"87":-0.02606067806482315,"88":-0.02734137885272503,"89":-0.06231147423386574,"90":-0.03192203864455223,"91":-0.12106143683195114,"92":-0.07659394294023514,"93":0.20675554871559143,"94":0.07784269005060196,"95":0.10469340533018112,"96":-0.025083422660827637,"97":0.12116014212369919,"98":0.017214469611644745,"99":-0.01608564332127571,"100":-1.537799596786499,"101":1.5175780057907104}},"18":{"bias":0.05849549546837807,"weights":{"0":0.09074584394693375,"1":0.17450354993343353,"2":-0.115422323346138,"3":0.021674934774637222,"4":0.16133368015289307,"5":0.18408702313899994,"6":0.00034854758996516466,"7":0.00037078667082823813,"8":-0.016057278960943222,"9":0.06927330046892166,"10":-0.06948263198137283,"11":0.01984107308089733,"12":-0.12375684082508087,"13":-0.09441051632165909,"14":0.17404817044734955,"15":0.15390674769878387,"16":-0.031534940004348755,"17":-0.015076684765517712,"18":0.04678995534777641,"19":-0.17767333984375,"20":-0.053365860134363174,"21":-0.12140320241451263,"22":-0.13006438314914703,"23":-0.18037013709545135,"24":-0.027471765875816345,"25":0.08057627081871033,"26":-0.14474177360534668,"27":0.018779711797833443,"28":-0.17587435245513916,"29":0.03642411530017853,"30":-0.13704663515090942,"31":0.12440983951091766,"32":-0.10501156747341156,"33":-0.08015896379947662,"34":0.19905364513397217,"35":0.10176479816436768,"36":-0.00202765385620296,"37":0.08305130153894424,"38":0.08478214591741562,"39":0.12666448950767517,"40":-0.019074255600571632,"41":0.013545607216656208,"42":0.24262458086013794,"43":-0.08001109957695007,"44":0.15582531690597534,"45":-0.026878776028752327,"46":-0.5172081589698792,"47":0.12466621398925781,"48":0.06244473531842232,"49":-0.1423361748456955,"50":0.04203198477625847,"51":-0.25769859552383423,"52":0.024242453277111053,"53":-0.2741834819316864,"54":-0.05595081299543381,"55":0.36085832118988037,"56":-0.025176551192998886,"57":-0.04170120880007744,"58":-0.6869779229164124,"59":-0.2898380756378174,"60":-0.10187790542840958,"61":-0.16340230405330658,"62":-0.3699834644794464,"63":0.01014458853751421,"64":-0.2457275092601776,"65":-0.26289454102516174,"66":-0.04909064248204231,"67":0.004018888808786869,"68":-0.025761060416698456,"69":-0.1790480613708496,"70":0.1232893094420433,"71":-0.08897268027067184,"72":-0.09654104709625244,"73":-0.1180177703499794,"74":0.051037538796663284,"75":0.10424491763114929,"76":0.06746084988117218,"77":-0.16650070250034332,"78":-0.1945318728685379,"79":0.06531168520450592,"80":0.125404953956604,"81":-0.13792875409126282,"82":-0.06548173725605011,"83":-0.14507251977920532,"84":-0.10202380269765854,"85":0.16695556044578552,"86":-0.15641525387763977,"87":-0.10850750654935837,"88":-0.1295560896396637,"89":-0.17478173971176147,"90":-0.1143188625574112,"91":0.0817360058426857,"92":0.16848769783973694,"93":0.09071597456932068,"94":0.020905183628201485,"95":0.13991722464561462,"96":0.05585451051592827,"97":-0.11291411519050598,"98":-0.054347723722457886,"99":-0.19500064849853516,"100":0.15063652396202087,"101":-0.8218340277671814}},"19":{"bias":0.30189263820648193,"weights":{"0":-0.10071125626564026,"1":-0.16343259811401367,"2":-0.04142483323812485,"3":-0.09636777639389038,"4":0.17608341574668884,"5":-0.13440825045108795,"6":-0.00853540189564228,"7":0.19819830358028412,"8":0.18591201305389404,"9":-0.1178075447678566,"10":0.11456742137670517,"11":-0.05496484786272049,"12":-0.19829823076725006,"13":-0.016570942476391792,"14":0.10227359086275101,"15":-0.13139598071575165,"16":-0.1589736044406891,"17":0.16265635192394257,"18":0.08303653448820114,"19":-0.14666473865509033,"20":-0.01019373256713152,"21":-0.12739121913909912,"22":-0.1730298399925232,"23":0.07778599858283997,"24":-0.037313710898160934,"25":-0.08252331614494324,"26":0.1684204488992691,"27":0.0775727778673172,"28":-0.07882113009691238,"29":0.08008939027786255,"30":0.1978231966495514,"31":0.17092441022396088,"32":0.04727976396679878,"33":-0.1805465966463089,"34":0.022260528057813644,"35":-0.08582393079996109,"36":-0.048837076872587204,"37":-0.12528595328330994,"38":0.19200347363948822,"39":-0.0908832773566246,"40":-0.6985759735107422,"41":0.9401252865791321,"42":-0.5384228229522705,"43":0.36854177713394165,"44":0.7589316964149475,"45":0.5418477058410645,"46":-1.9757428169250488,"47":1.3119336366653442,"48":1.0232435464859009,"49":0.9566182494163513,"50":1.3954888582229614,"51":0.22715802490711212,"52":-0.24523121118545532,"53":0.8228265047073364,"54":-0.024266239255666733,"55":-0.07847699522972107,"56":0.008916006423532963,"57":-0.19121621549129486,"58":-0.5558600425720215,"59":-0.48019179701805115,"60":-0.04982437938451767,"61":-0.4082600772380829,"62":-0.519010066986084,"63":-0.3845607042312622,"64":-0.2126796990633011,"65":-0.5565633177757263,"66":-0.4192578196525574,"67":-0.46772703528404236,"68":-0.4659769833087921,"69":-0.340102881193161,"70":0.19904811680316925,"71":0.32963991165161133,"72":0.07276283204555511,"73":0.06712596863508224,"74":0.0964747816324234,"75":-0.19950038194656372,"76":0.22316184639930725,"77":-0.11525139212608337,"78":0.15971311926841736,"79":-0.029593370854854584,"80":0.17815059423446655,"81":0.22525613009929657,"82":0.14437980949878693,"83":-0.03949570655822754,"84":0.11788396537303925,"85":-0.10289978981018066,"86":-0.055222783237695694,"87":0.059797558933496475,"88":-0.11900313943624496,"89":0.18148034811019897,"90":0.10638927668333054,"91":-0.0894116535782814,"92":-0.17653290927410126,"93":0.08079594373703003,"94":-0.22325517237186432,"95":-0.2067469209432602,"96":-0.20119456946849823,"97":-0.11993923783302307,"98":0.0933595821261406,"99":-0.22016222774982452,"100":-0.78745037317276,"101":-2.282961130142212}},"20":{"bias":0.1644812673330307,"weights":{"0":-0.1271447092294693,"1":-0.17020434141159058,"2":0.0583299919962883,"3":-0.15628449618816376,"4":0.07938408851623535,"5":-0.11012408137321472,"6":-0.1384994238615036,"7":0.01488831453025341,"8":-0.11376377940177917,"9":-0.0015853047370910645,"10":-0.04570602625608444,"11":-0.19673193991184235,"12":-0.07673310488462448,"13":-0.17438256740570068,"14":-0.08726505935192108,"15":0.018866626545786858,"16":-0.031023424118757248,"17":0.022723790258169174,"18":0.12452617287635803,"19":0.1760508418083191,"20":-0.009592234157025814,"21":-0.16113969683647156,"22":-0.19323241710662842,"23":-0.0003006750193890184,"24":0.1041582003235817,"25":-0.09919939190149307,"26":-0.06153145432472229,"27":-0.008114510215818882,"28":0.13127264380455017,"29":-0.1881527602672577,"30":-0.026827776804566383,"31":-0.07591117918491364,"32":0.02969878725707531,"33":0.19237375259399414,"34":-0.18509338796138763,"35":-0.04242394119501114,"36":0.008559498935937881,"37":0.011634654365479946,"38":-0.11250142008066177,"39":-0.012672006152570248,"40":0.09401056915521622,"41":0.29018154740333557,"42":-0.8574068546295166,"43":-0.20053279399871826,"44":-0.2330472767353058,"45":0.3806777596473694,"46":0.5937929153442383,"47":0.36675000190734863,"48":-0.7799850702285767,"49":0.626792311668396,"50":-1.0306200981140137,"51":0.25606513023376465,"52":0.4694024622440338,"53":0.04031314700841904,"54":-0.5966469049453735,"55":-0.060178305953741074,"56":0.380728155374527,"57":0.20357643067836761,"58":-0.39536210894584656,"59":-1.2194499969482422,"60":-0.08146864175796509,"61":0.22795219719409943,"62":-0.18175099790096283,"63":0.18267375230789185,"64":-0.2871379852294922,"65":0.208499476313591,"66":-0.2419263869524002,"67":-0.15091556310653687,"68":-0.2612323462963104,"69":-0.13746023178100586,"70":-0.014447231777012348,"71":0.299856960773468,"72":0.18565015494823456,"73":0.2723328471183777,"74":0.12082474678754807,"75":0.20755618810653687,"76":0.07332269847393036,"77":0.21624580025672913,"78":0.23571676015853882,"79":0.26777714490890503,"80":-0.23901359736919403,"81":0.08507047593593597,"82":0.0058750887401402,"83":-0.07287358492612839,"84":0.08391635119915009,"85":-0.009813068434596062,"86":-0.14806826412677765,"87":0.02672698348760605,"88":-0.2062646597623825,"89":0.056477539241313934,"90":-0.06486593186855316,"91":0.2067541778087616,"92":-0.0016527685802429914,"93":0.05122767761349678,"94":0.23317746818065643,"95":-0.01375502534210682,"96":0.07688723504543304,"97":0.0752028301358223,"98":-0.005162546876817942,"99":-0.1355825662612915,"100":-0.10937649756669998,"101":3.116295337677002}},"21":{"bias":-0.26087629795074463,"weights":{"0":0.1984698623418808,"1":0.15452764928340912,"2":0.021936682984232903,"3":0.16669127345085144,"4":-0.07156461477279663,"5":-0.18039891123771667,"6":-0.18778856098651886,"7":-0.10733494162559509,"8":0.0009686819976195693,"9":-0.0150532815605402,"10":-0.11406155675649643,"11":0.09692215919494629,"12":0.18948552012443542,"13":-0.02031792514026165,"14":0.1197691559791565,"15":-0.1343628615140915,"16":-0.1146126389503479,"17":0.01641571894288063,"18":0.19967256486415863,"19":0.03706888481974602,"20":0.08348340541124344,"21":-0.16389626264572144,"22":-0.13102205097675323,"23":0.16660727560520172,"24":-0.0038379321340471506,"25":-0.14001409709453583,"26":0.12055256962776184,"27":0.02778451330959797,"28":-0.031668320298194885,"29":-0.10053235292434692,"30":-0.07267165184020996,"31":0.054373208433389664,"32":0.1247505322098732,"33":0.054834309965372086,"34":-0.005175587255507708,"35":-0.10225678235292435,"36":0.04143432527780533,"37":-0.1883794516324997,"38":-0.18974711000919342,"39":-0.11620902270078659,"40":-0.26393553614616394,"41":-0.06847407668828964,"42":-0.1856030523777008,"43":-0.020563581958413124,"44":0.41854050755500793,"45":-0.06825374811887741,"46":-0.5339956283569336,"47":-0.02101757377386093,"48":0.16586849093437195,"49":-0.0976281613111496,"50":0.3237517178058624,"51":-0.4363241195678711,"52":-0.027661003172397614,"53":-0.10596296191215515,"54":0.08595167100429535,"55":-0.17326907813549042,"56":-0.019553059712052345,"57":-0.14956040680408478,"58":0.01697436533868313,"59":0.1343502551317215,"60":-0.07492188364267349,"61":-0.2611995041370392,"62":-0.3052009344100952,"63":-0.08538240194320679,"64":0.07735069841146469,"65":-0.15860134363174438,"66":-0.32169491052627563,"67":-0.07523687183856964,"68":-0.26263564825057983,"69":-0.1825190633535385,"70":-0.2268771529197693,"71":0.07506044209003448,"72":-0.18612472712993622,"73":0.005037151742726564,"74":-0.02672399953007698,"75":-0.23102550208568573,"76":-0.11505310982465744,"77":-0.11817096918821335,"78":-0.15801168978214264,"79":-0.22621531784534454,"80":-0.06194882467389107,"81":0.19303520023822784,"82":0.13407421112060547,"83":-0.16521990299224854,"84":0.09745778888463974,"85":-0.08938930183649063,"86":0.05370839312672615,"87":-0.12097541242837906,"88":-0.01204773597419262,"89":0.06490117311477661,"90":0.0073738847859203815,"91":-0.04724309593439102,"92":-0.1537720113992691,"93":0.015436544083058834,"94":-0.03193558752536774,"95":-0.0109811220318079,"96":0.11568918079137802,"97":0.055415041744709015,"98":-0.06772392243146896,"99":-0.0015936343697831035,"100":-0.020944243296980858,"101":-0.5841476917266846}},"22":{"bias":-0.18096013367176056,"weights":{"0":0.08343026787042618,"1":-0.16014088690280914,"2":0.0539221316576004,"3":0.023805342614650726,"4":-0.001381810987368226,"5":0.08995629847049713,"6":0.07240650057792664,"7":-0.17807377874851227,"8":-0.06172461807727814,"9":-0.12252200394868851,"10":-0.11007774621248245,"11":0.16283878684043884,"12":0.017208021134138107,"13":-0.12166303396224976,"14":0.039585500955581665,"15":0.057816557586193085,"16":0.048232872039079666,"17":0.1978694349527359,"18":-0.1533915251493454,"19":0.16610799729824066,"20":0.16571474075317383,"21":0.10792769491672516,"22":-0.0992991253733635,"23":-0.15160679817199707,"24":-0.09298480302095413,"25":-0.0826525166630745,"26":0.14221124351024628,"27":0.15706774592399597,"28":-0.05216224864125252,"29":-0.033873043954372406,"30":0.1665407121181488,"31":-0.06392627209424973,"32":0.09206094592809677,"33":0.06732141226530075,"34":-0.0068082609213888645,"35":-0.17858806252479553,"36":-0.006861404050141573,"37":-0.022519778460264206,"38":0.10077232122421265,"39":-0.04326101019978523,"40":-0.16719791293144226,"41":-0.417119562625885,"42":0.40454334020614624,"43":0.26195406913757324,"44":0.4510333240032196,"45":0.324880987405777,"46":-0.6138889789581299,"47":-0.4013063311576843,"48":-0.01654195599257946,"49":-0.2753296196460724,"50":0.18380442261695862,"51":0.08464081585407257,"52":-0.35258957743644714,"53":-0.35363176465034485,"54":0.030029674991965294,"55":0.8875648379325867,"56":-1.0291109085083008,"57":-0.6962233185768127,"58":-1.7857033014297485,"59":0.06408973783254623,"60":0.09574548155069351,"61":-0.12465796619653702,"62":0.32581061124801636,"63":0.28154700994491577,"64":0.32847920060157776,"65":-0.09534905105829239,"66":0.11160802841186523,"67":0.45319387316703796,"68":0.5124346017837524,"69":0.39326101541519165,"70":0.29486972093582153,"71":0.2565940320491791,"72":0.048542849719524384,"73":0.1449694186449051,"74":0.04126676172018051,"75":-0.06546786427497864,"76":0.04803469777107239,"77":0.22965392470359802,"78":0.15226101875305176,"79":-0.03507215902209282,"80":-0.1097874566912651,"81":0.16585230827331543,"82":-0.030376935377717018,"83":-0.14058193564414978,"84":0.08948925882577896,"85":-0.07343396544456482,"86":0.20463277399539948,"87":0.044464658945798874,"88":-0.13581667840480804,"89":0.06321288645267487,"90":-0.051840007305145264,"91":-0.10701434314250946,"92":-0.20546606183052063,"93":-0.15895149111747742,"94":-0.12151630222797394,"95":-0.2221871018409729,"96":-0.06569251418113708,"97":-0.1116240918636322,"98":-0.1669076830148697,"99":-0.10079749673604965,"100":1.1084213256835938,"101":-2.612391948699951}},"23":{"bias":0.08458288013935089,"weights":{"0":-0.09646759182214737,"1":0.14494246244430542,"2":0.10840722918510437,"3":0.15084414184093475,"4":-0.17776311933994293,"5":-0.1145542711019516,"6":-0.002523647388443351,"7":-0.1405094414949417,"8":0.15242227911949158,"9":-0.06227480620145798,"10":-0.09710254520177841,"11":-0.04424193128943443,"12":-0.09605372697114944,"13":0.07417724281549454,"14":0.12828928232192993,"15":0.012137841433286667,"16":-0.07116999477148056,"17":-0.03932434692978859,"18":0.12862610816955566,"19":0.041271552443504333,"20":-0.13887690007686615,"21":0.15876977145671844,"22":-0.13381066918373108,"23":0.061667174100875854,"24":-0.0835539922118187,"25":0.09706994891166687,"26":0.09315835684537888,"27":0.1688256710767746,"28":0.11676262319087982,"29":0.013060078024864197,"30":0.1656959354877472,"31":0.030763670802116394,"32":-0.02684459276497364,"33":-0.08352352678775787,"34":-0.03405054658651352,"35":-0.055451083928346634,"36":0.08907622843980789,"37":-0.09848267585039139,"38":-0.12627358734607697,"39":0.19926412403583527,"40":-0.03874872252345085,"41":0.027020921930670738,"42":-0.4409847855567932,"43":-0.22313813865184784,"44":-0.6647904515266418,"45":0.23637115955352783,"46":0.35931217670440674,"47":-0.200579434633255,"48":-0.6833292841911316,"49":0.12136858701705933,"50":-0.2728813886642456,"51":0.029663145542144775,"52":0.1834716945886612,"53":0.1736292541027069,"54":-0.0028656176291406155,"55":-0.6355603337287903,"56":0.5152736306190491,"57":0.18944109976291656,"58":0.9617983102798462,"59":-0.04711582884192467,"60":-0.21559229493141174,"61":0.1698407083749771,"62":-0.28143978118896484,"63":-0.19342896342277527,"64":-0.4993515908718109,"65":0.09843207895755768,"66":-0.14722652733325958,"67":-0.4249543249607086,"68":-0.48186802864074707,"69":-0.3455882668495178,"70":0.01985306106507778,"71":0.010855792090296745,"72":-0.06428959965705872,"73":0.022930551320314407,"74":-0.07850385457277298,"75":0.27446120977401733,"76":-0.18150945007801056,"77":-0.0056844125501811504,"78":0.06578502804040909,"79":0.22520847618579865,"80":0.13321679830551147,"81":0.16169418394565582,"82":-0.1521872878074646,"83":0.1562817096710205,"84":0.18535099923610687,"85":0.037076640874147415,"86":-0.1420326828956604,"87":0.17106756567955017,"88":-0.017709961161017418,"89":0.07686904072761536,"90":-0.002438479335978627,"91":0.18917517364025116,"92":-0.1188863217830658,"93":-0.13458816707134247,"94":0.12490333616733551,"95":0.1920928955078125,"96":0.08133053034543991,"97":0.0008863506955094635,"98":-0.0025790513027459383,"99":0.12428339570760727,"100":-0.9165142774581909,"101":1.0720542669296265}},"24":{"bias":-0.07703445851802826,"weights":{"0":0.13011886179447174,"1":-0.024236289784312248,"2":-0.027936944738030434,"3":0.14478124678134918,"4":0.17454926669597626,"5":-0.1304093301296234,"6":-0.18594828248023987,"7":-0.038235459476709366,"8":-0.054281510412693024,"9":0.045559342950582504,"10":-0.010006965138018131,"11":0.1463761180639267,"12":0.19657784700393677,"13":0.05490219593048096,"14":0.062041234225034714,"15":-0.16695909202098846,"16":-0.021948348730802536,"17":0.08110589534044266,"18":0.18893228471279144,"19":0.10637791454792023,"20":-0.09707419574260712,"21":0.07143708318471909,"22":0.07619459182024002,"23":-0.1946798712015152,"24":0.07109156250953674,"25":-0.11437313258647919,"26":0.15095087885856628,"27":0.049940504133701324,"28":-0.1023574247956276,"29":-0.15286976099014282,"30":0.06735213100910187,"31":0.07010121643543243,"32":0.1796639859676361,"33":-0.11088264733552933,"34":0.18448787927627563,"35":-0.07651831954717636,"36":0.041316017508506775,"37":0.06911146640777588,"38":0.17909730970859528,"39":0.08250560611486435,"40":0.07209140062332153,"41":0.08157571405172348,"42":-0.13328145444393158,"43":-0.27978742122650146,"44":0.06364617496728897,"45":-0.27023836970329285,"46":0.3561350703239441,"47":-0.13019248843193054,"48":-0.5903076529502869,"49":-0.07108431309461594,"50":-0.4991385042667389,"51":0.43851304054260254,"52":-0.15910732746124268,"53":-0.28433939814567566,"54":-0.062002070248126984,"55":-0.06525625288486481,"56":0.31606656312942505,"57":0.043682537972927094,"58":0.1388487070798874,"59":-0.5268950462341309,"60":-0.12551406025886536,"61":-0.06400088965892792,"62":-0.23551569879055023,"63":-0.02963831275701523,"64":-0.20449566841125488,"65":-0.23031602799892426,"66":-0.23102989792823792,"67":-0.27922654151916504,"68":-0.03208969905972481,"69":-0.06222381815314293,"70":-0.223719984292984,"71":-0.12180468440055847,"72":-0.16897688806056976,"73":-0.08587590605020523,"74":-0.1303497701883316,"75":-0.01620480976998806,"76":-0.0960715040564537,"77":0.04478772357106209,"78":-0.1367543339729309,"79":0.06598874181509018,"80":0.004326747264713049,"81":0.024642320349812508,"82":0.14308401942253113,"83":-0.07615717500448227,"84":-0.19067561626434326,"85":0.056786708533763885,"86":0.015975311398506165,"87":0.026828354224562645,"88":-0.12022967636585236,"89":0.10694969445466995,"90":-0.11213632673025131,"91":-0.01412823423743248,"92":-0.13579048216342926,"93":-0.026024581864476204,"94":0.20883014798164368,"95":0.03487958759069443,"96":-0.06392168253660202,"97":-0.0973932296037674,"98":-0.1052837148308754,"99":0.1443532407283783,"100":-0.09345439076423645,"101":1.3871197700500488}},"25":{"bias":-0.20409202575683594,"weights":{"0":-0.08816607296466827,"1":0.010000718757510185,"2":0.1292116641998291,"3":0.020094577223062515,"4":-0.1995660662651062,"5":-0.14548645913600922,"6":0.14960432052612305,"7":-0.16810475289821625,"8":0.10652156174182892,"9":-0.1805891990661621,"10":-0.005842079874128103,"11":-0.17846724390983582,"12":-0.11820434033870697,"13":0.0812084898352623,"14":0.11368204653263092,"15":0.15150149166584015,"16":-0.05190570652484894,"17":-0.1998288780450821,"18":-0.0600680336356163,"19":0.13292963802814484,"20":0.008630563504993916,"21":0.04856957495212555,"22":0.18455399572849274,"23":-0.1146402657032013,"24":-0.1149878054857254,"25":0.17588281631469727,"26":0.17878080904483795,"27":0.05525234341621399,"28":-0.06792044639587402,"29":-0.16924181580543518,"30":0.10213511437177658,"31":0.07645131647586823,"32":0.1859802007675171,"33":-0.13594172894954681,"34":0.158164843916893,"35":-0.14961834251880646,"36":-0.03017197735607624,"37":0.06991457939147949,"38":-0.0764605775475502,"39":0.05340510606765747,"40":-0.09701598435640335,"41":-0.0692267194390297,"42":-0.09732069820165634,"43":-0.13014233112335205,"44":0.010085365734994411,"45":-0.1594143807888031,"46":-0.12817509472370148,"47":0.09685497730970383,"48":-0.20489929616451263,"49":-0.13749024271965027,"50":-0.03583167493343353,"51":-0.2787533402442932,"52":-0.10433044284582138,"53":-0.3775556683540344,"54":-0.13719682395458221,"55":0.10282568633556366,"56":0.05477570369839668,"57":-0.19703924655914307,"58":-0.3444346785545349,"59":0.04649140313267708,"60":-0.32229360938072205,"61":-0.16733865439891815,"62":-0.03507407382130623,"63":-0.07241537421941757,"64":-0.21378456056118011,"65":-0.19548919796943665,"66":-0.1423078179359436,"67":-0.10871361941099167,"68":0.032959215342998505,"69":-0.2935951054096222,"70":0.0292440764605999,"71":-0.1885351538658142,"72":-0.000012239239367772825,"73":-0.14274758100509644,"74":-0.16218294203281403,"75":-0.29274410009384155,"76":-0.08737900853157043,"77":0.028798695653676987,"78":-0.05424730107188225,"79":-0.15357570350170135,"80":0.041984923183918,"81":-0.010188444517552853,"82":-0.17014552652835846,"83":-0.019867852330207825,"84":-0.20118169486522675,"85":-0.19467110931873322,"86":0.1483883559703827,"87":-0.10347994416952133,"88":-0.091034434735775,"89":0.14086349308490753,"90":-0.12751871347427368,"91":0.050113141536712646,"92":-0.07046603411436081,"93":0.07749123871326447,"94":0.08697476983070374,"95":-0.0824248269200325,"96":-0.18360549211502075,"97":0.035053983330726624,"98":0.11978540569543839,"99":0.00213844096288085,"100":0.18849949538707733,"101":-0.6223340630531311}},"26":{"bias":-0.06786949187517166,"weights":{"0":-0.07893457263708115,"1":0.0003666369884740561,"2":0.16061697900295258,"3":-0.17229096591472626,"4":0.1266690343618393,"5":-0.10491333156824112,"6":-0.06058546528220177,"7":0.12671764194965363,"8":-0.10891424864530563,"9":0.03694045543670654,"10":0.10286366939544678,"11":-0.04113544523715973,"12":-0.14145925641059875,"13":0.03546599671244621,"14":-0.07497192174196243,"15":-0.0883994847536087,"16":0.12181829661130905,"17":-0.06317539513111115,"18":-0.19167901575565338,"19":0.16189898550510406,"20":-0.17497487366199493,"21":-0.09702678769826889,"22":-0.1962353140115738,"23":-0.07656063884496689,"24":0.19728821516036987,"25":0.15610043704509735,"26":-0.07803400605916977,"27":0.0494999997317791,"28":0.007863728329539299,"29":-0.01582653820514679,"30":0.036510057747364044,"31":0.1267169564962387,"32":-0.0630979984998703,"33":-0.015305283479392529,"34":-0.09816611558198929,"35":-0.15371231734752655,"36":0.04225172474980354,"37":0.15201112627983093,"38":-0.1296546757221222,"39":-0.14572063088417053,"40":-0.1213098093867302,"41":-0.046431977301836014,"42":-0.14232410490512848,"43":-0.0003009997308254242,"44":-0.1698172688484192,"45":-0.04835892841219902,"46":0.09247155487537384,"47":-0.153811514377594,"48":-0.284904807806015,"49":-0.20026902854442596,"50":-0.40180906653404236,"51":-0.06546174734830856,"52":0.17952094972133636,"53":-0.21867211163043976,"54":-0.0017388557316735387,"55":-0.644437849521637,"56":0.23815836012363434,"57":-0.0345919132232666,"58":-0.03490116819739342,"59":-0.03271671012043953,"60":-0.2745312750339508,"61":0.0902228131890297,"62":-0.17676414549350739,"63":-0.3358278274536133,"64":-0.153910294175148,"65":-0.28101399540901184,"66":-0.05749141797423363,"67":-0.19137610495090485,"68":-0.053381986916065216,"69":-0.18143099546432495,"70":0.04874836653470993,"71":0.08136136829853058,"72":-0.22695313394069672,"73":-0.1666114628314972,"74":-0.1051003485918045,"75":0.2248072326183319,"76":-0.13215993344783783,"77":0.03924991190433502,"78":-0.0632733628153801,"79":0.1381189227104187,"80":-0.17692506313323975,"81":-0.19343817234039307,"82":0.1469424068927765,"83":0.04679456725716591,"84":-0.12111857533454895,"85":-0.15747302770614624,"86":-0.14287284016609192,"87":0.09132517874240875,"88":0.1321963369846344,"89":0.15022322535514832,"90":0.08433902263641357,"91":0.13996925950050354,"92":0.17789354920387268,"93":0.1532260775566101,"94":0.13165892660617828,"95":-0.058935798704624176,"96":0.13528475165367126,"97":-0.15380987524986267,"98":-0.09030929207801819,"99":-0.019388169050216675,"100":-0.6187941431999207,"101":1.0559155941009521}},"27":{"bias":-0.1995772272348404,"weights":{"0":-0.1743347942829132,"1":0.046065352857112885,"2":-0.11620475351810455,"3":0.12175542861223221,"4":-0.12648792564868927,"5":0.17942753434181213,"6":-0.11320844292640686,"7":-0.14619547128677368,"8":-0.12401546537876129,"9":-0.046996716409921646,"10":0.06201815605163574,"11":-0.009578049182891846,"12":0.04787517711520195,"13":0.17456455528736115,"14":0.021888256072998047,"15":0.07158607244491577,"16":-0.05666158348321915,"17":-0.13263483345508575,"18":-0.1687435507774353,"19":0.07289698719978333,"20":0.07723040878772736,"21":0.03969395160675049,"22":-0.030195461586117744,"23":-0.0575019046664238,"24":-0.046078428626060486,"25":-0.11557766795158386,"26":0.15643078088760376,"27":0.08286149054765701,"28":-0.10291416943073273,"29":0.09005852788686752,"30":-0.1506040245294571,"31":-0.034388311207294464,"32":0.10089844465255737,"33":0.04345184192061424,"34":-0.18705147504806519,"35":0.021177107468247414,"36":0.10729043185710907,"37":0.027611486613750458,"38":-0.17190192639827728,"39":0.06285582482814789,"40":-0.15456700325012207,"41":0.05975467711687088,"42":0.05533941462635994,"43":0.11430779099464417,"44":0.299572616815567,"45":-0.023768983781337738,"46":-0.10913959890604019,"47":0.09756328910589218,"48":-0.060557037591934204,"49":-0.12137847393751144,"50":-0.05680771544575691,"51":-0.10054532438516617,"52":-0.2490323781967163,"53":-0.22574815154075623,"54":-0.00606811698526144,"55":-0.07493936270475388,"56":0.005437933839857578,"57":-0.054616495966911316,"58":-0.4413359761238098,"59":-0.14227129518985748,"60":-0.3440227210521698,"61":-0.1423056721687317,"62":-0.01675272360444069,"63":-0.050692107528448105,"64":-0.09392101317644119,"65":-0.11094054579734802,"66":-0.1482832282781601,"67":-0.14892977476119995,"68":-0.12829814851284027,"69":-0.3396093547344208,"70":-0.1355839967727661,"71":0.11550837755203247,"72":-0.162941113114357,"73":0.0033345120027661324,"74":0.04773355647921562,"75":-0.2163459211587906,"76":-0.23644986748695374,"77":-0.06282351166009903,"78":-0.17429789900779724,"79":0.06389530003070831,"80":0.14975638687610626,"81":-0.08184827864170074,"82":0.1578831672668457,"83":0.18147341907024384,"84":-0.12256050109863281,"85":0.0841669961810112,"86":0.18597494065761566,"87":0.004423191770911217,"88":-0.11746065318584442,"89":-0.03807896748185158,"90":0.0984366163611412,"91":0.17847970128059387,"92":0.0853407233953476,"93":0.11383455991744995,"94":0.045942869037389755,"95":-0.04719147831201553,"96":0.00011479463864816353,"97":-0.12118220329284668,"98":-0.03686143830418587,"99":-0.060939885675907135,"100":0.05753534287214279,"101":-0.35773715376853943}},"28":{"bias":0.6223336458206177,"weights":{"0":-0.15304799377918243,"1":-0.09074349701404572,"2":0.06264142692089081,"3":0.1298537403345108,"4":0.14106133580207825,"5":-0.18375778198242188,"6":0.17963996529579163,"7":0.15659958124160767,"8":0.10494817793369293,"9":-0.050211358815431595,"10":-0.17590057849884033,"11":-0.0001296908885706216,"12":0.051738206297159195,"13":-0.0375712513923645,"14":-0.16752368211746216,"15":-0.13246667385101318,"16":0.15043210983276367,"17":-0.03711234778165817,"18":-0.017484426498413086,"19":0.11954101920127869,"20":0.03526240214705467,"21":0.126058891415596,"22":-0.17099244892597198,"23":-0.06850773841142654,"24":0.17088378965854645,"25":0.16314618289470673,"26":-0.15404467284679413,"27":0.1847420632839203,"28":0.18928781151771545,"29":0.08833035081624985,"30":0.1559770405292511,"31":-0.13829414546489716,"32":0.004937900695949793,"33":-0.05335970222949982,"34":-0.006261175032705069,"35":0.06134603172540665,"36":-0.13116852939128876,"37":0.10871602594852448,"38":0.1962381899356842,"39":0.003858124138787389,"40":0.035297684371471405,"41":0.3261558413505554,"42":-0.19953632354736328,"43":-0.46485471725463867,"44":-1.5881648063659668,"45":0.09756358712911606,"46":-0.5828338265419006,"47":0.036138445138931274,"48":0.5136580467224121,"49":0.9628701210021973,"50":1.147809386253357,"51":-1.68119478225708,"52":-0.37589120864868164,"53":1.4768404960632324,"54":0.45144811272621155,"55":-0.07742747664451599,"56":0.13031579554080963,"57":0.0820990651845932,"58":0.1005110815167427,"59":-1.4726378917694092,"60":0.11026614904403687,"61":-0.06153712421655655,"62":-0.026020033285021782,"63":0.35454586148262024,"64":0.49464353919029236,"65":0.11442550271749496,"66":-0.2792932093143463,"67":0.09796878695487976,"68":-0.09739629179239273,"69":-0.08486317098140717,"70":0.37764838337898254,"71":0.19677309691905975,"72":0.29686152935028076,"73":0.01473724190145731,"74":0.20419001579284668,"75":0.1771669238805771,"76":0.19609104096889496,"77":0.06830374896526337,"78":0.04446501284837723,"79":-0.1232391819357872,"80":0.2610311210155487,"81":-0.12193936854600906,"82":-0.009885700419545174,"83":0.10812816768884659,"84":0.13979382812976837,"85":0.14240415394306183,"86":0.05046969652175903,"87":0.22824406623840332,"88":0.08947986364364624,"89":-0.1589827984571457,"90":0.07555516809225082,"91":-0.2544967830181122,"92":0.10382134467363358,"93":-0.25241777300834656,"94":-0.11068964749574661,"95":-0.07026056200265884,"96":-0.13586904108524323,"97":0.006970880553126335,"98":-0.00571886170655489,"99":0.06163114309310913,"100":-1.8127180337905884,"101":-3.425294876098633}},"29":{"bias":-0.16035106778144836,"weights":{"0":0.0005519375554285944,"1":-0.19138498604297638,"2":-0.12809845805168152,"3":0.10941343009471893,"4":-0.1785571575164795,"5":-0.04926983639597893,"6":0.11639641225337982,"7":-0.18932543694972992,"8":0.08591067790985107,"9":-0.07123127579689026,"10":0.15597382187843323,"11":-0.05106053501367569,"12":0.17685262858867645,"13":-0.08857258409261703,"14":-0.1893884241580963,"15":-0.15879224240779877,"16":-0.05825971066951752,"17":0.06404995173215866,"18":0.08141704648733139,"19":0.009365634992718697,"20":-0.1289711445569992,"21":0.15925441682338715,"22":0.12097535282373428,"23":-0.10536637157201767,"24":0.07234422862529755,"25":-0.0013475927989929914,"26":0.11556220799684525,"27":-0.17962905764579773,"28":-0.17509013414382935,"29":-0.19721150398254395,"30":0.07149241864681244,"31":0.16161605715751648,"32":-0.10527141392230988,"33":0.11226354539394379,"34":0.060834091156721115,"35":0.010849853046238422,"36":0.190708726644516,"37":0.11843127012252808,"38":0.03098519705235958,"39":0.07026056945323944,"40":0.2008615881204605,"41":-0.19440385699272156,"42":-0.4061398208141327,"43":-0.0350334569811821,"44":0.031165413558483124,"45":0.189644917845726,"46":0.5849615931510925,"47":-0.391333669424057,"48":-0.21107220649719238,"49":-0.15073160827159882,"50":-0.4511207640171051,"51":-0.2913272976875305,"52":0.25300633907318115,"53":0.295845091342926,"54":-0.5975663661956787,"55":-0.46458885073661804,"56":0.07852160930633545,"57":-0.22457066178321838,"58":0.8232064843177795,"59":-0.4110889434814453,"60":-0.2103061079978943,"61":0.1742638796567917,"62":-0.24303051829338074,"63":-0.1413407176733017,"64":-0.23484854400157928,"65":-0.19170401990413666,"66":-0.13348272442817688,"67":-0.15982255339622498,"68":-0.478311151266098,"69":-0.29323503375053406,"70":0.1737690269947052,"71":-0.12480536848306656,"72":0.07467680424451828,"73":0.18998591601848602,"74":-0.11040639877319336,"75":0.21859358251094818,"76":-0.08828853815793991,"77":0.270704448223114,"78":0.035647206008434296,"79":0.26330527663230896,"80":-0.11159602552652359,"81":-0.0433262474834919,"82":0.003447900293394923,"83":-0.1723298877477646,"84":-0.051616501063108444,"85":-0.06872355192899704,"86":-0.03702123463153839,"87":-0.1769385188817978,"88":0.04818833991885185,"89":-0.02880803309381008,"90":0.04871822148561478,"91":0.15578581392765045,"92":-0.14647537469863892,"93":0.17040245234966278,"94":-0.07460255920886993,"95":-0.04434538260102272,"96":0.22885355353355408,"97":-0.1622738391160965,"98":-0.03568967804312706,"99":0.18738093972206116,"100":-0.8533449769020081,"101":1.07603120803833}},"30":{"bias":-0.24734202027320862,"weights":{"0":0.17808252573013306,"1":-0.14779210090637207,"2":0.07598873972892761,"3":-0.1749298870563507,"4":-0.08489647507667542,"5":-0.005989782977849245,"6":-0.0022059776820242405,"7":0.07710641622543335,"8":0.13991422951221466,"9":0.13865263760089874,"10":-0.02989847958087921,"11":-0.12530280649662018,"12":-0.06874508410692215,"13":0.18911664187908173,"14":-0.006470735650509596,"15":-0.12220698595046997,"16":0.004952467978000641,"17":-0.12377021461725235,"18":0.12268020957708359,"19":0.13372722268104553,"20":0.00011027362779714167,"21":0.004205934703350067,"22":-0.09716485440731049,"23":-0.1769714504480362,"24":0.11151964962482452,"25":0.1348555088043213,"26":0.13300541043281555,"27":0.11855053156614304,"28":-0.1995100975036621,"29":0.06436507403850555,"30":-0.19647952914237976,"31":0.05556764826178551,"32":-0.09679733216762543,"33":0.1318986564874649,"34":-0.014735513366758823,"35":-0.1223076581954956,"36":0.0020777953322976828,"37":0.0656547099351883,"38":0.08318708837032318,"39":0.17346271872520447,"40":-0.10187523812055588,"41":0.17627429962158203,"42":0.16351507604122162,"43":0.15179534256458282,"44":0.21078680455684662,"45":-0.20050519704818726,"46":-0.2808561325073242,"47":-0.03872736543416977,"48":-0.18817944824695587,"49":-0.3319316506385803,"50":-0.16987571120262146,"51":-0.05785348638892174,"52":-0.16385994851589203,"53":-0.282321572303772,"54":-0.07835648208856583,"55":0.13910187780857086,"56":0.056809201836586,"57":-0.13521157205104828,"58":-0.41987812519073486,"59":0.18909808993339539,"60":-0.04480527341365814,"61":-0.18916775286197662,"62":-0.3011642396450043,"63":-0.13550476729869843,"64":-0.22385653853416443,"65":-0.3039904832839966,"66":-0.2143414169549942,"67":-0.08352910727262497,"68":-0.11787360161542892,"69":-0.21661701798439026,"70":-0.11376210302114487,"71":-0.0769781842827797,"72":-0.1665361374616623,"73":-0.04109209030866623,"74":0.04521789774298668,"75":-0.20250098407268524,"76":-0.14341267943382263,"77":-0.25903114676475525,"78":-0.3265666365623474,"79":-0.08979190140962601,"80":0.08511321991682053,"81":0.091346375644207,"82":0.0025532033760100603,"83":-0.050537653267383575,"84":-0.00466780224815011,"85":-0.16627237200737,"86":0.038062356412410736,"87":-0.21123671531677246,"88":-0.17679080367088318,"89":-0.13651376962661743,"90":0.19058392941951752,"91":-0.19596950709819794,"92":0.12826475501060486,"93":-0.20098234713077545,"94":-0.007437161635607481,"95":-0.15549272298812866,"96":0.144465371966362,"97":0.03221143037080765,"98":0.08216977119445801,"99":-0.0077069285325706005,"100":0.3471662104129791,"101":-0.3250230550765991}},"31":{"bias":0.28207167983055115,"weights":{"0":0.00487380288541317,"1":-0.19235087931156158,"2":-0.07354986667633057,"3":-0.1745012104511261,"4":0.10566060245037079,"5":-0.0871560275554657,"6":0.15466316044330597,"7":-0.19635340571403503,"8":0.11266990751028061,"9":-0.11630968749523163,"10":-0.06321794539690018,"11":-0.12040609121322632,"12":-0.005983348004519939,"13":0.08030591160058975,"14":-0.1760336011648178,"15":-0.1228734701871872,"16":-0.09883973747491837,"17":0.050569240003824234,"18":-0.07806698232889175,"19":0.014903755858540535,"20":-0.16104060411453247,"21":-0.13738800585269928,"22":-0.06831329315900803,"23":0.04760713130235672,"24":0.05605561286211014,"25":-0.04144996032118797,"26":-0.18574586510658264,"27":0.059459056705236435,"28":-0.06520795822143555,"29":-0.02799479477107525,"30":-0.12576866149902344,"31":-0.15017007291316986,"32":-0.044636283069849014,"33":0.06675247102975845,"34":-0.10987706482410431,"35":-0.09536558389663696,"36":0.060704007744789124,"37":0.08855988085269928,"38":-0.007329970598220825,"39":-0.053314559161663055,"40":0.33015477657318115,"41":0.23237638175487518,"42":-0.23546834290027618,"43":-0.19744527339935303,"44":-0.4147188365459442,"45":0.12555089592933655,"46":0.7482353448867798,"47":0.4227370321750641,"48":-0.9264932870864868,"49":0.13042892515659332,"50":-0.7698298692703247,"51":0.8299614787101746,"52":0.23157234489917755,"53":-0.051443129777908325,"54":-0.19708672165870667,"55":0.008636058308184147,"56":0.513333261013031,"57":0.2884833514690399,"58":0.25079089403152466,"59":-1.0279347896575928,"60":-0.28700605034828186,"61":-0.18248526751995087,"62":-0.21481290459632874,"63":0.16961006820201874,"64":-0.2625788152217865,"65":0.22440342605113983,"66":-0.15608760714530945,"67":-0.2994646728038788,"68":-0.4294986426830292,"69":-0.08988826721906662,"70":0.14759601652622223,"71":-0.01992138661444187,"72":-0.10902852565050125,"73":0.02890256978571415,"74":-0.03289158269762993,"75":0.08524826169013977,"76":0.20467600226402283,"77":0.10850487649440765,"78":0.05182678997516632,"79":0.018658220767974854,"80":0.028785502538084984,"81":-0.04520381614565849,"82":-0.14544959366321564,"83":-0.025408798828721046,"84":-0.1218123733997345,"85":0.013463706709444523,"86":0.07777315378189087,"87":-0.15420885384082794,"88":0.053809843957424164,"89":-0.10567125678062439,"90":0.09690243750810623,"91":-0.12927551567554474,"92":0.023513954132795334,"93":0.19475753605365753,"94":0.055548351258039474,"95":0.058930445462465286,"96":0.13571016490459442,"97":0.15103799104690552,"98":-0.11911115795373917,"99":0.16296525299549103,"100":0.023510169237852097,"101":2.7079310417175293}},"32":{"bias":-0.020853223279118538,"weights":{"0":0.008865281008183956,"1":-0.17561639845371246,"2":-0.05119095742702484,"3":-0.11265433579683304,"4":0.06873582303524017,"5":0.16781942546367645,"6":-0.12839587032794952,"7":-0.1510034203529358,"8":-0.037705596536397934,"9":0.08710512518882751,"10":0.004372421186417341,"11":-0.18948978185653687,"12":-0.18184658885002136,"13":0.13551558554172516,"14":-0.15830184519290924,"15":0.011759009212255478,"16":0.189380943775177,"17":0.12442082166671753,"18":-0.15820306539535522,"19":0.12306781113147736,"20":-0.1090877577662468,"21":0.07267023622989655,"22":-0.07164546102285385,"23":0.18544478714466095,"24":0.17772604525089264,"25":0.15772832930088043,"26":-0.13635195791721344,"27":0.137157142162323,"28":-0.016573244705796242,"29":-0.16654083132743835,"30":-0.09246062487363815,"31":0.12687060236930847,"32":-0.07240377366542816,"33":-0.0797930359840393,"34":0.0575067400932312,"35":0.12617942690849304,"36":-0.001617939560674131,"37":-0.17030218243598938,"38":0.17515017092227936,"39":-0.1304263174533844,"40":0.11534963548183441,"41":-0.29711592197418213,"42":1.3377751111984253,"43":0.38270625472068787,"44":0.5250411033630371,"45":-0.6808179616928101,"46":-0.203070268034935,"47":-0.29993951320648193,"48":0.4022662937641144,"49":-0.49445122480392456,"50":0.16213738918304443,"51":0.6767331957817078,"52":-0.6533030867576599,"53":-0.6369403600692749,"54":0.18454137444496155,"55":1.2798224687576294,"56":-0.7029614448547363,"57":-0.12013973295688629,"58":-1.8695197105407715,"59":0.3877283036708832,"60":-0.06126996874809265,"61":-0.24349986016750336,"62":0.1988556981086731,"63":0.0006483644829131663,"64":0.5855861306190491,"65":-0.17920546233654022,"66":0.17169912159442902,"67":0.32095417380332947,"68":0.23098616302013397,"69":0.1813650131225586,"70":0.07759389281272888,"71":0.16693773865699768,"72":-0.15454044938087463,"73":-0.2092251479625702,"74":-0.07523493468761444,"75":-0.00526997447013855,"76":-0.06049104407429695,"77":-0.32270902395248413,"78":-0.2112901210784912,"79":-0.05938231199979782,"80":0.009554244577884674,"81":-0.14979448914527893,"82":0.06152472272515297,"83":-0.0819830372929573,"84":-0.2001851499080658,"85":0.018498416990041733,"86":-0.02850189432501793,"87":-0.1256486177444458,"88":0.07865671813488007,"89":0.06421992927789688,"90":-0.15901531279087067,"91":0.0473068431019783,"92":-0.05136987194418907,"93":-0.10633677989244461,"94":0.020248055458068848,"95":0.0904691070318222,"96":-0.2127397656440735,"97":-0.11326097697019577,"98":-0.12657926976680756,"99":0.004971173591911793,"100":1.6454917192459106,"101":-1.4982937574386597}},"33":{"bias":-0.3063336908817291,"weights":{"0":-0.040745604783296585,"1":0.08445243537425995,"2":-0.15543241798877716,"3":-0.08112221211194992,"4":0.09251875430345535,"5":-0.0510137714445591,"6":0.061647094786167145,"7":-0.02358057349920273,"8":0.12828755378723145,"9":-0.16674691438674927,"10":0.15855899453163147,"11":-0.14207835495471954,"12":-0.01924210973083973,"13":0.05009741708636284,"14":-0.1779414713382721,"15":0.15988513827323914,"16":-0.13180246949195862,"17":0.1604122668504715,"18":-0.18597117066383362,"19":-0.0665045902132988,"20":0.018146030604839325,"21":0.04078613594174385,"22":0.10774091631174088,"23":-0.14010398089885712,"24":-0.1907443106174469,"25":0.005293351598083973,"26":-0.011688042432069778,"27":0.1564774513244629,"28":0.15627610683441162,"29":0.17375655472278595,"30":0.08177264779806137,"31":-0.16639207303524017,"32":0.02519584633409977,"33":0.15803472697734833,"34":-0.1640986204147339,"35":0.11589208990335464,"36":0.1567074954509735,"37":-0.16207565367221832,"38":-0.03733818233013153,"39":0.17008422315120697,"40":0.0902317464351654,"41":-0.07008687406778336,"42":0.10173076391220093,"43":0.08432979136705399,"44":0.07160204648971558,"45":-0.14050741493701935,"46":-0.006758174858987331,"47":-0.2027655988931656,"48":0.21877595782279968,"49":-0.12156800925731659,"50":-0.014540381729602814,"51":-0.23853661119937897,"52":-0.14111550152301788,"53":-0.11037831008434296,"54":-0.08432891219854355,"55":-0.10400661826133728,"56":0.05255429819226265,"57":0.054074976593256,"58":-0.4004898965358734,"59":-0.3709745705127716,"60":-0.24598336219787598,"61":-0.07675879448652267,"62":-0.25777626037597656,"63":-0.3064344525337219,"64":-0.13554692268371582,"65":-0.007302556652575731,"66":-0.24938642978668213,"67":-0.11864209920167923,"68":-0.22724094986915588,"69":-0.15200254321098328,"70":0.026356466114521027,"71":0.08568710833787918,"72":-0.05505039170384407,"73":-0.22214089334011078,"74":-0.04991384595632553,"75":-0.0008600527653470635,"76":-0.022586725652217865,"77":-0.112034372985363,"78":0.11436615884304047,"79":0.12146816402673721,"80":0.1675122231245041,"81":-0.1081029549241066,"82":-0.061451204121112823,"83":0.14254777133464813,"84":-0.09015695005655289,"85":-0.013079379685223103,"86":0.17397873103618622,"87":-0.09715129435062408,"88":-0.14860588312149048,"89":0.15707023441791534,"90":0.052904997020959854,"91":0.07276403903961182,"92":-0.09424001723527908,"93":-0.059712011367082596,"94":0.07388798892498016,"95":-0.03341200575232506,"96":0.167615607380867,"97":0.17499376833438873,"98":0.0594928003847599,"99":0.16649234294891357,"100":0.061000924557447433,"101":-0.030438410118222237}},"34":{"bias":0.10981565713882446,"weights":{"0":-0.09424363821744919,"1":-0.09523171186447144,"2":0.12005051970481873,"3":-0.09969712048768997,"4":-0.016205407679080963,"5":-0.17357000708580017,"6":0.14818623661994934,"7":-0.05390612781047821,"8":-0.1929665356874466,"9":-0.18043889105319977,"10":-0.05672405660152435,"11":-0.04190348461270332,"12":0.024548659101128578,"13":0.09951149672269821,"14":0.12775230407714844,"15":0.16759894788265228,"16":-0.007010969333350658,"17":0.06431037187576294,"18":0.029147397726774216,"19":0.18664392828941345,"20":-0.07583574205636978,"21":-0.06013927981257439,"22":0.02129867672920227,"23":0.011937061324715614,"24":0.15586818754673004,"25":0.15012624859809875,"26":0.11889046430587769,"27":0.001382621587254107,"28":-0.06288938224315643,"29":-0.13105431199073792,"30":-0.1273694783449173,"31":-0.1593645066022873,"32":0.019465766847133636,"33":-0.15321442484855652,"34":-0.0644388273358345,"35":-0.10582254081964493,"36":-0.12709513306617737,"37":-0.1193595752120018,"38":0.16350731253623962,"39":0.10580521076917648,"40":-0.5211211442947388,"41":0.7140704393386841,"42":-0.2169884592294693,"43":0.10481075942516327,"44":0.664378821849823,"45":0.3146485686302185,"46":-1.4265522956848145,"47":0.7998391389846802,"48":1.3475310802459717,"49":0.8991364240646362,"50":1.271693229675293,"51":0.2911159098148346,"52":-0.06227780133485794,"53":0.4749855697154999,"54":-0.10211054235696793,"55":0.2507593333721161,"56":0.015956886112689972,"57":-0.023234711959958076,"58":-0.9377034306526184,"59":-0.8486796617507935,"60":-0.4524059593677521,"61":-0.29270675778388977,"62":-0.33786895871162415,"63":-0.29446011781692505,"64":0.0037239196244627237,"65":-0.13962331414222717,"66":-0.586386501789093,"67":-0.35204455256462097,"68":-0.27223363518714905,"69":-0.5574520826339722,"70":0.39558225870132446,"71":0.20305335521697998,"72":0.09608051925897598,"73":0.1623874455690384,"74":0.21406006813049316,"75":-0.04534599184989929,"76":0.2973167598247528,"77":0.040316928178071976,"78":0.2235179841518402,"79":0.13630041480064392,"80":0.1335255354642868,"81":0.22197090089321136,"82":0.012556500732898712,"83":-0.08784972876310349,"84":0.13457731902599335,"85":0.1307355910539627,"86":-0.04594649747014046,"87":0.20066972076892853,"88":-0.1322239488363266,"89":0.014110309071838856,"90":0.13639990985393524,"91":-0.02919314056634903,"92":-0.11241411417722702,"93":-0.00010177209333050996,"94":-0.049196936190128326,"95":-0.1414429098367691,"96":-0.0939951166510582,"97":0.04844878986477852,"98":0.0019337115809321404,"99":-0.20843487977981567,"100":-0.20842473208904266,"101":-1.845576524734497}},"35":{"bias":-0.5325815677642822,"weights":{"0":0.08385027199983597,"1":-0.14084944128990173,"2":0.03605814278125763,"3":0.10410396754741669,"4":0.026588190346956253,"5":0.07274718582630157,"6":-0.042438726872205734,"7":0.00753380311653018,"8":-0.015030642040073872,"9":0.11080203950405121,"10":-0.14124710857868195,"11":0.07441994547843933,"12":-0.102616086602211,"13":-0.1406041830778122,"14":0.014752748422324657,"15":-0.054187871515750885,"16":0.07744171470403671,"17":0.1993720978498459,"18":0.13577388226985931,"19":0.09913481026887894,"20":0.19526831805706024,"21":0.07000717520713806,"22":0.16718295216560364,"23":-0.09813294559717178,"24":-0.19554588198661804,"25":-0.15448850393295288,"26":0.12540549039840698,"27":0.1493763029575348,"28":-0.1277412325143814,"29":0.08900376409292221,"30":-0.11944080889225006,"31":0.10617538541555405,"32":0.14630915224552155,"33":-0.058311257511377335,"34":0.023266365751624107,"35":-0.1711612343788147,"36":-0.043208666145801544,"37":0.026842445135116577,"38":-0.010010494850575924,"39":0.04140474647283554,"40":0.09903079271316528,"41":-0.04246850684285164,"42":-0.9689481854438782,"43":-0.2959667146205902,"44":-0.37251007556915283,"45":-0.6033638715744019,"46":0.39657801389694214,"47":0.45615437626838684,"48":0.48194795846939087,"49":0.8900988101959229,"50":-1.0959962606430054,"51":-0.5371764898300171,"52":0.7247627377510071,"53":0.14768870174884796,"54":-0.38889145851135254,"55":-1.94841730594635,"56":0.816601574420929,"57":0.21936604380607605,"58":-0.024781309068202972,"59":-1.0362986326217651,"60":0.3947913944721222,"61":0.8560127019882202,"62":0.011503379791975021,"63":-0.03641466796398163,"64":0.0823909193277359,"65":0.15132208168506622,"66":0.3394770920276642,"67":0.06900064647197723,"68":0.04316111281514168,"69":0.12947192788124084,"70":-0.22631405293941498,"71":-0.38884487748146057,"72":-0.35153040289878845,"73":0.021836820989847183,"74":-0.27146968245506287,"75":0.09107942134141922,"76":-0.30480340123176575,"77":0.0027148809749633074,"78":-0.09213026612997055,"79":0.06680475920438766,"80":0.02586219646036625,"81":-0.12545236945152283,"82":-0.01791687309741974,"83":0.01024201326072216,"84":0.18017129600048065,"85":0.18865089118480682,"86":-0.059899553656578064,"87":-0.012881755828857422,"88":-0.11606639623641968,"89":-0.0870160385966301,"90":0.19251161813735962,"91":0.11112534254789352,"92":0.035762932151556015,"93":-0.0752977654337883,"94":-0.10485471040010452,"95":0.008165770210325718,"96":0.04424787685275078,"97":0.0853489488363266,"98":0.02111770026385784,"99":-0.11673537641763687,"100":-2.352558135986328,"101":2.602888345718384}},"36":{"bias":0.002079746453091502,"weights":{"0":-0.01422377023845911,"1":0.1620725840330124,"2":-0.1661648005247116,"3":0.00431336835026741,"4":-0.1520199179649353,"5":0.15087392926216125,"6":-0.07918917387723923,"7":0.18397729098796844,"8":-0.15185463428497314,"9":0.1772388517856598,"10":0.040287137031555176,"11":0.10081060975790024,"12":0.06461629271507263,"13":0.13302749395370483,"14":-0.08629011362791061,"15":-0.10659310221672058,"16":0.1831183135509491,"17":0.010858978144824505,"18":0.11074193567037582,"19":-0.16326530277729034,"20":-0.07748968154191971,"21":0.19920971989631653,"22":-0.0805458053946495,"23":-0.16009923815727234,"24":-0.1096688061952591,"25":-0.08189309388399124,"26":-0.181632399559021,"27":-0.14589184522628784,"28":-0.030805764719843864,"29":-0.10906551033258438,"30":-0.05292639508843422,"31":-0.19379141926765442,"32":0.18483199179172516,"33":0.021852897480130196,"34":0.1495523303747177,"35":-0.0019789135549217463,"36":0.16907183825969696,"37":0.03518624231219292,"38":-0.1927960216999054,"39":0.13216492533683777,"40":0.19402359426021576,"41":0.4218316376209259,"42":-1.0063492059707642,"43":-0.3798712193965912,"44":-0.49397045373916626,"45":0.429360568523407,"46":0.12271200120449066,"47":0.21754346787929535,"48":-0.6536139249801636,"49":0.4021048843860626,"50":-0.4608994722366333,"51":-0.25589174032211304,"52":0.5140789747238159,"53":0.4604591727256775,"54":-0.17539821565151215,"55":-0.9900801181793213,"56":0.4913567006587982,"57":0.06452269107103348,"58":1.3182880878448486,"59":-0.2738043963909149,"60":0.10876423865556717,"61":0.1293100118637085,"62":-0.28926271200180054,"63":-0.29342278838157654,"64":-0.5588316917419434,"65":-0.1295783966779709,"66":-0.12846492230892181,"67":-0.27284541726112366,"68":-0.3290678858757019,"69":-0.37930259108543396,"70":-0.11748217791318893,"71":-0.1841648519039154,"72":0.11100944131612778,"73":0.15689551830291748,"74":-0.17376211285591125,"75":-0.0202858317643404,"76":-0.030797379091382027,"77":0.18049833178520203,"78":-0.008454592898488045,"79":0.26902371644973755,"80":-0.15948724746704102,"81":-0.24447771906852722,"82":-0.016174085438251495,"83":-0.12219950556755066,"84":-0.023053158074617386,"85":0.11138075590133667,"86":0.11627799272537231,"87":-0.02366996556520462,"88":0.12189779430627823,"89":0.12494958937168121,"90":-0.1219245120882988,"91":0.1532902717590332,"92":0.09284164011478424,"93":0.15509143471717834,"94":0.1824430525302887,"95":0.08941702544689178,"96":0.21449336409568787,"97":0.0805453211069107,"98":-0.041150134056806564,"99":-0.10833849757909775,"100":-1.293434977531433,"101":2.2626793384552}},"37":{"bias":0.2921715974807739,"weights":{"0":0.18717309832572937,"1":-0.12380380183458328,"2":-0.0749494731426239,"3":-0.003390068421140313,"4":-0.1092950776219368,"5":0.006316889077425003,"6":-0.1410215049982071,"7":0.01301084365695715,"8":0.02162213996052742,"9":0.17995257675647736,"10":-0.09977172315120697,"11":0.16305595636367798,"12":-0.015444380231201649,"13":0.02442489005625248,"14":0.11054817587137222,"15":-0.0865786075592041,"16":-0.14436528086662292,"17":0.08889440447092056,"18":-0.002486090874299407,"19":0.16951142251491547,"20":0.19287435710430145,"21":-0.022456102073192596,"22":-0.13162457942962646,"23":-0.030788792297244072,"24":-0.005441749934107065,"25":0.04246695339679718,"26":0.09012167155742645,"27":0.13623018562793732,"28":0.08473528921604156,"29":-0.1600353866815567,"30":0.060447338968515396,"31":0.004956971853971481,"32":-0.054351404309272766,"33":-0.16862908005714417,"34":0.07139124721288681,"35":0.1261902004480362,"36":-0.05463140830397606,"37":0.1402284801006317,"38":-0.14387266337871552,"39":0.1802336722612381,"40":-0.17861191928386688,"41":-0.5997692942619324,"42":0.6675546765327454,"43":0.15267616510391235,"44":0.0035649354103952646,"45":0.4992657005786896,"46":0.056652721017599106,"47":-0.9069148302078247,"48":-0.006222992669790983,"49":-0.5839086174964905,"50":0.9543448090553284,"51":-0.9360745549201965,"52":0.07475736737251282,"53":0.12076768279075623,"54":0.4190387427806854,"55":1.2246421575546265,"56":-0.404679536819458,"57":-0.17426101863384247,"58":0.7250363826751709,"59":2.9126877784729004,"60":-0.8260447382926941,"61":-1.042680263519287,"62":-0.41222670674324036,"63":-0.14103910326957703,"64":-0.3145676255226135,"65":0.10476531833410263,"66":-0.3222888708114624,"67":-0.33351385593414307,