{"sizes":[102,20,20,20,3],"layers":[{"0":{},"1":{},"2":{},"3":{},"4":{},"5":{},"6":{},"7":{},"8":{},"9":{},"10":{},"11":{},"12":{},"13":{},"14":{},"15":{},"16":{},"17":{},"18":{},"19":{},"20":{},"21":{},"22":{},"23":{},"24":{},"25":{},"26":{},"27":{},"28":{},"29":{},"30":{},"31":{},"32":{},"33":{},"34":{},"35":{},"36":{},"37":{},"38":{},"39":{},"40":{},"41":{},"42":{},"43":{},"44":{},"45":{},"46":{},"47":{},"48":{},"49":{},"50":{},"51":{},"52":{},"53":{},"54":{},"55":{},"56":{},"57":{},"58":{},"59":{},"60":{},"61":{},"62":{},"63":{},"64":{},"65":{},"66":{},"67":{},"68":{},"69":{},"70":{},"71":{},"72":{},"73":{},"74":{},"75":{},"76":{},"77":{},"78":{},"79":{},"80":{},"81":{},"82":{},"83":{},"84":{},"85":{},"86":{},"87":{},"88":{},"89":{},"90":{},"91":{},"92":{},"93":{},"94":{},"95":{},"96":{},"97":{},"98":{},"99":{},"100":{},"101":{}},{"0":{"bias":-2.3976986408233643,"weights":{"0":-0.17503520846366882,"1":0.1353941261768341,"2":0.07679683715105057,"3":0.11951912194490433,"4":-0.0789094865322113,"5":0.0666576474905014,"6":0.014659377746284008,"7":0.10957478731870651,"8":0.03392185643315315,"9":-0.041746318340301514,"10":-0.12191706895828247,"11":0.09979109466075897,"12":-0.04571729153394699,"13":0.13328289985656738,"14":-0.1526174694299698,"15":-0.05027424916625023,"16":0.1925818771123886,"17":-0.1507733017206192,"18":0.12745538353919983,"19":0.1926092654466629,"20":0.06755907833576202,"21":-0.15796016156673431,"22":0.008182725869119167,"23":0.1929135024547577,"24":0.035387083888053894,"25":0.11190617829561234,"26":-0.09210195392370224,"27":-0.1326991766691208,"28":-0.1992628425359726,"29":0.1738605797290802,"30":-0.5101990103721619,"31":-0.1454097330570221,"32":0.19640322029590607,"33":-0.18929630517959595,"34":-0.08401238173246384,"35":0.03692525997757912,"36":0.12955383956432343,"37":0.1220230832695961,"38":0.136567160487175,"39":0.9108174443244934,"40":-0.5884577035903931,"41":0.17582598328590393,"42":0.8301534652709961,"43":-1.712096929550171,"44":0.1690845489501953,"45":-0.7489660382270813,"46":1.6131466627120972,"47":-0.7561538815498352,"48":2.08591628074646,"49":1.234850525856018,"50":0.4239623546600342,"51":0.7527575492858887,"52":0.668347954750061,"53":-1.047362208366394,"54":-2.1552352905273438,"55":0.5673940181732178,"56":1.9796220064163208,"57":0.007020779885351658,"58":0.6224071383476257,"59":-2.1530864238739014,"60":-0.9779234528541565,"61":1.8840103149414062,"62":1.3375767469406128,"63":-2.2065165042877197,"64":0.20979611575603485,"65":-0.5537359714508057,"66":-0.5013761520385742,"67":-0.05247431620955467,"68":1.7386633157730103,"69":0.316211998462677,"70":-0.37120822072029114,"71":-0.5922622084617615,"72":0.1916540563106537,"73":0.2768864333629608,"74":0.445048451423645,"75":0.18840292096138,"76":-0.35448357462882996,"77":0.1415240615606308,"78":-0.17801769077777863,"79":0.289124071598053,"80":0.5731125473976135,"81":0.2325722873210907,"82":0.3079587519168854,"83":0.3015415370464325,"84":0.5296143293380737,"85":0.4023644030094147,"86":0.255668044090271,"87":0.4833296537399292,"88":0.5160449147224426,"89":0.18729913234710693,"90":-0.006523467600345612,"91":0.18497921526432037,"92":0.06240932643413544,"93":0.0019586964044719934,"94":-0.08611399680376053,"95":-0.09454404562711716,"96":0.18101580440998077,"97":0.04492573440074921,"98":0.17189763486385345,"99":0.056416697800159454,"100":4.25189733505249,"101":1.355577826499939}},"1":{"bias":-0.15386879444122314,"weights":{"0":0.0940328985452652,"1":0.11973418295383453,"2":0.08224810659885406,"3":-0.07673310488462448,"4":0.1804286539554596,"5":-0.10807568579912186,"6":-0.1915101557970047,"7":0.0671749860048294,"8":-0.1443919837474823,"9":-0.11906186491250992,"10":-0.1795075386762619,"11":0.05253680422902107,"12":-0.15997307002544403,"13":-0.026695068925619125,"14":0.024250028654932976,"15":0.11007615178823471,"16":-0.08406100422143936,"17":-0.17269274592399597,"18":0.19696056842803955,"19":0.053520310670137405,"20":-0.09025010466575623,"21":-0.16222286224365234,"22":-0.09682602435350418,"23":0.12464683502912521,"24":-0.11918269097805023,"25":-0.055482976138591766,"26":0.1097157821059227,"27":-0.004356579389423132,"28":-0.10183451324701309,"29":-0.09124112129211426,"30":-0.06902626156806946,"31":0.10641621053218842,"32":-0.07453310489654541,"33":-0.15109431743621826,"34":-0.16770175099372864,"35":-0.1332976222038269,"36":-0.08702199906110764,"37":-0.042870327830314636,"38":0.10594310611486435,"39":-1.3106904029846191,"40":-0.045060932636260986,"41":-0.2191479653120041,"42":0.07297885417938232,"43":-0.060383088886737823,"44":-0.22557233273983002,"45":0.8444109559059143,"46":0.8301675915718079,"47":-0.39318206906318665,"48":-0.45485439896583557,"49":1.4853967428207397,"50":-0.19644929468631744,"51":1.0266106128692627,"52":-0.7711980938911438,"53":0.4536701440811157,"54":-0.3202051520347595,"55":-1.356017827987671,"56":-0.5524513125419617,"57":-0.6560788154602051,"58":0.39533188939094543,"59":0.6579833626747131,"60":0.6254172921180725,"61":0.2333257496356964,"62":0.09183397144079208,"63":-1.124829649925232,"64":-0.018404971808195114,"65":0.03123989887535572,"66":-0.04416544735431671,"67":-0.46621450781822205,"68":-0.3070516586303711,"69":0.6897299885749817,"70":0.16136254370212555,"71":0.3341556787490845,"72":-0.1285964995622635,"73":-0.3170298933982849,"74":-0.36818861961364746,"75":-0.0021186531521379948,"76":-0.04208921641111374,"77":-0.03390701115131378,"78":0.20171970129013062,"79":0.06144494563341141,"80":-0.33031800389289856,"81":-0.1763656884431839,"82":-0.05817580595612526,"83":-0.19856944680213928,"84":-0.3242048919200897,"85":-0.15529759228229523,"86":-0.36174461245536804,"87":-0.04064573720097542,"88":-0.3848089277744293,"89":-0.15954867005348206,"90":0.05629023164510727,"91":-0.0027219520416110754,"92":0.1634398251771927,"93":0.17797552049160004,"94":0.16396872699260712,"95":0.14029403030872345,"96":-0.013345878571271896,"97":0.005182134453207254,"98":-0.13006119430065155,"99":0.08667491376399994,"100":0.9676955342292786,"101":-0.042258452624082565}},"2":{"bias":2.143143892288208,"weights":{"0":0.07013426721096039,"1":0.1799861192703247,"2":0.1334570199251175,"3":-0.05216109752655029,"4":-0.11617995798587799,"5":0.021772952750325203,"6":-0.14487983286380768,"7":0.03380357101559639,"8":-0.01993614248931408,"9":0.1392137110233307,"10":-0.17569057643413544,"11":-0.03583108261227608,"12":-0.06545080244541168,"13":-0.0245674941688776,"14":-0.0670149102807045,"15":0.08435109257698059,"16":-0.07675720751285553,"17":-0.16728253662586212,"18":0.15824320912361145,"19":0.11964460462331772,"20":-0.10401200503110886,"21":0.1190740242600441,"22":0.1612180769443512,"23":-0.1544855535030365,"24":0.08889137208461761,"25":-0.14670836925506592,"26":0.027780011296272278,"27":0.16716782748699188,"28":0.09542383253574371,"29":-0.08045057952404022,"30":0.15284951031208038,"31":0.009407376870512962,"32":0.08932565897703171,"33":0.12788410484790802,"34":-0.0073065245524048805,"35":0.05387115478515625,"36":0.012490004301071167,"37":-0.005369837395846844,"38":0.18103842437267303,"39":-1.0067505836486816,"40":-1.031143069267273,"41":-0.8014323711395264,"42":-1.985327959060669,"43":1.686619520187378,"44":-1.0467158555984497,"45":0.34365200996398926,"46":-1.0043573379516602,"47":-1.0000433921813965,"48":2.356529951095581,"49":-1.6887321472167969,"50":0.3300011456012726,"51":-0.2117871195077896,"52":0.5497535467147827,"53":1.2439944744110107,"54":-3.0234475135803223,"55":-0.4716112017631531,"56":0.376482218503952,"57":-0.21858781576156616,"58":0.9301096796989441,"59":0.6780771017074585,"60":1.4520678520202637,"61":0.7403845191001892,"62":-0.007062459364533424,"63":-0.03018922172486782,"64":-0.26105254888534546,"65":-1.163582682609558,"66":-0.36779889464378357,"67":0.15475037693977356,"68":-0.40552350878715515,"69":-0.35608166456222534,"70":0.5636066198348999,"71":0.2732432782649994,"72":-0.2974413335323334,"73":-0.5333489179611206,"74":-0.3413523733615875,"75":-0.19601497054100037,"76":0.41505110263824463,"77":-0.34842243790626526,"78":0.11721678823232651,"79":-0.47548356652259827,"80":0.040263582020998,"81":0.06189803034067154,"82":-0.007116152439266443,"83":-0.045730482786893845,"84":-0.11417921632528305,"85":-0.2005312144756317,"86":0.1412118375301361,"87":-0.023663261905312538,"88":-0.1772414594888687,"89":-0.05669666454195976,"90":0.006941561587154865,"91":-0.18403416872024536,"92":0.004971365910023451,"93":0.07990740239620209,"94":-0.05209099501371384,"95":-0.0511673167347908,"96":0.045937612652778625,"97":0.12228184193372726,"98":0.01210895273834467,"99":-0.05818658322095871,"100":-2.2568740844726562,"101":-1.6769812107086182}},"3":{"bias":-0.9013941884040833,"weights":{"0":0.18725502490997314,"1":0.16652916371822357,"2":0.13410262763500214,"3":-0.09615190327167511,"4":0.10024864226579666,"5":-0.033051781356334686,"6":0.10175558924674988,"7":-0.0416659452021122,"8":-0.10839387774467468,"9":-0.1705409437417984,"10":0.11284030973911285,"11":0.11731281876564026,"12":0.0275666993111372,"13":0.1647343933582306,"14":0.068156898021698,"15":0.028616800904273987,"16":-0.12606072425842285,"17":0.16764456033706665,"18":0.17649203538894653,"19":0.08010423928499222,"20":0.04183482378721237,"21":-0.08864529430866241,"22":0.015786664560437202,"23":-0.0005420351517386734,"24":-0.0671578124165535,"25":0.051813531666994095,"26":0.12849755585193634,"27":-0.10830157995223999,"28":-0.022938603535294533,"29":-0.13876989483833313,"30":-1.1518356800079346,"31":-0.03346274048089981,"32":0.025462856516242027,"33":0.10412097722291946,"34":0.01007017306983471,"35":-0.058212511241436005,"36":0.02194449119269848,"37":0.18288369476795197,"38":0.19117958843708038,"39":-0.0284947007894516,"40":2.7568490505218506,"41":-0.6053386926651001,"42":-2.4095113277435303,"43":1.9560933113098145,"44":3.238055944442749,"45":-0.2538124918937683,"46":1.6695349216461182,"47":1.1284493207931519,"48":-0.1643962413072586,"49":1.453541874885559,"50":-0.29762086272239685,"51":0.1110018938779831,"52":-0.11283900588750839,"53":-1.2030494213104248,"54":-1.5463109016418457,"55":2.6680262088775635,"56":-0.6813594102859497,"57":0.3840665817260742,"58":-1.3306248188018799,"59":-0.9888450503349304,"60":-0.3303033411502838,"61":-0.7919455766677856,"62":0.7004585862159729,"63":-0.5852006077766418,"64":0.07309481501579285,"65":-0.7920284271240234,"66":0.5638248324394226,"67":0.36817535758018494,"68":0.40014272928237915,"69":-1.1381300687789917,"70":0.47247442603111267,"71":0.21209390461444855,"72":-0.028762388974428177,"73":0.1031099259853363,"74":-0.2917102873325348,"75":0.22988499701023102,"76":0.06485480070114136,"77":0.2123180329799652,"78":0.15143541991710663,"79":0.06361337751150131,"80":-0.12177171558141708,"81":-0.33390307426452637,"82":-0.46356314420700073,"83":-0.10947795957326889,"84":-0.34780022501945496,"85":-0.4895888566970825,"86":-0.4921894073486328,"87":-0.19337916374206543,"88":-0.43269404768943787,"89":-0.5095968246459961,"90":0.05948607623577118,"91":0.039169132709503174,"92":0.1503116339445114,"93":0.07919325679540634,"94":-0.014980707317590714,"95":0.05168857425451279,"96":-0.18648980557918549,"97":0.08525768667459488,"98":0.06601674854755402,"99":0.1163482591509819,"100":0.6864701509475708,"101":-0.7068406939506531}},"4":{"bias":-1.2455289363861084,"weights":{"0":0.09356244653463364,"1":0.07157585024833679,"2":0.10108613222837448,"3":-0.12563814222812653,"4":0.09200894087553024,"5":0.18546593189239502,"6":0.088780976831913,"7":-0.0038562200497835875,"8":-0.12388429790735245,"9":0.1333782970905304,"10":0.12321897596120834,"11":0.17208394408226013,"12":0.12293204665184021,"13":-0.1368732452392578,"14":0.14734841883182526,"15":-0.08023563772439957,"16":0.049385834485292435,"17":-0.07799217104911804,"18":0.028174234554171562,"19":0.19841137528419495,"20":0.1605619639158249,"21":-0.15005794167518616,"22":-0.026909656822681427,"23":0.15275251865386963,"24":-0.08929082006216049,"25":0.1581454873085022,"26":0.17644907534122467,"27":-0.05233805999159813,"28":0.1961939036846161,"29":0.11802980303764343,"30":-0.06172357127070427,"31":-0.04837067425251007,"32":0.12222396582365036,"33":-0.13449867069721222,"34":0.14936938881874084,"35":-0.10320068150758743,"36":-0.04455874115228653,"37":-0.042794119566679,"38":-0.14325885474681854,"39":0.3184913694858551,"40":-0.8226256370544434,"41":-0.15273864567279816,"42":-0.5181112289428711,"43":-1.273316502571106,"44":0.5276177525520325,"45":-0.050104886293411255,"46":0.665928840637207,"47":-0.5067813992500305,"48":0.5420368909835815,"49":0.32388660311698914,"50":0.4686574339866638,"51":1.1907442808151245,"52":1.3158689737319946,"53":-0.2916993498802185,"54":-0.08075513690710068,"55":0.2449679970741272,"56":0.09227141737937927,"57":-0.1484113335609436,"58":0.429632306098938,"59":-0.5608424544334412,"60":0.050660572946071625,"61":0.0661109909415245,"62":0.486913800239563,"63":-0.4574812650680542,"64":-0.019412681460380554,"65":-0.833679735660553,"66":0.33785080909729004,"67":0.6028925776481628,"68":-0.3744240403175354,"69":-0.052712008357048035,"70":0.22414842247962952,"71":-0.14935839176177979,"72":0.2745532989501953,"73":0.3362375497817993,"74":0.024090023711323738,"75":-0.06301761418581009,"76":-0.025485362857580185,"77":-0.04749199002981186,"78":-0.02191135101020336,"79":-0.008838733658194542,"80":0.21614831686019897,"81":0.4065570831298828,"82":0.29914218187332153,"83":0.1915566623210907,"84":0.1621962934732437,"85":0.09113947302103043,"86":0.11301057785749435,"87":0.23377209901809692,"88":0.35259658098220825,"89":0.15943679213523865,"90":-0.24090981483459473,"91":-0.04066978022456169,"92":-0.24438026547431946,"93":0.07696143537759781,"94":-0.07650228589773178,"95":-0.14532718062400818,"96":-0.07982634752988815,"97":-0.11813410371541977,"98":-0.09261322766542435,"99":0.10759306699037552,"100":-0.2287241518497467,"101":0.8093888759613037}},"5":{"bias":-0.22541391849517822,"weights":{"0":0.08211103826761246,"1":-0.11682916432619095,"2":-0.013382531702518463,"3":-0.015094651840627193,"4":0.0631975457072258,"5":0.0780934989452362,"6":-0.14848598837852478,"7":-0.19365498423576355,"8":0.16937817633152008,"9":-0.09768616408109665,"10":-0.17897412180900574,"11":0.15995533764362335,"12":-0.08565818518400192,"13":0.17080150544643402,"14":0.18199846148490906,"15":0.19007696211338043,"16":0.09349864721298218,"17":-0.1215105801820755,"18":-0.03088546358048916,"19":-0.1293765753507614,"20":0.17158253490924835,"21":0.10837908089160919,"22":0.10968580096960068,"23":-0.18817996978759766,"24":-0.15247893333435059,"25":0.19863609969615936,"26":-0.10755601525306702,"27":-0.17264357209205627,"28":-0.19510625302791595,"29":0.059304606169462204,"30":0.031576968729496,"31":-0.16052775084972382,"32":0.0342276468873024,"33":0.012144090607762337,"34":-0.14946326613426208,"35":-0.012915810570120811,"36":-0.12380269169807434,"37":-0.08835892379283905,"38":-0.1811629980802536,"39":-1.2607148885726929,"40":-0.06627264618873596,"41":-0.12278120964765549,"42":0.5677458643913269,"43":-0.3441731929779053,"44":0.43462392687797546,"45":0.06367101520299911,"46":0.058282166719436646,"47":0.44739946722984314,"48":-0.04325493052601814,"49":0.3408183157444,"50":-0.12225708365440369,"51":0.2096107453107834,"52":1.065014123916626,"53":0.7137728929519653,"54":-1.0157674551010132,"55":-0.5900604724884033,"56":0.3112376928329468,"57":-0.230986550450325,"58":-0.5923172235488892,"59":-0.4933943450450897,"60":0.3004065752029419,"61":-0.7259876132011414,"62":-0.3259548246860504,"63":0.2792215943336487,"64":0.2420717030763626,"65":-0.22185376286506653,"66":0.25040197372436523,"67":-0.01850634627044201,"68":0.18947188556194305,"69":0.22763371467590332,"70":-0.03574075549840927,"71":-0.3904116749763489,"72":-0.044320929795503616,"73":0.27633213996887207,"74":-0.11865831166505814,"75":0.24716565012931824,"76":-0.05610261484980583,"77":0.2011234015226364,"78":0.03805649280548096,"79":0.1754927933216095,"80":-0.18090708553791046,"81":0.1062798947095871,"82":0.09187622368335724,"83":-0.03641213849186897,"84":0.1469019502401352,"85":0.12045363336801529,"86":0.023129316046833992,"87":0.0749712586402893,"88":-0.02328253909945488,"89":-0.07818302512168884,"90":0.036287419497966766,"91":0.09806858748197556,"92":0.20073507726192474,"93":0.03545132279396057,"94":0.1894540935754776,"95":-0.04173930361866951,"96":-0.026003528386354446,"97":0.12079671770334244,"98":-0.07899970561265945,"99":0.18496672809123993,"100":0.9128205180168152,"101":0.11347724497318268}},"6":{"bias":-0.014716404490172863,"weights":{"0":-0.13019011914730072,"1":-0.06775137037038803,"2":0.011267327703535557,"3":-0.11022687703371048,"4":-0.06652579456567764,"5":0.1645537167787552,"6":-0.12291460484266281,"7":-0.10956479609012604,"8":-0.020502926781773567,"9":0.18724550306797028,"10":-0.19455702602863312,"11":-0.02128431759774685,"12":0.12111033499240875,"13":0.06719008088111877,"14":0.1669580191373825,"15":-0.08818316459655762,"16":-0.14509126543998718,"17":0.12307847291231155,"18":-0.07551543414592743,"19":-0.0030096054542809725,"20":-0.15911182761192322,"21":0.04509086534380913,"22":-0.1893893927335739,"23":0.0795929953455925,"24":-0.04536772519350052,"25":-0.06509582698345184,"26":0.18327496945858002,"27":-0.11627724021673203,"28":0.07991053909063339,"29":0.07806464284658432,"30":-0.4937129616737366,"31":-0.14784911274909973,"32":0.12400484830141068,"33":-0.03238870948553085,"34":-0.027548180893063545,"35":-0.1831086128950119,"36":-0.15557686984539032,"37":0.16957435011863708,"38":-0.06638652831315994,"39":0.003104950301349163,"40":-2.430708885192871,"41":0.35643112659454346,"42":0.5451052784919739,"43":0.9272913336753845,"44":0.4593783915042877,"45":-0.05466856807470322,"46":-1.7246583700180054,"47":2.150692939758301,"48":1.559285283088684,"49":-2.2783398628234863,"50":-0.1837087720632553,"51":1.017958641052246,"52":-2.314955234527588,"53":2.5462534427642822,"54":1.0882275104522705,"55":-0.38450679183006287,"56":1.5214571952819824,"57":1.8550463914871216,"58":-0.18315835297107697,"59":-2.89648175239563,"60":-0.7301298975944519,"61":0.6309000849723816,"62":-1.1201549768447876,"63":-0.8696489930152893,"64":0.30429789423942566,"65":0.47418317198753357,"66":1.053214430809021,"67":-0.24394217133522034,"68":1.0591405630111694,"69":-1.0395610332489014,"70":-0.17985622584819794,"71":-0.2817043960094452,"72":-0.2684103548526764,"73":0.40247926115989685,"74":0.19034776091575623,"75":-0.4457501173019409,"76":-0.25798407196998596,"77":1.1680649518966675,"78":-0.10858821868896484,"79":-0.5909980535507202,"80":-0.21693438291549683,"81":-0.14128008484840393,"82":0.18162180483341217,"83":-0.06527847796678543,"84":-0.08113469928503036,"85":-0.01388870645314455,"86":0.2101169377565384,"87":-0.00010508657578611746,"88":0.05866137146949768,"89":0.21875379979610443,"90":0.02786482684314251,"91":-0.21227148175239563,"92":0.1017688736319542,"93":0.12440238147974014,"94":-0.15951921045780182,"95":-0.0341915562748909,"96":0.15621225535869598,"97":-0.07114619761705399,"98":-0.09714622050523758,"99":-0.0021288793068379164,"100":1.5391724109649658,"101":4.311104774475098}},"7":{"bias":-1.4499762058258057,"weights":{"0":-0.162848562002182,"1":0.055202025920152664,"2":-0.016567671671509743,"3":-0.02017189748585224,"4":0.19234013557434082,"5":-0.08287402242422104,"6":0.0779329314827919,"7":0.10342470556497574,"8":-0.14134453237056732,"9":-0.08832837641239166,"10":-0.08474258333444595,"11":-0.19819970428943634,"12":-0.17820987105369568,"13":-0.19597072899341583,"14":0.03526895493268967,"15":-0.14993835985660553,"16":-0.03527379781007767,"17":-0.17460143566131592,"18":0.053036682307720184,"19":-0.10899446159601212,"20":-0.11844455450773239,"21":-0.16190895438194275,"22":0.1324576884508133,"23":-0.047388140112161636,"24":0.11551058292388916,"25":-0.11913549154996872,"26":-0.05226284638047218,"27":-0.016122478991746902,"28":0.020077068358659744,"29":0.06597067415714264,"30":-0.10258343070745468,"31":0.035039257258176804,"32":0.020458167418837547,"33":-0.15785802900791168,"34":-0.07703934609889984,"35":0.11019103974103928,"36":0.14160305261611938,"37":0.17076396942138672,"38":-0.13240402936935425,"39":0.18975870311260223,"40":-1.8532713651657104,"41":-1.1356877088546753,"42":-0.022627390921115875,"43":-1.1624962091445923,"44":0.4134197533130646,"45":-1.9975025653839111,"46":0.4996393620967865,"47":-1.6181296110153198,"48":0.14752379059791565,"49":1.3300716876983643,"50":1.3099256753921509,"51":-0.5160927772521973,"52":0.769747793674469,"53":-0.8283308744430542,"54":2.4330501556396484,"55":-0.09735749661922455,"56":-0.8197323679924011,"57":-0.2957671880722046,"58":1.181480884552002,"59":0.4572434723377228,"60":-0.09706524014472961,"61":-1.224367380142212,"62":-0.013416699133813381,"63":-0.5427639484405518,"64":-0.6503256559371948,"65":0.13643382489681244,"66":2.4700543880462646,"67":-0.37467387318611145,"68":-1.2973543405532837,"69":-0.37452468276023865,"70":-1.7269376516342163,"71":-0.16825109720230103,"72":0.5285861492156982,"73":0.4035589396953583,"74":0.8002117872238159,"75":0.2999694049358368,"76":-0.2356901913881302,"77":0.5412774682044983,"78":-0.30783259868621826,"79":0.20045079290866852,"80":-0.9941296577453613,"81":0.02734457701444626,"82":-0.09432113170623779,"83":0.11977700889110565,"84":-0.05853329226374626,"85":0.17538894712924957,"86":-0.038621120154857635,"87":-0.09239396452903748,"88":-0.10803425312042236,"89":0.05381055176258087,"90":-0.18491743505001068,"91":-0.1974734216928482,"92":-0.1120060384273529,"93":-0.07223469018936157,"94":0.05831246078014374,"95":-0.013400248251855373,"96":0.05330000817775726,"97":0.1339658945798874,"98":-0.12150353193283081,"99":-0.1857079416513443,"100":3.5277981758117676,"101":2.4427289962768555}},"8":{"bias":-0.9931060075759888,"weights":{"0":-0.08198745548725128,"1":-0.15076328814029694,"2":-0.0011120715644210577,"3":-0.1795995533466339,"4":0.09310392290353775,"5":-0.190096914768219,"6":-0.14668118953704834,"7":-0.004888184368610382,"8":-0.19813020527362823,"9":0.11820939928293228,"10":0.10400643199682236,"11":-0.14479778707027435,"12":0.06313177198171616,"13":-0.07968202978372574,"14":0.19610357284545898,"15":-0.04555745795369148,"16":-0.011938243173062801,"17":0.17752952873706818,"18":-0.11112862825393677,"19":-0.10409059375524521,"20":-0.176932230591774,"21":0.07709801197052002,"22":-0.18798032402992249,"23":-0.06386709958314896,"24":-0.030356062576174736,"25":-0.008480822667479515,"26":-0.0852619931101799,"27":0.14250750839710236,"28":-0.09999042749404907,"29":-0.03458714857697487,"30":0.032389868050813675,"31":0.12494870275259018,"32":-0.06674788147211075,"33":-0.16159841418266296,"34":0.1552562117576599,"35":-0.18315128982067108,"36":0.1878652125597,"37":-0.1543845683336258,"38":-0.16891975700855255,"39":-0.5346892476081848,"40":0.009125038050115108,"41":0.040408167988061905,"42":0.2948647737503052,"43":-1.762201189994812,"44":-0.015031094662845135,"45":0.2715727388858795,"46":-0.26573026180267334,"47":0.3353723883628845,"48":-0.4205482006072998,"49":1.7735923528671265,"50":0.0240620169788599,"51":-0.737790048122406,"52":-0.333695650100708,"53":-0.8902695178985596,"54":1.0980195999145508,"55":1.7748609781265259,"56":0.43986544013023376,"57":-0.2540857195854187,"58":-0.4787786304950714,"59":0.30428314208984375,"60":-0.16942571103572845,"61":0.5052466988563538,"62":-0.04080997779965401,"63":0.021013135090470314,"64":-0.22682230174541473,"65":0.2749471664428711,"66":0.18516308069229126,"67":-0.2995092272758484,"68":-0.13842341303825378,"69":0.3344736397266388,"70":-0.17293879389762878,"71":-0.2867799401283264,"72":0.5937173366546631,"73":0.2445298135280609,"74":0.1463441103696823,"75":0.40988025069236755,"76":-0.2803414463996887,"77":0.029320944100618362,"78":-0.495358407497406,"79":0.17648950219154358,"80":0.09559215605258942,"81":-0.188043013215065,"82":0.08849865943193436,"83":0.14991267025470734,"84":0.11642946302890778,"85":0.15077488124370575,"86":0.11999887973070145,"87":-0.11521010845899582,"88":0.07937383651733398,"89":0.1647956818342209,"90":0.023782817646861076,"91":0.031320467591285706,"92":-0.08814144134521484,"93":-0.08526936918497086,"94":-0.21714794635772705,"95":-0.10850680619478226,"96":-0.015116645023226738,"97":-0.11756288260221481,"98":0.10809019207954407,"99":0.08815447241067886,"100":-0.4576112926006317,"101":-0.0031132965814322233}},"9":{"bias":-0.55556720495224,"weights":{"0":-0.12938463687896729,"1":0.01008087582886219,"2":-0.17400690913200378,"3":-0.02412586659193039,"4":-0.03561367839574814,"5":0.0789230689406395,"6":0.011582153849303722,"7":-0.16315802931785583,"8":0.0623079389333725,"9":0.11271145194768906,"10":-0.14269126951694489,"11":-0.18504539132118225,"12":-0.03551262617111206,"13":-0.17509987950325012,"14":0.034559912979602814,"15":-0.16028162837028503,"16":0.16154992580413818,"17":0.09901167452335358,"18":0.09513291716575623,"19":0.12094902247190475,"20":0.15014667809009552,"21":0.1798548847436905,"22":-0.13029173016548157,"23":-0.16299834847450256,"24":-0.17937688529491425,"25":-0.18723464012145996,"26":-0.018643738701939583,"27":-0.14230310916900635,"28":-0.16803473234176636,"29":-0.05751798674464226,"30":0.40217870473861694,"31":0.1833440512418747,"32":-0.052300721406936646,"33":0.06404285132884979,"34":-0.026678916066884995,"35":-0.12739543616771698,"36":-0.14538724720478058,"37":0.08167356252670288,"38":0.15095742046833038,"39":-1.4042279720306396,"40":1.4285258054733276,"41":-1.3394606113433838,"42":0.1273929625749588,"43":1.2433887720108032,"44":-1.1233168840408325,"45":-0.29679417610168457,"46":-0.025441894307732582,"47":-0.5484925508499146,"48":-0.3453425467014313,"49":-1.5375912189483643,"50":-0.6949357986450195,"51":0.45997461676597595,"52":0.3694084882736206,"53":0.8575252890586853,"54":-1.4459377527236938,"55":0.19964666664600372,"56":1.0060958862304688,"57":0.49105969071388245,"58":-0.6842780709266663,"59":-0.6503162384033203,"60":-0.7192573547363281,"61":-0.15496274828910828,"62":0.47425973415374756,"63":-0.13929757475852966,"64":-0.21812446415424347,"65":-0.7381021976470947,"66":0.79265958070755,"67":-0.14628185331821442,"68":-0.36985325813293457,"69":1.147354006767273,"70":0.354091078042984,"71":0.2807011306285858,"72":0.14781281352043152,"73":-0.2164180874824524,"74":-0.17742399871349335,"75":0.02067951112985611,"76":0.23940792679786682,"77":-0.2826262414455414,"78":0.18602566421031952,"79":0.06741787493228912,"80":0.5540353059768677,"81":0.44226011633872986,"82":0.2529090344905853,"83":0.2983211278915405,"84":0.20367588102817535,"85":0.13506178557872772,"86":0.2077372968196869,"87":0.12594343721866608,"88":0.3996165692806244,"89":0.33603808283805847,"90":0.1009620875120163,"91":0.06444129347801208,"92":0.003597393399104476,"93":-0.006133993621915579,"94":-0.06420973688364029,"95":0.02676806040108204,"96":-0.16232351958751678,"97":-0.10503624379634857,"98":0.1066778302192688,"99":0.06018192693591118,"100":1.316050410270691,"101":0.22491168975830078}},"10":{"bias":-0.09551295638084412,"weights":{"0":0.029737308621406555,"1":0.18631543219089508,"2":-0.07354234904050827,"3":-0.038726914674043655,"4":0.03272917866706848,"5":0.09193674474954605,"6":0.008067925460636616,"7":0.17109446227550507,"8":-0.06946505606174469,"9":0.025846298784017563,"10":-0.06486975401639938,"11":-0.05208222568035126,"12":0.10913318395614624,"13":-0.1309867948293686,"14":-0.19938956201076508,"15":0.12617988884449005,"16":0.10068097710609436,"17":0.03337543085217476,"18":0.04802383482456207,"19":-0.18901047110557556,"20":-0.06628690659999847,"21":-0.19182828068733215,"22":-0.08567213267087936,"23":0.15997900068759918,"24":0.03184391185641289,"25":0.1827472448348999,"26":-0.08979491144418716,"27":-0.006590615026652813,"28":0.19495028257369995,"29":0.004884434398263693,"30":0.41530391573905945,"31":-0.09660309553146362,"32":0.05343768373131752,"33":0.15688566863536835,"34":-0.13580548763275146,"35":-0.17187224328517914,"36":0.131413072347641,"37":-0.013036790303885937,"38":-0.02489834651350975,"39":-1.2735214233398438,"40":0.3801518976688385,"41":-0.6911382079124451,"42":0.49015235900878906,"43":-1.1968694925308228,"44":-1.0849119424819946,"45":-0.22811654210090637,"46":0.33952414989471436,"47":-0.4044816493988037,"48":0.7090637683868408,"49":1.7796155214309692,"50":-0.5769843459129333,"51":-0.8537088632583618,"52":-0.00847428385168314,"53":0.15484976768493652,"54":0.4699185788631439,"55":-0.049765441566705704,"56":-1.2555302381515503,"57":0.17039144039154053,"58":0.16667041182518005,"59":0.2747354805469513,"60":-0.036778759211301804,"61":0.3916895091533661,"62":-0.0796271562576294,"63":0.06209798529744148,"64":-0.5078989267349243,"65":-0.5175465941429138,"66":-0.05744623765349388,"67":-0.5645350813865662,"68":-0.08193875104188919,"69":0.5282512903213501,"70":0.6516868472099304,"71":-0.5006347298622131,"72":-0.10324952751398087,"73":0.013056179508566856,"74":-0.033116910606622696,"75":0.07713916897773743,"76":0.02638108842074871,"77":-0.4062111973762512,"78":0.14248336851596832,"79":-0.14292550086975098,"80":0.29362642765045166,"81":0.11454275995492935,"82":0.2649601697921753,"83":-0.047688525170087814,"84":-0.007488558534532785,"85":0.09638205915689468,"86":0.2667189836502075,"87":0.2544780671596527,"88":0.03696945682168007,"89":0.03889674320816994,"90":0.04296683520078659,"91":-0.09816078841686249,"92":0.09212984144687653,"93":0.1278473436832428,"94":-0.00634348951280117,"95":0.09715236723423004,"96":-0.17822758853435516,"97":0.030573520809412003,"98":-0.21320559084415436,"99":-0.05134187638759613,"100":0.7083392143249512,"101":0.3099510073661804}},"11":{"bias":-1.6056809425354004,"weights":{"0":-0.0765070989727974,"1":-0.13938309252262115,"2":-0.15386851131916046,"3":0.01482232566922903,"4":-0.14953066408634186,"5":0.17372733354568481,"6":0.014193881303071976,"7":-0.1653839349746704,"8":-0.18285807967185974,"9":0.010245111770927906,"10":0.10937487334012985,"11":-0.00604404229670763,"12":-0.06895919144153595,"13":-0.05112617462873459,"14":-0.11076368391513824,"15":0.17815564572811127,"16":-0.06717340648174286,"17":-0.008613068610429764,"18":0.19972094893455505,"19":0.09847799688577652,"20":0.040669579058885574,"21":0.12067241221666336,"22":0.021113580092787743,"23":0.0011409163707867265,"24":-0.06595151871442795,"25":-0.0695350393652916,"26":-0.09816435724496841,"27":-0.037987638264894485,"28":-0.0361231192946434,"29":0.10476316511631012,"30":0.030812079086899757,"31":-0.19716539978981018,"32":-0.012861426919698715,"33":-0.12630723416805267,"34":-0.17622359097003937,"35":-0.04049199819564819,"36":0.1497441679239273,"37":-0.14940378069877625,"38":0.0028523204382508993,"39":0.6199106574058533,"40":1.6900560855865479,"41":0.20636963844299316,"42":-0.18567904829978943,"43":2.1830203533172607,"44":-1.849448323249817,"45":0.8869649767875671,"46":0.34671708941459656,"47":2.3027055263519287,"48":-1.285644292831421,"49":-0.16923178732395172,"50":1.0250695943832397,"51":-0.1247052252292633,"52":1.3051788806915283,"53":-0.37666064500808716,"54":2.4792282581329346,"55":1.5885424613952637,"56":-0.31906378269195557,"57":0.6049808263778687,"58":-0.36000704765319824,"59":-2.2347066402435303,"60":-0.06465789675712585,"61":0.5105778574943542,"62":0.43661734461784363,"63":0.19154579937458038,"64":-0.586898684501648,"65":0.45693275332450867,"66":-0.20030248165130615,"67":-0.4533374011516571,"68":0.2563272714614868,"69":-0.020131293684244156,"70":0.8517934679985046,"71":-0.26088979840278625,"72":0.5414647459983826,"73":-0.018862275406718254,"74":-0.03801927715539932,"75":-0.046196985989809036,"76":-0.4931679666042328,"77":-0.0035756975412368774,"78":-0.8652582764625549,"79":0.4032560884952545,"80":-0.16278861463069916,"81":-0.09032414108514786,"82":0.07710111886262894,"83":-0.0048833126202225685,"84":0.0969163328409195,"85":0.1576017439365387,"86":0.016895512118935585,"87":0.16096603870391846,"88":-0.02834131196141243,"89":0.1972920000553131,"90":0.12750394642353058,"91":-0.14717693626880646,"92":-0.09350797533988953,"93":-0.22014065086841583,"94":0.11416210234165192,"95":0.017212145030498505,"96":0.12322251498699188,"97":-0.05208509415388107,"98":-0.2222893089056015,"99":-0.21598736941814423,"100":-0.4884188175201416,"101":0.8526466488838196}},"12":{"bias":0.4012325704097748,"weights":{"0":-0.09680794924497604,"1":-0.13774392008781433,"2":-0.04188361018896103,"3":0.0034641625825315714,"4":0.07374831289052963,"5":0.08028677105903625,"6":-0.1448279768228531,"7":-0.14271952211856842,"8":-0.026926163583993912,"9":-0.001480187987908721,"10":0.1726110875606537,"11":0.0899786576628685,"12":-0.08866257220506668,"13":0.11166249215602875,"14":0.05688658356666565,"15":-0.00891146156936884,"16":-0.14140185713768005,"17":0.008714859373867512,"18":-0.19939547777175903,"19":0.1688811033964157,"20":-0.16341504454612732,"21":-0.14567714929580688,"22":0.0444299541413784,"23":-0.10937473922967911,"24":-0.013569745235145092,"25":-0.19425542652606964,"26":0.11630948632955551,"27":0.11093921959400177,"28":0.1445264220237732,"29":-0.17554636299610138,"30":0.02945021726191044,"31":-0.006183534860610962,"32":-0.06625887006521225,"33":-0.15555618703365326,"34":-0.011841547675430775,"35":-0.14634117484092712,"36":0.05135926976799965,"37":0.12943856418132782,"38":-0.058203309774398804,"39":-0.578987181186676,"40":-0.20204488933086395,"41":1.2112088203430176,"42":-0.27607372403144836,"43":0.29010364413261414,"44":-0.17186152935028076,"45":0.7214556932449341,"46":-0.8965279459953308,"47":2.155414581298828,"48":-1.8149948120117188,"49":-1.2570778131484985,"50":-0.6981390714645386,"51":1.4794663190841675,"52":-0.9318863153457642,"53":0.4500992000102997,"54":0.584770679473877,"55":0.08842694014310837,"56":-0.22632865607738495,"57":0.40734702348709106,"58":0.7870244979858398,"59":0.78493732213974,"60":0.2937251925468445,"61":0.3137494623661041,"62":0.0802093967795372,"63":0.38854071497917175,"64":0.26268821954727173,"65":0.503233015537262,"66":0.2072833925485611,"67":0.34647634625434875,"68":0.455101877450943,"69":0.3726145625114441,"70":0.1281285434961319,"71":0.2895607650279999,"72":0.3704839050769806,"73":0.4249863922595978,"74":0.40579280257225037,"75":0.3352477252483368,"76":-0.2999897599220276,"77":0.3666258454322815,"78":0.061530373990535736,"79":0.2646833658218384,"80":-0.19446396827697754,"81":0.03581980988383293,"82":0.15594829618930817,"83":0.047280192375183105,"84":-0.046653829514980316,"85":-0.18556703627109528,"86":0.025283433496952057,"87":-0.20190535485744476,"88":-0.04077446460723877,"89":0.010295509360730648,"90":0.19759145379066467,"91":-0.14256137609481812,"92":-0.13842836022377014,"93":0.017552047967910767,"94":0.17722785472869873,"95":0.04544868692755699,"96":0.12788578867912292,"97":-0.002705283695831895,"98":0.20213009417057037,"99":-0.027764493599534035,"100":-2.392681121826172,"101":1.9588299989700317}},"13":{"bias":0.08898339420557022,"weights":{"0":0.07907242327928543,"1":-0.01579303666949272,"2":0.1357196420431137,"3":-0.02354932576417923,"4":-0.18407736718654633,"5":-0.18200933933258057,"6":0.08337271958589554,"7":0.08529096096754074,"8":-0.0714845061302185,"9":-0.11569109559059143,"10":-0.14475449919700623,"11":0.17755135893821716,"12":0.19209304451942444,"13":0.05395272374153137,"14":0.03072427771985531,"15":0.1112825870513916,"16":-0.16029766201972961,"17":-0.18450303375720978,"18":0.056896816939115524,"19":-0.19087044894695282,"20":-0.17493964731693268,"21":-0.13681462407112122,"22":-0.09070055186748505,"23":-0.1846892237663269,"24":-0.0036260036285966635,"25":-0.01615009270608425,"26":-0.1371716409921646,"27":-0.012362949550151825,"28":0.1878504604101181,"29":-0.1245732456445694,"30":-0.14126768708229065,"31":-0.08183031529188156,"32":0.10970659554004669,"33":0.18131688237190247,"34":-0.056064870208501816,"35":0.16548201441764832,"36":0.19526907801628113,"37":0.17050686478614807,"38":-0.0782364159822464,"39":1.0291821956634521,"40":0.23603035509586334,"41":-0.5488070249557495,"42":-0.7951358556747437,"43":1.3368902206420898,"44":-0.04447031766176224,"45":-0.12847930192947388,"46":0.23115377128124237,"47":0.9910350441932678,"48":1.280513048171997,"49":1.7045058012008667,"50":1.8831678628921509,"51":1.640731692314148,"52":1.7467474937438965,"53":0.1590331643819809,"54":-2.52008318901062,"55":1.327668309211731,"56":-0.48134392499923706,"57":-0.8588166832923889,"58":-0.11511962115764618,"59":0.23489226400852203,"60":0.8295158743858337,"61":0.27872422337532043,"62":0.2760419249534607,"63":-0.5210292935371399,"64":0.2897282838821411,"65":-0.7849537134170532,"66":-0.2688941955566406,"67":-0.36072447896003723,"68":-0.9890220761299133,"69":-0.8749650120735168,"70":0.051336172968149185,"71":0.1311618983745575,"72":-0.21297383308410645,"73":-0.6669723391532898,"74":-0.38388022780418396,"75":-0.3769669234752655,"76":-0.33595719933509827,"77":-0.5965155363082886,"78":-0.26576438546180725,"79":-0.2960686981678009,"80":-0.4984263479709625,"81":0.2809584438800812,"82":0.006450683809816837,"83":-0.1402779221534729,"84":0.18817628920078278,"85":-0.0996401458978653,"86":0.15826565027236938,"87":-0.05836464464664459,"88":0.20326435565948486,"89":-0.12711061537265778,"90":-0.175942063331604,"91":0.13850131630897522,"92":0.11639758944511414,"93":0.045509058982133865,"94":-0.0016648457385599613,"95":0.11939650774002075,"96":0.07961805164813995,"97":-0.051469314843416214,"98":-0.038839202374219894,"99":-0.03694024309515953,"100":-1.3972994089126587,"101":-0.11745007336139679}},"14":{"bias":-0.8121651411056519,"weights":{"0":0.14697517454624176,"1":-0.10224582254886627,"2":-0.1424618810415268,"3":-0.06265171617269516,"4":0.1381509155035019,"5":-0.11775495111942291,"6":0.1430012732744217,"7":0.16220931708812714,"8":0.11936935782432556,"9":-0.13201479613780975,"10":-0.13894334435462952,"11":-0.02528412826359272,"12":-0.18169067800045013,"13":0.17873966693878174,"14":0.03944956511259079,"15":-0.08548717200756073,"16":-0.06708323955535889,"17":0.12180522829294205,"18":-0.07759099453687668,"19":0.18815019726753235,"20":0.044810112565755844,"21":-0.05695074796676636,"22":0.0020646722987294197,"23":-0.16036301851272583,"24":0.0687347948551178,"25":0.10117752104997635,"26":-0.15791046619415283,"27":-0.11395850777626038,"28":0.08992112427949905,"29":0.10554906725883484,"30":-0.24055878818035126,"31":0.19174781441688538,"32":-0.12736840546131134,"33":-0.0781785175204277,"34":0.1203327476978302,"35":-0.1717623472213745,"36":-0.010676353238523006,"37":0.05175913870334625,"38":-0.17414957284927368,"39":1.6647521257400513,"40":-0.5428639054298401,"41":1.2635937929153442,"42":-0.5720647573471069,"43":-0.2036784142255783,"44":0.4643029570579529,"45":0.29097673296928406,"46":-0.9691307544708252,"47":-0.07720479369163513,"48":-2.0445570945739746,"49":2.6567201614379883,"50":-1.550685167312622,"51":-0.16132086515426636,"52":-1.1690740585327148,"53":-0.24585264921188354,"54":0.9637591242790222,"55":-1.183129072189331,"56":1.2955820560455322,"57":0.4053249955177307,"58":-0.09833017736673355,"59":-0.18696944415569305,"60":-0.5683855414390564,"61":0.21944375336170197,"62":0.11919838935136795,"63":-2.0477986335754395,"64":-0.5345596075057983,"65":0.8627378940582275,"66":-0.18894317746162415,"67":-0.1379062384366989,"68":-0.1151895746588707,"69":0.4195931553840637,"70":-0.25794336199760437,"71":0.10647673904895782,"72":0.4708606004714966,"73":0.5643607378005981,"74":0.4884316027164459,"75":0.20334464311599731,"76":-1.5486397743225098,"77":0.27502915263175964,"78":-1.256035566329956,"79":0.42666327953338623,"80":-0.41261258721351624,"81":-0.008440050296485424,"82":-0.11831895262002945,"83":-0.3952175974845886,"84":-0.10870296508073807,"85":-0.40979212522506714,"86":-0.028198931366205215,"87":-0.07734352350234985,"88":-0.24551844596862793,"89":-0.3318452835083008,"90":-0.11789589375257492,"91":0.19718493521213531,"92":-0.10937198251485825,"93":0.14737653732299805,"94":0.1185959130525589,"95":0.10555887967348099,"96":0.012726047076284885,"97":0.15791644155979156,"98":0.1644240766763687,"99":0.11953799426555634,"100":-2.947526454925537,"101":4.380852222442627}},"15":{"bias":-0.44383057951927185,"weights":{"0":-0.13505005836486816,"1":0.19406171143054962,"2":0.10316015034914017,"3":-0.057105664163827896,"4":-0.1356508880853653,"5":0.15189693868160248,"6":-0.09385139495134354,"7":0.18132759630680084,"8":-0.017430411651730537,"9":0.024891044944524765,"10":0.11576372385025024,"11":-0.038662999868392944,"12":-0.054909996688365936,"13":0.1982732117176056,"14":-0.11038600653409958,"15":0.08812177181243896,"16":-0.11759015172719955,"17":-0.08378706872463226,"18":0.10869010537862778,"19":-0.03875413537025452,"20":-0.1934383511543274,"21":0.036345478147268295,"22":-0.0785553976893425,"23":0.08695618808269501,"24":0.05227738991379738,"25":0.08860181272029877,"26":-0.19478167593479156,"27":0.10069124400615692,"28":0.19510556757450104,"29":-0.006627737078815699,"30":-0.17292049527168274,"31":0.17923879623413086,"32":-0.07437416166067123,"33":-0.15332084894180298,"34":0.029506057500839233,"35":0.11400424689054489,"36":-0.1595517098903656,"37":-0.012720505706965923,"38":-0.14680512249469757,"39":-0.0881274938583374,"40":0.2072755992412567,"41":-0.5630197525024414,"42":0.920070230960846,"43":-0.929942786693573,"44":-1.177986741065979,"45":0.15025877952575684,"46":0.25998950004577637,"47":0.09398546069860458,"48":0.5966206192970276,"49":0.7663678526878357,"50":-0.5045678615570068,"51":0.7828835844993591,"52":-0.4028816819190979,"53":0.2884102463722229,"54":0.5122718214988708,"55":0.4362785816192627,"56":0.5973333120346069,"57":-0.24797329306602478,"58":-0.3953452408313751,"59":0.09206189215183258,"60":-1.0589349269866943,"61":0.21049129962921143,"62":0.33797135949134827,"63":-0.13769343495368958,"64":0.2527477741241455,"65":0.4678996801376343,"66":-0.20112250745296478,"67":-0.009680027142167091,"68":0.16258232295513153,"69":0.38152074813842773,"70":-0.00635967031121254,"71":0.11183657497167587,"72":-0.0023835855536162853,"73":-0.24131935834884644,"74":-0.0974164754152298,"75":0.13046777248382568,"76":0.07626514136791229,"77":-0.024386435747146606,"78":-0.15247870981693268,"79":-0.14566418528556824,"80":0.17592234909534454,"81":-0.02465752884745598,"82":-0.07984574884176254,"83":-0.052865736186504364,"84":-0.03731919080018997,"85":0.0042676497250795364,"86":0.10308273881673813,"87":0.1977490484714508,"88":0.06241048499941826,"89":-0.04751662537455559,"90":-0.21345387399196625,"91":0.020861977711319923,"92":0.060637395828962326,"93":0.04233051463961601,"94":-0.031479742377996445,"95":-0.04369320347905159,"96":-0.09477025270462036,"97":-0.20262108743190765,"98":-0.16871733963489532,"99":-0.043775979429483414,"100":-1.1766706705093384,"101":-0.01187948975712061}},"16":{"bias":0.34630224108695984,"weights":{"0":-0.03639388084411621,"1":-0.06934322416782379,"2":0.11214852333068848,"3":0.023066764697432518,"4":0.08423204720020294,"5":-0.12634925544261932,"6":-0.09821014851331711,"7":0.18472635746002197,"8":0.17279936373233795,"9":-0.1267588585615158,"10":-0.1881076842546463,"11":-0.00022577641357202083,"12":0.10381816327571869,"13":-0.0972900390625,"14":0.02265310473740101,"15":0.1723930835723877,"16":-0.10016797482967377,"17":-0.056184981018304825,"18":-0.05150502920150757,"19":0.11824830621480942,"20":-0.14350010454654694,"21":0.14917464554309845,"22":0.16296015679836273,"23":0.18537329137325287,"24":-0.0403398759663105,"25":0.1618501842021942,"26":0.15189120173454285,"27":-0.1553533971309662,"28":-0.1667662113904953,"29":0.17600226402282715,"30":0.08909578621387482,"31":-0.08111071586608887,"32":0.021407341584563255,"33":-0.18695546686649323,"34":-0.14659230411052704,"35":0.009265979751944542,"36":-0.024566514417529106,"37":0.10650497674942017,"38":-0.02982221357524395,"39":-0.5677156448364258,"40":-3.28647518157959,"41":1.6319410800933838,"42":-0.22443996369838715,"43":0.9417317509651184,"44":-2.2456259727478027,"45":1.4006623029708862,"46":0.22219355404376984,"47":1.033394694328308,"48":-2.5783073902130127,"49":2.5570151805877686,"50":1.350721001625061,"51":-0.8542476892471313,"52":-0.6499688625335693,"53":0.670828640460968,"54":-1.1504600048065186,"55":-0.7561428546905518,"56":0.9077206254005432,"57":0.704410970211029,"58":-0.19750681519508362,"59":-0.47579628229141235,"60":0.5594367384910583,"61":0.33304738998413086,"62":-0.261844277381897,"63":0.30529269576072693,"64":-0.8152058720588684,"65":-0.9711508750915527,"66":0.14437994360923767,"67":0.008016238920390606,"68":-0.7352067232131958,"69":-0.3355199694633484,"70":0.09310285747051239,"71":-0.10648994892835617,"72":0.20816418528556824,"73":-0.2231254130601883,"74":-0.23433572053909302,"75":-0.022769873961806297,"76":0.5870829224586487,"77":-0.4862320125102997,"78":0.49015554785728455,"79":-0.5748255252838135,"80":-0.012133537791669369,"81":0.01621495746076107,"82":-0.114840567111969,"83":0.07946501672267914,"84":-0.06132889911532402,"85":0.18381734192371368,"86":-0.1598598212003708,"87":0.0681677833199501,"88":0.13694290816783905,"89":0.212429478764534,"90":0.028243446722626686,"91":-0.20028361678123474,"92":-0.025142008438706398,"93":0.08497242629528046,"94":-0.09997357428073883,"95":-0.09058979898691177,"96":0.028593601658940315,"97":-0.04613957181572914,"98":-0.03057304583489895,"99":-0.16216880083084106,"100":0.2738170623779297,"101":-2.0133681297302246}},"17":{"bias":0.027130303904414177,"weights":{"0":0.10755471885204315,"1":0.06505734473466873,"2":-0.15704286098480225,"3":-0.04334869980812073,"4":0.11649507284164429,"5":-0.0934629961848259,"6":-0.12412172555923462,"7":0.0015827636234462261,"8":-0.004928693640977144,"9":-0.1733587235212326,"10":0.0944242849946022,"11":0.19374309480190277,"12":-0.029984179884195328,"13":-0.16872432827949524,"14":0.13254250586032867,"15":0.16655436158180237,"16":-0.16830958425998688,"17":-0.017563270404934883,"18":-0.18750189244747162,"19":-0.12036146223545074,"20":0.1168641597032547,"21":0.17123408615589142,"22":0.17165717482566833,"23":-0.022152449935674667,"24":-0.025797322392463684,"25":-0.10478486120700836,"26":0.04133075475692749,"27":-0.16069994866847992,"28":0.0004580026725307107,"29":-0.006232361774891615,"30":-0.06215672194957733,"31":-0.020604640245437622,"32":0.12863048911094666,"33":0.0442475900053978,"34":0.061339229345321655,"35":-0.06187460944056511,"36":-0.15188324451446533,"37":0.16481368243694305,"38":-0.005544636398553848,"39":0.1626325100660324,"40":-0.10070791095495224,"41":-0.16395455598831177,"42":1.0990828275680542,"43":0.191392719745636,"44":-2.490191698074341,"45":0.8126959800720215,"46":0.1629033386707306,"47":0.6157366037368774,"48":-1.1803853511810303,"49":3.9866385459899902,"50":-1.5421756505966187,"51":-0.46489590406417847,"52":0.05476506054401398,"53":-0.908867597579956,"54":-0.1222158744931221,"55":-0.8290020823478699,"56":-0.6235930323600769,"57":-0.8713169097900391,"58":0.22133947908878326,"59":0.968720018863678,"60":0.5024176239967346,"61":-0.0665135383605957,"62":-0.0284353606402874,"63":-0.17715118825435638,"64":0.6752548217773438,"65":0.46984004974365234,"66":0.30526503920555115,"67":0.20017439126968384,"68":0.3508795499801636,"69":-0.08282839506864548,"70":0.1490194946527481,"71":0.4039667844772339,"72":0.7204688191413879,"73":0.008469394408166409,"74":-0.016378190368413925,"75":0.8352440595626831,"76":0.17673151195049286,"77":-0.22904346883296967,"78":0.2843599021434784,"79":0.8359366655349731,"80":-0.5090702176094055,"81":0.22431261837482452,"82":0.06150487810373306,"83":0.08182504028081894,"84":0.11054643988609314,"85":0.16844968497753143,"86":0.19392339885234833,"87":0.15495552122592926,"88":0.045052241533994675,"89":0.11214703321456909,"90":-0.00774465361610055,"91":-0.06502796709537506,"92":0.19717615842819214,"93":0.2017126977443695,"94":0.1624768078327179,"95":-0.1705918312072754,"96":-0.0876796692609787,"97":-0.11340636014938354,"98":-0.01986742950975895,"99":-0.13021564483642578,"100":1.9691200256347656,"101":-1.495330810546875}},"18":{"bias":-0.049133654683828354,"weights":{"0":0.16109442710876465,"1":0.1912347376346588,"2":0.018281105905771255,"3":-0.09420398622751236,"4":-0.13277322053909302,"5":0.1025078147649765,"6":-0.056043971329927444,"7":-0.07340112328529358,"8":0.130570650100708,"9":-0.13162313401699066,"10":-0.12598486244678497,"11":0.19420886039733887,"12":0.060256075114011765,"13":-0.13364461064338684,"14":0.06038404256105423,"15":-0.10860907286405563,"16":-0.06414185464382172,"17":-0.19006125628948212,"18":0.06659822165966034,"19":-0.11909262835979462,"20":-0.010492712259292603,"21":-0.03839386999607086,"22":0.06661451607942581,"23":-0.1164100170135498,"24":0.08079272508621216,"25":-0.12920920550823212,"26":-0.15613487362861633,"27":0.017914138734340668,"28":0.19365723431110382,"29":-0.19806312024593353,"30":0.370055615901947,"31":0.034899815917015076,"32":-0.10800199210643768,"33":-0.13179700076580048,"34":-0.0190128143876791,"35":-0.05267157405614853,"36":0.18768605589866638,"37":-0.19734112918376923,"38":0.039636485278606415,"39":0.7921878099441528,"40":0.8000503182411194,"41":2.6053543090820312,"42":-0.9004108905792236,"43":1.017089605331421,"44":0.08762822300195694,"45":0.6267276406288147,"46":-2.5693674087524414,"47":0.6726377606391907,"48":-1.8461272716522217,"49":-2.471086025238037,"50":0.3616347908973694,"51":1.3949604034423828,"52":-0.6014795303344727,"53":1.976137399673462,"54":-2.0961899757385254,"55":-0.18943889439105988,"56":1.8594927787780762,"57":0.7325243949890137,"58":0.22948485612869263,"59":-0.11722949147224426,"60":0.21060574054718018,"61":0.8062239289283752,"62":-0.5681307911872864,"63":-1.7772780656814575,"64":0.5128840208053589,"65":-0.12224485725164413,"66":0.665919303894043,"67":-0.605510413646698,"68":-0.3815007209777832,"69":-0.19880041480064392,"70":0.24507859349250793,"71":0.3030700385570526,"72":0.10491853207349777,"73":-0.017448309808969498,"74":-0.003149326890707016,"75":0.47575142979621887,"76":-0.5455653071403503,"77":0.29239997267723083,"78":-0.7024099826812744,"79":0.33043763041496277,"80":-0.25799909234046936,"81":-0.15292920172214508,"82":-0.03847810998558998,"83":-0.18635080754756927,"84":-0.05285416170954704,"85":0.013058556243777275,"86":-0.08922284096479416,"87":0.15206867456436157,"88":-0.07611232995986938,"89":0.09525466710329056,"90":0.020929433405399323,"91":0.05295884236693382,"92":0.11466516554355621,"93":-0.11257152259349823,"94":0.214390829205513,"95":0.041969288140535355,"96":0.1654307097196579,"97":-0.047512609511613846,"98":-0.045449670404195786,"99":0.017464544624090195,"100":-4.085765838623047,"101":3.181082248687744}},"19":{"bias":1.465567946434021,"weights":{"0":-0.19909733533859253,"1":0.031510863453149796,"2":-0.018383795395493507,"3":-0.0944785326719284,"4":0.1694396436214447,"5":0.005321892444044352,"6":-0.10507605969905853,"7":0.11430013179779053,"8":0.08898483961820602,"9":0.13332688808441162,"10":0.1167549416422844,"11":-0.07698067277669907,"12":0.1909976303577423,"13":-0.12179553508758545,"14":0.1120973601937294,"15":0.06405646353960037,"16":-0.03306107595562935,"17":0.07045242190361023,"18":-0.00952373817563057,"19":-0.10649251937866211,"20":0.19296063482761383,"21":-0.06904065608978271,"22":0.13866479694843292,"23":0.09679470956325531,"24":0.1468527466058731,"25":-0.09255345165729523,"26":0.13849660754203796,"27":0.06127706542611122,"28":-0.15598376095294952,"29":0.10920240730047226,"30":0.24566128849983215,"31":0.1691904515028,"32":-0.021459946408867836,"33":-0.07924290746450424,"34":0.09689433872699738,"35":-0.1223313957452774,"36":-0.13732315599918365,"37":-0.0684187263250351,"38":-0.12002500146627426,"39":-0.6132871508598328,"40":1.0811585187911987,"41":0.007764878217130899,"42":-1.0336564779281616,"43":0.3048730194568634,"44":-0.2543253004550934,"45":-0.8060596585273743,"46":0.2589524984359741,"47":0.6841322183609009,"48":0.16832345724105835,"49":0.3437023460865021,"50":0.4892841577529907,"51":0.008819874376058578,"52":0.11602895706892014,"53":0.3515210747718811,"54":0.12192358821630478,"55":-1.5993475914001465,"56":0.23625080287456512,"57":0.3371170461177826,"58":-0.07196077704429626,"59":0.32711318135261536,"60":0.5663661360740662,"61":0.7737767100334167,"62":-0.05221569910645485,"63":0.35633182525634766,"64":-0.14028777182102203,"65":-0.27567216753959656,"66":-0.08750949800014496,"67":-0.09074000269174576,"68":-0.059529438614845276,"69":-0.37190350890159607,"70":0.07163766771554947,"71":0.6365164518356323,"72":-0.18778371810913086,"73":-0.33155006170272827,"74":-0.1790986955165863,"75":0.17530280351638794,"76":0.6659383177757263,"77":-0.37522685527801514,"78":0.7908421158790588,"79":0.18811535835266113,"80":0.6215860843658447,"81":0.6177839040756226,"82":0.43679648637771606,"83":0.843055784702301,"84":0.6986337304115295,"85":0.6422012448310852,"86":0.6364408135414124,"87":0.647695779800415,"88":0.7244995832443237,"89":0.8009439706802368,"90":-0.14065155386924744,"91":0.015752550214529037,"92":-0.1619706153869629,"93":0.06846890598535538,"94":0.17801156640052795,"95":-0.13784420490264893,"96":0.1433810442686081,"97":-0.07494194060564041,"98":-0.04450495168566704,"99":-0.18842536211013794,"100":0.2637898325920105,"101":-4.01479959487915}}},{"0":{"bias":0.15367810428142548,"weights":{"0":-0.25856801867485046,"1":-0.11289289593696594,"2":-0.13523325324058533,"3":-0.13590438663959503,"4":0.0477287657558918,"5":0.15725092589855194,"6":0.2784966826438904,"7":-0.35470885038375854,"8":-0.08813858032226562,"9":0.01021057553589344,"10":0.021974338218569756,"11":0.050710804760456085,"12":-0.12472345679998398,"13":0.16354624927043915,"14":0.22915971279144287,"15":-0.08474253118038177,"16":-0.03398873284459114,"17":0.2435854822397232,"18":-0.1775813102722168,"19":-0.05010227859020233}},"1":{"bias":-1.1391446590423584,"weights":{"0":0.8837851285934448,"1":0.033340148627758026,"2":0.44705185294151306,"3":-0.1322019249200821,"4":-0.22278212010860443,"5":-0.16678380966186523,"6":1.202322244644165,"7":1.2280688285827637,"8":-0.0853024497628212,"9":0.39954251050949097,"10":0.01523584220558405,"11":0.13529185950756073,"12":0.10835076123476028,"13":-0.015315435826778412,"14":1.9871175289154053,"15":-0.18967558443546295,"16":0.2664033770561218,"17":-0.15475188195705414,"18":0.08713122457265854,"19":0.055004917085170746}},"2":{"bias":0.1098988726735115,"weights":{"0":0.23813112080097198,"1":0.0797789990901947,"2":0.10839470475912094,"3":-0.05379078537225723,"4":-0.04132009670138359,"5":0.4551391303539276,"6":-0.029528722167015076,"7":0.06537176668643951,"8":-0.16247858107089996,"9":0.029511580243706703,"10":0.06520751863718033,"11":-0.15564055740833282,"12":0.00025583864771761,"13":-0.10192906856536865,"14":0.22797994315624237,"15":-0.3038930296897888,"16":0.03220748156309128,"17":-0.08396386355161667,"18":0.07257961481809616,"19":0.049182672053575516}},"3":{"bias":0.05959441140294075,"weights":{"0":0.26266390085220337,"1":0.15696361660957336,"2":0.17236541211605072,"3":0.10815152525901794,"4":-0.06038256362080574,"5":0.06226213276386261,"6":-0.3328351080417633,"7":0.32537898421287537,"8":0.03902529552578926,"9":-0.010114411823451519,"10":-0.011402243748307228,"11":-0.09706393629312515,"12":0.11080404371023178,"13":-0.18374668061733246,"14":-0.01453325990587473,"15":-0.04806753993034363,"16":0.0011814815225079656,"17":-0.2770102620124817,"18":0.10207631438970566,"19":0.06688427180051804}},"4":{"bias":-0.3375933766365051,"weights":{"0":-0.031279247254133224,"1":0.05397910252213478,"2":0.051373641937971115,"3":-0.2087392508983612,"4":-0.10138414800167084,"5":-0.26032519340515137,"6":0.18949411809444427,"7":-0.5251652002334595,"8":0.1188848540186882,"9":0.21529878675937653,"10":0.13945956528186798,"11":0.3743356764316559,"12":0.1157580018043518,"13":0.1223641186952591,"14":-0.6130296587944031,"15":0.13459135591983795,"16":0.32657885551452637,"17":0.2767770290374756,"18":0.004081959370523691,"19":-0.27217403054237366}},"5":{"bias":0.1422991156578064,"weights":{"0":-0.20900355279445648,"1":-0.11894147098064423,"2":-0.1373228132724762,"3":-0.13504570722579956,"4":0.06232766434550285,"5":0.15112151205539703,"6":0.2321980595588684,"7":-0.35138770937919617,"8":-0.08099501579999924,"9":0.012079637497663498,"10":0.030438285320997238,"11":0.04705522954463959,"12":-0.12960517406463623,"13":0.161689892411232,"14":0.2172827124595642,"15":-0.0878729373216629,"16":-0.03620695322751999,"17":0.24915020167827606,"18":-0.17128607630729675,"19":-0.04110220447182655}},"6":{"bias":-0.12030438333749771,"weights":{"0":-0.25070515275001526,"1":-0.10974337160587311,"2":-0.16499388217926025,"3":0.018562493845820427,"4":0.07454445213079453,"5":-0.4165152609348297,"6":0.0481380857527256,"7":-0.14341579377651215,"8":0.13778553903102875,"9":-0.01393353845924139,"10":-0.049939777702093124,"11":0.1574864238500595,"12":-0.038711484521627426,"13":0.1579912155866623,"14":-0.19228488206863403,"15":0.2574741244316101,"16":-0.03677741810679436,"17":0.16904288530349731,"18":-0.11569955199956894,"19":-0.0485648438334465}},"7":{"bias":-0.22507725656032562,"weights":{"0":-0.24484314024448395,"1":-0.3261561691761017,"2":0.014768216758966446,"3":0.18347901105880737,"4":0.11129846423864365,"5":0.007035964168608189,"6":-0.929905354976654,"7":0.517790675163269,"8":-0.5268287658691406,"9":0.28137996792793274,"10":0.1694556474685669,"11":-0.5706323385238647,"12":-0.1427791267633438,"13":-0.7083818316459656,"14":-1.4862616062164307,"15":0.02449820190668106,"16":0.20465965569019318,"17":-0.24122585356235504,"18":0.1684177815914154,"19":0.30550268292427063}},"8":{"bias":-0.25838378071784973,"weights":{"0":0.7680918574333191,"1":-0.15101845562458038,"2":-0.24779018759727478,"3":0.42081382870674133,"4":0.06009278818964958,"5":-0.24978870153427124,"6":0.44367292523384094,"7":0.38962146639823914,"8":-0.1997455358505249,"9":-0.31264960765838623,"10":-0.31074389815330505,"11":-0.38108330965042114,"12":-0.323996365070343,"13":-0.1534620076417923,"14":0.8654311895370483,"15":0.08822174370288849,"16":-0.4174245595932007,"17":-0.3458673655986786,"18":0.34398776292800903,"19":0.3235991895198822}},"9":{"bias":0.041671834886074066,"weights":{"0":-0.43201130628585815,"1":-0.13346314430236816,"2":-0.149115651845932,"3":-0.13001748919487,"4":0.013107160106301308,"5":0.10728337615728378,"6":0.49351927638053894,"7":-0.3161259889602661,"8":-0.12043638527393341,"9":0.0006844185409136117,"10":-0.0005292773712426424,"11":0.05574196204543114,"12":-0.10053595155477524,"13":0.17709574103355408,"14":0.14352650940418243,"15":-0.03267395868897438,"16":0.0011593775125220418,"17":0.2496437430381775,"18":-0.12843644618988037,"19":-0.07607180625200272}},"10":{"bias":1.242865800857544,"weights":{"0":0.06449588388204575,"1":-0.14456087350845337,"2":-0.026767486706376076,"3":0.6732890605926514,"4":0.23884980380535126,"5":0.00415349006652832,"6":-0.8657531142234802,"7":0.3738715946674347,"8":0.07112256437540054,"9":-0.308170884847641,"10":-0.01775355637073517,"11":-0.5430635809898376,"12":-0.1545601636171341,"13":-0.2677733600139618,"14":1.534826397895813,"15":-0.02639165148139,"16":-0.9427422285079956,"17":-0.6515335440635681,"18":0.23455941677093506,"19":-0.849851131439209}},"11":{"bias":-0.15135246515274048,"weights":{"0":0.04031435772776604,"1":0.03557947650551796,"2":0.04911056533455849,"3":0.1289801448583603,"4":-0.03699515387415886,"5":-0.3044917583465576,"6":-0.10109252482652664,"7":0.21771907806396484,"8":0.11703807860612869,"9":-0.041109565645456314,"10":-0.06657874584197998,"11":0.018650025129318237,"12":0.10134927928447723,"13":-0.08639709651470184,"14":-0.2643773853778839,"15":0.2024470716714859,"16":0.007604539860039949,"17":-0.1569550782442093,"18":0.13201889395713806,"19":0.01656358316540718}},"12":{"bias":-0.65108323097229,"weights":{"0":-1.4258376359939575,"1":0.01713459938764572,"2":0.05295083299279213,"3":-0.279959112405777,"4":0.10844816267490387,"5":-0.027982130646705627,"6":-0.9204253554344177,"7":-1.3748869895935059,"8":0.14450713992118835,"9":0.016812972724437714,"10":0.007896590046584606,"11":-1.150713562965393,"12":-0.06147284805774689,"13":1.067279577255249,"14":-1.2113898992538452,"15":-0.01831074059009552,"16":0.6693164110183716,"17":0.2600548565387726,"18":0.19118410348892212,"19":2.6555206775665283}},"13":{"bias":-0.11579345166683197,"weights":{"0":0.3191395103931427,"1":0.12148687243461609,"2":0.14279834926128387,"3":0.12802846729755402,"4":-0.03570794314146042,"5":-0.1319805383682251,"6":-0.3604166507720947,"7":0.3435510993003845,"8":0.09751423448324203,"9":-0.00008892646292224526,"10":-0.010099063627421856,"11":-0.048774830996990204,"12":0.11907028406858444,"13":-0.16709789633750916,"14":-0.19914931058883667,"15":0.06178569793701172,"16":0.024945784360170364,"17":-0.2403751015663147,"18":0.16153676807880402,"19":0.057910215109586716}},"14":{"bias":-0.07976506650447845,"weights":{"0":0.24020697176456451,"1":0.14014901220798492,"2":0.16197334229946136,"3":0.11982884258031845,"4":-0.06287843734025955,"5":-0.06294049322605133,"6":-0.27872830629348755,"7":0.35435357689857483,"8":0.06923043727874756,"9":-0.002130020409822464,"10":-0.015993818640708923,"11":-0.06383388489484787,"12":0.13188721239566803,"13":-0.17431966960430145,"14":-0.13844741880893707,"15":0.030070772394537926,"16":0.027953090146183968,"17":-0.26297011971473694,"18":0.14352920651435852,"19":0.052355315536260605}},"15":{"bias":0.16721877455711365,"weights":{"0":-0.20433436334133148,"1":-0.099454365670681,"2":-0.11700468510389328,"3":-0.13691040873527527,"4":0.05002448707818985,"5":0.1953309327363968,"6":0.22495125234127045,"7":-0.3365519046783447,"8":-0.08877425640821457,"9":0.014956710860133171,"10":0.033312853425741196,"11":0.03556356951594353,"12":-0.120781309902668,"13":0.14756666123867035,"14":0.2462688535451889,"15":-0.11324245482683182,"16":-0.03489048033952713,"17":0.2258966565132141,"18":-0.17750535905361176,"19":-0.03817824646830559}},"16":{"bias":0.2898961901664734,"weights":{"0":-1.2173467874526978,"1":-0.5843660831451416,"2":1.2210075855255127,"3":0.15499919652938843,"4":-0.4928668737411499,"5":-0.09713953733444214,"6":-0.8680076599121094,"7":-0.9073437452316284,"8":0.08347637951374054,"9":-0.20566701889038086,"10":-0.009336946532130241,"11":-0.16629473865032196,"12":2.072706937789917,"13":-0.761141300201416,"14":-0.785808801651001,"15":-0.005049915984272957,"16":-0.42579174041748047,"17":-0.011841417290270329,"18":3.037790536880493,"19":0.5693685412406921}},"17":{"bias":0.14741045236587524,"weights":{"0":0.2546147406101227,"1":0.16306287050247192,"2":0.17217008769512177,"3":0.11516623944044113,"4":-0.06170912832021713,"5":0.1799120306968689,"6":-0.2579687833786011,"7":0.2840662896633148,"8":-0.004960707854479551,"9":-0.041823290288448334,"10":-0.012261277996003628,"11":-0.15690290927886963,"12":0.07669700682163239,"13":-0.20542919635772705,"14":0.07958590239286423,"15":-0.11087211966514587,"16":-0.028763459995388985,"17":-0.3096774220466614,"18":0.09452182054519653,"19":0.08954937011003494}},"18":{"bias":-0.09638284891843796,"weights":{"0":0.28460848331451416,"1":0.12930019199848175,"2":0.15175506472587585,"3":0.12582482397556305,"4":-0.04719965159893036,"5":-0.0997970774769783,"6":-0.32505589723587036,"7":0.3511989414691925,"8":0.0833071693778038,"9":-0.002035542856901884,"10":-0.012514526024460793,"11":-0.058669645339250565,"12":0.12456183135509491,"13":-0.17236186563968658,"14":-0.1730765551328659,"15":0.04646443948149681,"16":0.026880454272031784,"17":-0.25200963020324707,"18":0.15735295414924622,"19":0.0569736547768116}},"19":{"bias":0.09256820380687714,"weights":{"0":-0.3564058840274811,"1":-0.12573711574077606,"2":-0.15047645568847656,"3":-0.1252211034297943,"4":0.028018638491630554,"5":0.11158572137355804,"6":0.4022270441055298,"7":-0.34043481945991516,"8":-0.10143585503101349,"9":-0.0007205044967122376,"10":0.0022616914939135313,"11":0.05574166029691696,"12":-0.11614760756492615,"13":0.17313595116138458,"14":0.18465252220630646,"15":-0.044047288596630096,"16":-0.02034233696758747,"17":0.2434396743774414,"18":-0.15834850072860718,"19":-0.06571374088525772}}},{"0":{"bias":-0.0074329618364572525,"weights":{"0":0.027462664991617203,"1":-0.06602490693330765,"2":-0.08602753281593323,"3":-0.0645320788025856,"4":0.031989146023988724,"5":0.021573010832071304,"6":0.07670122385025024,"7":-0.05613941326737404,"8":-0.022523121908307076,"9":0.04762550815939903,"10":-0.043995510786771774,"11":0.024134214967489243,"12":-0.007106082513928413,"13":0.01763821393251419,"14":-0.016086755320429802,"15":0.060716722160577774,"16":0.05632666125893593,"17":-0.04012271389365196,"18":-0.020403487607836723,"19":0.03642084822058678}},"1":{"bias":-0.06569577753543854,"weights":{"0":-0.0061466144397854805,"1":-0.02287188731133938,"2":-0.07351763546466827,"3":-0.007708983030170202,"4":-0.020776713266968727,"5":-0.02093934454023838,"6":0.0787123516201973,"7":-0.023198449984192848,"8":0.06696340441703796,"9":-0.0018410938791930676,"10":-0.0022587263956665993,"11":0.04690626636147499,"12":-0.030886877328157425,"13":-0.02873336523771286,"14":-0.012366019189357758,"15":-0.031386688351631165,"16":-0.05205085501074791,"17":-0.017922231927514076,"18":-0.014967821538448334,"19":-0.003642443800345063}},"2":{"bias":-0.06570599228143692,"weights":{"0":-0.03632820025086403,"1":0.03157921880483627,"2":-0.010161984711885452,"3":0.006681038532406092,"4":-0.0713111087679863,"5":-0.023363657295703888,"6":0.006847035139799118,"7":0.01162768341600895,"8":0.10927212238311768,"9":-0.012609275057911873,"10":0.03449234738945961,"11":0.033783797174692154,"12":-0.035561200231313705,"13":0.03706848621368408,"14":0.02591942809522152,"15":-0.020319262519478798,"16":-0.09552935510873795,"17":0.020890915766358376,"18":0.036116186529397964,"19":-0.023740079253911972}},"3":{"bias":0.459365576505661,"weights":{"0":-0.039428483694791794,"1":-0.05182802304625511,"2":0.010618135333061218,"3":0.05832919850945473,"4":-0.23575985431671143,"5":-0.03223421052098274,"6":-0.005640182178467512,"7":-0.043942660093307495,"8":0.3751007914543152,"9":-0.07982901483774185,"10":-0.8820512890815735,"11":0.014514075592160225,"12":1.54659903049469,"13":0.0517975352704525,"14":0.04032724350690842,"15":-0.031104395166039467,"16":-0.4143798053264618,"17":0.07608691602945328,"18":0.04693802818655968,"19":-0.05889429897069931}},"4":{"bias":-0.03601943328976631,"weights":{"0":0.04450855031609535,"1":-0.09359186142683029,"2":-0.13941217958927155,"3":-0.0428476445376873,"4":-0.18756698071956635,"5":0.024145137518644333,"6":0.15603575110435486,"7":-0.2205936759710312,"8":0.20439240336418152,"9":0.08721301704645157,"10":-0.07342305034399033,"11":0.035901978611946106,"12":-0.16055765748023987,"13":-0.06547268480062485,"14":-0.039378419518470764,"15":0.022019321098923683,"16":0.1854930967092514,"17":-0.027165846899151802,"18":-0.053080394864082336,"19":0.07568909972906113}},"5":{"bias":-0.01246823649853468,"weights":{"0":-0.02754128910601139,"1":0.06323152035474777,"2":0.056253403425216675,"3":0.046990565955638885,"4":-0.044185686856508255,"5":-0.018809176981449127,"6":-0.07172771543264389,"7":0.049372535198926926,"8":0.04478345438838005,"9":-0.040216922760009766,"10":0.04499395564198494,"11":0.026359548792243004,"12":-0.003295916598290205,"13":0.00590358255431056,"14":0.031155211851000786,"15":0.03796171024441719,"16":-0.07173740118741989,"17":0.049509335309267044,"18":0.037997808307409286,"19":-0.06256242841482162}},"6":{"bias":0.04830532893538475,"weights":{"0":0.03974295035004616,"1":-0.05102260038256645,"2":-0.014854100532829762,"3":-0.01727198250591755,"4":0.0020844843238592148,"5":0.012735906057059765,"6":0.03012390248477459,"7":-0.055845413357019424,"8":-0.050237420946359634,"9":0.03937145322561264,"10":-0.04388796538114548,"11":-0.0033751134760677814,"12":-0.007935981266200542,"13":-0.06355025619268417,"14":-0.044212549924850464,"15":0.040732938796281815,"16":0.1279374659061432,"17":-0.023390697315335274,"18":-0.04666907712817192,"19":0.00025405685300938785}},"7":{"bias":-0.06409642100334167,"weights":{"0":-0.015894662588834763,"1":0.046884935349226,"2":-0.013392849825322628,"3":0.03199493885040283,"4":0.05258622020483017,"5":-0.020355913788080215,"6":-0.015040162950754166,"7":0.07391948997974396,"8":0.019924480468034744,"9":-0.06403949856758118,"10":0.043318718671798706,"11":0.0017767904791980982,"12":0.024429382756352425,"13":0.026995709165930748,"14":0.044046565890312195,"15":-0.035829439759254456,"16":-0.161609947681427,"17":0.016681283712387085,"18":0.045949503779411316,"19":-0.03333348035812378}},"8":{"bias":-0.05335612967610359,"weights":{"0":-0.04989999160170555,"1":0.04920140281319618,"2":0.002467273036018014,"3":0.02365150675177574,"4":-0.10661523789167404,"5":-0.02693820744752884,"6":-0.023191193118691444,"7":0.015081699937582016,"8":0.12948253750801086,"9":-0.03613368049263954,"10":0.045365944504737854,"11":0.0003474690020084381,"12":-0.04272899404168129,"13":0.02357693575322628,"14":0.028794553130865097,"15":-0.03301021084189415,"16":-0.08535157889127731,"17":0.05707899108529091,"18":0.02710980549454689,"19":-0.009274112991988659}},"9":{"bias":-0.0211485605686903,"weights":{"0":0.023811334744095802,"1":-0.06668595969676971,"2":-0.10591504722833633,"3":-0.04147299751639366,"4":0.0436052531003952,"5":0.017663337290287018,"6":0.0713152065873146,"7":-0.0500674806535244,"8":-0.018893569707870483,"9":0.04371631518006325,"10":-0.04093564674258232,"11":0.03426135331392288,"12":-0.0015705506084486842,"13":-0.02540130540728569,"14":-0.0232643261551857,"15":0.021862531080842018,"16":0.02983618900179863,"17":-0.0649867132306099,"18":-0.028580427169799805,"19":0.011514527723193169}},"10":{"bias":-0.015850713476538658,"weights":{"0":0.01032207440584898,"1":-0.06732568144798279,"2":-0.10309220850467682,"3":-0.04372808337211609,"4":0.05491134151816368,"5":0.020934417843818665,"6":0.07433377206325531,"7":-0.04817552492022514,"8":-0.030669497326016426,"9":0.03170802816748619,"10":-0.04293244704604149,"11":0.02728983946144581,"12":0.0015643828082829714,"13":0.008467654697597027,"14":-0.021726781502366066,"15":0.04695605859160423,"16":0.0360821895301342,"17":-0.05466354638338089,"18":-0.029478438198566437,"19":0.05404840409755707}},"11":{"bias":-0.02907460369169712,"weights":{"0":-0.03505982458591461,"1":0.05973963066935539,"2":0.047001805156469345,"3":0.020197518169879913,"4":-0.04484345018863678,"5":-0.032179176807403564,"6":-0.040495794266462326,"7":0.04665211960673332,"8":0.06602723896503448,"9":-0.0037947276141494513,"10":0.046580083668231964,"11":0.00727141834795475,"12":-0.005503506865352392,"13":0.0671924501657486,"14":0.040889985859394073,"15":0.015364263206720352,"16":-0.093447744846344,"17":0.0538037046790123,"18":0.02406185306608677,"19":-0.060132261365652084}},"12":{"bias":0.07835975289344788,"weights":{"0":-0.0016623727278783917,"1":0.027268024161458015,"2":0.10954480618238449,"3":0.009009266272187233,"4":-0.056120485067367554,"5":0.004448672290891409,"6":-0.06569693237543106,"7":-0.003129844320937991,"8":-0.025910556316375732,"9":-0.010334406048059464,"10":0.0007149994489736855,"11":-0.046404413878917694,"12":-0.0032843155786395073,"13":0.014615245163440704,"14":0.0010266967583447695,"15":0.018051568418741226,"16":0.09951615333557129,"17":0.040473707020282745,"18":-0.011464826762676239,"19":0.032150186598300934}},"13":{"bias":-0.23621635138988495,"weights":{"0":-0.051836542785167694,"1":0.058037228882312775,"2":-0.11618073284626007,"3":-0.0036399061791598797,"4":0.01828283630311489,"5":-0.07394719868898392,"6":0.06874116510152817,"7":0.3770825266838074,"8":-0.27083006501197815,"9":0.06843819469213486,"10":0.1297042816877365,"11":0.12344634532928467,"12":0.08925490081310272,"13":0.003317503724247217,"14":0.04234220087528229,"15":-0.07208123058080673,"16":-0.4967654049396515,"17":-0.00806548073887825,"18":0.0222044475376606,"19":0.017343206331133842}},"14":{"bias":1.2837926149368286,"weights":{"0":0.043744124472141266,"1":0.3670777380466461,"2":-0.09888079762458801,"3":-0.06264788657426834,"4":0.05536925047636032,"5":0.03205356001853943,"6":0.08240745216608047,"7":-0.03930689021945,"8":-0.04634229093790054,"9":0.08099740743637085,"10":0.0007134106126613915,"11":0.009196053259074688,"12":0.6569070816040039,"13":-0.05428086966276169,"14":-0.043174438178539276,"15":0.02896246872842312,"16":0.8527805805206299,"17":-0.07582777738571167,"18":-0.05126871541142464,"19":0.06534974277019501}},"15":{"bias":0.010518677532672882,"weights":{"0":-0.00270244968123734,"1":0.06346604228019714,"2":0.08299431949853897,"3":0.05062120035290718,"4":0.01596677117049694,"5":-0.03189011663198471,"6":-0.073056161403656,"7":0.0710749477148056,"8":-0.014493892900645733,"9":-0.02987280860543251,"10":0.04217388853430748,"11":-0.029123805463314056,"12":0.027168458327651024,"13":0.06635239720344543,"14":0.029962873086333275,"15":-0.021786203607916832,"16":-0.06861916184425354,"17":0.0424349308013916,"18":0.014358535408973694,"19":-0.0289471372961998}},"16":{"bias":-0.10187703371047974,"weights":{"0":-0.0091867009177804,"1":0.025119656696915627,"2":-0.012763731181621552,"3":0.02989739365875721,"4":-0.2671573758125305,"5":-0.005426293704658747,"6":0.007224866189062595,"7":-0.06187135726213455,"8":0.47523295879364014,"9":-0.064947210252285,"10":0.07408799231052399,"11":0.004464198835194111,"12":-0.19422532618045807,"13":0.03670216351747513,"14":0.012976582162082195,"15":-0.009655454196035862,"16":-0.02931702323257923,"17":0.041377026587724686,"18":0.02278333157300949,"19":-0.03923793509602547}},"17":{"bias":-0.08173853904008865,"weights":{"0":-0.01095191016793251,"1":0.0009707514545880258,"2":-0.06712722778320312,"3":0.005347977392375469,"4":0.025354115292429924,"5":-0.03316141664981842,"6":0.0533011294901371,"7":0.019976451992988586,"8":0.04836001619696617,"9":-0.013047100976109505,"10":0.016771893948316574,"11":0.02661433443427086,"12":-0.005270247347652912,"13":0.04906380921602249,"14":0.013479049317538738,"15":-0.04077479988336563,"16":-0.1213405653834343,"17":-0.010098516941070557,"18":-0.0041336240246891975,"19":0.0027136649005115032}},"18":{"bias":-1.775193691253662,"weights":{"0":0.0760943740606308,"1":0.09816394746303558,"2":-0.056694429367780685,"3":-0.0686694011092186,"4":0.024727854877710342,"5":0.07409840077161789,"6":0.07060199230909348,"7":-0.18129724264144897,"8":-0.004402683116495609,"9":0.07268575578927994,"10":0.48976194858551025,"11":-0.04059720039367676,"12":0.42820724844932556,"13":-0.07445558160543442,"14":-0.07284342497587204,"15":0.07237527519464493,"16":-2.7998366355895996,"17":-0.07175949960947037,"18":-0.07415606081485748,"19":0.07499570399522781}},"19":{"bias":-0.05498996004462242,"weights":{"0":-0.025436514988541603,"1":0.047115083783864975,"2":0.024748336523771286,"3":0.04658488556742668,"4":0.004940385930240154,"5":-0.04111024737358093,"6":0.0007888820837251842,"7":0.053412578999996185,"8":0.04976698383688927,"9":-0.045648567378520966,"10":0.041373372077941895,"11":0.03238452598452568,"12":0.004684519954025745,"13":0.018114669248461723,"14":0.016240553930401802,"15":-0.01669953390955925,"16":-0.12950575351715088,"17":0.027188099920749664,"18":0.02729763276875019,"19":-0.03812890499830246}}},{"left":{"bias":0.6020994186401367,"weights":{"0":-0.012868302874267101,"1":-0.06798643618822098,"2":-0.06357400864362717,"3":0.6391651034355164,"4":-0.1770469844341278,"5":-0.006281999871134758,"6":0.02810203656554222,"7":-0.02555953711271286,"8":-0.05681488662958145,"9":-0.020600948482751846,"10":-0.013411157764494419,"11":-0.021742159500718117,"12":0.05358931049704552,"13":-0.006369877140969038,"14":0.512497067451477,"15":0.030096547678112984,"16":-0.16356752812862396,"17":-0.05853581801056862,"18":0.17422692477703094,"19":-0.03229133039712906}},"jump":{"bias":0.5076671242713928,"weights":{"0":-0.09025176614522934,"1":-0.013620506972074509,"2":0.06370172649621964,"3":0.2634428143501282,"4":-0.17474542558193207,"5":0.08764836937189102,"6":-0.08524514734745026,"7":0.0839618444442749,"8":0.08127174526453018,"9":-0.08679068833589554,"10":-0.08857075124979019,"11":0.08905765414237976,"12":0.011210993863642216,"13":0.14563420414924622,"14":0.05095096677541733,"15":0.0900714099407196,"16":0.07062088698148727,"17":0.030054261907935143,"18":0.4425159990787506,"19":0.08018270134925842}},"right":{"bias":0.26132407784461975,"weights":{"0":-0.04768925532698631,"1":-0.018765030428767204,"2":0.035997454077005386,"3":-0.5968858003616333,"4":0.052931416779756546,"5":0.047633808106184006,"6":-0.007078791037201881,"7":-0.027712488546967506,"8":0.06959943473339081,"9":-0.060545437037944794,"10":-0.06379017233848572,"11":0.04186474531888962,"12":0.06404966115951538,"13":-0.1801205277442932,"14":0.49643784761428833,"15":0.02161768451333046,"16":0.23061369359493256,"17":-0.03735606372356415,"18":-0.0036301412619650364,"19":0.001486562890931964}}}],"outputLookup":true,"inputLookup":false,"activation":"tanh","trainOpts":{"iterations":3000,"errorThresh":0.02,"log":true,"logPeriod":10,"learningRate":0.3,"momentum":0.1,"callbackPeriod":100}}
