{"sizes":[102,20,20,20,3],"layers":[{"0":{},"1":{},"2":{},"3":{},"4":{},"5":{},"6":{},"7":{},"8":{},"9":{},"10":{},"11":{},"12":{},"13":{},"14":{},"15":{},"16":{},"17":{},"18":{},"19":{},"20":{},"21":{},"22":{},"23":{},"24":{},"25":{},"26":{},"27":{},"28":{},"29":{},"30":{},"31":{},"32":{},"33":{},"34":{},"35":{},"36":{},"37":{},"38":{},"39":{},"40":{},"41":{},"42":{},"43":{},"44":{},"45":{},"46":{},"47":{},"48":{},"49":{},"50":{},"51":{},"52":{},"53":{},"54":{},"55":{},"56":{},"57":{},"58":{},"59":{},"60":{},"61":{},"62":{},"63":{},"64":{},"65":{},"66":{},"67":{},"68":{},"69":{},"70":{},"71":{},"72":{},"73":{},"74":{},"75":{},"76":{},"77":{},"78":{},"79":{},"80":{},"81":{},"82":{},"83":{},"84":{},"85":{},"86":{},"87":{},"88":{},"89":{},"90":{},"91":{},"92":{},"93":{},"94":{},"95":{},"96":{},"97":{},"98":{},"99":{},"100":{},"101":{}},{"0":{"bias":-3.0424489974975586,"weights":{"0":-0.08361796289682388,"1":-0.0040839374996721745,"2":-0.16995172202587128,"3":-0.16916640102863312,"4":0.1589614301919937,"5":0.0016947968397289515,"6":0.18615896999835968,"7":-0.06247762590646744,"8":0.10440599918365479,"9":0.18293412029743195,"10":0.0005715235602110624,"11":0.1766422986984253,"12":-0.09681215137243271,"13":0.13349296152591705,"14":0.008960407227277756,"15":0.10411679744720459,"16":-0.013450851663947105,"17":0.07818283885717392,"18":-0.08022048324346542,"19":0.13242493569850922,"20":-0.197138711810112,"21":-0.1723094880580902,"22":-0.6274035573005676,"23":-0.10863427817821503,"24":0.04768051579594612,"25":-0.5693727731704712,"26":-1.1639459133148193,"27":0.06448228657245636,"28":-0.4211622178554535,"29":0.17629177868366241,"30":-0.08179551362991333,"31":-0.35567447543144226,"32":-0.12163081020116806,"33":0.366227388381958,"34":-0.11000089347362518,"35":0.11348175257444382,"36":-4.012903690338135,"37":-1.7620906829833984,"38":-2.011335849761963,"39":-1.4895159006118774,"40":-1.443979024887085,"41":-1.6242008209228516,"42":-2.6219542026519775,"43":-0.720140278339386,"44":-0.5363401174545288,"45":-0.10991523414850235,"46":-4.12702751159668,"47":-2.200953483581543,"48":-2.162104368209839,"49":-0.05160216614603996,"50":-1.1990182399749756,"51":-2.138869524002075,"52":-3.3405778408050537,"53":-3.0322115421295166,"54":0.42412933707237244,"55":2.246206760406494,"56":4.118204593658447,"57":-1.1652284860610962,"58":3.37556529045105,"59":-2.247954845428467,"60":-4.936687469482422,"61":0.3712145984172821,"62":0.34694263339042664,"63":-1.8734145164489746,"64":2.0205492973327637,"65":5.918067455291748,"66":8.431400299072266,"67":-1.9369622468948364,"68":4.058481216430664,"69":2.1300134658813477,"70":-1.0314229726791382,"71":0.9119113087654114,"72":0.15293727815151215,"73":1.4009634256362915,"74":-0.8233349323272705,"75":1.6518874168395996,"76":2.9088258743286133,"77":-1.2834994792938232,"78":-0.0763186439871788,"79":0.3799399137496948,"80":-6.662240028381348,"81":-6.879246234893799,"82":-5.011291980743408,"83":-4.4460554122924805,"84":-4.632699966430664,"85":-6.177444934844971,"86":-4.408365726470947,"87":-3.339002847671509,"88":-3.5131778717041016,"89":-4.765960693359375,"90":-2.117734432220459,"91":-1.8930906057357788,"92":-2.1045608520507812,"93":-0.26730620861053467,"94":-0.32884931564331055,"95":-1.3232258558273315,"96":-0.513962984085083,"97":-0.1758301854133606,"98":-0.5441946387290955,"99":-0.31760790944099426,"100":0.7470467686653137,"101":20.390625}},"1":{"bias":-3.28957200050354,"weights":{"0":-0.05981704965233803,"1":0.13378839194774628,"2":-0.16125628352165222,"3":0.027450865134596825,"4":-0.007085360120981932,"5":0.1278703659772873,"6":-0.06261730194091797,"7":-0.013509991578757763,"8":-0.006809122394770384,"9":-0.06018165126442909,"10":0.13347645103931427,"11":0.03585215285420418,"12":0.298745334148407,"13":-0.01576060801744461,"14":-0.10690581053495407,"15":0.018042409792542458,"16":-0.028510337695479393,"17":-0.06909147650003433,"18":0.014957176521420479,"19":-0.18447080254554749,"20":-0.08087736368179321,"21":-0.03679758682847023,"22":-0.30584433674812317,"23":-0.09945137798786163,"24":0.12137918919324875,"25":-0.13278605043888092,"26":-0.32213476300239563,"27":0.01857832632958889,"28":-0.09329723566770554,"29":0.04509896785020828,"30":-0.07047662883996964,"31":-0.1559852808713913,"32":-0.25496649742126465,"33":-0.2046186327934265,"34":-0.1487448811531067,"35":0.12472774088382721,"36":-0.5041959285736084,"37":-0.11867478489875793,"38":-0.3167707026004791,"39":0.21908648312091827,"40":-0.2684069573879242,"41":-0.03130029886960983,"42":-0.5203179717063904,"43":-0.06758346408605576,"44":0.021742744371294975,"45":0.0704277828335762,"46":-0.3745768964290619,"47":-0.47335386276245117,"48":0.898339569568634,"49":-0.8276214003562927,"50":-0.3342863917350769,"51":-0.2051134705543518,"52":0.20758968591690063,"53":-1.2535139322280884,"54":-1.2691805362701416,"55":-0.0885762944817543,"56":-1.1304296255111694,"57":-1.1605243682861328,"58":-1.1967755556106567,"59":-1.8462576866149902,"60":-1.3370411396026611,"61":-1.0324897766113281,"62":-1.3981074094772339,"63":-1.4885557889938354,"64":-1.8193778991699219,"65":-0.7145645618438721,"66":-0.36667847633361816,"67":-1.1767799854278564,"68":-0.9578932523727417,"69":-0.6571357846260071,"70":-1.232850432395935,"71":-0.4675371050834656,"72":-1.0269300937652588,"73":-1.1199564933776855,"74":-0.7820819616317749,"75":0.08288046717643738,"76":-1.6511949300765991,"77":0.6117771863937378,"78":-1.4325770139694214,"79":-1.1888238191604614,"80":-0.9338569045066833,"81":-0.686683177947998,"82":-0.7972410321235657,"83":-0.7908005714416504,"84":-0.5624542832374573,"85":-0.9294877648353577,"86":-0.6924784779548645,"87":-0.2381213754415512,"88":-0.2762581408023834,"89":-0.4495145380496979,"90":-0.554421603679657,"91":-0.6702715754508972,"92":-0.6456182599067688,"93":-0.2007322460412979,"94":-0.101586252450943,"95":-0.43456730246543884,"96":-0.12262500822544098,"97":-0.2084805816411972,"98":-0.10562203824520111,"99":-0.21712660789489746,"100":-0.6422292590141296,"101":3.335583448410034}},"2":{"bias":-0.3789084553718567,"weights":{"0":-0.12063653767108917,"1":-0.034593794494867325,"2":-0.13522116839885712,"3":0.16724088788032532,"4":0.05170828849077225,"5":0.07294725626707077,"6":-0.1261553168296814,"7":-0.19795696437358856,"8":-0.1901809126138687,"9":-0.16407056152820587,"10":-0.13477805256843567,"11":0.08681338280439377,"12":0.5909455418586731,"13":0.09257174283266068,"14":-0.1696769893169403,"15":-0.13105933368206024,"16":0.14092478156089783,"17":0.04126669839024544,"18":-0.025879565626382828,"19":-0.0786619782447815,"20":0.09213650971651077,"21":0.2994401752948761,"22":1.142043948173523,"23":-0.5831636786460876,"24":0.19034600257873535,"25":-0.3666065037250519,"26":-0.251077800989151,"27":-0.608117938041687,"28":-0.22693239152431488,"29":-0.1813238114118576,"30":0.13265807926654816,"31":0.4470612704753876,"32":0.9489386081695557,"33":-0.5965257883071899,"34":-0.15942472219467163,"35":-0.12725527584552765,"36":-1.2590333223342896,"37":-1.1260910034179688,"38":-0.516582727432251,"39":-0.2834952473640442,"40":-0.7990740537643433,"41":-1.0096826553344727,"42":0.11335816979408264,"43":-0.5789138674736023,"44":1.2047770023345947,"45":-0.1877651959657669,"46":-0.4998328983783722,"47":-0.8513258695602417,"48":0.4854247272014618,"49":-1.4931211471557617,"50":-1.94355046749115,"51":-0.3369370400905609,"52":-3.6882665157318115,"53":-3.7032251358032227,"54":-0.6698524951934814,"55":2.1419873237609863,"56":-3.053985118865967,"57":1.213898777961731,"58":-2.0401740074157715,"59":-0.08088374137878418,"60":-1.3890968561172485,"61":0.613121747970581,"62":-1.328722596168518,"63":-0.2377595603466034,"64":-0.29554474353790283,"65":-0.831161618232727,"66":0.8288033604621887,"67":1.2973119020462036,"68":-0.5458183884620667,"69":0.3016897439956665,"70":3.087944269180298,"71":4.106335163116455,"72":4.127356052398682,"73":4.158891677856445,"74":5.19957160949707,"75":2.975308895111084,"76":3.9134304523468018,"77":4.4787678718566895,"78":4.242891311645508,"79":5.0725812911987305,"80":-0.6895342469215393,"81":-1.4246294498443604,"82":0.29294395446777344,"83":0.6992080211639404,"84":0.9701935648918152,"85":-0.20377656817436218,"86":0.9761942028999329,"87":1.1077300310134888,"88":1.0381572246551514,"89":1.2320648431777954,"90":-1.176578164100647,"91":-0.7168823480606079,"92":-0.6997223496437073,"93":1.1237983703613281,"94":0.424743115901947,"95":-0.6274441480636597,"96":0.2191023826599121,"97":0.27757906913757324,"98":0.4184827208518982,"99":0.34711185097694397,"100":2.396293878555298,"101":2.677929639816284}},"3":{"bias":-1.8047431707382202,"weights":{"0":0.03143693134188652,"1":-0.04223714768886566,"2":-0.15203510224819183,"3":-0.12245243787765503,"4":-0.17777566611766815,"5":0.022104963660240173,"6":-0.11992141604423523,"7":0.05488672852516174,"8":-0.06724859029054642,"9":-0.02856423333287239,"10":-0.0034957758616656065,"11":0.12238039076328278,"12":-0.29952841997146606,"13":-0.16951531171798706,"14":0.19459955394268036,"15":-0.18545471131801605,"16":-0.14058414101600647,"17":-0.14478930830955505,"18":-0.17537769675254822,"19":-0.14396704733371735,"20":-0.1809852570295334,"21":-0.577799379825592,"22":-0.7160363793373108,"23":0.6388515830039978,"24":-0.04090770334005356,"25":-0.16972938179969788,"26":0.5801509022712708,"27":1.381791114807129,"28":0.4959219694137573,"29":-0.4392477869987488,"30":-0.216058611869812,"31":0.23727229237556458,"32":0.6787301898002625,"33":0.3560618758201599,"34":-0.15955567359924316,"35":0.41466444730758667,"36":1.3691794872283936,"37":-1.5199105739593506,"38":0.5851576924324036,"39":-0.4337238073348999,"40":0.30390286445617676,"41":1.4454466104507446,"42":-1.8989744186401367,"43":0.5411227941513062,"44":-0.1577933430671692,"45":-0.3430437445640564,"46":-2.5466151237487793,"47":-1.402463674545288,"48":-0.9467620253562927,"49":-1.3469847440719604,"50":0.0980089008808136,"51":-0.08070264756679535,"52":-0.23633818328380585,"53":-2.254021167755127,"54":-2.0350582599639893,"55":-4.105182647705078,"56":-2.598841667175293,"57":-4.365856170654297,"58":-3.4168407917022705,"59":-3.669456720352173,"60":-1.4399735927581787,"61":0.3769814074039459,"62":0.6081401705741882,"63":0.5688821077346802,"64":0.10744573920965195,"65":-1.3252571821212769,"66":-0.14228542149066925,"67":-2.124941110610962,"68":0.08609743416309357,"69":-3.80598783493042,"70":-0.8825608491897583,"71":0.7430147528648376,"72":-0.386775404214859,"73":-0.315690279006958,"74":-0.49800267815589905,"75":-1.2989661693572998,"76":-0.2066861391067505,"77":-0.3154147267341614,"78":0.1324097216129303,"79":-1.4015012979507446,"80":0.125978484749794,"81":-0.35010457038879395,"82":0.051648255437612534,"83":-0.7830877900123596,"84":-1.0226290225982666,"85":-0.766229510307312,"86":-0.7766369581222534,"87":-1.3329033851623535,"88":-1.2620447874069214,"89":-1.3999292850494385,"90":0.0030579580925405025,"91":0.09532563388347626,"92":0.08731839060783386,"93":-1.1346865892410278,"94":-0.4402008354663849,"95":-0.20070858299732208,"96":-0.42374902963638306,"97":-0.5998077988624573,"98":-0.6310296654701233,"99":-0.6293589472770691,"100":-3.5376837253570557,"101":-6.4699225425720215}},"4":{"bias":-7.609903335571289,"weights":{"0":0.1369045078754425,"1":-0.18148504197597504,"2":0.18423868715763092,"3":-0.13023434579372406,"4":0.07430655509233475,"5":-0.09362197667360306,"6":0.09162980318069458,"7":-0.10582830011844635,"8":-0.1056411862373352,"9":-0.030492428690195084,"10":0.10128691792488098,"11":-0.028738128021359444,"12":0.6303529143333435,"13":-0.1600075364112854,"14":-0.0866384282708168,"15":0.07189688831567764,"16":0.10963726788759232,"17":-0.1555580347776413,"18":0.07264447212219238,"19":-0.028328880667686462,"20":-0.1205744743347168,"21":0.283477246761322,"22":-0.24525493383407593,"23":0.7658981680870056,"24":-0.14256404340267181,"25":-1.2827343940734863,"26":-2.8184399604797363,"27":-2.55057954788208,"28":-1.6535208225250244,"29":-0.03469252213835716,"30":0.6248782277107239,"31":-0.8633033633232117,"32":-1.7977373600006104,"33":-0.7909205555915833,"34":-0.013367288745939732,"35":0.08585826307535172,"36":-3.412269353866577,"37":-1.5053030252456665,"38":-1.3325285911560059,"39":-1.5034180879592896,"40":-2.642841339111328,"41":-2.5453033447265625,"42":-2.102363109588623,"43":-1.7906982898712158,"44":0.2943955957889557,"45":-0.005050373263657093,"46":0.7285521030426025,"47":0.22104601562023163,"48":0.9695928692817688,"49":1.4980435371398926,"50":-2.4824469089508057,"51":-2.7258074283599854,"52":-5.067869663238525,"53":-4.455778121948242,"54":-6.556599140167236,"55":-0.8816674947738647,"56":-4.438178062438965,"57":-3.000458240509033,"58":-5.034420013427734,"59":-3.878495931625366,"60":-6.773657321929932,"61":-5.078075885772705,"62":-5.566783428192139,"63":-2.640559673309326,"64":-4.322493553161621,"65":-0.759729266166687,"66":-0.5206978917121887,"67":-5.284822940826416,"68":-3.2408711910247803,"69":-4.7438063621521,"70":0.5517054796218872,"71":0.34868332743644714,"72":-0.7913259863853455,"73":-0.0010040673660114408,"74":-0.6762278079986572,"75":-1.0228211879730225,"76":-1.6408183574676514,"77":-0.6455090641975403,"78":-3.504497766494751,"79":-1.8235725164413452,"80":-0.023064475506544113,"81":-0.8890560269355774,"82":-2.1120452880859375,"83":-2.17362117767334,"84":-1.8206876516342163,"85":-2.6250030994415283,"86":-2.1420137882232666,"87":-1.279033899307251,"88":-0.9980158805847168,"89":-2.066333770751953,"90":-1.1202031373977661,"91":-1.1749210357666016,"92":-1.3018450736999512,"93":-0.5038601160049438,"94":-0.3003287613391876,"95":-0.7723235487937927,"96":-0.030426857993006706,"97":-0.18054454028606415,"98":-0.0321292020380497,"99":-0.10288801789283752,"100":-2.2206621170043945,"101":12.55626106262207}},"5":{"bias":-3.2460901737213135,"weights":{"0":-0.17013972997665405,"1":-0.029405416920781136,"2":0.05173506215214729,"3":0.17601357400417328,"4":0.1176372841000557,"5":-0.1638542115688324,"6":0.048886027187108994,"7":-0.1689171940088272,"8":0.07553430646657944,"9":-0.19636861979961395,"10":0.1705072522163391,"11":0.16762670874595642,"12":0.04377162829041481,"13":-0.0917290449142456,"14":0.04188661649823189,"15":-0.047265492379665375,"16":0.000013994248547533061,"17":0.06902085989713669,"18":0.1317962110042572,"19":0.09226097166538239,"20":0.15075738728046417,"21":0.19063401222229004,"22":0.330112487077713,"23":0.031021123751997948,"24":0.07436691224575043,"25":-0.11987578123807907,"26":1.4898878335952759,"27":-0.15935969352722168,"28":0.29763102531433105,"29":0.14005981385707855,"30":-0.2502858340740204,"31":0.779803991317749,"32":1.4956446886062622,"33":0.3049280345439911,"34":-0.04736039787530899,"35":-0.1994663029909134,"36":2.7393009662628174,"37":-0.33992359042167664,"38":1.618272304534912,"39":1.3244554996490479,"40":0.37987905740737915,"41":0.5849264860153198,"42":0.8317810297012329,"43":1.4396904706954956,"44":0.10091498494148254,"45":-0.03727269917726517,"46":1.1605406999588013,"47":-0.24809202551841736,"48":-1.6113563776016235,"49":-0.3759269416332245,"50":0.8335515260696411,"51":-0.8216085433959961,"52":-1.1654607057571411,"53":-0.8813876509666443,"54":-0.4172392785549164,"55":0.48208701610565186,"56":-2.518545389175415,"57":-0.9706510901451111,"58":-1.1475467681884766,"59":-0.8956990838050842,"60":-0.3308183252811432,"61":0.44598111510276794,"62":-0.4110887050628662,"63":-1.9928137063980103,"64":-1.4035496711730957,"65":-2.275064468383789,"66":-5.346945285797119,"67":-1.2931408882141113,"68":-2.6870923042297363,"69":-3.6958060264587402,"70":0.4493040144443512,"71":-0.618920624256134,"72":-1.1428529024124146,"73":-2.0918619632720947,"74":-1.8961353302001953,"75":-3.48907732963562,"76":-3.1385865211486816,"77":-1.1868878602981567,"78":-2.28889799118042,"79":-0.6987597346305847,"80":0.4353252947330475,"81":0.13976286351680756,"82":0.12302900850772858,"83":-0.1444389969110489,"84":-0.6923863291740417,"85":0.6630725860595703,"86":0.18235796689987183,"87":-0.4777313470840454,"88":-0.7745502591133118,"89":0.14109238982200623,"90":0.2707166373729706,"91":0.1375740021467209,"92":0.3704937994480133,"93":-0.7474186420440674,"94":-0.6673212647438049,"95":-0.3219006359577179,"96":-0.6441233158111572,"97":-0.7696106433868408,"98":-0.6469469666481018,"99":-0.7040468454360962,"100":2.254950761795044,"101":-16.327577590942383}},"6":{"bias":0.7389321327209473,"weights":{"0":-0.13309107720851898,"1":-0.16708500683307648,"2":-0.0747140645980835,"3":0.08483871817588806,"4":-0.1243012472987175,"5":0.08243084698915482,"6":0.0738227367401123,"7":0.0029162894934415817,"8":0.11780290305614471,"9":-0.0108529943972826,"10":0.01410514023154974,"11":0.19346924126148224,"12":-0.2284896969795227,"13":0.01771203614771366,"14":0.10835278034210205,"15":0.08180346339941025,"16":-0.17796018719673157,"17":-0.04738641530275345,"18":-0.054542865604162216,"19":-0.031041035428643227,"20":0.007809958886355162,"21":-0.1406993567943573,"22":-0.09268991649150848,"23":0.5767520666122437,"24":0.09657896310091019,"25":-0.43931150436401367,"26":-0.7345367670059204,"27":0.5029365420341492,"28":0.18230953812599182,"29":-0.5470208525657654,"30":-0.07030990719795227,"31":-0.17338980734348297,"32":0.601223886013031,"33":0.2954499125480652,"34":0.06879554688930511,"35":0.8294506072998047,"36":-0.28001776337623596,"37":0.18844260275363922,"38":0.21807067096233368,"39":-0.41960060596466064,"40":-1.3534806966781616,"41":-0.1950731724500656,"42":0.05185789242386818,"43":1.0111374855041504,"44":-0.33140888810157776,"45":0.06438596546649933,"46":-0.6472675204277039,"47":1.320312261581421,"48":0.4727920889854431,"49":-0.05792013183236122,"50":1.7819167375564575,"51":0.35601285099983215,"52":1.2637118101119995,"53":1.1740493774414062,"54":0.09709108620882034,"55":0.0946977287530899,"56":1.4424176216125488,"57":1.4738978147506714,"58":0.34105902910232544,"59":0.938877284526825,"60":0.5363268256187439,"61":1.0477780103683472,"62":0.07949650287628174,"63":0.21926309168338776,"64":0.45143550634384155,"65":1.1829184293746948,"66":1.691259741783142,"67":-0.12003034353256226,"68":1.2023522853851318,"69":0.27381089329719543,"70":0.7814569473266602,"71":0.9327090382575989,"72":1.0762262344360352,"73":1.10470449924469,"74":0.9507293701171875,"75":1.3548494577407837,"76":0.5704438090324402,"77":0.934421718120575,"78":0.48710837960243225,"79":0.5893567204475403,"80":-0.010491421446204185,"81":0.35598593950271606,"82":0.2157742828130722,"83":0.35968077182769775,"84":0.18367226421833038,"85":0.49336275458335876,"86":0.4619320333003998,"87":0.3281812369823456,"88":0.44671839475631714,"89":0.502755880355835,"90":0.06196703389286995,"91":0.03763330727815628,"92":0.15048711001873016,"93":0.07126275449991226,"94":0.12375079840421677,"95":-0.029909854754805565,"96":0.12706340849399567,"97":0.29778730869293213,"98":0.11069808900356293,"99":0.2144574522972107,"100":-3.0896928310394287,"101":3.21551513671875}},"7":{"bias":1.1165331602096558,"weights":{"0":-0.09524885565042496,"1":0.168524369597435,"2":-0.0728144645690918,"3":0.10259506851434708,"4":0.03622927889227867,"5":-0.19116047024726868,"6":-0.003524640342220664,"7":0.02813715487718582,"8":0.061790719628334045,"9":0.07843005657196045,"10":-0.1491452157497406,"11":0.1507832258939743,"12":-0.15850895643234253,"13":-0.07990999519824982,"14":-0.12029575556516647,"15":-0.16875937581062317,"16":0.07080643624067307,"17":-0.04537201672792435,"18":0.19347168505191803,"19":0.1352321356534958,"20":-0.14839553833007812,"21":-0.682148814201355,"22":-0.6761682629585266,"23":0.9913684725761414,"24":-0.12265519052743912,"25":-0.9010701775550842,"26":-0.6697303652763367,"27":-0.9439241886138916,"28":-0.7475919127464294,"29":-0.16177035868167877,"30":-0.0734541043639183,"31":-0.7651938199996948,"32":1.2365329265594482,"33":-0.2612781226634979,"34":0.19215524196624756,"35":0.9889531135559082,"36":0.09716876596212387,"37":-1.1828687191009521,"38":0.8185210227966309,"39":0.46133118867874146,"40":-0.16621938347816467,"41":-0.7693901658058167,"42":2.003577709197998,"43":-0.8011177182197571,"44":-0.006367722526192665,"45":-0.1932566910982132,"46":0.1155419573187828,"47":3.0517666339874268,"48":0.6332802772521973,"49":1.766257882118225,"50":0.5021005868911743,"51":-0.162836492061615,"52":1.0728157758712769,"53":3.39448881149292,"54":-1.3595261573791504,"55":-0.8287333250045776,"56":-0.17765986919403076,"57":10.111004829406738,"58":1.1827764511108398,"59":5.075590133666992,"60":2.7769784927368164,"61":3.020204782485962,"62":1.8237404823303223,"63":3.608452320098877,"64":3.9727702140808105,"65":1.5185250043869019,"66":2.940751552581787,"67":3.6219615936279297,"68":-0.13750995695590973,"69":1.5145633220672607,"70":1.0628122091293335,"71":2.6221015453338623,"72":-0.1719183325767517,"73":3.4159343242645264,"74":0.7503781318664551,"75":1.6775670051574707,"76":-0.714739978313446,"77":-0.010876392014324665,"78":1.605588674545288,"79":2.872560501098633,"80":1.3842250108718872,"81":1.5712401866912842,"82":2.011209726333618,"83":1.9677999019622803,"84":1.4177278280258179,"85":-0.09737532585859299,"86":-0.44256532192230225,"87":1.6081349849700928,"88":1.4973833560943604,"89":0.4515652060508728,"90":-1.181955099105835,"91":-0.8007374405860901,"92":-0.9281906485557556,"93":0.833371102809906,"94":2.5305378437042236,"95":-0.06549280136823654,"96":1.7664889097213745,"97":1.904058814048767,"98":1.979371428489685,"99":1.6394580602645874,"100":-2.6491546630859375,"101":15.18065357208252}},"8":{"bias":-1.8024076223373413,"weights":{"0":-0.002920679049566388,"1":-0.019045691937208176,"2":0.19055338203907013,"3":0.017222976312041283,"4":-0.12638190388679504,"5":0.1557292640209198,"6":0.1717306226491928,"7":0.013381649740040302,"8":0.1950753927230835,"9":0.057890310883522034,"10":-0.02187289297580719,"11":-0.06207806617021561,"12":-0.530956506729126,"13":0.19624365866184235,"14":0.14810925722122192,"15":-0.06074183061718941,"16":-0.19886572659015656,"17":-0.02425517328083515,"18":0.1589168757200241,"19":-0.19872629642486572,"20":-0.0702003613114357,"21":-0.15375158190727234,"22":0.18305857479572296,"23":0.006329426541924477,"24":0.03621350973844528,"25":-0.08166719973087311,"26":1.320034384727478,"27":1.5632498264312744,"28":0.7594864368438721,"29":0.47090449929237366,"30":0.8283752202987671,"31":1.090945839881897,"32":0.7178429961204529,"33":0.7445136308670044,"34":0.10127957910299301,"35":-1.3129212856292725,"36":1.782340407371521,"37":1.8795267343521118,"38":-0.34894314408302307,"39":0.8211145997047424,"40":3.4277265071868896,"41":0.798927903175354,"42":1.5405327081680298,"43":-0.567306399345398,"44":-0.29714518785476685,"45":-0.1185663640499115,"46":0.8181494474411011,"47":-0.6265700459480286,"48":0.06002431362867355,"49":-0.8530232906341553,"50":5.151989459991455,"51":-2.4663875102996826,"52":-0.25001710653305054,"53":-2.7073912620544434,"54":-1.379960298538208,"55":-4.127623081207275,"56":-2.2702107429504395,"57":-2.242946147918701,"58":-0.6138094663619995,"59":1.558480978012085,"60":-1.9443351030349731,"61":-0.6967015266418457,"62":-1.2157615423202515,"63":-3.7129251956939697,"64":-0.04663145914673805,"65":1.6512091159820557,"66":-1.9918909072875977,"67":-2.80788516998291,"68":-1.059198021888733,"69":-1.3726235628128052,"70":4.891726970672607,"71":1.9620734453201294,"72":-1.2175424098968506,"73":-3.887162446975708,"74":1.4238479137420654,"75":-0.3340083062648773,"76":-1.930227279663086,"77":0.589256763458252,"78":-2.6818552017211914,"79":-2.716418743133545,"80":3.9566774368286133,"81":-0.10728935152292252,"82":-1.511520266532898,"83":-4.367530345916748,"84":-1.9016159772872925,"85":-0.2573290765285492,"86":-3.4348063468933105,"87":-3.890573024749756,"88":-2.667264461517334,"89":-2.4180049896240234,"90":4.438072204589844,"91":3.5681488513946533,"92":3.590502977371216,"93":0.6869373917579651,"94":-2.053652286529541,"95":1.6175955533981323,"96":-2.6389260292053223,"97":-2.132673978805542,"98":-2.083817720413208,"99":-2.4054975509643555,"100":-4.448364734649658,"101":-24.52627944946289}},"9":{"bias":1.453548550605774,"weights":{"0":-0.11420699954032898,"1":-0.19463421404361725,"2":-0.13508419692516327,"3":0.15783528983592987,"4":-0.037422437220811844,"5":-0.16458332538604736,"6":0.0771864801645279,"7":-0.16778932511806488,"8":0.04140692949295044,"9":-0.04827099293470383,"10":0.1273573487997055,"11":-0.07095804810523987,"12":0.5429869890213013,"13":0.1899893432855606,"14":-0.12327040731906891,"15":-0.14609603583812714,"16":0.1568465232849121,"17":-0.1900482326745987,"18":-0.17054548859596252,"19":0.17906826734542847,"20":0.05316363275051117,"21":-0.09981877356767654,"22":-0.5614458322525024,"23":0.1747206747531891,"24":0.07513427734375,"25":-0.9727202653884888,"26":-1.7982735633850098,"27":-0.750313937664032,"28":-0.8169146180152893,"29":0.02707795985043049,"30":-0.1583685427904129,"31":-0.4571835398674011,"32":-1.6725695133209229,"33":-0.12537643313407898,"34":0.13806410133838654,"35":-1.2451788187026978,"36":-4.9058332443237305,"37":-1.616675853729248,"38":-2.8581058979034424,"39":-0.7409881949424744,"40":-2.7834603786468506,"41":-1.0339998006820679,"42":-0.26611602306365967,"43":-1.1119920015335083,"44":-0.021492881700396538,"45":0.05825076624751091,"46":-3.475984811782837,"47":-0.9834861755371094,"48":-0.556789219379425,"49":-0.7489367723464966,"50":-2.1653287410736084,"51":-2.1344497203826904,"52":-4.3951921463012695,"53":0.13036766648292542,"54":0.5087323784828186,"55":2.357952833175659,"56":-0.637708306312561,"57":0.25579649209976196,"58":0.6935762166976929,"59":1.3544840812683105,"60":-4.429164886474609,"61":-1.6530588865280151,"62":-2.6110119819641113,"63":-0.4827868938446045,"64":-0.3996240496635437,"65":2.1960840225219727,"66":0.2080458104610443,"67":-1.8548237085342407,"68":0.3075231909751892,"69":1.7517180442810059,"70":-0.30101218819618225,"71":1.3184313774108887,"72":0.04902786761522293,"73":1.292558193206787,"74":2.7613284587860107,"75":3.3036248683929443,"76":0.5235337018966675,"77":4.324531078338623,"78":0.42584145069122314,"79":2.9578192234039307,"80":1.5577081441879272,"81":2.218714714050293,"82":2.0800085067749023,"83":2.617130994796753,"84":1.729537010192871,"85":1.3584376573562622,"86":2.0942883491516113,"87":3.241976261138916,"88":3.117650270462036,"89":2.672050714492798,"90":0.08689574897289276,"91":0.2862168550491333,"92":0.0822383314371109,"93":0.945767879486084,"94":1.771916389465332,"95":0.3977436125278473,"96":1.435205101966858,"97":1.5278245210647583,"98":1.4796680212020874,"99":1.5623457431793213,"100":-1.0449239015579224,"101":20.38188362121582}},"10":{"bias":0.6161603927612305,"weights":{"0":0.17696569859981537,"1":-0.1623450219631195,"2":0.11693468689918518,"3":-0.08121997863054276,"4":0.018057825043797493,"5":-0.16603761911392212,"6":-0.015275387093424797,"7":0.07424816489219666,"8":0.04920026287436485,"9":0.13473352789878845,"10":0.1754702925682068,"11":-0.11735963821411133,"12":0.24245697259902954,"13":-0.0232759490609169,"14":-0.036528222262859344,"15":0.013321951031684875,"16":-0.0877062976360321,"17":-0.10484948754310608,"18":-0.04416470229625702,"19":-0.06673159450292587,"20":-0.03504674881696701,"21":0.5365107655525208,"22":-1.3547900915145874,"23":-0.4358898103237152,"24":-0.13217397034168243,"25":-5.296392917633057,"26":-4.449286460876465,"27":-1.1316152811050415,"28":-1.981391429901123,"29":-2.280212163925171,"30":-0.7217838764190674,"31":-0.6287100911140442,"32":-1.7304441928863525,"33":0.5544772148132324,"34":-0.15221761167049408,"35":1.6879141330718994,"36":-9.587480545043945,"37":-1.812040090560913,"38":-0.9394122958183289,"39":-3.435295820236206,"40":-1.3109450340270996,"41":-5.273308753967285,"42":-7.806867599487305,"43":-5.014307022094727,"44":0.8291252255439758,"45":0.028983205556869507,"46":-0.5054152011871338,"47":-1.7868527173995972,"48":-1.5635006427764893,"49":1.2902989387512207,"50":-0.1600085347890854,"51":-2.467803478240967,"52":-3.696622848510742,"53":-3.037567138671875,"54":-0.7853357791900635,"55":3.8626506328582764,"56":2.1724791526794434,"57":3.270512819290161,"58":2.9353830814361572,"59":2.782625675201416,"60":1.9872069358825684,"61":-0.6608876585960388,"62":3.9208781719207764,"63":0.6763530969619751,"64":1.3991118669509888,"65":2.1130905151367188,"66":9.867599487304688,"67":3.283536434173584,"68":4.101445198059082,"69":10.995831489562988,"70":-7.140143394470215,"71":-7.456605434417725,"72":-1.5889647006988525,"73":3.8835878372192383,"74":1.937309741973877,"75":1.557318925857544,"76":3.127206802368164,"77":3.014514446258545,"78":-2.5643041133880615,"79":2.8267526626586914,"80":-5.13454532623291,"81":-3.942312002182007,"82":-5.891953468322754,"83":1.230589747428894,"84":-3.262953519821167,"85":-3.6022567749023438,"86":-0.08672060072422028,"87":0.3784697949886322,"88":0.22383084893226624,"89":-0.3431260883808136,"90":-3.321256160736084,"91":-3.1123757362365723,"92":-3.1989076137542725,"93":-2.1791019439697266,"94":-1.86716628074646,"95":-2.3260536193847656,"96":-2.6183438301086426,"97":-2.70143985748291,"98":-2.7153868675231934,"99":-2.5832598209381104,"100":-0.5415619015693665,"101":31.608173370361328}},"11":{"bias":0.9688801169395447,"weights":{"0":0.1652107536792755,"1":0.1708313524723053,"2":-0.11258000135421753,"3":-0.09719731658697128,"4":-0.046094510704278946,"5":-0.15533456206321716,"6":0.1486673206090927,"7":0.19593359529972076,"8":-0.19959646463394165,"9":-0.18797148764133453,"10":-0.0811915248632431,"11":-0.008892621845006943,"12":-0.23700706660747528,"13":-0.055224623531103134,"14":-0.09525396674871445,"15":-0.15493497252464294,"16":-0.10579593479633331,"17":0.1953268051147461,"18":-0.10922928154468536,"19":-0.01263901311904192,"20":-0.1899237483739853,"21":0.027946077287197113,"22":1.1346617937088013,"23":0.2914167642593384,"24":0.030561398714780807,"25":-0.44135016202926636,"26":0.4778996706008911,"27":0.06555985659360886,"28":-0.0069201053120195866,"29":-0.3212420344352722,"30":-0.15868085622787476,"31":0.737988293170929,"32":0.897433340549469,"33":0.033964380621910095,"34":0.03947107493877411,"35":0.49983298778533936,"36":-0.3616584837436676,"37":-1.2409565448760986,"38":-0.0779041275382042,"39":0.6322002410888672,"40":-0.004584688227623701,"41":-0.338053822517395,"42":-1.1630090475082397,"43":2.131178617477417,"44":-0.37951990962028503,"45":0.09902941435575485,"46":-0.899040937423706,"47":0.9302046298980713,"48":0.27062535285949707,"49":-2.267669677734375,"50":2.664944887161255,"51":1.3873236179351807,"52":0.8787422776222229,"53":-1.6647114753723145,"54":-1.7046127319335938,"55":0.9770484566688538,"56":-0.6806286573410034,"57":-0.33337917923927307,"58":1.1592566967010498,"59":0.6970714926719666,"60":1.413034200668335,"61":3.195467472076416,"62":1.6325304508209229,"63":-4.48656702041626,"64":-2.584185838699341,"65":-0.6699036955833435,"66":-2.01450514793396,"67":-1.1304463148117065,"68":-2.035304546356201,"69":-4.0529961585998535,"70":3.893270969390869,"71":4.190870761871338,"72":4.332728385925293,"73":4.092700481414795,"74":5.9211883544921875,"75":4.707340717315674,"76":3.74466609954834,"77":2.9125890731811523,"78":3.390751361846924,"79":2.6626996994018555,"80":1.4749614000320435,"81":2.6169753074645996,"82":1.9837145805358887,"83":0.942294180393219,"84":2.300306558609009,"85":2.3851330280303955,"86":1.1309117078781128,"87":0.5600016117095947,"88":2.273491144180298,"89":1.0870730876922607,"90":2.1385488510131836,"91":2.2756853103637695,"92":2.5377728939056396,"93":1.6751796007156372,"94":1.4321218729019165,"95":2.3886661529541016,"96":1.5995522737503052,"97":1.5957969427108765,"98":1.3411129713058472,"99":1.2413955926895142,"100":0.15976978838443756,"101":-11.817119598388672}},"12":{"bias":0.9152262210845947,"weights":{"0":0.07903137803077698,"1":-0.15467512607574463,"2":0.017336660996079445,"3":-0.035109709948301315,"4":0.08119255304336548,"5":-0.0736919641494751,"6":0.19205355644226074,"7":-0.13591401278972626,"8":0.11348944157361984,"9":-0.014986105263233185,"10":-0.046878963708877563,"11":0.1803538203239441,"12":-0.8220459818840027,"13":0.14352752268314362,"14":-0.08900509774684906,"15":-0.030175259336829185,"16":0.03440040349960327,"17":-0.16186971962451935,"18":-0.12367755174636841,"19":0.15469111502170563,"20":-0.12878632545471191,"21":-0.43360206484794617,"22":-0.8494876623153687,"23":0.7651830911636353,"24":-0.1931028515100479,"25":-0.012184231542050838,"26":-0.044000450521707535,"27":1.0371546745300293,"28":-0.03920827805995941,"29":-0.059401463717222214,"30":-0.04696960747241974,"31":0.10150611400604248,"32":0.32261115312576294,"33":-0.20651960372924805,"34":0.028035776689648628,"35":0.44917193055152893,"36":-0.05181194841861725,"37":0.14580661058425903,"38":-0.3001788556575775,"39":-0.0682651624083519,"40":-0.04609500616788864,"41":0.49745282530784607,"42":0.606654703617096,"43":0.6326993703842163,"44":-0.9638724327087402,"45":-0.06357744336128235,"46":-0.7937926650047302,"47":1.3007817268371582,"48":-1.0464318990707397,"49":-0.06206119805574417,"50":1.5122562646865845,"51":-0.5239921808242798,"52":0.34821611642837524,"53":0.8837348222732544,"54":0.15174748003482819,"55":-0.9234714508056641,"56":1.6698685884475708,"57":-0.04645919054746628,"58":0.2390253096818924,"59":0.8997145891189575,"60":0.6902050375938416,"61":-0.35069337487220764,"62":0.025673935189843178,"63":-0.39567282795906067,"64":0.18300752341747284,"65":0.6544808745384216,"66":0.023776905611157417,"67":0.18615591526031494,"68":0.724793016910553,"69":-0.9619986414909363,"70":0.5660267472267151,"71":0.6455339193344116,"72":0.9315094351768494,"73":0.5643329620361328,"74":1.713682770729065,"75":1.2157819271087646,"76":-0.0698428601026535,"77":1.3706566095352173,"78":-0.14485330879688263,"79":0.3690855801105499,"80":-0.09704773128032684,"81":0.4196875989437103,"82":0.37141385674476624,"83":0.08970867842435837,"84":0.36572882533073425,"85":0.27908623218536377,"86":0.40420591831207275,"87":0.25422433018684387,"88":0.26799923181533813,"89":0.26103878021240234,"90":0.07568517327308655,"91":0.3219333291053772,"92":0.17703355848789215,"93":0.16677384078502655,"94":0.06401962041854858,"95":0.29618188738822937,"96":0.26690611243247986,"97":0.22957399487495422,"98":0.37863412499427795,"99":0.15389718115329742,"100":-3.0745604038238525,"101":-0.11582329124212265}},"13":{"bias":0.9053242802619934,"weights":{"0":0.055837083607912064,"1":-0.13878411054611206,"2":0.12491308897733688,"3":-0.1163298636674881,"4":-0.02739393338561058,"5":-0.151564821600914,"6":-0.10303863137960434,"7":-0.12134542316198349,"8":0.015884043648838997,"9":-0.024947654455900192,"10":0.09289871156215668,"11":-0.029527967795729637,"12":-0.08342193812131882,"13":0.10386205464601517,"14":-0.17092111706733704,"15":-0.11504235863685608,"16":0.15352033078670502,"17":0.011051241308450699,"18":0.1931227445602417,"19":-0.17574961483478546,"20":0.18534144759178162,"21":-0.1611739546060562,"22":-0.9704464673995972,"23":0.2531336843967438,"24":-0.07254457473754883,"25":-0.041015543043613434,"26":-0.22470304369926453,"27":-0.1171564981341362,"28":0.0785362496972084,"29":0.032508671283721924,"30":0.13222263753414154,"31":0.1461089700460434,"32":0.28891098499298096,"33":0.5599455833435059,"34":-0.16908711194992065,"35":0.44435247778892517,"36":0.0008466807194054127,"37":-0.8158170580863953,"38":-0.07568598538637161,"39":-0.4409410357475281,"40":-0.03275072202086449,"41":1.5036066770553589,"42":0.3724961280822754,"43":0.2212635725736618,"44":-0.20618565380573273,"45":0.3740115761756897,"46":-0.576094388961792,"47":-0.9821673631668091,"48":1.2456883192062378,"49":-1.3376240730285645,"50":2.5064353942871094,"51":1.6972465515136719,"52":0.9380273222923279,"53":0.27052709460258484,"54":-0.4959910809993744,"55":-0.27970626950263977,"56":1.1313666105270386,"57":0.2994787395000458,"58":-0.10818255692720413,"59":-0.11465025693178177,"60":1.616781234741211,"61":0.9077348113059998,"62":2.1324708461761475,"63":1.3290669918060303,"64":0.8935913443565369,"65":1.9132252931594849,"66":1.8122632503509521,"67":1.597975730895996,"68":1.3535478115081787,"69":0.6631254553794861,"70":0.14344418048858643,"71":0.8122827410697937,"72":0.5483617186546326,"73":0.5088984370231628,"74":0.7761380076408386,"75":1.0168155431747437,"76":0.5639563798904419,"77":0.13467569649219513,"78":0.060740452259778976,"79":0.6602414846420288,"80":0.270030677318573,"81":0.45654985308647156,"82":0.4106003940105438,"83":0.49929508566856384,"84":0.7272768020629883,"85":0.10311679542064667,"86":0.33365732431411743,"87":0.44313356280326843,"88":0.19999994337558746,"89":0.4147709310054779,"90":0.4863969087600708,"91":0.49256831407546997,"92":0.4211353361606598,"93":0.3062281608581543,"94":0.4022582471370697,"95":0.6158742904663086,"96":0.3417342007160187,"97":0.6734325289726257,"98":0.48876649141311646,"99":0.6615503430366516,"100":-2.449030876159668,"101":1.6072673797607422}},"14":{"bias":1.2388516664505005,"weights":{"0":0.012651852332055569,"1":-0.055904753506183624,"2":0.03714047744870186,"3":0.09841424971818924,"4":0.04508255422115326,"5":0.062471937388181686,"6":0.0006258359644562006,"7":0.018217405304312706,"8":-0.007513502147048712,"9":-0.09458576887845993,"10":0.03648899495601654,"11":-0.19492389261722565,"12":0.04554319381713867,"13":0.12218505889177322,"14":-0.10815470665693283,"15":-0.1428815871477127,"16":0.05124329403042793,"17":-0.07837525755167007,"18":-0.06932131201028824,"19":0.03095853514969349,"20":0.04600273817777634,"21":0.12168993800878525,"22":0.15870851278305054,"23":0.3700830638408661,"24":0.09881925582885742,"25":-0.05122329667210579,"26":0.061369627714157104,"27":0.41347259283065796,"28":-0.2716723382472992,"29":0.1261889934539795,"30":0.1550462543964386,"31":0.03274255618453026,"32":0.25126951932907104,"33":-0.0718887522816658,"34":-0.16986918449401855,"35":-0.1154315248131752,"36":0.05198627710342407,"37":0.3625778257846832,"38":-0.12827828526496887,"39":-0.4167012870311737,"40":0.20355187356472015,"41":0.14229536056518555,"42":0.43430018424987793,"43":0.14748279750347137,"44":-0.45757001638412476,"45":-0.3032374978065491,"46":-0.34676021337509155,"47":0.8683153390884399,"48":-0.24227787554264069,"49":0.07857093214988708,"50":0.6265508532524109,"51":0.6923518776893616,"52":0.5895851850509644,"53":0.7379642128944397,"54":0.3499489426612854,"55":-0.5187633633613586,"56":0.5900103449821472,"57":0.4723692834377289,"58":1.008331298828125,"59":0.3918488323688507,"60":0.3371032774448395,"61":0.8328197598457336,"62":1.1858428716659546,"63":0.6245390176773071,"64":0.8975095748901367,"65":0.8629991412162781,"66":0.230036199092865,"67":0.6249899864196777,"68":1.0422484874725342,"69":0.044979408383369446,"70":0.47208845615386963,"71":0.5983068346977234,"72":0.36806613206863403,"73":0.32972773909568787,"74":0.5187229514122009,"75":0.41083675622940063,"76":0.2540774345397949,"77":-0.05839274451136589,"78":0.5721079707145691,"79":0.5338355302810669,"80":0.5332898497581482,"81":0.25992676615715027,"82":0.29185622930526733,"83":0.23986199498176575,"84":0.39348870515823364,"85":0.4469034671783447,"86":0.09129732102155685,"87":0.06412257254123688,"88":0.3506443202495575,"89":0.10049279779195786,"90":0.1618022620677948,"91":0.1518838256597519,"92":0.2398041933774948,"93":-0.004201116040349007,"94":0.1131846159696579,"95":0.2473316639661789,"96":0.16484017670154572,"97":-0.09282498061656952,"98":-0.012349014170467854,"99":0.24250124394893646,"100":-0.26225411891937256,"101":-0.4861244857311249}},"15":{"bias":1.8374701738357544,"weights":{"0":0.039628759026527405,"1":-0.19857317209243774,"2":0.1150243878364563,"3":0.026239411905407906,"4":0.08437270671129227,"5":0.040970124304294586,"6":0.02920779027044773,"7":0.008146264590322971,"8":0.18100027740001678,"9":0.0046712374314665794,"10":0.13809330761432648,"11":-0.042376648634672165,"12":-0.29923075437545776,"13":0.043676093220710754,"14":-0.15332233905792236,"15":-0.11033116281032562,"16":-0.0063308062963187695,"17":-0.1655731499195099,"18":0.09440521150827408,"19":-0.1658506989479065,"20":0.11427490413188934,"21":-0.23548024892807007,"22":-0.44865360856056213,"23":0.16079162061214447,"24":-0.16540482640266418,"25":4.654160976409912,"26":1.814563512802124,"27":-0.7876836657524109,"28":1.188960313796997,"29":0.8145198225975037,"30":1.850338101387024,"31":-0.007468697149306536,"32":1.9988374710083008,"33":0.3945106267929077,"34":0.11283279210329056,"35":3.052346706390381,"36":8.427820205688477,"37":1.8163758516311646,"38":-0.13938552141189575,"39":0.994615912437439,"40":7.707455635070801,"41":2.5754873752593994,"42":-2.172828197479248,"43":-0.014406152069568634,"44":-0.7143581509590149,"45":-0.2947346568107605,"46":6.148160934448242,"47":7.911289691925049,"48":3.49277925491333,"49":6.681877613067627,"50":5.253503322601318,"51":2.9423441886901855,"52":1.3394317626953125,"53":7.605197906494141,"54":2.0367212295532227,"55":-8.604748725891113,"56":-2.4651436805725098,"57":3.713273286819458,"58":3.5613489151000977,"59":2.891444683074951,"60":10.899396896362305,"61":9.029836654663086,"62":6.474344253540039,"63":4.829434394836426,"64":6.692343711853027,"65":-1.8298135995864868,"66":-4.102177143096924,"67":6.469356536865234,"68":-4.770719528198242,"69":-1.5630383491516113,"70":11.569976806640625,"71":7.043431758880615,"72":7.175086498260498,"73":1.3675068616867065,"74":5.503952503204346,"75":-2.1668319702148438,"76":-1.1879217624664307,"77":4.413730144500732,"78":-3.5303046703338623,"79":4.262347221374512,"80":1.3958344459533691,"81":3.4460625648498535,"82":3.166729211807251,"83":-1.8722642660140991,"84":0.06850593537092209,"85":0.1908354014158249,"86":0.31847986578941345,"87":-2.3900041580200195,"88":-1.7517434358596802,"89":-0.7194811701774597,"90":0.6895925402641296,"91":0.509127676486969,"92":0.5441287755966187,"93":-0.38586971163749695,"94":-0.7500863075256348,"95":-1.2153992652893066,"96":-0.6032388806343079,"97":-1.2191427946090698,"98":-1.1715301275253296,"99":-1.1849056482315063,"100":-3.2843620777130127,"101":-35.59449768066406}},"16":{"bias":-0.6472786068916321,"weights":{"0":0.18202361464500427,"1":0.19977326691150665,"2":0.09873560816049576,"3":-0.08296289294958115,"4":-0.002172921085730195,"5":0.16730313003063202,"6":-0.0395413413643837,"7":0.19778402149677277,"8":0.06010361760854721,"9":0.19554531574249268,"10":0.14027990400791168,"11":-0.1691506952047348,"12":-0.014315917156636715,"13":0.1098654568195343,"14":-0.16045309603214264,"15":-0.11471682041883469,"16":0.03442877531051636,"17":-0.010433490388095379,"18":0.07674514502286911,"19":-0.09797117859125137,"20":-0.04608685523271561,"21":0.2515323758125305,"22":0.4369004964828491,"23":-0.5692131519317627,"24":-0.005998832639306784,"25":-0.6917310357093811,"26":0.7787430286407471,"27":-0.29046687483787537,"28":-0.41889163851737976,"29":-0.44930335879325867,"30":-0.20558296144008636,"31":0.2625150978565216,"32":-0.6535021066665649,"33":-0.1363767832517624,"34":0.020453017204999924,"35":-0.8090791702270508,"36":0.43828704953193665,"37":0.4841470718383789,"38":0.44799983501434326,"39":0.9934902191162109,"40":0.07420221716165543,"41":-0.3871096670627594,"42":-1.662796974182129,"43":-0.3686164915561676,"44":0.5825432538986206,"45":0.2569425702095032,"46":0.3018522262573242,"47":0.0052780997939407825,"48":0.2000054270029068,"49":-0.6356152892112732,"50":-0.5464167594909668,"51":0.6716748476028442,"52":0.18883934617042542,"53":-0.9015400409698486,"54":0.13846996426582336,"55":-1.1233495473861694,"56":-1.2564964294433594,"57":-0.595263659954071,"58":-0.6680845022201538,"59":-0.7040830850601196,"60":0.8497865200042725,"61":0.26718762516975403,"62":0.016337456181645393,"63":-0.427631139755249,"64":-0.681794285774231,"65":-1.6524415016174316,"66":-1.9809253215789795,"67":-0.6685717105865479,"68":-1.1797796487808228,"69":-1.1551419496536255,"70":-0.145036518573761,"71":-1.0018036365509033,"72":-0.9851855039596558,"73":-1.1945451498031616,"74":-1.8211472034454346,"75":-2.090247869491577,"76":-0.46755924820899963,"77":-1.4138633012771606,"78":0.9852234721183777,"79":-0.4036395251750946,"80":-0.040213387459516525,"81":-0.2556851804256439,"82":-0.2569122314453125,"83":-0.47038009762763977,"84":-0.463423490524292,"85":-0.2701815962791443,"86":-0.4463585317134857,"87":-0.30305323004722595,"88":-0.4168078601360321,"89":-0.18020856380462646,"90":-0.12381774932146072,"91":-0.2925552427768707,"92":0.039061836898326874,"93":-0.41551271080970764,"94":-0.3318520784378052,"95":-0.049999285489320755,"96":-0.3907335102558136,"97":-0.3366084098815918,"98":-0.39373740553855896,"99":-0.5124858617782593,"100":1.9356662034988403,"101":-3.1267871856689453}},"17":{"bias":2.321664810180664,"weights":{"0":0.09244764596223831,"1":0.15368974208831787,"2":-0.04238637909293175,"3":0.09000517427921295,"4":0.1955907940864563,"5":0.18141402304172516,"6":-0.1498458832502365,"7":-0.04343244060873985,"8":0.14150913059711456,"9":0.004082357045263052,"10":0.040065228939056396,"11":-0.06883405148983002,"12":0.38196074962615967,"13":0.07381640374660492,"14":0.16091635823249817,"15":0.06579308211803436,"16":-0.028418248519301414,"17":-0.004828656557947397,"18":0.11110547930002213,"19":0.06824083626270294,"20":0.18235929310321808,"21":-0.01163248997181654,"22":1.0529906749725342,"23":-0.12111006677150726,"24":0.1541760414838791,"25":0.12259320914745331,"26":-0.6686285138130188,"27":-0.23857760429382324,"28":-0.1090887263417244,"29":0.021342327818274498,"30":0.0399673767387867,"31":-1.658352255821228,"32":-1.1988298892974854,"33":-0.07539701461791992,"34":-0.0010558159556239843,"35":-0.10742540657520294,"36":-0.23610307276248932,"37":0.2664303481578827,"38":0.3024967908859253,"39":-0.2731504440307617,"40":-0.3721142113208771,"41":-0.386305034160614,"42":-0.013866830617189407,"43":0.019643500447273254,"44":0.2184021770954132,"45":-0.09991968423128128,"46":0.5409863591194153,"47":0.9855846166610718,"48":0.5300944447517395,"49":0.6138061285018921,"50":1.0046844482421875,"51":1.0678101778030396,"52":0.6416663527488708,"53":0.634772539138794,"54":-0.34761232137680054,"55":1.111331582069397,"56":0.0040651289746165276,"57":2.2877137660980225,"58":-0.20236442983150482,"59":-0.15485621988773346,"60":-0.48829060792922974,"61":0.197544127702713,"62":-0.024774648249149323,"63":1.8488670587539673,"64":0.22300590574741364,"65":0.5846031308174133,"66":3.341655969619751,"67":2.8419973850250244,"68":-0.9577446579933167,"69":0.9955084919929504,"70":-0.198751762509346,"71":0.8713721632957458,"72":0.7499434947967529,"73":1.991416096687317,"74":2.192042112350464,"75":1.8668369054794312,"76":0.36726075410842896,"77":3.82824444770813,"78":-0.46737247705459595,"79":0.25176846981048584,"80":1.1742393970489502,"81":1.219191312789917,"82":0.9923110604286194,"83":1.1838120222091675,"84":1.2914053201675415,"85":1.1300759315490723,"86":1.5693914890289307,"87":1.833621621131897,"88":1.7064481973648071,"89":1.6466741561889648,"90":0.09619943797588348,"91":0.1119244322180748,"92":0.3311558663845062,"93":0.47898387908935547,"94":0.5678029656410217,"95":0.5128017663955688,"96":0.34232422709465027,"97":0.42913949489593506,"98":0.24948309361934662,"99":0.4553406834602356,"100":1.3617842197418213,"101":9.602992057800293}},"18":{"bias":-0.5720367431640625,"weights":{"0":-0.06331253796815872,"1":0.08001313358545303,"2":-0.08178416639566422,"3":0.1291283220052719,"4":0.0261643435806036,"5":-0.15331166982650757,"6":0.04150677099823952,"7":0.07998276501893997,"8":0.07275731861591339,"9":0.16955657303333282,"10":0.09765167534351349,"11":-0.11351340264081955,"12":-0.1677558422088623,"13":-0.04661831632256508,"14":0.13962164521217346,"15":0.0962381362915039,"16":0.19092915952205658,"17":0.05020541697740555,"18":-0.05762515217065811,"19":-0.16845408082008362,"20":-0.1004696637392044,"21":-0.11159694939851761,"22":-0.42465823888778687,"23":-0.3856956958770752,"24":-0.16310687363147736,"25":0.3290269672870636,"26":1.252291202545166,"27":0.4363567531108856,"28":0.4401181638240814,"29":-0.01229903008788824,"30":-0.19716161489486694,"31":0.39452263712882996,"32":-0.8321112394332886,"33":-0.8481202721595764,"34":0.0767897367477417,"35":-0.5124164819717407,"36":0.9300598502159119,"37":0.6744885444641113,"38":0.6564745306968689,"39":0.8493585586547852,"40":0.8382294774055481,"41":0.2679644823074341,"42":0.6558443903923035,"43":-0.41341209411621094,"44":-0.3794684410095215,"45":0.20571838319301605,"46":2.1745572090148926,"47":-0.9717463254928589,"48":0.014921893365681171,"49":-0.33178848028182983,"50":-0.8812234997749329,"51":0.14421699941158295,"52":-0.6339626312255859,"53":-1.3111814260482788,"54":-0.01926278881728649,"55":-0.8250206112861633,"56":-1.1003262996673584,"57":-1.4925850629806519,"58":0.36358270049095154,"59":0.7725901007652283,"60":0.28490081429481506,"61":0.3076012432575226,"62":0.23335959017276764,"63":-0.6031930446624756,"64":-0.7567954063415527,"65":-1.9243638515472412,"66":-2.2165043354034424,"67":-0.6846075057983398,"68":-2.118669271469116,"69":-1.0822910070419312,"70":0.6711717844009399,"71":-0.12867073714733124,"72":0.3767879009246826,"73":-0.31888675689697266,"74":-0.8488513827323914,"75":-2.797499179840088,"76":0.06862418353557587,"77":-1.0451864004135132,"78":0.5681194067001343,"79":-0.766410231590271,"80":-0.01500692404806614,"81":-0.20661374926567078,"82":-0.1062992736697197,"83":-0.28995075821876526,"84":-0.14573241770267487,"85":-0.21198450028896332,"86":-0.2942213714122772,"87":-0.1663714498281479,"88":-0.8012630343437195,"89":-0.05018441751599312,"90":-0.39313003420829773,"91":-0.5211154818534851,"92":-0.574303150177002,"93":-0.5110531449317932,"94":-0.6440485119819641,"95":-0.4042210876941681,"96":-0.5523286461830139,"97":-0.4568646252155304,"98":-0.38444656133651733,"99":-0.5781377553939819,"100":1.3658881187438965,"101":-8.946656227111816}},"19":{"bias":-0.7493574619293213,"weights":{"0":-0.09597014635801315,"1":-0.19605064392089844,"2":0.19420155882835388,"3":-0.08575040102005005,"4":-0.041380271315574646,"5":-0.18442893028259277,"6":0.14152415096759796,"7":0.13195204734802246,"8":0.07231830060482025,"9":0.03074163943529129,"10":0.08502548187971115,"11":-0.10728411376476288,"12":0.17273187637329102,"13":0.18570587038993835,"14":-0.029209278523921967,"15":-0.05686870962381363,"16":0.07910511642694473,"17":-0.1790614128112793,"18":-0.16511446237564087,"19":0.047322869300842285,"20":0.19945122301578522,"21":-0.061962779611349106,"22":-0.07961913198232651,"23":-0.13776984810829163,"24":0.11569176614284515,"25":0.30512380599975586,"26":0.0006735616480000317,"27":0.3585360050201416,"28":0.2956501245498657,"29":0.3548978865146637,"30":0.26762092113494873,"31":0.195769265294075,"32":0.4143979251384735,"33":-0.024548619985580444,"34":-0.027805864810943604,"35":0.4412846565246582,"36":0.8437288999557495,"37":0.4855426847934723,"38":0.21347835659980774,"39":-0.9996263980865479,"40":0.15583737194538116,"41":0.6561510562896729,"42":0.9445948004722595,"43":0.591995120048523,"44":0.14742864668369293,"45":0.02380909025669098,"46":1.5857988595962524,"47":-0.10161424428224564,"48":-0.4629170298576355,"49":1.521589994430542,"50":0.753689706325531,"51":0.3070890009403229,"52":1.4073173999786377,"53":0.9530846476554871,"54":1.1835732460021973,"55":0.5543437600135803,"56":1.1473203897476196,"57":1.1659495830535889,"58":0.4732583463191986,"59":1.1543177366256714,"60":0.9020150303840637,"61":0.10851123929023743,"62":1.0887634754180908,"63":1.9502503871917725,"64":1.5917576551437378,"65":-1.7905054092407227,"66":-0.05798390507698059,"67":1.008223056793213,"68":-0.48866143822669983,"69":-1.0184122323989868,"70":-0.9694387912750244,"71":-1.5161511898040771,"72":-1.5752379894256592,"73":-1.9957520961761475,"74":-2.734248399734497,"75":-4.1501874923706055,"76":-0.11933684349060059,"77":-1.851841688156128,"78":-0.38596394658088684,"79":-1.9311420917510986,"80":-1.4431467056274414,"81":-1.5340278148651123,"82":-1.7187010049819946,"83":-1.29817533493042,"84":-1.4872444868087769,"85":-1.6216248273849487,"86":-1.5894029140472412,"87":-1.4534512758255005,"88":-1.4678131341934204,"89":-1.3643734455108643,"90":-0.3567090332508087,"91":-0.6939845085144043,"92":-0.6803133487701416,"93":-0.4602178633213043,"94":-0.5490830540657043,"95":-0.6261225342750549,"96":-0.3344171345233917,"97":-0.27679336071014404,"98":-0.3906681537628174,"99":-0.40026724338531494,"100":-1.4208180904388428,"101":1.2790143489837646}}},{"0":{"bias":1.7036041021347046,"weights":{"0":3.7119290828704834,"1":0.04593111202120781,"2":-1.5259464979171753,"3":2.3916895389556885,"4":2.28497314453125,"5":-3.4599592685699463,"6":1.0489256381988525,"7":6.496482849121094,"8":-7.2098870277404785,"9":2.775963306427002,"10":5.286511421203613,"11":-1.0225839614868164,"12":1.394457221031189,"13":1.8383296728134155,"14":1.5245776176452637,"15":-4.454493522644043,"16":-2.7519078254699707,"17":2.6473400592803955,"18":-4.0422682762146,"19":-2.7821044921875}},"1":{"bias":-1.9641010761260986,"weights":{"0":-0.059907473623752594,"1":2.2442331314086914,"2":1.6287972927093506,"3":-1.8671683073043823,"4":1.8097279071807861,"5":-0.9389258623123169,"6":-3.2389073371887207,"7":-1.521135926246643,"8":-1.3316879272460938,"9":1.634905219078064,"10":1.5944973230361938,"11":-3.513819932937622,"12":-1.8553333282470703,"13":-2.207179307937622,"14":-2.0914649963378906,"15":-1.6101840734481812,"16":2.703368663787842,"17":0.1813921183347702,"18":0.5005577206611633,"19":0.263371080160141}},"2":{"bias":0.8894035220146179,"weights":{"0":0.9878862500190735,"1":-1.6769145727157593,"2":-0.9362514615058899,"3":0.7361980080604553,"4":-0.34482142329216003,"5":-0.04703826457262039,"6":0.9062146544456482,"7":0.003029552986845374,"8":-0.3174028694629669,"9":0.19872573018074036,"10":0.7789900302886963,"11":0.9024766683578491,"12":0.5720921754837036,"13":0.6068784594535828,"14":0.8426066040992737,"15":-0.3136798143386841,"16":-0.6409075856208801,"17":-0.11329124122858047,"18":-1.3251479864120483,"19":0.8052404522895813}},"3":{"bias":2.2361648082733154,"weights":{"0":-4.3157830238342285,"1":-1.8315733671188354,"2":-1.1644117832183838,"3":1.8279218673706055,"4":-3.0671603679656982,"5":-0.23828542232513428,"6":-0.06626223772764206,"7":1.2319741249084473,"8":2.112291097640991,"9":-5.721949577331543,"10":0.15979516506195068,"11":5.7441511154174805,"12":1.6405774354934692,"13":0.8396883606910706,"14":2.3651158809661865,"15":2.467252016067505,"16":0.3337154984474182,"17":2.4673516750335693,"18":1.3809210062026978,"19":-2.0400023460388184}},"4":{"bias":1.23081374168396,"weights":{"0":1.357858419418335,"1":-0.992191731929779,"2":-1.2942339181900024,"3":2.791301965713501,"4":-0.3791583180427551,"5":-0.40313541889190674,"6":1.8630701303482056,"7":-0.2286602109670639,"8":-0.2769802510738373,"9":-0.7839206457138062,"10":1.4861485958099365,"11":1.0388530492782593,"12":1.5022978782653809,"13":1.5543766021728516,"14":1.3509048223495483,"15":-0.44510340690612793,"16":-0.9888685941696167,"17":0.4967987835407257,"18":-1.303529143333435,"19":0.11399881541728973}},"5":{"bias":-1.9506067037582397,"weights":{"0":0.808069109916687,"1":1.7420847415924072,"2":2.6839418411254883,"3":-2.9837353229522705,"4":-0.12210201472043991,"5":-1.3677194118499756,"6":-0.07287754118442535,"7":1.1457910537719727,"8":-4.34440803527832,"9":5.634435176849365,"10":0.4370453357696533,"11":2.9496212005615234,"12":-0.16104170680046082,"13":-0.17934484779834747,"14":-1.4824492931365967,"15":-1.498832106590271,"16":-0.16958270967006683,"17":0.547649085521698,"18":-1.5790700912475586,"19":-3.7033591270446777}},"6":{"bias":-1.7105019092559814,"weights":{"0":-1.8558086156845093,"1":1.2276911735534668,"2":0.8582648038864136,"3":-0.8437381982803345,"4":-1.3478100299835205,"5":1.3802194595336914,"6":-0.06904655694961548,"7":-0.4164302349090576,"8":1.1239771842956543,"9":1.1075716018676758,"10":-1.9814616441726685,"11":-0.7655707001686096,"12":-0.4396030306816101,"13":0.48638227581977844,"14":-1.248917818069458,"15":2.9541420936584473,"16":1.3638763427734375,"17":-1.2986035346984863,"18":3.442387819290161,"19":0.4861374497413635}},"7":{"bias":1.728953242301941,"weights":{"0":0.12237398326396942,"1":-1.4620864391326904,"2":-0.28387853503227234,"3":-1.1598331928253174,"4":0.7182416915893555,"5":-4.255323886871338,"6":0.4168230891227722,"7":4.222837924957275,"8":-3.7871997356414795,"9":0.23418568074703217,"10":6.4422926902771,"11":-3.3534538745880127,"12":0.6476714015007019,"13":1.2681771516799927,"14":1.3192551136016846,"15":-3.0051639080047607,"16":-1.461059331893921,"17":2.9468753337860107,"18":-0.8971076607704163,"19":0.002138797426596284}},"8":{"bias":1.8645051717758179,"weights":{"0":-0.27989429235458374,"1":-2.044766664505005,"2":-1.665869116783142,"3":1.151017427444458,"4":-0.8328481316566467,"5":0.08586879074573517,"6":0.6487877368927002,"7":0.0693519115447998,"8":0.52411288022995,"9":-2.775918483734131,"10":-1.3127031326293945,"11":1.2477792501449585,"12":1.7875562906265259,"13":1.0836894512176514,"14":1.7507362365722656,"15":1.038893222808838,"16":-0.7192241549491882,"17":2.667172908782959,"18":-0.4898526966571808,"19":-0.8676965236663818}},"9":{"bias":-1.9143463373184204,"weights":{"0":3.7748160362243652,"1":2.839777708053589,"2":3.0422427654266357,"3":-2.7925500869750977,"4":0.12180031836032867,"5":-0.8310562968254089,"6":-0.6101104617118835,"7":1.0633233785629272,"8":-6.068646430969238,"9":6.783527374267578,"10":3.5644726753234863,"11":-0.26479819416999817,"12":-1.3242912292480469,"13":-0.9587448239326477,"14":-1.7862976789474487,"15":-7.043283939361572,"16":-0.027797305956482887,"17":1.066927433013916,"18":0.5702741146087646,"19":-0.5184444785118103}},"10":{"bias":0.9977070093154907,"weights":{"0":0.17950057983398438,"1":-0.3709084987640381,"2":-0.8497606515884399,"3":0.9404087662696838,"4":-0.8742175102233887,"5":-0.33961570262908936,"6":0.5972708463668823,"7":1.2305786609649658,"8":-0.20747913420200348,"9":-2.3679556846618652,"10":0.961074948310852,"11":-0.8467650413513184,"12":1.4651777744293213,"13":1.0806889533996582,"14":1.3189952373504639,"15":0.3037756383419037,"16":-0.22790220379829407,"17":-0.08213948458433151,"18":-0.7851852178573608,"19":0.6375709176063538}},"11":{"bias":-0.6099451780319214,"weights":{"0":-1.0632691383361816,"1":0.05417906492948532,"2":0.7860132455825806,"3":-0.7075497508049011,"4":-0.14881204068660736,"5":-0.05364752933382988,"6":-0.9706411361694336,"7":-0.6902744770050049,"8":1.3609458208084106,"9":-0.35950183868408203,"10":-1.076923131942749,"11":0.8158807754516602,"12":-1.472657561302185,"13":-1.494199275970459,"14":-1.5661791563034058,"15":0.7308820486068726,"16":0.549662172794342,"17":-0.5823508501052856,"18":0.9324954748153687,"19":0.6333180069923401}},"12":{"bias":-0.3355315029621124,"weights":{"0":-1.5374526977539062,"1":0.058234117925167084,"2":0.4370114505290985,"3":-0.5644104480743408,"4":-1.8507593870162964,"5":4.5715484619140625,"6":-0.057440806180238724,"7":-1.1100125312805176,"8":0.6445297598838806,"9":-0.590338945388794,"10":-1.8682630062103271,"11":2.3423917293548584,"12":-0.09397050738334656,"13":-1.0656622648239136,"14":-0.3539385497570038,"15":3.5003740787506104,"16":2.226036310195923,"17":-5.3414411544799805,"18":2.666449785232544,"19":-0.44669681787490845}},"13":{"bias":-0.32054874300956726,"weights":{"0":5.772587776184082,"1":1.6065301895141602,"2":0.3834969997406006,"3":-1.9679844379425049,"4":6.802958011627197,"5":-0.9568394422531128,"6":-1.1402251720428467,"7":4.753211498260498,"8":-6.149165630340576,"9":4.7764787673950195,"10":2.4501593112945557,"11":-9.217095375061035,"12":-1.0759786367416382,"13":-1.612597942352295,"14":-0.45447537302970886,"15":-6.872600078582764,"16":0.19088271260261536,"17":-0.49483343958854675,"18":0.3849453926086426,"19":2.8230676651000977}},"14":{"bias":-2.3896830081939697,"weights":{"0":0.677571177482605,"1":2.5190656185150146,"2":2.0456950664520264,"3":-2.2947916984558105,"4":4.175188064575195,"5":-0.8271037936210632,"6":-4.165715217590332,"7":1.4126468896865845,"8":-1.4327210187911987,"9":2.9817826747894287,"10":3.0193474292755127,"11":-4.476507186889648,"12":-2.7846601009368896,"13":-2.2338664531707764,"14":-2.356534957885742,"15":-1.9357969760894775,"16":2.872896671295166,"17":1.4373784065246582,"18":2.2378487586975098,"19":0.7254737615585327}},"15":{"bias":0.27334290742874146,"weights":{"0":1.5370666980743408,"1":0.32759061455726624,"2":-0.549604594707489,"3":1.1224504709243774,"4":-0.12873493134975433,"5":0.07463225722312927,"6":1.7471072673797607,"7":0.9735763669013977,"8":0.23555681109428406,"9":0.9063422083854675,"10":0.513266921043396,"11":0.21270577609539032,"12":1.6350793838500977,"13":0.6928783655166626,"14":0.4251643419265747,"15":-0.5951001048088074,"16":-1.222946286201477,"17":-0.47208788990974426,"18":-0.7038383483886719,"19":0.3477218747138977}},"16":{"bias":0.33846554160118103,"weights":{"0":0.2727648615837097,"1":0.7625748515129089,"2":-1.250404953956604,"3":1.8409903049468994,"4":-0.7550963163375854,"5":0.3414806127548218,"6":1.4052963256835938,"7":0.9698521494865417,"8":0.4476356506347656,"9":-0.6190848350524902,"10":0.06317435950040817,"11":1.0468393564224243,"12":1.388561725616455,"13":3.792509078979492,"14":0.7280591726303101,"15":0.8683949708938599,"16":-0.5346469879150391,"17":1.0367761850357056,"18":-0.3565291166305542,"19":-0.9694601893424988}},"17":{"bias":-0.1048908606171608,"weights":{"0":-0.281228631734848,"1":2.533661127090454,"2":0.03912276029586792,"3":0.15364840626716614,"4":1.3073383569717407,"5":1.3951001167297363,"6":-0.9574615955352783,"7":-0.5215023756027222,"8":-0.11497341841459274,"9":1.1756277084350586,"10":-0.10417305678129196,"11":-1.328940987586975,"12":-1.0744951963424683,"13":-0.70311439037323,"14":-0.8826707005500793,"15":0.5416789054870605,"16":1.2945679426193237,"17":-0.3027925491333008,"18":1.9298914670944214,"19":0.6965515613555908}},"18":{"bias":-1.6292567253112793,"weights":{"0":-2.165454626083374,"1":0.6791700720787048,"2":1.7547435760498047,"3":-0.28304439783096313,"4":-0.7132647633552551,"5":2.843726634979248,"6":-2.664996862411499,"7":-0.4210093319416046,"8":4.474992752075195,"9":-0.5508624315261841,"10":-3.68505597114563,"11":0.14314010739326477,"12":-1.800350308418274,"13":-0.8906685709953308,"14":-2.1722054481506348,"15":1.1878643035888672,"16":2.3602309226989746,"17":-1.1735731363296509,"18":1.648785948753357,"19":1.3894776105880737}},"19":{"bias":2.196878671646118,"weights":{"0":-2.8127212524414062,"1":-2.2373039722442627,"2":-1.1152092218399048,"3":2.498032331466675,"4":-2.0613434314727783,"5":-0.8084059953689575,"6":2.1998801231384277,"7":2.646014451980591,"8":1.4254034757614136,"9":-2.9983646869659424,"10":0.5289348363876343,"11":2.8148815631866455,"12":3.3694748878479004,"13":3.164372205734253,"14":2.749232769012451,"15":2.3400206565856934,"16":-1.8667349815368652,"17":1.980499267578125,"18":-2.901381254196167,"19":-0.3350309729576111}}},{"0":{"bias":-0.027607455849647522,"weights":{"0":0.056005802005529404,"1":0.0020493725314736366,"2":-0.004652024246752262,"3":0.004281838424503803,"4":0.01211097277700901,"5":0.013708715327084064,"6":-0.021623261272907257,"7":-0.07766314595937729,"8":-0.0347309447824955,"9":0.013300620950758457,"10":0.0015092906542122364,"11":0.0007582291145808995,"12":0.015511821024119854,"13":0.0005800877697765827,"14":-0.0824665054678917,"15":0.004104220774024725,"16":-0.011196236126124859,"17":0.008084416389465332,"18":0.0228672344237566,"19":-0.0070708575658500195}},"1":{"bias":-0.3069709241390228,"weights":{"0":1.759947419166565,"1":-0.12511438131332397,"2":0.40150144696235657,"3":-3.6316096782684326,"4":0.6130161881446838,"5":3.3690176010131836,"6":-0.8217297196388245,"7":-0.30557674169540405,"8":-0.31861236691474915,"9":-1.4172369241714478,"10":-2.7989206314086914,"11":0.734382152557373,"12":-0.8362748622894287,"13":2.64347243309021,"14":-1.0645757913589478,"15":1.276224970817566,"16":0.5952589511871338,"17":-1.557374358177185,"18":-0.4712420403957367,"19":-2.32356858253479}},"2":{"bias":-0.11341779679059982,"weights":{"0":-0.060754936188459396,"1":0.004350220784544945,"2":0.21540912985801697,"3":0.03870861232280731,"4":0.05927100032567978,"5":-0.05714227631688118,"6":0.10597164928913116,"7":0.005909316707402468,"8":-0.021752415224909782,"9":-0.021684342995285988,"10":0.046406157314777374,"11":-0.06111010164022446,"12":0.12081034481525421,"13":-0.02197793312370777,"14":0.10198678076267242,"15":0.07033024728298187,"16":0.07735975086688995,"17":-0.048121191561222076,"18":-0.032367024570703506,"19":0.05497244372963905}},"3":{"bias":-0.059848353266716,"weights":{"0":0.020702922716736794,"1":0.04564368352293968,"2":-0.02459297701716423,"3":0.003930531442165375,"4":-0.02137802168726921,"5":0.009570685215294361,"6":-0.041508711874485016,"7":0.055855076760053635,"8":0.003651085076853633,"9":0.002767830854281783,"10":-0.03604358062148094,"11":0.012809625826776028,"12":-0.0866449847817421,"13":0.022907355800271034,"14":0.015409436076879501,"15":0.04493022710084915,"16":-0.02033182606101036,"17":0.02510497160255909,"18":0.0009223659872077405,"19":-0.026748789474368095}},"4":{"bias":-0.01219884678721428,"weights":{"0":0.029734861105680466,"1":0.006746958941221237,"2":-0.011556930840015411,"3":-0.017440667375922203,"4":-0.04200271517038345,"5":0.03209301456809044,"6":-0.008204285986721516,"7":-0.05162082985043526,"8":0.019051462411880493,"9":0.009898805990815163,"10":-0.012024767696857452,"11":0.022804591804742813,"12":-0.08430680632591248,"13":-0.014682442881166935,"14":-0.10814305394887924,"15":-0.027272621169686317,"16":-0.027626115828752518,"17":0.008765664882957935,"18":0.021461449563503265,"19":-0.016072513535618782}},"5":{"bias":-0.05056897923350334,"weights":{"0":0.19613444805145264,"1":0.052757035940885544,"2":-0.039794743061065674,"3":0.011791856028139591,"4":-0.04604669660329819,"5":-0.041817232966423035,"6":-0.24062064290046692,"7":-0.027416003867983818,"8":-0.08652869611978531,"9":-0.09984028339385986,"10":-0.0701792910695076,"11":0.024792196229100227,"12":-0.1491137444972992,"13":0.036155279725790024,"14":0.079771988093853,"15":-0.029688842594623566,"16":-0.05378507450222969,"17":0.03927015885710716,"18":0.02512175403535366,"19":-0.03882713243365288}},"6":{"bias":0.014479794539511204,"weights":{"0":-0.06324693560600281,"1":0.00526000140234828,"2":0.02833276055753231,"3":0.016500825062394142,"4":0.03591633588075638,"5":-0.03868941217660904,"6":0.018822303041815758,"7":0.031375523656606674,"8":-0.017106233164668083,"9":-0.01058228313922882,"10":-0.007816649042069912,"11":-0.05435522273182869,"12":0.0970936119556427,"13":0.008970260620117188,"14":0.12363601475954056,"15":0.05984721705317497,"16":0.028695954009890556,"17":-0.028835559263825417,"18":-0.0420544408261776,"19":0.030118217691779137}},"7":{"bias":-0.040238652378320694,"weights":{"0":0.032887011766433716,"1":0.04021083563566208,"2":-0.025550266727805138,"3":0.0049931625835597515,"4":-0.012748315930366516,"5":-0.01276814192533493,"6":0.0015603177016600966,"7":0.2910160422325134,"8":-0.02918943390250206,"9":-0.011682736687362194,"10":0.002875319914892316,"11":0.015978462994098663,"12":-0.01316296961158514,"13":0.015280283987522125,"14":0.06154495105147362,"15":-0.026076549664139748,"16":-0.0157964825630188,"17":0.026536190882325172,"18":0.009781412780284882,"19":-0.028490999713540077}},"8":{"bias":0.023816389963030815,"weights":{"0":-3.2596755027770996,"1":-0.2256682813167572,"2":1.6163551807403564,"3":1.370813012123108,"4":1.8499538898468018,"5":-2.5195438861846924,"6":-0.16247035562992096,"7":-1.5666401386260986,"8":0.45543068647384644,"9":1.6269981861114502,"10":-0.2518458068370819,"11":0.1999586969614029,"12":2.162116765975952,"13":-4.1178460121154785,"14":-0.4623239040374756,"15":-0.9639056921005249,"16":1.0779616832733154,"17":-2.4272103309631348,"18":1.3676249980926514,"19":1.7860950231552124}},"9":{"bias":0.020023735240101814,"weights":{"0":-0.15958866477012634,"1":-0.014185765758156776,"2":0.04178144410252571,"3":-0.013195500709116459,"4":0.021133605390787125,"5":-0.01854293793439865,"6":0.11237003654241562,"7":0.015860317274928093,"8":0.043595269322395325,"9":0.0022480152547359467,"10":0.05323490500450134,"11":-0.05844948813319206,"12":0.12132342159748077,"13":-0.06183864176273346,"14":-0.05131719261407852,"15":0.032279111444950104,"16":0.03175786882638931,"17":-0.043276332318782806,"18":-0.03924884647130966,"19":0.041599128395318985}},"10":{"bias":-0.005073230713605881,"weights":{"0":-0.00622762693092227,"1":-0.02961534820497036,"2":0.015976324677467346,"3":-0.0017120249103754759,"4":-0.007773193996399641,"5":-0.03975249454379082,"6":-0.02991236001253128,"7":0.029804369434714317,"8":-0.007969148457050323,"9":-0.015161680057644844,"10":0.017398210242390633,"11":-0.03268572315573692,"12":0.03862031549215317,"13":0.011585683561861515,"14":0.16192133724689484,"15":0.009428262710571289,"16":0.026832429692149162,"17":-0.008946635760366917,"18":0.012358637526631355,"19":0.01636533997952938}},"11":{"bias":-1.1407945156097412,"weights":{"0":0.6128674149513245,"1":-1.0210843086242676,"2":0.7352206110954285,"3":-0.014137331396341324,"4":0.4915649890899658,"5":0.0271864403039217,"6":-0.5458822250366211,"7":-0.16238482296466827,"8":-1.3983335494995117,"9":-0.09004909545183182,"10":-0.24743853509426117,"11":0.9233280420303345,"12":0.8324440121650696,"13":0.014387009665369987,"14":-0.7356922030448914,"15":1.2187620401382446,"16":2.218884229660034,"17":1.4006212949752808,"18":0.8911531567573547,"19":-0.7573333978652954}},"12":{"bias":-0.061282165348529816,"weights":{"0":-1.5114574432373047,"1":-1.810071587562561,"2":0.521721363067627,"3":-0.701927125453949,"4":0.954964280128479,"5":0.28498154878616333,"6":1.109366536140442,"7":-2.725435733795166,"8":1.6429213285446167,"9":-0.4356246292591095,"10":-0.06599642336368561,"11":0.06604333966970444,"12":1.8771029710769653,"13":2.247753620147705,"14":-4.965982437133789,"15":1.1104986667633057,"16":1.1607694625854492,"17":-1.5719748735427856,"18":2.0571768283843994,"19":0.9250194430351257}},"13":{"bias":0.01498987153172493,"weights":{"0":-0.0370483472943306,"1":-0.05096406489610672,"2":0.004962403327226639,"3":0.03580694645643234,"4":0.02696104906499386,"5":-0.04577508196234703,"6":-0.04642585664987564,"7":0.0380440317094326,"8":-0.012035819701850414,"9":-0.044670309871435165,"10":0.05894051119685173,"11":-0.0010050127748399973,"12":0.09740545600652695,"13":-0.008989122696220875,"14":0.1480145901441574,"15":-0.0018449341878294945,"16":0.06279055774211884,"17":-0.007633841596543789,"18":-0.03834352642297745,"19":0.010515553876757622}},"14":{"bias":-0.07132814824581146,"weights":{"0":-1.2912365198135376,"1":-1.0299108028411865,"2":-1.2493112087249756,"3":-0.009541532024741173,"4":-0.07803479582071304,"5":-0.1239209696650505,"6":0.942298173904419,"7":1.5433197021484375,"8":0.4709056317806244,"9":0.006846999283879995,"10":-1.427223563194275,"11":0.09595611691474915,"12":-2.0889570713043213,"13":-0.009888355620205402,"14":2.4295690059661865,"15":-0.24285978078842163,"16":-0.05129048600792885,"17":2.2808964252471924,"18":-2.962923526763916,"19":1.2060822248458862}},"15":{"bias":-0.03611015900969505,"weights":{"0":0.1324627846479416,"1":0.023924367502331734,"2":-0.054018981754779816,"3":-0.016757458448410034,"4":-0.07345055788755417,"5":0.036236751824617386,"6":-0.0939207524061203,"7":-0.061717238277196884,"8":0.02907826565206051,"9":0.029186908155679703,"10":0.01959519274532795,"11":0.07482878118753433,"12":-0.1710040271282196,"13":0.04622269421815872,"14":-0.023397427052259445,"15":-0.048543769866228104,"16":-0.04294257238507271,"17":0.051900364458560944,"18":0.06381011009216309,"19":-0.052995339035987854}},"16":{"bias":0.9792957901954651,"weights":{"0":2.123708963394165,"1":2.255552291870117,"2":-0.046129390597343445,"3":0.297344833612442,"4":-0.3787515461444855,"5":3.5311598777770996,"6":-1.3808437585830688,"7":-0.10038648545742035,"8":1.5894461870193481,"9":-3.333285093307495,"10":-0.6421769857406616,"11":0.8590212464332581,"12":0.14849647879600525,"13":-0.07331084460020065,"14":1.1708828210830688,"15":-0.8685888648033142,"16":1.3983033895492554,"17":0.05551918223500252,"18":0.3233601152896881,"19":-0.8968321681022644}},"17":{"bias":-2.2088637351989746,"weights":{"0":1.0556389093399048,"1":-2.478724241256714,"2":0.4911416471004486,"3":-2.15604305267334,"4":-3.2760794162750244,"5":1.7721199989318848,"6":0.526427149772644,"7":-1.0003749132156372,"8":0.6592229008674622,"9":3.1375932693481445,"10":0.7310662865638733,"11":0.360580176115036,"12":0.6785261631011963,"13":2.769350290298462,"14":-0.8062174320220947,"15":1.3665920495986938,"16":1.3647096157073975,"17":-0.9201556444168091,"18":2.8054497241973877,"19":2.7130324840545654}},"18":{"bias":-0.02908789925277233,"weights":{"0":0.0918852686882019,"1":0.027668574824929237,"2":-0.041099924594163895,"3":0.010305513627827168,"4":-0.036344099789857864,"5":-0.04982186481356621,"6":-0.3053722083568573,"7":-0.037964023649692535,"8":-0.10252197086811066,"9":-0.06239968165755272,"10":-0.036630917340517044,"11":0.03563140705227852,"12":-0.17179982364177704,"13":-0.0130079360678792,"14":0.07463157922029495,"15":-0.03438033163547516,"16":-0.044499944895505905,"17":0.04341217130422592,"18":0.042201653122901917,"19":-0.043632060289382935}},"19":{"bias":0.04586152732372284,"weights":{"0":-0.1470085084438324,"1":-0.029228562489151955,"2":0.04589483141899109,"3":0.049367573112249374,"4":0.0534992441534996,"5":-0.010980679653584957,"6":0.25591596961021423,"7":0.0425942987203598,"8":0.02884371019899845,"9":0.07720866799354553,"10":0.053618721663951874,"11":-0.05833413824439049,"12":0.17910227179527283,"13":0.0431583896279335,"14":-0.005026579834520817,"15":0.041412483900785446,"16":0.03844718262553215,"17":-0.045060526579618454,"18":-0.030038179829716682,"19":0.0459945984184742}}},{"left":{"bias":1.2348523139953613,"weights":{"0":0.009458028711378574,"1":-0.026268141344189644,"2":-0.06224475055932999,"3":0.016734007745981216,"4":0.004721495322883129,"5":0.037148769944906235,"6":-0.00954817607998848,"7":0.0014459281228482723,"8":0.7486157417297363,"9":-0.046590764075517654,"10":0.011988848447799683,"11":-0.11774881929159164,"12":0.10479431599378586,"13":-0.06429928541183472,"14":-0.26820358633995056,"15":0.06267070025205612,"16":0.024134451523423195,"17":-0.4170691668987274,"18":-0.14502982795238495,"19":0.08832357078790665}},"jump":{"bias":1.2570480108261108,"weights":{"0":0.0077009042724967,"1":-0.03359729424118996,"2":-0.06423192471265793,"3":0.02009713090956211,"4":-0.0035158356186002493,"5":0.07371854782104492,"6":-0.0012479599099606276,"7":0.006336560007184744,"8":-0.3230397701263428,"9":-0.06017323583364487,"10":0.027416108176112175,"11":0.003173678647726774,"12":-0.77825927734375,"13":-0.048107896000146866,"14":0.16306765377521515,"15":0.06335490942001343,"16":-0.05858665704727173,"17":-0.0355411060154438,"18":-0.05873629450798035,"19":0.041695721447467804}},"right":{"bias":0.12284715473651886,"weights":{"0":-0.011242684908211231,"1":0.4246169328689575,"2":0.05048166587948799,"3":-0.012592206709086895,"4":-0.004938870668411255,"5":-0.017188459634780884,"6":0.008252806961536407,"7":0.0038407137617468834,"8":-0.5043182969093323,"9":0.034208666533231735,"10":-0.004582464229315519,"11":0.029366828501224518,"12":0.46885794401168823,"13":0.06320887804031372,"14":0.17755721509456635,"15":-0.05810786783695221,"16":0.10324118286371231,"17":0.4393099546432495,"18":0.09356413781642914,"19":-0.06125343218445778}}}],"outputLookup":true,"inputLookup":false,"activation":"tanh","trainOpts":{"iterations":3000,"errorThresh":0.02,"log":true,"logPeriod":10,"learningRate":0.3,"momentum":0.1,"callbackPeriod":100}}
