{"sizes":[102,40,40,40,40,40,3],"layers":[{"0":{},"1":{},"2":{},"3":{},"4":{},"5":{},"6":{},"7":{},"8":{},"9":{},"10":{},"11":{},"12":{},"13":{},"14":{},"15":{},"16":{},"17":{},"18":{},"19":{},"20":{},"21":{},"22":{},"23":{},"24":{},"25":{},"26":{},"27":{},"28":{},"29":{},"30":{},"31":{},"32":{},"33":{},"34":{},"35":{},"36":{},"37":{},"38":{},"39":{},"40":{},"41":{},"42":{},"43":{},"44":{},"45":{},"46":{},"47":{},"48":{},"49":{},"50":{},"51":{},"52":{},"53":{},"54":{},"55":{},"56":{},"57":{},"58":{},"59":{},"60":{},"61":{},"62":{},"63":{},"64":{},"65":{},"66":{},"67":{},"68":{},"69":{},"70":{},"71":{},"72":{},"73":{},"74":{},"75":{},"76":{},"77":{},"78":{},"79":{},"80":{},"81":{},"82":{},"83":{},"84":{},"85":{},"86":{},"87":{},"88":{},"89":{},"90":{},"91":{},"92":{},"93":{},"94":{},"95":{},"96":{},"97":{},"98":{},"99":{},"100":{},"101":{}},{"0":{"bias":-0.09724006056785583,"weights":{"0":0.19040314853191376,"1":0.05728821083903313,"2":0.012328059412539005,"3":0.10723895579576492,"4":-0.1499074250459671,"5":0.06869003176689148,"6":0.1110461875796318,"7":-0.04755396768450737,"8":0.07544198632240295,"9":-0.10369520634412766,"10":0.0769456997513771,"11":0.05885353684425354,"12":-0.06408900022506714,"13":-0.1659661829471588,"14":-0.13311909139156342,"15":0.09205672889947891,"16":-0.10459934920072556,"17":-0.08918925374746323,"18":-0.030245641246438026,"19":0.15228570997714996,"20":0.16494806110858917,"21":-0.0826525092124939,"22":-0.05254402384161949,"23":0.12180794775485992,"24":0.17723923921585083,"25":0.030410513281822205,"26":0.07185391336679459,"27":-0.051788415759801865,"28":0.15785738825798035,"29":0.160080686211586,"30":-0.1429995447397232,"31":-0.026118485257029533,"32":0.16934551298618317,"33":-0.07385403662919998,"34":-0.04230649396777153,"35":-0.0931311845779419,"36":0.2759605050086975,"37":0.14688847959041595,"38":0.06762348115444183,"39":0.0343635119497776,"40":0.29162999987602234,"41":-0.06625913083553314,"42":-0.027784982696175575,"43":0.5270066261291504,"44":-0.16815149784088135,"45":0.031990163028240204,"46":0.35059547424316406,"47":1.0693391561508179,"48":0.6464453935623169,"49":-0.143074631690979,"50":0.47470536828041077,"51":0.3276781141757965,"52":0.30246150493621826,"53":0.13911586999893188,"54":-0.09824775159358978,"55":-0.41071516275405884,"56":-0.20219798386096954,"57":-0.14021320641040802,"58":-0.18736803531646729,"59":-0.3175802528858185,"60":0.148806631565094,"61":-0.1545279324054718,"62":0.07623711973428726,"63":-0.17742396891117096,"64":-0.553989589214325,"65":-0.49277645349502563,"66":-0.42157354950904846,"67":-0.2989823520183563,"68":-0.2222221940755844,"69":-0.36540743708610535,"70":0.0990036278963089,"71":0.17554470896720886,"72":0.35970640182495117,"73":0.2622857689857483,"74":-0.12401890009641647,"75":-0.06998990476131439,"76":0.1374095231294632,"77":-0.1465207040309906,"78":0.11353127658367157,"79":0.13103827834129333,"80":0.02356789819896221,"81":0.483481764793396,"82":-0.18651703000068665,"83":0.0285198874771595,"84":-0.15924350917339325,"85":-0.2637609541416168,"86":0.06716550886631012,"87":-0.08598100394010544,"88":0.19177953898906708,"89":-0.1823185533285141,"90":0.005251078400760889,"91":0.019881611689925194,"92":-0.14218147099018097,"93":-0.21969811618328094,"94":-0.20579011738300323,"95":-0.2733488976955414,"96":0.022844986990094185,"97":-0.2756578028202057,"98":-0.17638744413852692,"99":0.238632932305336,"100":-0.11951760202646255,"101":-1.5493695735931396}},"1":{"bias":0.4478670656681061,"weights":{"0":0.02968311682343483,"1":0.10364529490470886,"2":-0.19123362004756927,"3":0.18781843781471252,"4":-0.10766297578811646,"5":-0.08183147758245468,"6":0.02807893231511116,"7":-0.08644802123308182,"8":-0.050630733370780945,"9":-0.10301918536424637,"10":-0.18362878262996674,"11":-0.0804334431886673,"12":0.08351311087608337,"13":0.18189358711242676,"14":0.1555788367986679,"15":-0.08583653718233109,"16":-0.10235888510942459,"17":-0.09262146055698395,"18":-0.10560142993927002,"19":-0.05039414018392563,"20":0.19127210974693298,"21":-0.17284242808818817,"22":0.17497572302818298,"23":0.10337100923061371,"24":-0.042556844651699066,"25":-0.0015806748997420073,"26":-0.18833555281162262,"27":0.10207442939281464,"28":0.02501976676285267,"29":0.07174646109342575,"30":0.04262730851769447,"31":-0.1590864509344101,"32":0.8422132730484009,"33":0.17548120021820068,"34":0.04545983672142029,"35":0.01703471690416336,"36":-0.10239816457033157,"37":0.7667122483253479,"38":-0.10083532333374023,"39":-0.0904335156083107,"40":0.8708813190460205,"41":-0.18998932838439941,"42":-1.569624662399292,"43":0.051068902015686035,"44":-0.14044810831546783,"45":0.03831690922379494,"46":1.099202036857605,"47":1.630591869354248,"48":0.5845106840133667,"49":-0.35880976915359497,"50":-0.03630799800157547,"51":0.7923855781555176,"52":0.2746363878250122,"53":0.7207673788070679,"54":-0.031052999198436737,"55":-1.1367131471633911,"56":-0.3021354079246521,"57":0.43651267886161804,"58":1.2856855392456055,"59":-0.9462226629257202,"60":-0.19452600181102753,"61":0.5690072774887085,"62":0.14693497121334076,"63":0.47615960240364075,"64":-0.14273962378501892,"65":-0.9841195344924927,"66":-0.7503853440284729,"67":-0.44395866990089417,"68":-0.0118356728926301,"69":0.28380492329597473,"70":0.000755178858526051,"71":-0.10101137310266495,"72":-0.4149700105190277,"73":-1.353005051612854,"74":0.167577862739563,"75":-0.41860225796699524,"76":0.8286841511726379,"77":-1.0807243585586548,"78":-0.5713719725608826,"79":0.05209337919950485,"80":-0.34112605452537537,"81":1.4715946912765503,"82":0.3748888075351715,"83":-0.40755945444107056,"84":0.3473202586174011,"85":-0.5616104006767273,"86":-0.2537102699279785,"87":2.5908071994781494,"88":-1.345434308052063,"89":-0.402898371219635,"90":0.1656470149755478,"91":-0.06290087848901749,"92":-0.023006530478596687,"93":-0.09193968772888184,"94":-0.04641895368695259,"95":-0.1816161721944809,"96":-0.03142489120364189,"97":-0.1813116818666458,"98":-0.16324801743030548,"99":0.6422886848449707,"100":-1.700719952583313,"101":-3.8441545963287354}},"2":{"bias":-0.5568721294403076,"weights":{"0":-0.05782298743724823,"1":0.1295764446258545,"2":0.02885299175977707,"3":0.08346204459667206,"4":0.19418133795261383,"5":0.16415312886238098,"6":0.04300272837281227,"7":-0.08061160147190094,"8":0.08601877093315125,"9":0.010177921503782272,"10":0.11243004351854324,"11":0.1242639347910881,"12":0.09450815618038177,"13":0.08374389261007309,"14":-0.12817777693271637,"15":0.16197726130485535,"16":-0.17294378578662872,"17":-0.08453365415334702,"18":-0.4575272500514984,"19":-0.07146860659122467,"20":0.03544370085000992,"21":-0.1754828542470932,"22":0.0557192899286747,"23":0.09742656350135803,"24":-0.09876301884651184,"25":0.01479947380721569,"26":-0.14544029533863068,"27":-0.25608426332473755,"28":-0.1596985012292862,"29":0.05586238205432892,"30":0.17598074674606323,"31":0.00173629866912961,"32":0.026253141462802887,"33":-0.11466856300830841,"34":-0.04701466113328934,"35":0.10725100338459015,"36":0.208977609872818,"37":-0.014375230297446251,"38":-1.557580828666687,"39":0.70561283826828,"40":0.16580069065093994,"41":-0.1351722627878189,"42":0.00704012019559741,"43":-0.9674279093742371,"44":0.16542178392410278,"45":0.11825387179851532,"46":0.3761034309864044,"47":0.7536779046058655,"48":-2.9518444538116455,"49":2.291822671890259,"50":-1.3424789905548096,"51":0.872693657875061,"52":-0.7276230454444885,"53":0.20111916959285736,"54":-0.5277755260467529,"55":1.3526254892349243,"56":1.393963098526001,"57":3.049570083618164,"58":-2.19555926322937,"59":1.3060789108276367,"60":-2.6374378204345703,"61":0.4457976818084717,"62":0.16753698885440826,"63":-0.5352257490158081,"64":-0.8798734545707703,"65":-0.7080450057983398,"66":-0.6703747510910034,"67":0.638552188873291,"68":-0.2507956027984619,"69":-2.2610433101654053,"70":1.130202293395996,"71":0.5369986891746521,"72":0.2700963020324707,"73":1.282365083694458,"74":0.12758632004261017,"75":-0.9067582488059998,"76":-0.5933493971824646,"77":-0.155506432056427,"78":-1.3876827955245972,"79":0.19032883644104004,"80":-0.5498229265213013,"81":-0.5951828956604004,"82":-1.9214624166488647,"83":-0.04763880744576454,"84":-0.3771660029888153,"85":0.0885145291686058,"86":0.04642292484641075,"87":-0.787514328956604,"88":-2.3278777599334717,"89":0.4714081287384033,"90":0.1559888869524002,"91":0.15817521512508392,"92":0.5693660378456116,"93":0.5283375978469849,"94":0.298970490694046,"95":0.4924558401107788,"96":0.7079620957374573,"97":0.657401978969574,"98":0.38878709077835083,"99":0.6834743022918701,"100":4.754396438598633,"101":-0.408008873462677}},"3":{"bias":-0.5902586579322815,"weights":{"0":0.07183556258678436,"1":0.10809842497110367,"2":0.026254652068018913,"3":0.051805492490530014,"4":-0.044311318546533585,"5":0.11115723103284836,"6":-0.1214013323187828,"7":0.06309401243925095,"8":0.18435342609882355,"9":-0.1586707979440689,"10":-0.12022891640663147,"11":-0.08803156018257141,"12":-0.13039067387580872,"13":0.11098764836788177,"14":-0.00008236980647780001,"15":0.06920939683914185,"16":0.06027340888977051,"17":-0.0681801587343216,"18":0.13682357966899872,"19":0.013282552361488342,"20":-0.12789005041122437,"21":-0.05950193479657173,"22":-0.15688617527484894,"23":0.09640932083129883,"24":-0.027192603796720505,"25":-0.11418924480676651,"26":0.1351664811372757,"27":-0.14601877331733704,"28":0.06533057987689972,"29":0.14866076409816742,"30":0.1295015811920166,"31":0.003989723045378923,"32":-0.10460741817951202,"33":-0.19497264921665192,"34":0.07746028900146484,"35":-0.09735870361328125,"36":-0.09060921519994736,"37":-0.3309653401374817,"38":0.7653098702430725,"39":-0.2653612792491913,"40":-0.13044019043445587,"41":0.14629240334033966,"42":-0.1357557773590088,"43":0.7368744015693665,"44":-0.07485838979482651,"45":-0.019558439031243324,"46":-0.4036442041397095,"47":-1.2878408432006836,"48":1.5450385808944702,"49":-1.7732889652252197,"50":0.3729090392589569,"51":-0.6294232606887817,"52":-0.4001855254173279,"53":-0.41633686423301697,"54":-0.7878822088241577,"55":0.0799625888466835,"56":-0.5049022436141968,"57":-1.4131890535354614,"58":0.8302993178367615,"59":-0.578296959400177,"60":-0.4359779953956604,"61":-0.38226577639579773,"62":-0.2955585718154907,"63":0.05062678083777428,"64":-0.3928146958351135,"65":0.1244211494922638,"66":0.02186276763677597,"67":-0.22286000847816467,"68":-0.11867734044790268,"69":-0.09002163261175156,"70":-0.8422372341156006,"71":-0.1616039276123047,"72":-0.2910859286785126,"73":-0.9222962856292725,"74":0.076828233897686,"75":0.15566320717334747,"76":-0.02126230113208294,"77":0.48527634143829346,"78":0.5940466523170471,"79":-0.8011888861656189,"80":0.4808092415332794,"81":-1.0336161851882935,"82":0.6083280444145203,"83":0.09094122052192688,"84":-0.03695434331893921,"85":0.06264707446098328,"86":-0.2875194847583771,"87":-0.9220143556594849,"88":0.22448089718818665,"89":-0.18093812465667725,"90":0.035071976482868195,"91":-0.04731004312634468,"92":-0.18837183713912964,"93":0.08301061391830444,"94":0.09051947295665741,"95":-0.11601025611162186,"96":-0.19691073894500732,"97":-0.02276957780122757,"98":-0.08874478936195374,"99":-0.36084139347076416,"100":-2.1597561836242676,"101":1.6995229721069336}},"4":{"bias":0.09596475958824158,"weights":{"0":-0.08485756069421768,"1":0.0834835022687912,"2":0.05328823998570442,"3":0.139333575963974,"4":-0.18138940632343292,"5":-0.012188832275569439,"6":0.004676577635109425,"7":-0.19579148292541504,"8":0.06744776666164398,"9":-0.0671534538269043,"10":-0.06119148060679436,"11":0.12640470266342163,"12":0.10411244630813599,"13":0.13849514722824097,"14":0.09933031350374222,"15":0.193017840385437,"16":-0.022315921261906624,"17":0.014114189893007278,"18":0.15651743113994598,"19":0.04943624883890152,"20":-0.09558389335870743,"21":-0.18980097770690918,"22":-0.15154746174812317,"23":-0.08782737702131271,"24":0.19443152844905853,"25":-0.18755903840065002,"26":0.005828259978443384,"27":0.07063305377960205,"28":-0.050928641110658646,"29":0.1167605072259903,"30":-0.03675484657287598,"31":0.09736185520887375,"32":-0.20603175461292267,"33":-0.19182388484477997,"34":-0.11229439079761505,"35":0.13081826269626617,"36":-0.2719170153141022,"37":-0.5414535999298096,"38":0.5211743712425232,"39":-0.36688661575317383,"40":0.09602391719818115,"41":0.11736864596605301,"42":0.06669454276561737,"43":0.33452290296554565,"44":0.110855832695961,"45":0.18037135899066925,"46":-0.2161587029695511,"47":-1.2730549573898315,"48":-0.7629004716873169,"49":-0.12217910587787628,"50":-0.20069141685962677,"51":-0.5887029767036438,"52":0.2103128582239151,"53":0.09116032719612122,"54":0.16936635971069336,"55":-0.058066438883543015,"56":-0.3669900596141815,"57":-0.579158365726471,"58":0.8827963471412659,"59":1.0179625749588013,"60":-0.6574773192405701,"61":-0.0009595205774530768,"62":0.24562853574752808,"63":0.19942153990268707,"64":0.14953681826591492,"65":0.30811643600463867,"66":0.5080815553665161,"67":-0.2331710010766983,"68":0.06351708620786667,"69":0.4934859275817871,"70":-0.6290969252586365,"71":-0.6861999034881592,"72":-0.9613390564918518,"73":-1.0667150020599365,"74":-0.05089716985821724,"75":0.30663368105888367,"76":-0.4599614441394806,"77":0.23915107548236847,"78":-0.07347222417593002,"79":-0.7734094858169556,"80":0.002626915229484439,"81":-1.6752283573150635,"82":0.05111734941601753,"83":0.354120135307312,"84":0.2074965238571167,"85":0.6096586585044861,"86":0.4149196147918701,"87":-0.5350481271743774,"88":0.16156288981437683,"89":0.15923790633678436,"90":-0.022023236379027367,"91":-0.018260769546031952,"92":-0.2650146484375,"93":0.04704076051712036,"94":-0.0726393610239029,"95":-0.0141212223097682,"96":-0.1280459761619568,"97":0.05227549374103546,"98":-0.2556650638580322,"99":-0.49293622374534607,"100":-1.1651114225387573,"101":2.194507598876953}},"5":{"bias":-0.051033228635787964,"weights":{"0":0.012275619432330132,"1":-0.13605622947216034,"2":-0.15084096789360046,"3":-0.027465173974633217,"4":0.06052612513303757,"5":0.05687696486711502,"6":-0.005216670222580433,"7":0.15777179598808289,"8":-0.0627213567495346,"9":0.13447099924087524,"10":-0.04320240393280983,"11":0.12005207687616348,"12":-0.026164351031184196,"13":-0.14718177914619446,"14":-0.03639735281467438,"15":0.15479177236557007,"16":-0.029256921261548996,"17":-0.17211024463176727,"18":0.12377513200044632,"19":-0.155208557844162,"20":-0.004795697517693043,"21":0.034390732645988464,"22":0.06879951059818268,"23":-0.08931133896112442,"24":-0.14784923195838928,"25":0.026028869673609734,"26":-0.11986009776592255,"27":0.013865312561392784,"28":-0.09697979688644409,"29":-0.09488585591316223,"30":-0.011358960531651974,"31":0.05270441249012947,"32":0.06703442335128784,"33":0.16554725170135498,"34":-0.12855705618858337,"35":-0.047526709735393524,"36":-0.30578842759132385,"37":0.06617721915245056,"38":0.10643059015274048,"39":0.03678073361515999,"40":0.08598417043685913,"41":-0.18223227560520172,"42":-0.26263150572776794,"43":0.025774236768484116,"44":0.024755466729402542,"45":0.19551366567611694,"46":-0.08027113229036331,"47":-0.8588564991950989,"48":-0.7415886521339417,"49":-0.050488196313381195,"50":0.2887112498283386,"51":-0.27009379863739014,"52":-0.5049829483032227,"53":-0.2876764237880707,"54":-0.14997942745685577,"55":0.2311026006937027,"56":0.03380455821752548,"57":-0.7391098737716675,"58":-0.22172491252422333,"59":-0.1819373220205307,"60":-0.06798502802848816,"61":-0.1781141757965088,"62":-0.05807563662528992,"63":0.3160969913005829,"64":-0.2861732244491577,"65":0.003419957822188735,"66":-0.05811271443963051,"67":-0.18880651891231537,"68":-0.21989008784294128,"69":-0.6008789539337158,"70":0.046807028353214264,"71":0.10970108211040497,"72":0.14566344022750854,"73":-0.33563318848609924,"74":-0.1842978596687317,"75":0.08840734511613846,"76":0.1416098028421402,"77":0.20878534018993378,"78":-0.1559668928384781,"79":-0.31827133893966675,"80":0.27072036266326904,"81":-0.3355158865451813,"82":0.09551902115345001,"83":0.07869050651788712,"84":0.02962597645819187,"85":-0.17489580810070038,"86":-0.22809448838233948,"87":0.14594468474388123,"88":-0.03589997813105583,"89":0.06731338798999786,"90":-0.26634180545806885,"91":-0.2865062355995178,"92":-0.044953517615795135,"93":-0.37493884563446045,"94":-0.3305230438709259,"95":-0.21523939073085785,"96":-0.022732434794306755,"97":-0.061654385179281235,"98":-0.010476619005203247,"99":-0.19959956407546997,"100":0.3008822202682495,"101":0.30368393659591675}},"6":{"bias":0.09066997468471527,"weights":{"0":0.17695483565330505,"1":-0.061876170337200165,"2":0.07145371288061142,"3":-0.08653479814529419,"4":0.11760002374649048,"5":-0.016912367194890976,"6":0.17541362345218658,"7":0.15867869555950165,"8":-0.15682467818260193,"9":0.17803969979286194,"10":-0.0012857158435508609,"11":-0.035758309066295624,"12":-0.04165394604206085,"13":0.12127532064914703,"14":-0.03402820602059364,"15":0.005848986562341452,"16":0.16786065697669983,"17":-0.016782039776444435,"18":0.0375295951962471,"19":-0.10483710467815399,"20":0.054571498185396194,"21":-0.07027874886989594,"22":0.04044577479362488,"23":-0.18786174058914185,"24":-0.09696770459413528,"25":0.1701516956090927,"26":-0.07799554616212845,"27":0.17073948681354523,"28":0.06908141821622849,"29":0.09031427651643753,"30":-0.17297297716140747,"31":0.12492983043193817,"32":0.8817353844642639,"33":0.04809528589248657,"34":-0.07973667234182358,"35":0.17301985621452332,"36":0.16130796074867249,"37":0.16669701039791107,"38":0.21949991583824158,"39":0.5079766511917114,"40":0.41640758514404297,"41":-0.11482231318950653,"42":-1.3516645431518555,"43":0.6323242783546448,"44":0.09141705185174942,"45":-0.04254031926393509,"46":0.23241166770458221,"47":0.58506840467453,"48":2.6908645629882812,"49":-0.4099358022212982,"50":0.772922158241272,"51":1.2721364498138428,"52":1.1770390272140503,"53":0.8419473767280579,"54":-1.022045612335205,"55":0.3790942430496216,"56":0.28305572271347046,"57":0.5184129476547241,"58":0.12479176372289658,"59":-0.5873131155967712,"60":0.1944829523563385,"61":0.5702328085899353,"62":0.42003026604652405,"63":0.5067158341407776,"64":-0.08333128690719604,"65":0.30294856429100037,"66":-0.5793426036834717,"67":0.09931742399930954,"68":0.01822059229016304,"69":-0.30152300000190735,"70":1.1631746292114258,"71":0.7092300653457642,"72":0.6944001913070679,"73":0.7127537727355957,"74":0.11003647744655609,"75":-0.07258870452642441,"76":0.3820929229259491,"77":0.4060324728488922,"78":0.38104087114334106,"79":0.7209540009498596,"80":-0.6002683043479919,"81":-0.0426463857293129,"82":-0.5781661868095398,"83":-0.640093982219696,"84":-0.851509153842926,"85":-1.026271104812622,"86":-1.047156810760498,"87":-0.07007651776075363,"88":-0.6891828775405884,"89":-0.827797532081604,"90":-0.43349751830101013,"91":-0.09175845235586166,"92":-0.051607873290777206,"93":-0.18415546417236328,"94":-0.36322537064552307,"95":-0.27644696831703186,"96":-0.27503523230552673,"97":-0.06817427277565002,"98":-0.3490145802497864,"99":0.6058847308158875,"100":0.3977397084236145,"101":-3.110905647277832}},"7":{"bias":-0.10626097023487091,"weights":{"0":-0.14436045289039612,"1":0.015755677595734596,"2":-0.016773898154497147,"3":0.052893608808517456,"4":-0.1741553395986557,"5":0.11654569953680038,"6":0.1422589272260666,"7":-0.008154134266078472,"8":0.1698358654975891,"9":0.18927694857120514,"10":0.04516003280878067,"11":0.012011474929749966,"12":-0.12827791273593903,"13":0.19601140916347504,"14":0.15826860070228577,"15":0.05693915858864784,"16":-0.08906269073486328,"17":-0.08731839060783386,"18":0.0933261439204216,"19":-0.06858833879232407,"20":0.11925768107175827,"21":-0.09617391228675842,"22":0.12577106058597565,"23":-0.19351407885551453,"24":0.007904973812401295,"25":-0.16052886843681335,"26":0.05153132602572441,"27":-0.005315136164426804,"28":0.0745915025472641,"29":0.14031784236431122,"30":-0.004706073086708784,"31":0.0628381296992302,"32":-0.28242406249046326,"33":-0.10681912302970886,"34":0.194627046585083,"35":-0.06365825980901718,"36":-0.19711022078990936,"37":-0.11881936341524124,"38":0.2184181958436966,"39":-0.21987436711788177,"40":0.06700202077627182,"41":0.0956834927201271,"42":-0.27654656767845154,"43":-0.04616894572973251,"44":-0.03604602441191673,"45":-0.016296012327075005,"46":-0.1094566211104393,"47":-1.0978662967681885,"48":-0.39757755398750305,"49":-0.27125903964042664,"50":0.19494181871414185,"51":-0.4556821882724762,"52":-0.40610772371292114,"53":-0.3093976676464081,"54":-0.5639018416404724,"55":0.20396341383457184,"56":-0.4531230926513672,"57":-1.0508019924163818,"58":0.09856383502483368,"59":-0.23586446046829224,"60":-0.13708347082138062,"61":-0.43008559942245483,"62":-0.08385764807462692,"63":0.5459440350532532,"64":0.23687170445919037,"65":0.3557407259941101,"66":0.13385635614395142,"67":0.05247398465871811,"68":-0.05942721664905548,"69":-0.08868579566478729,"70":0.17311525344848633,"71":0.10182951390743256,"72":0.06690260767936707,"73":0.17534536123275757,"74":-0.019866110756993294,"75":0.05751216039061546,"76":0.05387920141220093,"77":0.3014070391654968,"78":0.19360259175300598,"79":-0.2797185480594635,"80":-0.02596893720328808,"81":-0.5033946633338928,"82":0.007678369991481304,"83":-0.14595675468444824,"84":-0.35488590598106384,"85":-0.26007774472236633,"86":-0.2176152914762497,"87":-0.33996886014938354,"88":0.10268713533878326,"89":-0.005890658125281334,"90":-0.23711006343364716,"91":-0.291039377450943,"92":-0.3139655590057373,"93":-0.02557031624019146,"94":-0.11189588159322739,"95":-0.07992904633283615,"96":0.04805287718772888,"97":-0.12093893438577652,"98":-0.3286779522895813,"99":-0.3971542716026306,"100":-0.1455904245376587,"101":-0.08575458079576492}},"8":{"bias":0.5469996929168701,"weights":{"0":0.1657445728778839,"1":-0.1990927755832672,"2":-0.07911578565835953,"3":0.005578270182013512,"4":-0.10697279125452042,"5":0.10201189666986465,"6":0.06080228462815285,"7":-0.04482373967766762,"8":0.06979352980852127,"9":0.199448361992836,"10":0.024827521294355392,"11":0.04105982556939125,"12":0.19185714423656464,"13":-0.04733262211084366,"14":-0.1812382936477661,"15":-0.18249700963497162,"16":-0.19496679306030273,"17":0.14447277784347534,"18":-0.13985486328601837,"19":0.011511201970279217,"20":-0.11512744426727295,"21":-0.05217418819665909,"22":-0.08497022837400436,"23":-0.1366252303123474,"24":0.08761877566576004,"25":-0.18914711475372314,"26":-0.0973672866821289,"27":-0.07552577555179596,"28":0.2527662515640259,"29":-0.09536957740783691,"30":0.05749788135290146,"31":0.11552777886390686,"32":0.9182007908821106,"33":0.0496690459549427,"34":0.04204617440700531,"35":-0.18005594611167908,"36":-0.1430189162492752,"37":0.0938410684466362,"38":0.12657634913921356,"39":-0.02682935819029808,"40":0.3701232671737671,"41":0.14472898840904236,"42":-1.4719257354736328,"43":0.5524908304214478,"44":-0.005917033180594444,"45":0.14695726335048676,"46":0.5029634237289429,"47":1.1727012395858765,"48":0.7745500206947327,"49":-0.13020864129066467,"50":-0.23059703409671783,"51":0.4273105561733246,"52":-0.018514925613999367,"53":0.6010712385177612,"54":-0.2037489265203476,"55":-0.7502864599227905,"56":0.1715322583913803,"57":0.7683824300765991,"58":-0.29305845499038696,"59":-0.4255117177963257,"60":0.47325775027275085,"61":0.9554207921028137,"62":0.07335986942052841,"63":0.274050772190094,"64":-0.4023868143558502,"65":-0.916602611541748,"66":-0.41874784231185913,"67":0.38520562648773193,"68":0.349307119846344,"69":0.2637234032154083,"70":0.0759703665971756,"71":0.21332724392414093,"72":-0.10635779052972794,"73":0.11089639365673065,"74":-0.35430675745010376,"75":-0.8481630086898804,"76":-0.3911314010620117,"77":-0.6774058938026428,"78":-0.4861260652542114,"79":-0.5368496179580688,"80":0.12654590606689453,"81":0.6311731338500977,"82":-0.04598750174045563,"83":-0.057362474501132965,"84":0.2104564905166626,"85":-0.2857889235019684,"86":-0.20832538604736328,"87":0.4852859079837799,"88":-0.10676966607570648,"89":-0.17243458330631256,"90":-0.2778353989124298,"91":0.018433725461363792,"92":-0.1665159910917282,"93":-0.22062289714813232,"94":-0.29668742418289185,"95":-0.27948686480522156,"96":-0.2775661051273346,"97":-0.16604791581630707,"98":0.0605367012321949,"99":0.4484498202800751,"100":-1.5625032186508179,"101":-3.51224684715271}},"9":{"bias":-0.21706771850585938,"weights":{"0":0.15814752876758575,"1":-0.0046007283963263035,"2":0.038436222821474075,"3":-0.030318187549710274,"4":-0.1189616322517395,"5":0.02254556678235531,"6":0.10738494247198105,"7":-0.06314777582883835,"8":0.08604570478200912,"9":-0.016809483990073204,"10":-0.16615314781665802,"11":-0.02553987130522728,"12":0.13896320760250092,"13":0.11936762183904648,"14":0.06695536524057388,"15":0.16746900975704193,"16":0.0386199876666069,"17":-0.11714185029268265,"18":0.056442808359861374,"19":-0.04814860597252846,"20":0.04059950262308121,"21":0.02129533141851425,"22":0.15291376411914825,"23":-0.04801945388317108,"24":-0.1163029819726944,"25":-0.031408775597810745,"26":0.12868955731391907,"27":0.004717628005892038,"28":0.7180531024932861,"29":0.16584937274456024,"30":-0.16696880757808685,"31":0.1750163584947586,"32":0.32551148533821106,"33":0.08817499130964279,"34":-0.16361553966999054,"35":-0.07194528728723526,"36":0.8117132186889648,"37":0.30204084515571594,"38":-0.2684232294559479,"39":0.011676128022372723,"40":0.06277775764465332,"41":-0.1572941094636917,"42":0.11216273158788681,"43":0.6200580596923828,"44":0.07650773227214813,"45":-0.09483544528484344,"46":0.47129225730895996,"47":1.581160068511963,"48":0.7564792037010193,"49":0.005877760238945484,"50":1.1881426572799683,"51":0.5551118850708008,"52":1.3133420944213867,"53":0.9517491459846497,"54":0.3907131254673004,"55":-1.2156288623809814,"56":-0.17905259132385254,"57":0.11425220966339111,"58":-0.6661239862442017,"59":-0.30147555470466614,"60":0.7541581988334656,"61":0.003409415250644088,"62":0.2882586717605591,"63":-0.209421306848526,"64":-0.6311091780662537,"65":-0.8205296397209167,"66":-1.1213152408599854,"67":-0.5033035278320312,"68":-0.8143300414085388,"69":-1.531538724899292,"70":0.4208199381828308,"71":0.3598000109195709,"72":0.4454476237297058,"73":0.17589952051639557,"74":0.1412656456232071,"75":0.009803881868720055,"76":0.2199670374393463,"77":-0.2890086770057678,"78":0.13237982988357544,"79":0.8784080743789673,"80":-0.943566083908081,"81":1.1242387294769287,"82":0.13623428344726562,"83":-0.4504515826702118,"84":-0.10213863104581833,"85":-0.6486870050430298,"86":-0.244247168302536,"87":0.3967159688472748,"88":0.7752925157546997,"89":-0.4468006193637848,"90":0.0422932468354702,"91":-0.12989799678325653,"92":-0.1588146835565567,"93":-0.0929059237241745,"94":-0.31813719868659973,"95":0.021305570378899574,"96":-0.009469049982726574,"97":0.144035205245018,"98":-0.09982224553823471,"99":0.5348062515258789,"100":0.1308322250843048,"101":-2.3201165199279785}},"10":{"bias":-0.08227794617414474,"weights":{"0":-0.1744472235441208,"1":-0.010310485027730465,"2":-0.09545859694480896,"3":0.17601709067821503,"4":-0.09772291779518127,"5":0.15129218995571136,"6":-0.003942472860217094,"7":-0.04742026329040527,"8":-0.17301654815673828,"9":0.1637641191482544,"10":0.02926609106361866,"11":0.03555101901292801,"12":0.07719648629426956,"13":-0.07801692932844162,"14":-0.024159451946616173,"15":0.14702290296554565,"16":0.13924524188041687,"17":-0.15885095298290253,"18":0.07957961410284042,"19":0.03933902829885483,"20":-0.024145256727933884,"21":0.1713813841342926,"22":0.17013132572174072,"23":0.04289710894227028,"24":0.14298804104328156,"25":0.18507741391658783,"26":-0.19830220937728882,"27":-0.10707077383995056,"28":0.14882886409759521,"29":-0.15834279358386993,"30":-0.03653986006975174,"31":0.048303503543138504,"32":-0.02455057203769684,"33":-0.10045246034860611,"34":0.09688510745763779,"35":-0.0099998963996768,"36":-0.11999976634979248,"37":0.10571157187223434,"38":-0.08674060553312302,"39":0.0970611423254013,"40":0.004277118481695652,"41":0.16387327015399933,"42":0.15548767149448395,"43":-0.11117182672023773,"44":-0.082602858543396,"45":0.006203124299645424,"46":-0.02902018278837204,"47":-0.26528656482696533,"48":-0.14732615649700165,"49":0.19171173870563507,"50":0.03518984839320183,"51":-0.21588557958602905,"52":-0.24817778170108795,"53":-0.3354276716709137,"54":-0.15019936859607697,"55":-0.01976454071700573,"56":-0.12638597190380096,"57":-0.45146068930625916,"58":-0.15179680287837982,"59":-0.2727377414703369,"60":0.2170124650001526,"61":-0.2197037786245346,"62":-0.2775229215621948,"63":0.13800369203090668,"64":-0.4338589012622833,"65":-0.09311316162347794,"66":-0.2855008542537689,"67":-0.280473530292511,"68":-0.1825508326292038,"69":-0.22476384043693542,"70":0.04829639941453934,"71":0.01768307387828827,"72":-0.2041940540075302,"73":-0.33869248628616333,"74":0.04413251206278801,"75":-0.07889258861541748,"76":-0.014205502346158028,"77":0.038314931094646454,"78":-0.04634365811944008,"79":-0.21224495768547058,"80":0.08433547616004944,"81":-0.6868276596069336,"82":-0.25835511088371277,"83":-0.1037759780883789,"84":-0.20114010572433472,"85":0.04549557343125343,"86":0.07042989134788513,"87":-0.19427990913391113,"88":-0.26602882146835327,"89":-0.2691592574119568,"90":-0.04150158166885376,"91":-0.2872737944126129,"92":-0.0913945734500885,"93":-0.08330971747636795,"94":0.013302390463650227,"95":0.05992373824119568,"96":-0.06349542737007141,"97":-0.2713814973831177,"98":-0.19912166893482208,"99":-0.25047311186790466,"100":0.2883669137954712,"101":-0.15359076857566833}},"11":{"bias":0.2387305200099945,"weights":{"0":0.06456588208675385,"1":0.133108451962471,"2":-0.03252071887254715,"3":-0.11007454246282578,"4":-0.11094482243061066,"5":-0.1609288603067398,"6":0.12422222644090652,"7":-0.130528062582016,"8":-0.17808738350868225,"9":-0.1137625202536583,"10":0.028130944818258286,"11":-0.0964335948228836,"12":-0.18614597618579865,"13":0.10699231922626495,"14":-0.10273881256580353,"15":-0.08703962713479996,"16":0.0485684834420681,"17":0.08162380754947662,"18":0.3065243661403656,"19":-0.14161819219589233,"20":-0.10527592152357101,"21":0.08470271527767181,"22":0.07463088631629944,"23":0.0720120295882225,"24":0.10981100797653198,"25":0.07656196504831314,"26":-0.1618741750717163,"27":-0.16652840375900269,"28":0.008736927062273026,"29":-0.030105983838438988,"30":0.10777664184570312,"31":0.14839871227741241,"32":-0.12025541812181473,"33":-0.16201049089431763,"34":0.1714596450328827,"35":-0.174309641122818,"36":-0.11712301522493362,"37":-0.36948543787002563,"38":0.6376480460166931,"39":0.015728630125522614,"40":-0.12133374810218811,"41":0.19081465899944305,"42":-0.2067178189754486,"43":0.5753746628761292,"44":-0.17766986787319183,"45":0.010474041104316711,"46":-0.5452708601951599,"47":-1.6008944511413574,"48":-0.6555152535438538,"49":-1.5135302543640137,"50":-0.04879028722643852,"51":-0.4295538067817688,"52":-0.41076791286468506,"53":-0.21883821487426758,"54":-0.9154688119888306,"55":-0.109129898250103,"56":0.17359048128128052,"57":-0.4502883553504944,"58":-0.9622308015823364,"59":-0.8774479627609253,"60":-1.1055442094802856,"61":-0.02366134151816368,"62":-0.6292025446891785,"63":0.044085994362831116,"64":0.2670799493789673,"65":-0.4213968515396118,"66":0.27826833724975586,"67":-0.29537925124168396,"68":0.07455775141716003,"69":-0.5280733704566956,"70":-0.5627016425132751,"71":-0.17687875032424927,"72":-0.07819367945194244,"73":-0.491615891456604,"74":0.17627155780792236,"75":0.3685712516307831,"76":-0.5102574825286865,"77":0.5307765603065491,"78":0.7791755199432373,"79":0.3136224150657654,"80":-0.15555210411548615,"81":-1.8973528146743774,"82":-0.273387610912323,"83":0.4022068977355957,"84":-0.012970209121704102,"85":0.27967140078544617,"86":0.12242989242076874,"87":-1.4370628595352173,"88":0.15015071630477905,"89":-0.7363059520721436,"90":0.26326021552085876,"91":0.32580557465553284,"92":0.0822041928768158,"93":0.3708113729953766,"94":0.27669286727905273,"95":0.07632289081811905,"96":0.014529370702803135,"97":0.27125853300094604,"98":0.3563475012779236,"99":-0.2532039284706116,"100":-3.4575564861297607,"101":3.080441474914551}},"12":{"bias":0.2730167508125305,"weights":{"0":0.07091832906007767,"1":0.0228609349578619,"2":0.14973430335521698,"3":-0.014188902452588081,"4":0.05600271373987198,"5":-0.007432523649185896,"6":-0.04542938619852066,"7":-0.12749986350536346,"8":0.16001422703266144,"9":-0.13463769853115082,"10":-0.16961799561977386,"11":0.058303575962781906,"12":0.08262143284082413,"13":0.1568644493818283,"14":-0.07696112990379333,"15":-0.17196598649024963,"16":-0.06761760264635086,"17":0.05887684226036072,"18":0.06591863930225372,"19":0.18860149383544922,"20":0.18599604070186615,"21":-0.19242334365844727,"22":0.15082001686096191,"23":-0.07199312746524811,"24":-0.012224160134792328,"25":-0.07737959176301956,"26":0.17377857863903046,"27":0.1256512850522995,"28":0.07913805544376373,"29":-0.16322898864746094,"30":-0.11441993713378906,"31":0.14707084000110626,"32":0.41611024737358093,"33":-0.14588895440101624,"34":0.04032305255532265,"35":0.18588973581790924,"36":-0.006497533526271582,"37":0.8201332688331604,"38":-0.3500443398952484,"39":0.16729417443275452,"40":-0.07564099133014679,"41":-0.15287749469280243,"42":-0.5809017419815063,"43":0.23922117054462433,"44":0.010088513605296612,"45":-0.1145789846777916,"46":-0.07810834795236588,"47":0.3388250172138214,"48":0.9306603670120239,"49":0.09820028394460678,"50":-0.577114999294281,"51":0.19396595656871796,"52":-0.39739471673965454,"53":0.3194531500339508,"54":-0.42022696137428284,"55":-1.492875576019287,"56":-0.586047351360321,"57":0.5540573596954346,"58":0.7829829454421997,"59":-0.9170641899108887,"60":-0.053146496415138245,"61":0.8610867857933044,"62":0.19483813643455505,"63":0.13509796559810638,"64":-0.4346429109573364,"65":-1.0942753553390503,"66":-0.8815743923187256,"67":-0.05279439315199852,"68":0.10095079988241196,"69":-0.05702444538474083,"70":0.2188504934310913,"71":0.14914849400520325,"72":0.2665756642818451,"73":-1.175005316734314,"74":0.3976064920425415,"75":-0.04866453632712364,"76":1.0223654508590698,"77":-1.1954299211502075,"78":-0.3764115869998932,"79":0.37159520387649536,"80":-0.5700125694274902,"81":1.937252163887024,"82":0.47597381472587585,"83":-0.7121990323066711,"84":0.6363778114318848,"85":-0.5386290550231934,"86":-0.08611568063497543,"87":2.259063720703125,"88":-1.5678694248199463,"89":-0.48082804679870605,"90":-0.15025775134563446,"91":0.163925901055336,"92":-0.17653769254684448,"93":-0.0587005652487278,"94":-0.13831977546215057,"95":-0.07872921973466873,"96":-0.09071771055459976,"97":-0.23534619808197021,"98":-0.059548553079366684,"99":0.9637811779975891,"100":-1.6057621240615845,"101":-3.87587833404541}},"13":{"bias":0.45030733942985535,"weights":{"0":0.12744836509227753,"1":-0.18838411569595337,"2":-0.0025401755701750517,"3":-0.15979011356830597,"4":0.0007322265882976353,"5":0.10883232951164246,"6":-0.081393763422966,"7":-0.10036522150039673,"8":-0.1410246193408966,"9":-0.1745917797088623,"10":-0.17556557059288025,"11":0.05460580438375473,"12":-0.18629218637943268,"13":-0.185030996799469,"14":0.006764579564332962,"15":-0.06086955964565277,"16":0.1086755320429802,"17":0.11098682135343552,"18":0.3104816675186157,"19":-0.184311181306839,"20":0.012393434531986713,"21":-0.11726204305887222,"22":0.12771432101726532,"23":-0.1915050595998764,"24":-0.04057237133383751,"25":0.04380340501666069,"26":-0.12502919137477875,"27":0.008852792903780937,"28":-0.05769584700465202,"29":-0.09875650703907013,"30":0.11417707055807114,"31":0.13279569149017334,"32":-0.26590070128440857,"33":-0.03698929771780968,"34":0.03890044614672661,"35":-0.17269812524318695,"36":-0.3252948522567749,"37":-0.26652991771698,"38":0.24429957568645477,"39":-0.0981975793838501,"40":0.10114166140556335,"41":0.1707782745361328,"42":0.3216223418712616,"43":0.192093163728714,"44":-0.10790607333183289,"45":-0.011975187808275223,"46":-0.576043963432312,"47":-1.1026874780654907,"48":-0.6895961761474609,"49":-0.27868643403053284,"50":-0.014860877767205238,"51":-0.4200873076915741,"52":0.024730077013373375,"53":0.30842068791389465,"54":0.05392918735742569,"55":-0.004737199749797583,"56":-0.11789059638977051,"57":0.14804325997829437,"58":0.3127608299255371,"59":-0.1513790786266327,"60":-1.6496576070785522,"61":-0.0141086271032691,"62":-0.46640872955322266,"63":-0.15566760301589966,"64":-0.44570115208625793,"65":-0.48635223507881165,"66":-0.37424036860466003,"67":-0.4261452555656433,"68":-0.4863544702529907,"69":1.0731616020202637,"70":-0.18454112112522125,"71":-0.7498369812965393,"72":-0.703314483165741,"73":-0.6687769889831543,"74":0.2793118357658386,"75":0.5910001397132874,"76":-0.15401548147201538,"77":0.5921012163162231,"78":-0.025341348722577095,"79":-0.27218812704086304,"80":0.26599735021591187,"81":-1.2747389078140259,"82":0.15557551383972168,"83":0.5744072794914246,"84":0.4157107472419739,"85":0.5810271501541138,"86":0.3671828806400299,"87":-0.4278907775878906,"88":-0.05513080954551697,"89":0.33009907603263855,"90":-0.10829655826091766,"91":0.13038115203380585,"92":0.09654601663351059,"93":-0.25848469138145447,"94":-0.09341979771852493,"95":0.09083836525678635,"96":-0.24730274081230164,"97":0.060495372861623764,"98":-0.07940437644720078,"99":-0.5162526965141296,"100":-1.3835067749023438,"101":2.408594846725464}},"14":{"bias":-0.31346243619918823,"weights":{"0":0.15400077402591705,"1":-0.11034611612558365,"2":0.02238556556403637,"3":-0.11782419681549072,"4":0.10023472458124161,"5":-0.1815849244594574,"6":0.06571685522794724,"7":-0.1354895830154419,"8":0.02651973068714142,"9":0.0836554542183876,"10":-0.1680491417646408,"11":-0.07613001018762589,"12":0.152466282248497,"13":-0.08575549721717834,"14":0.17927801609039307,"15":0.07720442116260529,"16":0.08491172641515732,"17":-0.06795242428779602,"18":-0.0368412584066391,"19":0.1165502518415451,"20":-0.17304670810699463,"21":0.19059906899929047,"22":0.05827738344669342,"23":-0.0298427976667881,"24":-0.17667962610721588,"25":-0.09988044947385788,"26":-0.07000856101512909,"27":0.028032228350639343,"28":0.14650841057300568,"29":0.1420341581106186,"30":-0.14744217693805695,"31":0.13183994591236115,"32":0.12969465553760529,"33":-0.13377414643764496,"34":0.12409209460020065,"35":-0.1940241903066635,"36":0.07783757150173187,"37":0.39720362424850464,"38":-0.007183955051004887,"39":-0.03811417520046234,"40":0.08356627821922302,"41":-0.12415959686040878,"42":-0.10746227949857712,"43":0.3597400486469269,"44":0.06218656152486801,"45":0.08435441553592682,"46":0.3616507947444916,"47":0.8290209174156189,"48":0.7584779262542725,"49":0.1316734403371811,"50":0.060408707708120346,"51":0.5204980969429016,"52":0.17534609138965607,"53":0.29535990953445435,"54":-0.1742500364780426,"55":-0.5081996917724609,"56":-0.3637380599975586,"57":0.05870308354496956,"58":-0.04826194792985916,"59":-0.1751527190208435,"60":-0.015052313916385174,"61":0.25212833285331726,"62":-0.07370782643556595,"63":-0.16067807376384735,"64":-0.3521772027015686,"65":-0.9143335819244385,"66":-0.2711619734764099,"67":-0.28379660844802856,"68":-0.2358248233795166,"69":-0.9783750176429749,"70":0.21471114456653595,"71":0.30388540029525757,"72":0.10091184824705124,"73":0.36813876032829285,"74":-0.3591630160808563,"75":-0.07995021343231201,"76":-0.06822714954614639,"77":-0.4413037896156311,"78":-0.11187806725502014,"79":0.2611982822418213,"80":-0.4130813777446747,"81":1.1067463159561157,"82":-0.14729498326778412,"83":-0.09170086681842804,"84":-0.27893033623695374,"85":-0.270330548286438,"86":-0.343751460313797,"87":0.040067750960588455,"88":0.3631581962108612,"89":-0.4036935269832611,"90":0.07390640676021576,"91":0.046767231076955795,"92":0.0034018680453300476,"93":-0.12494739145040512,"94":-0.1632908582687378,"95":0.0068222526460886,"96":0.06657683104276657,"97":-0.1465413123369217,"98":-0.16812379658222198,"99":0.2552199959754944,"100":-0.4007093906402588,"101":-1.7334637641906738}},"15":{"bias":-0.36520928144454956,"weights":{"0":0.104106605052948,"1":0.09812593460083008,"2":-0.17897318303585052,"3":-0.1482423096895218,"4":0.16717785596847534,"5":0.08771020919084549,"6":0.16159051656723022,"7":-0.1927257478237152,"8":-0.09509781748056412,"9":0.11174967139959335,"10":-0.1922002136707306,"11":-0.04158126562833786,"12":-0.1312936693429947,"13":-0.1788617968559265,"14":0.18797659873962402,"15":-0.19864387810230255,"16":0.022315094247460365,"17":0.02174372784793377,"18":0.01853693090379238,"19":0.03091931901872158,"20":-0.0585760697722435,"21":0.1865409016609192,"22":-0.15785862505435944,"23":0.08395201712846756,"24":-0.012712819501757622,"25":-0.04103085398674011,"26":-0.05847066640853882,"27":-0.12331676483154297,"28":0.08594895899295807,"29":0.13463637232780457,"30":0.10353001207113266,"31":-0.01343195978552103,"32":-0.04854123294353485,"33":-0.17306886613368988,"34":-0.06444928050041199,"35":0.15299542248249054,"36":-0.08477316796779633,"37":-0.5627948045730591,"38":1.053491473197937,"39":-0.10367605090141296,"40":-0.29223349690437317,"41":-0.14083516597747803,"42":-0.34987908601760864,"43":0.8884264230728149,"44":-0.18252120912075043,"45":-0.0300263911485672,"46":-0.8166170716285706,"47":-1.723402976989746,"48":2.4537529945373535,"49":-1.5213873386383057,"50":0.4362095892429352,"51":-0.5500668883323669,"52":-0.21293538808822632,"53":-0.03437376022338867,"54":-1.0591425895690918,"55":0.36283549666404724,"56":0.1174243614077568,"57":-0.9864353537559509,"58":0.11025451868772507,"59":-1.264551043510437,"60":-0.7350041270256042,"61":-0.6759324073791504,"62":-0.4235357940196991,"63":-0.06777281314134598,"64":-0.039153046905994415,"65":0.1441420465707779,"66":0.4814295768737793,"67":0.5160335898399353,"68":0.06459151208400726,"69":-0.440948486328125,"70":-0.5926830768585205,"71":-0.5688401460647583,"72":-0.29866352677345276,"73":-0.7218247652053833,"74":0.4275679290294647,"75":0.7725334167480469,"76":0.29029130935668945,"77":1.4681841135025024,"78":0.8163793683052063,"79":-1.3247143030166626,"80":0.5983426570892334,"81":-1.3144688606262207,"82":0.6037038564682007,"83":-0.15896545350551605,"84":-0.20383019745349884,"85":-0.322915256023407,"86":-0.6812683939933777,"87":-1.12277352809906,"88":-0.24296081066131592,"89":-0.30286529660224915,"90":-0.1434290111064911,"91":-0.06269180774688721,"92":-0.048291660845279694,"93":-0.26664304733276367,"94":-0.03825393691658974,"95":-0.04902900382876396,"96":-0.3982480764389038,"97":-0.3724108338356018,"98":-0.24640074372291565,"99":-0.7560514807701111,"100":-3.3317883014678955,"101":3.261735677719116}},"16":{"bias":-0.2917895019054413,"weights":{"0":-0.10082794725894928,"1":-0.15149345993995667,"2":0.19708670675754547,"3":-0.15978479385375977,"4":-0.018459340557456017,"5":-0.16974899172782898,"6":0.07438863813877106,"7":-0.006598626263439655,"8":0.0074927001260221004,"9":-0.17377524077892303,"10":-0.1035287082195282,"11":-0.15297168493270874,"12":0.0110235046595335,"13":-0.035123445093631744,"14":0.1942821592092514,"15":0.03568310663104057,"16":-0.051195040345191956,"17":-0.1442614644765854,"18":0.006756397895514965,"19":-0.025341026484966278,"20":0.1309874951839447,"21":0.165159672498703,"22":0.15832266211509705,"23":-0.15056605637073517,"24":-0.13210831582546234,"25":0.11542024463415146,"26":-0.06382986158132553,"27":0.08811140060424805,"28":-0.09600255638360977,"29":0.05107191577553749,"30":0.14806661009788513,"31":-0.09556235373020172,"32":-0.10252425819635391,"33":-0.040519170463085175,"34":0.13738089799880981,"35":-0.16593676805496216,"36":-0.361064612865448,"37":0.1462196558713913,"38":0.0817255899310112,"39":-0.15123777091503143,"40":0.10897211730480194,"41":-0.1449497789144516,"42":-0.4279508888721466,"43":-0.2792249917984009,"44":-0.01222140621393919,"45":-0.15861910581588745,"46":0.17927542328834534,"47":-1.0577590465545654,"48":-0.5290844440460205,"49":-0.05288182944059372,"50":0.30879947543144226,"51":-0.33559802174568176,"52":-0.7402384877204895,"53":-0.27784302830696106,"54":-0.37761634588241577,"55":0.5630420446395874,"56":-0.4517873525619507,"57":-0.8574163317680359,"58":-0.0256655290722847,"59":-0.16097795963287354,"60":0.21581445634365082,"61":-0.30318784713745117,"62":-0.028079897165298462,"63":0.19404564797878265,"64":0.22028160095214844,"65":0.3666519522666931,"66":0.12590591609477997,"67":0.07373779267072678,"68":-0.05580879747867584,"69":-0.16739459335803986,"70":-0.21674415469169617,"71":0.3655925989151001,"72":0.28491562604904175,"73":-0.05161077901721001,"74":-0.1330486685037613,"75":-0.09508281946182251,"76":0.12351658940315247,"77":0.09545467048883438,"78":0.13045856356620789,"79":-0.351895272731781,"80":0.005217054393142462,"81":-0.46199655532836914,"82":-0.040230780839920044,"83":-0.3146653473377228,"84":-0.1153782531619072,"85":-0.5283555388450623,"86":-0.4759041368961334,"87":0.19796891510486603,"88":-0.1958225816488266,"89":-0.07721676677465439,"90":0.09952080249786377,"91":-0.16280367970466614,"92":0.0632721483707428,"93":-0.27499815821647644,"94":0.0798591822385788,"95":-0.14778481423854828,"96":-0.17797337472438812,"97":-0.12480694055557251,"98":-0.06947027891874313,"99":-0.016576414927840233,"100":0.5924373269081116,"101":-0.0067272488959133625}},"17":{"bias":0.7776986956596375,"weights":{"0":0.14171582460403442,"1":-0.18277037143707275,"2":-0.08997766673564911,"3":0.14564016461372375,"4":0.13011561334133148,"5":0.17399024963378906,"6":0.07870462536811829,"7":0.04364675283432007,"8":-0.025091206654906273,"9":0.06618496775627136,"10":-0.17147250473499298,"11":-0.16935063898563385,"12":0.06715219467878342,"13":-0.19270911812782288,"14":-0.010471398942172527,"15":-0.17595866322517395,"16":-0.010106226429343224,"17":0.1931029111146927,"18":0.3444020748138428,"19":-0.1430034637451172,"20":0.04387804493308067,"21":0.09331168979406357,"22":-0.1788216084241867,"23":-0.09417042881250381,"24":0.027295058593153954,"25":0.13799123466014862,"26":-0.10762947052717209,"27":-0.23096910119056702,"28":-0.38795921206474304,"29":-0.0036236862652003765,"30":-0.09904883801937103,"31":0.17620180547237396,"32":-0.09587971121072769,"33":-0.18951866030693054,"34":0.013262317515909672,"35":-0.06597801297903061,"36":-0.5015173554420471,"37":-0.7485226988792419,"38":0.14699885249137878,"39":-0.6567540764808655,"40":-0.14653737843036652,"41":0.01874060370028019,"42":-0.8751827478408813,"43":-0.3399975895881653,"44":-0.18946705758571625,"45":0.18227538466453552,"46":0.391196608543396,"47":-1.564894676208496,"48":-0.6719151139259338,"49":0.6540882587432861,"50":-1.3163936138153076,"51":-1.9108564853668213,"52":-0.8623853325843811,"53":-0.9680012464523315,"54":0.45600268244743347,"55":-1.1842471361160278,"56":0.8699264526367188,"57":-0.036019615828990936,"58":-0.35910022258758545,"59":2.191420793533325,"60":0.4347846806049347,"61":0.33701199293136597,"62":-0.41463032364845276,"63":-0.092753566801548,"64":0.6282753348350525,"65":0.2528943121433258,"66":1.2053476572036743,"67":-0.24313005805015564,"68":0.30589431524276733,"69":0.8329559564590454,"70":-0.12634190917015076,"71":-0.7240761518478394,"72":-0.4133395850658417,"73":-0.5607424378395081,"74":0.011567697860300541,"75":0.1257016807794571,"76":-0.7368178963661194,"77":0.9451980590820312,"78":0.21509099006652832,"79":-0.5807638764381409,"80":1.2096097469329834,"81":-1.8316435813903809,"82":0.08198404312133789,"83":0.4104544520378113,"84":-0.15788106620311737,"85":0.8747367262840271,"86":0.6308962106704712,"87":-0.7084575295448303,"88":0.6700952053070068,"89":0.744627833366394,"90":-0.4017275869846344,"91":-0.23372042179107666,"92":-0.26364949345588684,"93":-0.46288278698921204,"94":-0.07676748931407928,"95":-0.26646342873573303,"96":-0.2980547249317169,"97":-0.09078484773635864,"98":-0.42218905687332153,"99":-1.1036717891693115,"100":-2.2583017349243164,"101":2.409559726715088}},"18":{"bias":-0.277942419052124,"weights":{"0":-0.059688568115234375,"1":0.015074547380208969,"2":0.06225254386663437,"3":-0.1454230695962906,"4":-0.025350622832775116,"5":-0.0418090745806694,"6":-0.11441725492477417,"7":-0.0034598740749061108,"8":0.0468166284263134,"9":-0.15871958434581757,"10":-0.033152345567941666,"11":0.10321873426437378,"12":-0.06419825553894043,"13":-0.19015133380889893,"14":0.03526438772678375,"15":0.05319147929549217,"16":0.16294831037521362,"17":0.08018092811107635,"18":-0.0041245510801672935,"19":0.1977936029434204,"20":-0.12426629662513733,"21":0.16697047650814056,"22":0.006648625247180462,"23":0.1558060497045517,"24":-0.04200701788067818,"25":-0.17743636667728424,"26":-0.1330205351114273,"27":-0.19488561153411865,"28":0.024116618558764458,"29":0.07891455292701721,"30":-0.11224951595067978,"31":-0.043326906859874725,"32":-0.2790563702583313,"33":-0.1646454632282257,"34":0.12616853415966034,"35":-0.16660887002944946,"36":-0.26814591884613037,"37":-0.1071869358420372,"38":0.353064626455307,"39":-0.2567414939403534,"40":0.0017520702676847577,"41":0.14166198670864105,"42":-0.2267710268497467,"43":-0.1869482398033142,"44":-0.10431689023971558,"45":-0.10172753036022186,"46":-0.29647207260131836,"47":-0.5988085865974426,"48":-0.9421163201332092,"49":0.21061089634895325,"50":-0.21408319473266602,"51":-0.41356831789016724,"52":-0.33306512236595154,"53":0.3904229700565338,"54":-0.22178319096565247,"55":0.31075602769851685,"56":0.11825938522815704,"57":-0.04540669918060303,"58":0.19890989363193512,"59":0.17947635054588318,"60":-0.7070797085762024,"61":-0.34107252955436707,"62":-0.26006612181663513,"63":-0.31009557843208313,"64":0.057489484548568726,"65":-0.05100727826356888,"66":-0.022812170907855034,"67":-0.15839286148548126,"68":-0.1370093673467636,"69":-0.648589015007019,"70":-0.04015354439616203,"71":-0.1898220181465149,"72":-0.22401750087738037,"73":-0.5723637938499451,"74":-0.2433852255344391,"75":-0.04838629439473152,"76":-0.06021416187286377,"77":0.3160419166088104,"78":-0.010204581543803215,"79":-0.2834712564945221,"80":-0.0037567666731774807,"81":-0.3908007740974426,"82":-0.13062091171741486,"83":-0.0986548587679863,"84":0.10202156752347946,"85":0.17639964818954468,"86":0.16945403814315796,"87":-0.19719094038009644,"88":0.11245670914649963,"89":-0.003764263354241848,"90":-0.37827301025390625,"91":-0.2080274075269699,"92":-0.2650887668132782,"93":-0.13304340839385986,"94":-0.23734979331493378,"95":-0.2740294933319092,"96":-0.1125301718711853,"97":-0.30616873502731323,"98":-0.3946245312690735,"99":-0.5692761540412903,"100":-0.730376660823822,"101":1.0168001651763916}},"19":{"bias":-0.4919077754020691,"weights":{"0":-0.10055601596832275,"1":-0.16364556550979614,"2":0.08428733795881271,"3":-0.13726307451725006,"4":0.05433136224746704,"5":0.18725578486919403,"6":0.07289791107177734,"7":0.09937581419944763,"8":-0.032628368586301804,"9":0.11254321038722992,"10":0.08178368210792542,"11":-0.14816740155220032,"12":-0.08940430730581284,"13":-0.08606065809726715,"14":-0.02628047950565815,"15":-0.11936850100755692,"16":0.040423858910799026,"17":0.05115719139575958,"18":-0.06657727062702179,"19":-0.010589937679469585,"20":0.1172599047422409,"21":0.1973257213830948,"22":0.17136181890964508,"23":-0.06094878539443016,"24":-0.17342612147331238,"25":0.1928526759147644,"26":-0.11157122254371643,"27":-0.23148325085639954,"28":0.2623264193534851,"29":-0.087502121925354,"30":0.05038441717624664,"31":0.19258379936218262,"32":1.6642121076583862,"33":0.036263711750507355,"34":-0.09543415904045105,"35":-0.03306042030453682,"36":0.10196257382631302,"37":0.8015987873077393,"38":-0.9681109189987183,"39":0.06201169267296791,"40":0.056542377918958664,"41":0.05546501278877258,"42":-2.066568613052368,"43":0.6265580058097839,"44":0.13403286039829254,"45":0.1624191403388977,"46":0.3571227788925171,"47":0.45968833565711975,"48":1.8557988405227661,"49":0.5959806442260742,"50":-1.1610429286956787,"51":0.34385931491851807,"52":-0.5362177491188049,"53":0.7208476066589355,"54":-0.32726508378982544,"55":-1.4256714582443237,"56":-1.1050626039505005,"57":3.364903211593628,"58":-2.6050333976745605,"59":-2.912120819091797,"60":1.9085274934768677,"61":0.45267078280448914,"62":-0.4317822754383087,"63":-0.6333755254745483,"64":1.5807915925979614,"65":0.7131585478782654,"66":0.7606939673423767,"67":-0.3307255804538727,"68":0.6417317390441895,"69":2.644179344177246,"70":-0.14486746490001678,"71":0.034698229283094406,"72":-0.21992400288581848,"73":-1.228701114654541,"74":0.054670289158821106,"75":-0.21154354512691498,"76":-0.3110526204109192,"77":-1.5728003978729248,"78":-0.9539169669151306,"79":1.076289176940918,"80":-1.2430617809295654,"81":0.22140659391880035,"82":0.6459882855415344,"83":0.012669341638684273,"84":0.619425356388092,"85":0.45988237857818604,"86":0.5509626865386963,"87":1.5665918588638306,"88":-1.2936151027679443,"89":1.0546784400939941,"90":-0.26411619782447815,"91":-0.3613515794277191,"92":-0.1283726543188095,"93":-0.2567356526851654,"94":-0.5441489815711975,"95":-0.10439103096723557,"96":-0.08653225749731064,"97":-0.11963886767625809,"98":-0.22519993782043457,"99":0.8143426179885864,"100":-3.3309154510498047,"101":-5.257805824279785}},"20":{"bias":-0.017064649611711502,"weights":{"0":-0.18369174003601074,"1":0.10922278463840485,"2":0.03569561615586281,"3":-0.07174720615148544,"4":0.10965380817651749,"5":-0.11847073584794998,"6":-0.18492861092090607,"7":0.18884986639022827,"8":0.12405167520046234,"9":0.19668035209178925,"10":0.0020972506608814,"11":0.10712894052267075,"12":0.11663706600666046,"13":-0.024377942085266113,"14":0.040391117334365845,"15":0.10331955552101135,"16":0.002280991291627288,"17":0.14118102192878723,"18":-0.16778647899627686,"19":-0.02311655506491661,"20":-0.14030088484287262,"21":0.18573792278766632,"22":-0.18459349870681763,"23":0.08006741106510162,"24":-0.024502716958522797,"25":0.14759039878845215,"26":-0.02564760483801365,"27":0.21463322639465332,"28":0.011035892181098461,"29":0.050163812935352325,"30":0.0972965732216835,"31":-0.11830305308103561,"32":0.2808474898338318,"33":0.004621237050741911,"34":-0.15826308727264404,"35":0.12274061888456345,"36":0.04607518017292023,"37":0.08746973425149918,"38":0.02957938238978386,"39":0.0015666733961552382,"40":0.11776647716760635,"41":0.07085996121168137,"42":0.23500116169452667,"43":0.5560669898986816,"44":-0.1573561578989029,"45":0.12729144096374512,"46":0.09027285128831863,"47":1.2681711912155151,"48":1.1003942489624023,"49":0.0018627087119966745,"50":0.7481743097305298,"51":0.4436436593532562,"52":0.598103404045105,"53":0.5662376284599304,"54":0.0810527354478836,"55":-0.44159218668937683,"56":-0.06247255578637123,"57":-0.129229336977005,"58":-0.33814436197280884,"59":0.04961693659424782,"60":0.06277120113372803,"61":-0.14976204931735992,"62":-0.14868813753128052,"63":-0.375688761472702,"64":-0.522261381149292,"65":-0.540566086769104,"66":-0.6664924025535583,"67":-0.2162604182958603,"68":-0.26189661026000977,"69":-0.8008758425712585,"70":0.33043742179870605,"71":0.2283438891172409,"72":0.25276947021484375,"73":0.11908267438411713,"74":0.07191682606935501,"75":0.06437774747610092,"76":0.35384878516197205,"77":-0.025692792609333992,"78":0.018491342663764954,"79":0.3691574037075043,"80":-0.4044928252696991,"81":0.6070281267166138,"82":0.12565891444683075,"83":-0.2867530882358551,"84":-0.29546481370925903,"85":-0.4261831045150757,"86":-0.24265849590301514,"87":0.11490964144468307,"88":0.28925439715385437,"89":-0.3358769714832306,"90":-0.1361171454191208,"91":-0.044818613678216934,"92":0.1139143705368042,"93":-0.19082553684711456,"94":-0.06523706018924713,"95":-0.24765241146087646,"96":0.12570764124393463,"97":-0.1711500883102417,"98":-0.037558432668447495,"99":0.37693801522254944,"100":0.030036579817533493,"101":-1.3945095539093018}},"21":{"bias":-0.22248734533786774,"weights":{"0":0.06820826232433319,"1":-0.012070306576788425,"2":-0.13305358588695526,"3":0.19806130230426788,"4":-0.0690382719039917,"5":0.05578622967004776,"6":0.03863517940044403,"7":-0.0962337777018547,"8":0.12403426319360733,"9":-0.03562088683247566,"10":-0.06547055393457413,"11":-0.008776270784437656,"12":-0.12714385986328125,"13":0.07433943450450897,"14":-0.007068777922540903,"15":0.034773170948028564,"16":0.17266425490379333,"17":0.07530530542135239,"18":-0.049628570675849915,"19":0.14179493486881256,"20":-0.17244403064250946,"21":-0.1406947672367096,"22":0.16673916578292847,"23":0.11270618438720703,"24":0.12847848236560822,"25":-0.049100231379270554,"26":0.03405829146504402,"27":-0.1352992206811905,"28":0.1341029852628708,"29":0.11099598556756973,"30":-0.0998738706111908,"31":-0.03202424570918083,"32":-0.06864401698112488,"33":0.1098722368478775,"34":0.18377667665481567,"35":0.13606144487857819,"36":-0.017518434673547745,"37":0.14989878237247467,"38":0.2237899899482727,"39":-0.11601725220680237,"40":-0.0978231430053711,"41":-0.02687615342438221,"42":0.16628533601760864,"43":0.03739425912499428,"44":-0.1036185622215271,"45":0.10005409270524979,"46":0.067317433655262,"47":-0.015928111970424652,"48":-0.543803334236145,"49":0.13017305731773376,"50":0.11755366623401642,"51":-0.15053266286849976,"52":-0.04062081128358841,"53":-0.09877217561006546,"54":-0.08912529051303864,"55":-0.14220567047595978,"56":-0.17419297993183136,"57":-0.47259393334388733,"58":0.12505707144737244,"59":-0.09220832586288452,"60":-0.07234648615121841,"61":-0.0733320415019989,"62":-0.1811753213405609,"63":-0.1555202305316925,"64":-0.05996211618185043,"65":-0.10431655496358871,"66":-0.2906251847743988,"67":-0.26069697737693787,"68":-0.3537318706512451,"69":-0.2264116108417511,"70":0.0468987338244915,"71":0.04563811793923378,"72":-0.1963769495487213,"73":-0.29773855209350586,"74":-0.08240208029747009,"75":-0.1699480563402176,"76":-0.17958588898181915,"77":0.037533439695835114,"78":-0.03800234943628311,"79":-0.36151403188705444,"80":-0.060178618878126144,"81":-0.5291687846183777,"82":-0.09836294502019882,"83":0.014810056425631046,"84":-0.1199631318449974,"85":0.1002303808927536,"86":-0.015184941701591015,"87":0.15833580493927002,"88":0.0036608653608709574,"89":-0.19870780408382416,"90":-0.018858149647712708,"91":-0.0006901818560436368,"92":-0.10091100633144379,"93":-0.017068764194846153,"94":0.023888390511274338,"95":-0.009148895740509033,"96":-0.23573441803455353,"97":-0.0173605065792799,"98":-0.02372015453875065,"99":-0.2857426702976227,"100":0.010766258463263512,"101":-0.2739087641239166}},"22":{"bias":-0.04172686114907265,"weights":{"0":0.018018364906311035,"1":-0.07472346723079681,"2":0.12370629608631134,"3":-0.10293404757976532,"4":-0.1466604322195053,"5":-0.03680327162146568,"6":0.0938943400979042,"7":0.19846107065677643,"8":-0.1565150022506714,"9":-0.06416045874357224,"10":0.10136063396930695,"11":0.1451139599084854,"12":0.08500431478023529,"13":-0.193455770611763,"14":0.004942188039422035,"15":0.010861587710678577,"16":-0.18151473999023438,"17":0.11812182515859604,"18":-0.18673451244831085,"19":-0.0900188609957695,"20":-0.10647028684616089,"21":-0.05140184611082077,"22":-0.16034233570098877,"23":0.005828178953379393,"24":-0.13221804797649384,"25":0.16493389010429382,"26":0.19776107370853424,"27":-0.021033896133303642,"28":0.5041759610176086,"29":0.14711622893810272,"30":0.004592324607074261,"31":-0.14282099902629852,"32":0.3827258050441742,"33":-0.19630186259746552,"34":-0.10125891864299774,"35":-0.13891729712486267,"36":0.5933983325958252,"37":0.5490511059761047,"38":-0.28068235516548157,"39":-0.14091452956199646,"40":0.47149181365966797,"41":0.07456065714359283,"42":-0.3199211657047272,"43":0.028951290994882584,"44":0.09605681896209717,"45":0.07760760188102722,"46":0.31171944737434387,"47":0.5859005451202393,"48":0.11897927522659302,"49":-0.32086482644081116,"50":0.08120976388454437,"51":0.2904101014137268,"52":0.8745737075805664,"53":0.9240476489067078,"54":0.820767879486084,"55":-1.3050557374954224,"56":-0.6226692199707031,"57":0.4826286733150482,"58":-0.26437634229660034,"59":-1.1772575378417969,"60":0.6242774724960327,"61":0.49055197834968567,"62":0.5711473822593689,"63":0.18013811111450195,"64":-0.21099774539470673,"65":-0.7378993630409241,"66":-0.8563762903213501,"67":-0.27058854699134827,"68":-0.3984270989894867,"69":-0.2226036787033081,"70":0.05654279887676239,"71":0.2914257347583771,"72":-0.02611815370619297,"73":0.34786853194236755,"74":-0.4343973994255066,"75":-0.5292968153953552,"76":0.30538374185562134,"77":-1.0823198556900024,"78":-0.33515575528144836,"79":0.8853124976158142,"80":-1.1370151042938232,"81":1.557229995727539,"82":0.12470383197069168,"83":-0.09946390986442566,"84":-0.29453742504119873,"85":-0.9344256520271301,"86":-0.6689384579658508,"87":0.7050299644470215,"88":-0.38358354568481445,"89":-0.6944846510887146,"90":0.1433619111776352,"91":0.3974400460720062,"92":0.11987845599651337,"93":0.2272203266620636,"94":0.32107779383659363,"95":0.26879480481147766,"96":0.3129008412361145,"97":0.25636109709739685,"98":0.34703782200813293,"99":0.6085730195045471,"100":-0.20509585738182068,"101":-2.3570547103881836}},"23":{"bias":0.27341559529304504,"weights":{"0":0.02320050820708275,"1":-0.06912033259868622,"2":0.1898633986711502,"3":-0.05159344896674156,"4":0.10680782049894333,"5":0.04870476946234703,"6":-0.07864221930503845,"7":-0.04858943447470665,"8":-0.10708364844322205,"9":0.028157366439700127,"10":0.14785096049308777,"11":-0.1823321282863617,"12":0.09668046981096268,"13":-0.1077491044998169,"14":0.10233356058597565,"15":-0.10116654634475708,"16":-0.14255419373512268,"17":0.16025666892528534,"18":0.01826220005750656,"19":-0.19408471882343292,"20":-0.05100545287132263,"21":0.07197203487157822,"22":-0.1712452471256256,"23":-0.009792468510568142,"24":-0.03560038283467293,"25":0.07669313251972198,"26":0.024780575186014175,"27":0.08558854460716248,"28":-0.1694653332233429,"29":0.19729052484035492,"30":-0.08168917149305344,"31":-0.19957725703716278,"32":-0.2915227711200714,"33":-0.19734081625938416,"34":0.11408796161413193,"35":0.13362546265125275,"36":-0.27667108178138733,"37":-0.28462356328964233,"38":0.2817399799823761,"39":-0.2767290472984314,"40":0.05906754359602928,"41":0.06122750788927078,"42":-0.14746612310409546,"43":0.42134156823158264,"44":-0.158440962433815,"45":0.019872823730111122,"46":-0.6144629120826721,"47":-1.5968314409255981,"48":-1.3206802606582642,"49":-0.7839995622634888,"50":0.1626463085412979,"51":-0.9319095015525818,"52":-0.6375712752342224,"53":0.2936897277832031,"54":0.2126365453004837,"55":0.8710299134254456,"56":0.22275157272815704,"57":0.03006945177912712,"58":0.4082733988761902,"59":0.21994394063949585,"60":-0.9225651025772095,"61":-0.20781129598617554,"62":-0.7258947491645813,"63":-0.16313062608242035,"64":-0.30807822942733765,"65":-0.214411661028862,"66":0.06127345561981201,"67":-0.5842519998550415,"68":-0.23105359077453613,"69":-0.7548359632492065,"70":-0.20901618897914886,"71":-0.30899524688720703,"72":-0.1748361736536026,"73":-0.45725584030151367,"74":-0.002403979655355215,"75":0.16414140164852142,"76":-0.3620266318321228,"77":0.5748146176338196,"78":0.6924510598182678,"79":-0.5916821956634521,"80":0.5255122780799866,"81":-0.8647850155830383,"82":0.28145188093185425,"83":0.09331195056438446,"84":0.12052248418331146,"85":0.24684996902942657,"86":0.08845728635787964,"87":-0.4777989387512207,"88":0.22299571335315704,"89":0.1614619642496109,"90":-0.14115744829177856,"91":-0.16802233457565308,"92":-0.5619116425514221,"93":-0.300606369972229,"94":-0.10841734707355499,"95":-0.622726321220398,"96":-0.39398711919784546,"97":-0.46596360206604004,"98":-0.5259160995483398,"99":-0.8588953018188477,"100":-1.0385881662368774,"101":2.4107580184936523}},"24":{"bias":-0.16438092291355133,"weights":{"0":0.049806516617536545,"1":0.1116626188158989,"2":-0.1883159875869751,"3":-0.03529750555753708,"4":0.028438519686460495,"5":-0.04112932085990906,"6":-0.0020123226568102837,"7":0.06369269639253616,"8":-0.1225862056016922,"9":-0.10323211550712585,"10":0.1953778713941574,"11":-0.11605758965015411,"12":0.07357470691204071,"13":0.15225669741630554,"14":-0.029327528551220894,"15":-0.007771588861942291,"16":-0.026799989864230156,"17":-0.016454678028821945,"18":0.1564650982618332,"19":0.1288025975227356,"20":0.11022204905748367,"21":-0.14849480986595154,"22":0.16890116035938263,"23":-0.03796493262052536,"24":0.11079126596450806,"25":-0.17214104533195496,"26":-0.052904389798641205,"27":0.22036945819854736,"28":0.03580210730433464,"29":-0.1439840942621231,"30":-0.01273407880216837,"31":0.08100023120641708,"32":0.43703940510749817,"33":-0.1880386918783188,"34":-0.10868624597787857,"35":-0.11869325488805771,"36":-0.08547386527061462,"37":0.34165215492248535,"38":-0.18877311050891876,"39":-0.026830419898033142,"40":0.4350433051586151,"41":0.07466383278369904,"42":-0.41035619378089905,"43":0.043915148824453354,"44":0.13430161774158478,"45":-0.19533388316631317,"46":0.2032167762517929,"47":1.3650528192520142,"48":0.36440184712409973,"49":-0.007275345269590616,"50":0.5441422462463379,"51":0.19040997326374054,"52":0.25318238139152527,"53":0.23828603327274323,"54":-0.055368177592754364,"55":-0.9966212511062622,"56":0.19765792787075043,"57":0.11541591584682465,"58":-0.4336865544319153,"59":0.338774710893631,"60":0.8524232506752014,"61":-0.13650000095367432,"62":-0.2550986409187317,"63":-0.38373294472694397,"64":-0.6510393619537354,"65":-0.5519677996635437,"66":-0.6541334390640259,"67":-0.5116342902183533,"68":-0.3580775260925293,"69":-0.6378617882728577,"70":0.3373405933380127,"71":0.40274640917778015,"72":0.32142409682273865,"73":0.087038055062294,"74":-0.051816824823617935,"75":-0.3452812433242798,"76":0.028981897979974747,"77":-0.6056581735610962,"78":0.1325797289609909,"79":0.12502451241016388,"80":-0.25315216183662415,"81":0.7062337398529053,"82":-0.021605538204312325,"83":-0.41032135486602783,"84":-0.1902046501636505,"85":-0.8398267030715942,"86":-0.5265643000602722,"87":0.26050353050231934,"88":0.2899734675884247,"89":-0.8010417222976685,"90":0.12539514899253845,"91":0.12215220183134079,"92":-0.10130570828914642,"93":0.17321960628032684,"94":-0.07545393705368042,"95":0.14611606299877167,"96":-0.12347500026226044,"97":-0.06295225024223328,"98":-0.15858523547649384,"99":0.22709526121616364,"100":-0.739475667476654,"101":-2.299445867538452}},"25":{"bias":0.04410209134221077,"weights":{"0":0.1195143312215805,"1":0.18457186222076416,"2":0.10020241886377335,"3":-0.15102295577526093,"4":-0.16261936724185944,"5":0.08850706368684769,"6":-0.11716067045927048,"7":0.17667929828166962,"8":-0.08114630728960037,"9":0.1643029898405075,"10":0.15431281924247742,"11":-0.1469995528459549,"12":-0.17942139506340027,"13":0.04485395923256874,"14":0.006798128597438335,"15":-0.08010777086019516,"16":-0.1688847541809082,"17":0.06601367145776749,"18":-0.03561236336827278,"19":0.12368263304233551,"20":-0.06500215083360672,"21":-0.1564733237028122,"22":0.1621686816215515,"23":0.16345353424549103,"24":-0.1883203536272049,"25":0.049144670367240906,"26":0.05206366628408432,"27":0.3477279543876648,"28":0.7162291407585144,"29":-0.09466540813446045,"30":0.049925919622182846,"31":0.0952182486653328,"32":0.5457189083099365,"33":-0.08899497240781784,"34":0.16619817912578583,"35":-0.026591312140226364,"36":0.6198046803474426,"37":0.6952897310256958,"38":-0.05126427114009857,"39":-0.19025059044361115,"40":0.10019617527723312,"41":0.09604008495807648,"42":-0.05902421846985817,"43":1.0772156715393066,"44":0.052447300404310226,"45":-0.07507011294364929,"46":0.39235830307006836,"47":0.5295335650444031,"48":2.3638195991516113,"49":0.7546321153640747,"50":1.0111918449401855,"51":0.5960803627967834,"52":2.2560853958129883,"53":1.1034899950027466,"54":0.8389049768447876,"55":-1.26541006565094,"56":-0.8699689507484436,"57":0.09841863065958023,"58":-1.1377272605895996,"59":-0.45780742168426514,"60":0.22091512382030487,"61":0.6289788484573364,"62":0.6917725801467896,"63":0.2783236801624298,"64":0.185397207736969,"65":-0.8175118565559387,"66":-0.6826580762863159,"67":-0.09161638468503952,"68":-0.4371910095214844,"69":-1.8373218774795532,"70":0.0971694141626358,"71":-0.0810132846236229,"72":0.18918050825595856,"73":0.09318682551383972,"74":-0.3438672125339508,"75":-0.4467166066169739,"76":-0.2603119909763336,"77":-0.5947750806808472,"78":-0.15508387982845306,"79":0.20056398212909698,"80":-0.371316134929657,"81":1.3358807563781738,"82":0.28726518154144287,"83":0.09296480566263199,"84":0.06264018267393112,"85":-0.4401068687438965,"86":-0.3320537805557251,"87":0.5502762794494629,"88":0.975633442401886,"89":-0.6356393098831177,"90":-0.20907141268253326,"91":-0.24036957323551178,"92":-0.24768024682998657,"93":0.127291738986969,"94":-0.06778764724731445,"95":-0.07432601600885391,"96":0.030790837481617928,"97":-0.07434818893671036,"98":0.03073933534324169,"99":0.5351917147636414,"100":0.4081365168094635,"101":-2.1577770709991455}},"26":{"bias":0.00488086836412549,"weights":{"0":-0.0540546178817749,"1":-0.1768788844347,"2":-0.04870036989450455,"3":-0.10374587774276733,"4":0.013291875831782818,"5":0.13639947772026062,"6":0.05161023139953613,"7":0.015709303319454193,"8":-0.17366951704025269,"9":-0.19067776203155518,"10":0.0833321362733841,"11":-0.007033166941255331,"12":0.10134220123291016,"13":-0.13718144595623016,"14":0.19539685547351837,"15":0.14625731110572815,"16":-0.037973105907440186,"17":-0.07144656777381897,"18":0.1135808452963829,"19":-0.12472620606422424,"20":-0.0515381395816803,"21":0.04433416947722435,"22":0.19062486290931702,"23":-0.1298726350069046,"24":-0.16818800568580627,"25":0.14101438224315643,"26":-0.000672497961204499,"27":-0.12325959652662277,"28":-0.07124252617359161,"29":-0.051053836941719055,"30":0.03571352735161781,"31":0.1567622721195221,"32":0.5751738548278809,"33":-0.04412922263145447,"34":0.18381667137145996,"35":-0.10943366587162018,"36":0.13634757697582245,"37":0.2733144462108612,"38":0.11099234223365784,"39":0.054884929209947586,"40":0.28786274790763855,"41":-0.025784630328416824,"42":-0.42853450775146484,"43":0.39987581968307495,"44":0.08128887414932251,"45":-0.017474420368671417,"46":0.34427323937416077,"47":0.5191136002540588,"48":1.0959686040878296,"49":0.17947882413864136,"50":1.2289884090423584,"51":0.4384569823741913,"52":0.4269114136695862,"53":0.602823793888092,"54":-0.21764108538627625,"55":-0.9657853841781616,"56":0.6353108882904053,"57":0.09665761142969131,"58":-0.2596813142299652,"59":0.9303656816482544,"60":1.216390609741211,"61":0.11072798818349838,"62":0.0861087515950203,"63":-0.1399536281824112,"64":-0.2869899272918701,"65":-0.3019634783267975,"66":-0.37526190280914307,"67":-0.39112016558647156,"68":-0.3417213559150696,"69":0.3099382519721985,"70":0.3390628397464752,"71":0.2968403995037079,"72":0.19404853880405426,"73":0.22785699367523193,"74":-0.17210635542869568,"75":-0.24265077710151672,"76":0.27311059832572937,"77":-0.2522432804107666,"78":-0.08072486519813538,"79":-0.1507655829191208,"80":-0.30672693252563477,"81":0.43611225485801697,"82":-0.07292492687702179,"83":-0.26029765605926514,"84":-0.11824551969766617,"85":-0.5718814730644226,"86":-0.5740140080451965,"87":0.4987827241420746,"88":-0.509035587310791,"89":-0.6028528213500977,"90":-0.17406588792800903,"91":-0.17126798629760742,"92":-0.07486722618341446,"93":-0.09537069499492645,"94":0.09354212880134583,"95":0.0197937972843647,"96":-0.24310675263404846,"97":-0.19333985447883606,"98":-0.12421301007270813,"99":0.34837353229522705,"100":-0.7283901572227478,"101":-3.793626070022583}},"27":{"bias":-0.36425110697746277,"weights":{"0":0.005611644592136145,"1":-0.10277839750051498,"2":-0.1375454068183899,"3":-0.052099358290433884,"4":-0.18319223821163177,"5":0.17109201848506927,"6":0.1583879441022873,"7":-0.09515689313411713,"8":-0.059842586517333984,"9":0.05643438175320625,"10":0.0793980285525322,"11":0.09852779656648636,"12":-0.19872531294822693,"13":0.11709821224212646,"14":-0.14689688384532928,"15":-0.03091289848089218,"16":0.14674322307109833,"17":0.1939597725868225,"18":0.19487473368644714,"19":0.009436256252229214,"20":-0.046806562691926956,"21":-0.027993986383080482,"22":-0.10462111234664917,"23":-0.034731995314359665,"24":0.10341017693281174,"25":-0.10519973933696747,"26":0.0771242305636406,"27":-0.08030575513839722,"28":-0.21501360833644867,"29":-0.07185738533735275,"30":-0.11619346588850021,"31":0.11067302525043488,"32":0.22914527356624603,"33":-0.13985313475131989,"34":0.023971620947122574,"35":0.13245394825935364,"36":-0.09164055436849594,"37":0.23933616280555725,"38":0.08788279443979263,"39":-0.09378425776958466,"40":0.22831645607948303,"41":0.19438979029655457,"42":-0.34249797463417053,"43":-0.26058682799339294,"44":0.18041841685771942,"45":-0.07800126075744629,"46":0.03880912438035011,"47":-0.5860462188720703,"48":-0.4200730621814728,"49":-0.019019372761249542,"50":0.46751925349235535,"51":-0.1839415282011032,"52":-0.5261681079864502,"53":0.0803012028336525,"54":-0.3185761570930481,"55":-0.03793779015541077,"56":-0.28846991062164307,"57":-0.28131479024887085,"58":-0.5181673169136047,"59":0.25588178634643555,"60":0.5769771337509155,"61":-0.5048764944076538,"62":-0.23617145419120789,"63":0.02025199681520462,"64":0.06751686334609985,"65":0.3016812801361084,"66":0.1075226292014122,"67":-0.023782609030604362,"68":0.14002682268619537,"69":-0.24926556646823883,"70":-0.03853654861450195,"71":0.13263250887393951,"72":0.19122357666492462,"73":0.1365579217672348,"74":0.07149423658847809,"75":0.10997775942087173,"76":0.008802586235105991,"77":0.16294153034687042,"78":-0.002953710500150919,"79":-0.06422709673643112,"80":-0.2781805396080017,"81":-0.01974616013467312,"82":-0.10402504354715347,"83":-0.5356994867324829,"84":-0.3034921884536743,"85":-0.28809472918510437,"86":-0.4582368731498718,"87":-0.21919766068458557,"88":-0.44496363401412964,"89":-0.44248005747795105,"90":-0.22799378633499146,"91":-0.08789540827274323,"92":-0.2544426918029785,"93":-0.312166303396225,"94":-0.2739613354206085,"95":-0.23151808977127075,"96":-0.025870898738503456,"97":-0.17372974753379822,"98":-0.26999109983444214,"99":-0.09639204293489456,"100":0.02902258187532425,"101":-0.7750340700149536}},"28":{"bias":-0.04349473863840103,"weights":{"0":0.09438212960958481,"1":-0.036895327270030975,"2":0.1795668601989746,"3":-0.1253739446401596,"4":-0.1812431961297989,"5":0.15361598134040833,"6":-0.15823106467723846,"7":-0.07567912340164185,"8":-0.16913451254367828,"9":0.07172169536352158,"10":-0.16111618280410767,"11":0.18267470598220825,"12":0.1270376741886139,"13":0.18411292135715485,"14":-0.0034309697803109884,"15":0.04792242497205734,"16":0.12659497559070587,"17":0.12474062293767929,"18":-0.15895244479179382,"19":-0.10135107487440109,"20":-0.08152249455451965,"21":0.1505192518234253,"22":0.004453571513295174,"23":-0.1524086743593216,"24":-0.10020424425601959,"25":-0.005375654902309179,"26":-0.1460668295621872,"27":0.18580473959445953,"28":0.026054689660668373,"29":-0.09405097365379333,"30":0.11403027176856995,"31":0.09274922311306,"32":-0.17110882699489594,"33":0.18586666882038116,"34":-0.13575878739356995,"35":-0.10884562134742737,"36":-0.09709830582141876,"37":0.08914288133382797,"38":-0.13426971435546875,"39":-0.00019045187218580395,"40":0.28104907274246216,"41":0.03699912875890732,"42":-0.25571921467781067,"43":0.04826568439602852,"44":0.17700941860675812,"45":-0.09981159120798111,"46":0.10621532052755356,"47":-0.16453967988491058,"48":-0.38564908504486084,"49":0.08591505885124207,"50":0.6322936415672302,"51":-0.15162314474582672,"52":-0.7101349830627441,"53":-0.25331422686576843,"54":-0.28734588623046875,"55":0.3010183870792389,"56":-0.20130617916584015,"57":-0.7373587489128113,"58":-0.07562591135501862,"59":0.03721773251891136,"60":0.13063932955265045,"61":-0.21929509937763214,"62":0.01139626931399107,"63":0.241633802652359,"64":0.09493419528007507,"65":-0.13013264536857605,"66":-0.02675771340727806,"67":-0.11236811429262161,"68":-0.12633877992630005,"69":0.007345352787524462,"70":0.06266600638628006,"71":0.19029057025909424,"72":0.033495914191007614,"73":-0.17167389392852783,"74":-0.36388278007507324,"75":-0.3060723543167114,"76":0.17177772521972656,"77":0.16531649231910706,"78":-0.05603540316224098,"79":-0.23385779559612274,"80":-0.13307936489582062,"81":-0.4519265294075012,"82":-0.3706929385662079,"83":-0.0034926747903227806,"84":-0.06050251051783562,"85":-0.04977837949991226,"86":-0.18116667866706848,"87":0.12628653645515442,"88":-0.04514552280306816,"89":-0.05109040439128876,"90":-0.09918473660945892,"91":-0.2608361840248108,"92":-0.011901392601430416,"93":-0.2449800968170166,"94":-0.1442195028066635,"95":-0.004199777264147997,"96":0.0021092731039971113,"97":-0.21290358901023865,"98":-0.2498876005411148,"99":-0.056993868201971054,"100":0.33450838923454285,"101":-0.22087836265563965}},"29":{"bias":0.22500863671302795,"weights":{"0":0.12843556702136993,"1":0.11405513435602188,"2":0.11789893358945847,"3":0.13496193289756775,"4":0.006082326173782349,"5":-0.10962040722370148,"6":0.06697817146778107,"7":0.04878993332386017,"8":0.15507321059703827,"9":-0.027291199192404747,"10":0.0021707082632929087,"11":-0.1272910237312317,"12":0.032145608216524124,"13":0.0646049976348877,"14":0.10731635242700577,"15":0.09491514414548874,"16":-0.16063164174556732,"17":0.0573788657784462,"18":0.2899917662143707,"19":-0.04109958931803703,"20":0.09962636232376099,"21":0.010252921842038631,"22":0.14206160604953766,"23":-0.06283564120531082,"24":0.15062768757343292,"25":-0.007524356711655855,"26":-0.16534268856048584,"27":-0.1216132640838623,"28":0.026084931567311287,"29":-0.05557427927851677,"30":0.16177316009998322,"31":0.11434337496757507,"32":-0.06306014209985733,"33":0.11378946155309677,"34":0.07839486747980118,"35":0.16063588857650757,"36":-0.22240032255649567,"37":-0.09079219400882721,"38":-0.03266172111034393,"39":-0.06305238604545593,"40":-0.014475258998572826,"41":0.0002660054888110608,"42":-0.060985807329416275,"43":-0.03442607820034027,"44":-0.179922953248024,"45":0.012252391315996647,"46":0.16984453797340393,"47":-0.3871176838874817,"48":-0.9567216634750366,"49":0.31254062056541443,"50":0.34714561700820923,"51":-0.3604682683944702,"52":-1.2743152379989624,"53":-0.6069003343582153,"54":0.15471695363521576,"55":-0.14766190946102142,"56":-0.11213627457618713,"57":-0.8890590667724609,"58":-0.31097468733787537,"59":0.2595624029636383,"60":0.23361048102378845,"61":-0.19898176193237305,"62":0.1248306930065155,"63":0.30125629901885986,"64":0.24366196990013123,"65":-0.10792955011129379,"66":0.19919341802597046,"67":0.027836864814162254,"68":0.08187666535377502,"69":-0.4637050926685333,"70":-0.10252052545547485,"71":-0.2482195347547531,"72":-0.3992292284965515,"73":-0.8669465780258179,"74":-0.3414497971534729,"75":-0.3303688168525696,"76":-0.010812765918672085,"77":-0.1147233247756958,"78":-0.1636163890361786,"79":-0.1762358546257019,"80":0.9463284015655518,"81":-1.145554780960083,"82":-0.3707118332386017,"83":0.06583874672651291,"84":-0.27959123253822327,"85":-0.04767313599586487,"86":-0.1776828169822693,"87":0.5509698987007141,"88":-0.23093034327030182,"89":0.4928530752658844,"90":0.1940837800502777,"91":-0.14007911086082458,"92":-0.06703690439462662,"93":-0.07045894861221313,"94":-0.08130547404289246,"95":-0.1989625096321106,"96":0.09073827415704727,"97":0.05559452995657921,"98":-0.032945092767477036,"99":-0.3693048655986786,"100":0.3783273696899414,"101":0.8441430330276489}},"30":{"bias":0.7102210521697998,"weights":{"0":-0.14509013295173645,"1":-0.1407872885465622,"2":-0.08530028909444809,"3":-0.0761599987745285,"4":0.1445096880197525,"5":-0.03878936916589737,"6":0.19765879213809967,"7":0.1312132477760315,"8":-0.16660460829734802,"9":0.08065111190080643,"10":-0.042271289974451065,"11":-0.019691627472639084,"12":0.015423756092786789,"13":-0.0441199392080307,"14":0.15118564665317535,"15":-0.014086772687733173,"16":-0.008029512129724026,"17":0.15418501198291779,"18":-0.1302679479122162,"19":0.05478822439908981,"20":0.023099863901734352,"21":0.006627209950238466,"22":-0.18620137870311737,"23":0.15918295085430145,"24":-0.10405531525611877,"25":0.056635402143001556,"26":0.05857587978243828,"27":-0.06318109482526779,"28":0.08315572142601013,"29":-0.11991909891366959,"30":-0.13434404134750366,"31":-0.11824454367160797,"32":-0.8901172876358032,"33":-0.17667706310749054,"34":-0.15668362379074097,"35":0.004915599245578051,"36":0.3210848569869995,"37":-0.5628316402435303,"38":0.2843197286128998,"39":-0.12609966099262238,"40":-0.0573563352227211,"41":0.18396539986133575,"42":1.1017347574234009,"43":-0.20983190834522247,"44":0.15127061307430267,"45":-0.18603262305259705,"46":0.1419307291507721,"47":-0.718320369720459,"48":-1.107290506362915,"49":0.08516101539134979,"50":-0.05668807402253151,"51":-0.4529161751270294,"52":-0.06538084149360657,"53":-0.3933805525302887,"54":0.5900420546531677,"55":2.1638784408569336,"56":-0.6062939167022705,"57":0.6162715554237366,"58":0.12740443646907806,"59":0.18198874592781067,"60":-0.46810802817344666,"61":-0.2089308649301529,"62":0.05172015726566315,"63":1.0781053304672241,"64":-0.5737841129302979,"65":-0.28777989745140076,"66":-0.8385172486305237,"67":-0.018374307081103325,"68":-0.5694183707237244,"69":-0.3493117690086365,"70":-0.39050784707069397,"71":-0.8638890981674194,"72":-0.6890998482704163,"73":-0.8430593609809875,"74":-0.22871483862400055,"75":0.4112337827682495,"76":-1.549904227256775,"77":0.452883243560791,"78":-0.29487502574920654,"79":-0.4308345913887024,"80":0.2487751841545105,"81":-4.438157558441162,"82":-0.5171124339103699,"83":0.11448760330677032,"84":0.13802751898765564,"85":0.47689834237098694,"86":0.4603688418865204,"87":-2.2040655612945557,"88":-0.8392056822776794,"89":0.5328372716903687,"90":-0.3637964129447937,"91":-0.08485949039459229,"92":-0.20701220631599426,"93":-0.0320887491106987,"94":0.050794947892427444,"95":-0.24710853397846222,"96":-0.2899772822856903,"97":-0.06519244611263275,"98":-0.22458350658416748,"99":-1.086193561553955,"100":2.5869863033294678,"101":3.7770261764526367}},"31":{"bias":0.05497037246823311,"weights":{"0":-0.17026235163211823,"1":-0.0604744628071785,"2":0.055626243352890015,"3":-0.15548820793628693,"4":0.07631754875183105,"5":-0.16381245851516724,"6":-0.025111686438322067,"7":-0.12966878712177277,"8":-0.19065970182418823,"9":-0.005964978598058224,"10":-0.008952139876782894,"11":0.1668487936258316,"12":-0.05895482003688812,"13":-0.009118709713220596,"14":-0.13146567344665527,"15":0.14831288158893585,"16":0.18647393584251404,"17":-0.07361495494842529,"18":0.3094426095485687,"19":0.03031752072274685,"20":-0.16017083823680878,"21":-0.1344626098871231,"22":0.12616337835788727,"23":0.18163704872131348,"24":0.1714368313550949,"25":0.1748640090227127,"26":-0.13104332983493805,"27":-0.1513253152370453,"28":0.00997383613139391,"29":-0.1882968246936798,"30":0.1553466022014618,"31":-0.18642811477184296,"32":0.11768689751625061,"33":-0.0315898135304451,"34":0.09845338761806488,"35":-0.06316034495830536,"36":-0.1743747442960739,"37":-0.05604659765958786,"38":0.4556466042995453,"39":-0.5095085501670837,"40":0.07378086447715759,"41":0.09599634259939194,"42":-0.60740065574646,"43":0.30809375643730164,"44":0.14560860395431519,"45":0.1041829064488411,"46":-0.13638941943645477,"47":-0.8211599588394165,"48":-2.0692617893218994,"49":-0.13091807067394257,"50":-0.4494014084339142,"51":-0.7260656952857971,"52":0.00534038245677948,"53":-0.3947829306125641,"54":0.09150722622871399,"55":-0.2684371769428253,"56":0.17318007349967957,"57":-0.7485978603363037,"58":1.9658633470535278,"59":0.9775145649909973,"60":-0.6277438402175903,"61":0.45094388723373413,"62":0.7809507250785828,"63":0.9480514526367188,"64":0.6656144261360168,"65":0.5171279907226562,"66":0.6156501770019531,"67":0.2151755839586258,"68":-0.016056235879659653,"69":0.653413712978363,"70":-0.4948732256889343,"71":-0.9399176836013794,"72":-0.8192148804664612,"73":-1.0896927118301392,"74":-0.24791578948497772,"75":-0.12906940281391144,"76":-0.7820015549659729,"77":0.1796303242444992,"78":0.12686976790428162,"79":-1.352005958557129,"80":0.10648186504840851,"81":-0.3062128722667694,"82":0.2570575773715973,"83":0.3032568097114563,"84":-0.24513176083564758,"85":-0.08298426866531372,"86":0.006914218887686729,"87":-0.4893444776535034,"88":0.6735666394233704,"89":-0.5859158635139465,"90":-0.2721910774707794,"91":-0.2553190290927887,"92":-0.1865711361169815,"93":-0.39350438117980957,"94":-0.3195108473300934,"95":-0.28625860810279846,"96":-0.21015460789203644,"97":-0.27320465445518494,"98":-0.1318444460630417,"99":-0.5913419723510742,"100":-1.403849720954895,"101":2.0313727855682373}},"32":{"bias":-0.35904085636138916,"weights":{"0":0.048213422298431396,"1":0.10010618716478348,"2":0.12328507751226425,"3":-0.08180111646652222,"4":0.11972824484109879,"5":-0.03470635786652565,"6":-0.18512503802776337,"7":0.022642036899924278,"8":-0.1025460883975029,"9":0.17591406404972076,"10":0.11404214054346085,"11":0.15979303419589996,"12":0.17345212399959564,"13":0.12190908193588257,"14":0.06353648006916046,"15":0.19686615467071533,"16":-0.09088134765625,"17":-0.08818602561950684,"18":0.1386253535747528,"19":-0.17304258048534393,"20":0.15173651278018951,"21":-0.181446835398674,"22":0.02914125844836235,"23":0.013571027666330338,"24":-0.06452701985836029,"25":-0.17680664360523224,"26":0.08984126150608063,"27":-0.046041302382946014,"28":0.011726193130016327,"29":0.033766381442546844,"30":0.1293579488992691,"31":-0.10180418938398361,"32":0.1111980602145195,"33":0.02599889412522316,"34":0.09442662447690964,"35":0.03368090093135834,"36":-0.21899031102657318,"37":-0.15615211427211761,"38":0.18651451170444489,"39":-0.10245993733406067,"40":0.09270959347486496,"41":-0.15922805666923523,"42":-0.24074146151542664,"43":-0.06979125738143921,"44":0.09926936775445938,"45":-0.12529119849205017,"46":-0.2206999659538269,"47":-0.5187552571296692,"48":-0.17533886432647705,"49":-0.22923429310321808,"50":-0.1432007998228073,"51":-0.2568875253200531,"52":-0.35847532749176025,"53":-0.013434545136988163,"54":-0.4583192467689514,"55":0.07251196354627609,"56":-0.3210200071334839,"57":-0.5139771103858948,"58":0.008880073204636574,"59":-0.023024579510092735,"60":0.10460534691810608,"61":-0.32071369886398315,"62":-0.19455380737781525,"63":0.10966237634420395,"64":0.2809586822986603,"65":-0.010163131169974804,"66":0.36578884720802307,"67":0.04183957725763321,"68":0.07980158179998398,"69":-0.06230408698320389,"70":0.07634735107421875,"71":-0.06072898209095001,"72":-0.15322065353393555,"73":0.0334421843290329,"74":-0.03760325536131859,"75":-0.09992902725934982,"76":-0.0675554871559143,"77":0.3283417224884033,"78":0.32265251874923706,"79":0.11074140667915344,"80":-0.22660116851329803,"81":-0.30033761262893677,"82":-0.33291661739349365,"83":0.03526546061038971,"84":-0.20415504276752472,"85":-0.28249627351760864,"86":-0.2994045913219452,"87":-0.2427094578742981,"88":-0.0933578759431839,"89":-0.11359530687332153,"90":0.0645369365811348,"91":-0.009346005506813526,"92":-0.08449217677116394,"93":0.07699159532785416,"94":-0.20070549845695496,"95":-0.26129114627838135,"96":-0.009376626461744308,"97":-0.29351937770843506,"98":0.03535550832748413,"99":-0.08381500095129013,"100":-0.20211641490459442,"101":-0.011293474584817886}},"33":{"bias":0.9238417148590088,"weights":{"0":0.041786715388298035,"1":-0.14580976963043213,"2":-0.06762829422950745,"3":-0.17237289249897003,"4":0.006851137150079012,"5":-0.07350870221853256,"6":-0.058058761060237885,"7":-0.14779327809810638,"8":-0.1520576775074005,"9":0.07512042671442032,"10":0.08485303074121475,"11":0.17199702560901642,"12":-0.079554982483387,"13":0.07111559063196182,"14":0.05630375072360039,"15":0.04199245199561119,"16":0.03372910991311073,"17":0.0440840981900692,"18":0.20785631239414215,"19":-0.18346627056598663,"20":-0.07436530292034149,"21":0.1526762843132019,"22":-0.07061119377613068,"23":0.08221326023340225,"24":-0.10138069093227386,"25":-0.0840216726064682,"26":-0.00039610665407963097,"27":-0.1930997222661972,"28":0.104252390563488,"29":-0.19237440824508667,"30":0.05090077966451645,"31":-0.16247478127479553,"32":1.664191484451294,"33":0.13542120158672333,"34":0.055563297122716904,"35":-0.14632548391819,"36":0.09342831373214722,"37":0.0621735081076622,"38":0.17008186876773834,"39":0.1330668032169342,"40":1.1040327548980713,"41":0.09591998159885406,"42":-2.587110757827759,"43":0.08033165335655212,"44":0.009977576322853565,"45":-0.06962299346923828,"46":1.4106255769729614,"47":2.0334830284118652,"48":0.7587218284606934,"49":-0.006422638893127441,"50":-0.04926902428269386,"51":0.8244945406913757,"52":0.06244879961013794,"53":0.6601335406303406,"54":-0.16701000928878784,"55":-0.9481145739555359,"56":0.3128769099712372,"57":1.5377458333969116,"58":-0.14009317755699158,"59":-0.5488321185112,"60":0.2649586796760559,"61":1.1873542070388794,"62":0.5442920327186584,"63":0.4662604033946991,"64":-0.09791821241378784,"65":-0.9899947643280029,"66":-0.7165607213973999,"67":0.20300063490867615,"68":0.23016543686389923,"69":-0.01772366091609001,"70":0.20893557369709015,"71":-0.13482236862182617,"72":-0.08697789162397385,"73":-0.28558313846588135,"74":-0.6130761504173279,"75":-1.280737280845642,"76":-0.3485310673713684,"77":-0.654975950717926,"78":-0.6737845540046692,"79":-0.15413345396518707,"80":0.22385826706886292,"81":0.8126009106636047,"82":0.14669887721538544,"83":0.2522943615913391,"84":0.2849244773387909,"85":-1.0345628261566162,"86":-0.7323646545410156,"87":1.4891700744628906,"88":-0.41254231333732605,"89":-0.46981653571128845,"90":0.10682310909032822,"91":-0.022499041631817818,"92":-0.4073852002620697,"93":-0.28201577067375183,"94":-0.37954145669937134,"95":-0.19184067845344543,"96":-0.11887465417385101,"97":-0.4119570553302765,"98":-0.17557668685913086,"99":0.987185001373291,"100":-2.695941209793091,"101":-4.4344305992126465}},"34":{"bias":0.4022296071052551,"weights":{"0":-0.11894511431455612,"1":-0.1579417735338211,"2":-0.12584653496742249,"3":0.055874329060316086,"4":0.14875994622707367,"5":-0.11690271645784378,"6":-0.11544609814882278,"7":0.07846582680940628,"8":-0.06299935281276703,"9":0.13833953440189362,"10":0.19178755581378937,"11":0.008686001412570477,"12":-0.14846891164779663,"13":0.10202118754386902,"14":0.08974296599626541,"15":0.18546512722969055,"16":0.0020645526237785816,"17":0.04024204984307289,"18":0.04360281303524971,"19":-0.0459849089384079,"20":-0.041939523071050644,"21":0.1451641470193863,"22":0.08295392990112305,"23":-0.056512728333473206,"24":-0.12205925583839417,"25":0.0947294607758522,"26":-0.14277154207229614,"27":0.16401471197605133,"28":0.08799304068088531,"29":-0.13362407684326172,"30":-0.09369435906410217,"31":0.03458347171545029,"32":-0.566007137298584,"33":0.19388757646083832,"34":-0.10655529052019119,"35":0.13778482377529144,"36":0.1517655998468399,"37":-0.4318995177745819,"38":-0.03183775767683983,"39":-0.24845726788043976,"40":-0.11742030084133148,"41":0.006905064452439547,"42":-0.018265657126903534,"43":0.0368952713906765,"44":0.09019032120704651,"45":0.15942347049713135,"46":0.032368987798690796,"47":-0.48497411608695984,"48":-0.30158668756484985,"49":0.4005465805530548,"50":0.7950390577316284,"51":0.061416205018758774,"52":-2.756258010864258,"53":-0.338824063539505,"54":-0.20725557208061218,"55":2.0776684284210205,"56":-0.03188496455550194,"57":-1.2850804328918457,"58":0.9870274066925049,"59":0.321796178817749,"60":0.04722936451435089,"61":0.42337170243263245,"62":0.9471793174743652,"63":0.9484307765960693,"64":0.0017802829388529062,"65":-0.451975017786026,"66":0.1379186511039734,"67":0.6237340569496155,"68":0.3605652153491974,"69":-1.2692441940307617,"70":-0.7280905246734619,"71":-0.5718832015991211,"72":-0.4103732407093048,"73":-1.5197182893753052,"74":-0.7564463019371033,"75":-0.07677192240953445,"76":-0.2774621844291687,"77":0.5571140646934509,"78":0.32940673828125,"79":-0.43146440386772156,"80":1.233080267906189,"81":-2.180037498474121,"82":0.33882489800453186,"83":-0.05933646112680435,"84":-0.0009871950605884194,"85":-0.02509387955069542,"86":-0.45296525955200195,"87":0.19490882754325867,"88":-0.542338490486145,"89":1.231302261352539,"90":-0.2239796668291092,"91":-0.3988966941833496,"92":-0.0863943099975586,"93":-0.15970352292060852,"94":-0.09036781638860703,"95":-0.35090336203575134,"96":-0.3574049174785614,"97":-0.09542270004749298,"98":-0.4469091594219208,"99":-1.0199095010757446,"100":2.8302435874938965,"101":3.6205618381500244}},"35":{"bias":-0.17142169177532196,"weights":{"0":0.05773983150720596,"1":-0.0907336100935936,"2":-0.019256945699453354,"3":-0.1057559922337532,"4":0.1985262781381607,"5":-0.07892033457756042,"6":0.12183701992034912,"7":-0.08738619089126587,"8":0.1875862330198288,"9":0.1923545002937317,"10":-0.07735670357942581,"11":-0.1321980208158493,"12":-0.06045407056808472,"13":0.036510270088911057,"14":-0.07879092544317245,"15":0.11017485707998276,"16":0.1183924674987793,"17":-0.05023406445980072,"18":-0.13268586993217468,"19":-0.08146451413631439,"20":0.12594416737556458,"21":-0.17247125506401062,"22":0.16774430871009827,"23":0.1573464423418045,"24":-0.012333370745182037,"25":0.004138570744544268,"26":-0.049777716398239136,"27":0.07092837989330292,"28":-0.03536611050367355,"29":0.03426574170589447,"30":0.08146512508392334,"31":0.03396996110677719,"32":0.03507089242339134,"33":-0.08884216845035553,"34":-0.0430472232401371,"35":-0.12061342597007751,"36":-0.07892201840877533,"37":0.11788090318441391,"38":-0.11564309149980545,"39":-0.21073339879512787,"40":-0.03199918940663338,"41":0.06908934563398361,"42":-0.296737939119339,"43":0.24832580983638763,"44":-0.15170784294605255,"45":-0.18459130823612213,"46":0.17204242944717407,"47":-0.07386252284049988,"48":0.0828111469745636,"49":0.23116274178028107,"50":0.5330570340156555,"51":0.12235444039106369,"52":-0.08869186788797379,"53":-0.04900530353188515,"54":-0.20792356133460999,"55":0.10184568911790848,"56":-0.2412019520998001,"57":-0.2888341248035431,"58":-0.07304296642541885,"59":-0.3742125630378723,"60":0.08151806890964508,"61":0.04732359200716019,"62":-0.06750320643186569,"63":-0.19150036573410034,"64":-0.2092379331588745,"65":-0.16371005773544312,"66":-0.33133023977279663,"67":0.0530053973197937,"68":0.03206893056631088,"69":-0.18155686557292938,"70":-0.19986164569854736,"71":0.03674886375665665,"72":0.14069734513759613,"73":-0.03390997648239136,"74":-0.03629697114229202,"75":-0.40716543793678284,"76":0.13249151408672333,"77":0.04882952943444252,"78":0.027935298159718513,"79":-0.05542443320155144,"80":-0.17455710470676422,"81":-0.11123282462358475,"82":-0.18451733887195587,"83":-0.1389695405960083,"84":0.0924190953373909,"85":-0.38271868228912354,"86":-0.37588006258010864,"87":0.12544232606887817,"88":-0.19119834899902344,"89":-0.23268000781536102,"90":-0.12429646402597427,"91":-0.027146857231855392,"92":-0.15748904645442963,"93":-0.19933760166168213,"94":-0.3531624972820282,"95":-0.2576920986175537,"96":-0.24064715206623077,"97":-0.023103861138224602,"98":-0.0720151886343956,"99":0.07430146634578705,"100":0.07567691057920456,"101":-0.7548395991325378}},"36":{"bias":-0.45267748832702637,"weights":{"0":-0.1763017326593399,"1":0.07581353187561035,"2":0.026889905333518982,"3":0.1021510511636734,"4":-0.10852759331464767,"5":-0.19406422972679138,"6":-0.13754858076572418,"7":0.16676892340183258,"8":-0.005352225620299578,"9":0.06164875999093056,"10":0.07516619563102722,"11":-0.1188163235783577,"12":-0.19386160373687744,"13":0.12871932983398438,"14":0.002149072475731373,"15":-0.13727514445781708,"16":-0.1732933670282364,"17":0.14632181823253632,"18":-0.0670580267906189,"19":-0.008461355231702328,"20":0.07568445056676865,"21":-0.06415712088346481,"22":0.08390995860099792,"23":0.016740914434194565,"24":0.10066147148609161,"25":0.185490220785141,"26":0.15008744597434998,"27":0.009870922192931175,"28":-0.09859097003936768,"29":-0.05766851082444191,"30":0.0030688929837197065,"31":0.16357369720935822,"32":-0.5449333190917969,"33":0.10334622114896774,"34":0.16856658458709717,"35":-0.059490278363227844,"36":-0.24887438118457794,"37":-0.561206579208374,"38":1.460729718208313,"39":-0.4400213956832886,"40":0.0631888285279274,"41":0.15271034836769104,"42":-1.0104812383651733,"43":0.9144604206085205,"44":-0.08901853114366531,"45":-0.042448192834854126,"46":-1.4840168952941895,"47":-0.595883309841156,"48":2.7356081008911133,"49":-2.8734354972839355,"50":0.1851286143064499,"51":-1.2313255071640015,"52":0.4647175967693329,"53":-0.7257388234138489,"54":-0.4672985374927521,"55":-0.578737735748291,"56":-0.4309271574020386,"57":-1.2996312379837036,"58":2.0922040939331055,"59":-1.275662899017334,"60":-0.48942553997039795,"61":-0.5872081518173218,"62":-0.02807318978011608,"63":0.9270741939544678,"64":1.0900981426239014,"65":1.0464915037155151,"66":1.1172453165054321,"67":0.6975837349891663,"68":0.7033066749572754,"69":0.881291389465332,"70":-1.2126009464263916,"71":-0.9188929200172424,"72":-1.0923088788986206,"73":-1.1282020807266235,"74":-0.03426091745495796,"75":0.5620425343513489,"76":-0.1826440542936325,"77":1.5443540811538696,"78":0.8119033575057983,"79":-1.935716152191162,"80":0.1851162165403366,"81":-1.2269744873046875,"82":1.002170443534851,"83":0.03127042576670647,"84":-0.13596363365650177,"85":-0.8996090888977051,"86":-1.16713285446167,"87":-1.5711969137191772,"88":0.5955196619033813,"89":-1.3054301738739014,"90":0.3125886619091034,"91":0.1785479038953781,"92":0.05111735314130783,"93":0.13574378192424774,"94":0.22917282581329346,"95":-0.22000302374362946,"96":-0.19446997344493866,"97":0.14812640845775604,"98":-0.16154919564723969,"99":-0.7060091495513916,"100":-4.29800271987915,"101":3.3492419719696045}},"37":{"bias":-0.014807695522904396,"weights":{"0":0.13255897164344788,"1":0.09975388646125793,"2":-0.15028499066829681,"3":0.055804554373025894,"4":0.11907022446393967,"5":-0.10858844220638275,"6":0.15181422233581543,"7":0.05536973476409912,"8":0.1394711285829544,"9":-0.02891659364104271,"10":-0.004394398536533117,"11":-0.12128280848264694,"12":0.19394071400165558,"13":-0.15312233567237854,"14":-0.008800001814961433,"15":0.1538582593202591,"16":0.15836194157600403,"17":-0.15947632491588593,"18":0.2734369933605194,"19":-0.059169117361307144,"20":0.15007545053958893,"21":-0.15652243793010712,"22":-0.06872998923063278,"23":0.014117087237536907,"24":0.14065198600292206,"25":0.1738314926624298,"26":-0.03723533824086189,"27":0.11467748880386353,"28":-0.11607415229082108,"29":-0.18066437542438507,"30":0.04127850756049156,"31":-0.1174842044711113,"32":-0.7139230966567993,"33":0.1431097835302353,"34":-0.19503481686115265,"35":0.046568311750888824,"36":-0.4093320965766907,"37":-0.2109501212835312,"38":0.7388770580291748,"39":-0.5356898307800293,"40":-0.05247095599770546,"41":0.08349162340164185,"42":-0.3253231644630432,"43":-0.07386766374111176,"44":0.013240302912890911,"45":-0.06521512567996979,"46":-0.9904989004135132,"47":-1.3384631872177124,"48":-1.0254483222961426,"49":-0.7490131258964539,"50":-0.2157844752073288,"51":-0.9976166486740112,"52":0.8121507167816162,"53":0.7027284502983093,"54":-0.19142428040504456,"55":0.06899930536746979,"56":-0.7904226183891296,"57":-0.543172299861908,"58":1.6629164218902588,"59":0.42158302664756775,"60":-0.686553955078125,"61":-0.7600899934768677,"62":-0.19044701755046844,"63":0.45366039872169495,"64":0.5753312110900879,"65":0.3692992031574249,"66":0.45148956775665283,"67":-0.15888869762420654,"68":-0.12256406247615814,"69":-0.0873383954167366,"70":-0.12870252132415771,"71":-0.3093108534812927,"72":-0.3008497655391693,"73":-0.654102087020874,"74":0.0836290717124939,"75":0.11171283572912216,"76":-0.14978785812854767,"77":0.5825799703598022,"78":0.7010530829429626,"79":-0.5964228510856628,"80":0.1164746806025505,"81":-0.2534674108028412,"82":0.11704046279191971,"83":-0.19967785477638245,"84":-0.17591391503810883,"85":-0.2404380440711975,"86":-0.4952872097492218,"87":-0.47257497906684875,"88":0.029339894652366638,"89":-0.4697631001472473,"90":-0.04645923897624016,"91":-0.2705165445804596,"92":-0.15253649652004242,"93":-0.1403295397758484,"94":-0.1563420444726944,"95":-0.03275994583964348,"96":-0.042589813470840454,"97":-0.051822926849126816,"98":-0.18877653777599335,"99":-0.3724744915962219,