{"sizes":[0,20,20,20,20,0],"layers":[{},{"0":{"bias":0.07322348654270172,"weights":{}},"1":{"bias":0.19011841714382172,"weights":{}},"2":{"bias":-0.16525515913963318,"weights":{}},"3":{"bias":-0.19272127747535706,"weights":{}},"4":{"bias":-0.09396541863679886,"weights":{}},"5":{"bias":0.027702132239937782,"weights":{}},"6":{"bias":-0.08585207164287567,"weights":{}},"7":{"bias":-0.1008235514163971,"weights":{}},"8":{"bias":-0.18312136828899384,"weights":{}},"9":{"bias":-0.06850746273994446,"weights":{}},"10":{"bias":-0.013308994472026825,"weights":{}},"11":{"bias":0.030157074332237244,"weights":{}},"12":{"bias":0.08430639654397964,"weights":{}},"13":{"bias":0.19288386404514313,"weights":{}},"14":{"bias":0.15378063917160034,"weights":{}},"15":{"bias":-0.07403276860713959,"weights":{}},"16":{"bias":-0.15065771341323853,"weights":{}},"17":{"bias":-0.09719371795654297,"weights":{}},"18":{"bias":-0.1310478001832962,"weights":{}},"19":{"bias":0.15981853008270264,"weights":{}}},{"0":{"bias":-0.15973177552223206,"weights":{"0":-0.058044254779815674,"1":-0.1261375993490219,"2":-0.16912835836410522,"3":0.01937163807451725,"4":0.055596981197595596,"5":-0.15261954069137573,"6":-0.0282813161611557,"7":0.18345768749713898,"8":-0.0399472713470459,"9":0.18792350590229034,"10":0.17590057849884033,"11":0.12412690371274948,"12":0.10343732684850693,"13":-0.12841300666332245,"14":-0.13307486474514008,"15":0.11814045161008835,"16":-0.1742505580186844,"17":-0.05550792068243027,"18":0.16941522061824799,"19":-0.18219052255153656}},"1":{"bias":0.10181967169046402,"weights":{"0":-0.1562642604112625,"1":0.18743032217025757,"2":0.05898386985063553,"3":-0.06529264897108078,"4":0.05257050320506096,"5":-0.024970602244138718,"6":-0.0329107902944088,"7":0.13504956662654877,"8":0.08345675468444824,"9":-0.17349207401275635,"10":0.046430788934230804,"11":-0.061544474214315414,"12":-0.07907850295305252,"13":-0.08001554757356644,"14":-0.0751219093799591,"15":0.18255114555358887,"16":0.020164785906672478,"17":-0.05606474354863167,"18":-0.014948384836316109,"19":0.1556573361158371}},"2":{"bias":0.06903531402349472,"weights":{"0":-0.05138102546334267,"1":-0.10977409034967422,"2":-0.11485660821199417,"3":0.011097694747149944,"4":0.018173133954405785,"5":-0.13747362792491913,"6":0.1975945681333542,"7":0.13201332092285156,"8":-0.04856131970882416,"9":0.04161453992128372,"10":0.06060082092881203,"11":0.16345475614070892,"12":0.03298591822385788,"13":0.06875747442245483,"14":0.015731463208794594,"15":-0.015097412280738354,"16":-0.07294861227273941,"17":0.11857718974351883,"18":-0.19360333681106567,"19":0.02412339486181736}},"3":{"bias":-0.168980672955513,"weights":{"0":-0.09782429784536362,"1":-0.07773115485906601,"2":-0.1891128569841385,"3":0.11550009250640869,"4":-0.19777733087539673,"5":-0.1019875556230545,"6":0.1179266944527626,"7":-0.08304888010025024,"8":0.06914163380861282,"9":0.1943802386522293,"10":-0.10256302356719971,"11":-0.19028164446353912,"12":-0.17687691748142242,"13":-0.14383500814437866,"14":0.07179434597492218,"15":0.01136169582605362,"16":0.13005438446998596,"17":0.13250930607318878,"18":0.1444590538740158,"19":-0.041961364448070526}},"4":{"bias":0.017193898558616638,"weights":{"0":-0.0408264696598053,"1":0.09407256543636322,"2":-0.15644541382789612,"3":0.09883323311805725,"4":0.13717052340507507,"5":0.045074936002492905,"6":-0.010580149479210377,"7":-0.03831668198108673,"8":-0.17092570662498474,"9":0.014033936895430088,"10":0.16323649883270264,"11":0.08003949373960495,"12":-0.17728908360004425,"13":0.08650403469800949,"14":-0.09480156749486923,"15":0.009404251351952553,"16":0.018740715458989143,"17":-0.14762800931930542,"18":0.09157309681177139,"19":0.015809062868356705}},"5":{"bias":0.18742915987968445,"weights":{"0":0.16306576132774353,"1":-0.11349885910749435,"2":-0.1411571502685547,"3":0.1285962462425232,"4":-0.05004631727933884,"5":-0.11503096669912338,"6":-0.11129463464021683,"7":-0.12278217077255249,"8":-0.009643343277275562,"9":-0.01698693074285984,"10":-0.18441033363342285,"11":0.1938834935426712,"12":-0.010795805603265762,"13":0.09113317728042603,"14":0.1898348480463028,"15":-0.08463654667139053,"16":0.03684407100081444,"17":0.1175946295261383,"18":-0.10792229324579239,"19":0.13414698839187622}},"6":{"bias":0.03438987210392952,"weights":{"0":-0.17825952172279358,"1":0.1840570569038391,"2":-0.01779782585799694,"3":-0.06451182812452316,"4":-0.05172593519091606,"5":0.07609943300485611,"6":0.021023482084274292,"7":0.19583739340305328,"8":-0.001778027624823153,"9":0.0467437319457531,"10":0.1661677360534668,"11":-0.17333287000656128,"12":0.07360421866178513,"13":-0.15515606105327606,"14":-0.13715249300003052,"15":0.17140698432922363,"16":0.14070077240467072,"17":0.12244486808776855,"18":-0.12273310869932175,"19":-0.12371808290481567}},"7":{"bias":-0.09430135786533356,"weights":{"0":0.11779912561178207,"1":0.07876373827457428,"2":0.07399529963731766,"3":0.1960030049085617,"4":-0.1944337636232376,"5":-0.1478307843208313,"6":-0.18921107053756714,"7":0.15410774946212769,"8":0.11465736478567123,"9":-0.15552525222301483,"10":0.05797129124403,"11":-0.13506227731704712,"12":-0.06731896847486496,"13":-0.03697485476732254,"14":0.13111652433872223,"15":-0.14622609317302704,"16":0.1334467977285385,"17":0.11976190656423569,"18":-0.1157226487994194,"19":0.07478148490190506}},"8":{"bias":0.11938262730836868,"weights":{"0":-0.18129946291446686,"1":-0.026611290872097015,"2":-0.07143396139144897,"3":-0.16335047781467438,"4":-0.16792553663253784,"5":-0.10460995137691498,"6":-0.0557238832116127,"7":-0.15352657437324524,"8":-0.08421716839075089,"9":0.18951748311519623,"10":0.03721071034669876,"11":-0.19923575222492218,"12":-0.19169414043426514,"13":-0.02231896109879017,"14":-0.16567543148994446,"15":-0.15421879291534424,"16":-0.19048066437244415,"17":0.1756322830915451,"18":-0.002721188822761178,"19":-0.12260065972805023}},"9":{"bias":0.1580585241317749,"weights":{"0":-0.06828102469444275,"1":0.06994732469320297,"2":-0.14199291169643402,"3":-0.02585168369114399,"4":-0.18005098402500153,"5":-0.1853979378938675,"6":-0.017099454998970032,"7":0.19246414303779602,"8":-0.014198304153978825,"9":-0.003637745976448059,"10":0.01600654236972332,"11":0.051924243569374084,"12":-0.09015505760908127,"13":0.17392607033252716,"14":-0.11584584414958954,"15":0.02774583362042904,"16":-0.0035653661470860243,"17":0.05981823429465294,"18":0.09749409556388855,"19":0.13393168151378632}},"10":{"bias":0.1702646166086197,"weights":{"0":0.04098310321569443,"1":-0.042305413633584976,"2":0.11632262170314789,"3":-0.1238836944103241,"4":0.08654557913541794,"5":0.14057499170303345,"6":-0.003606935730203986,"7":-0.09886155277490616,"8":0.04891126975417137,"9":-0.18742944300174713,"10":0.15604889392852783,"11":-0.0853981226682663,"12":0.06074247509241104,"13":0.17441053688526154,"14":0.00540988938882947,"15":-0.13721972703933716,"16":-0.05948357656598091,"17":0.05925077572464943,"18":0.057326141744852066,"19":0.17015929520130157}},"11":{"bias":-0.09930980950593948,"weights":{"0":0.06952814757823944,"1":-0.0977022647857666,"2":-0.07880537211894989,"3":-0.044898346066474915,"4":0.15757212042808533,"5":0.09891363233327866,"6":0.0004998139338567853,"7":0.08290746062994003,"8":0.018030917271971703,"9":-0.031403716653585434,"10":-0.17083363234996796,"11":-0.11800297349691391,"12":0.012041646055877209,"13":-0.156963512301445,"14":-0.036191560328006744,"15":0.16154086589813232,"16":-0.1796136200428009,"17":0.18315917253494263,"18":0.07039234042167664,"19":0.05697007104754448}},"12":{"bias":0.0581510066986084,"weights":{"0":0.18092703819274902,"1":0.010181799530982971,"2":0.19828884303569794,"3":0.13945849239826202,"4":0.16526387631893158,"5":-0.1805219054222107,"6":-0.05460244417190552,"7":-0.031115805730223656,"8":-0.03775861859321594,"9":-0.12283333390951157,"10":0.007232800591737032,"11":0.1705188900232315,"12":0.016054578125476837,"13":-0.1262282282114029,"14":0.05388679727911949,"15":-0.13252303004264832,"16":0.1178540363907814,"17":-0.11309634149074554,"18":0.03316614031791687,"19":-0.19312883913516998}},"13":{"bias":0.1729177087545395,"weights":{"0":-0.15268957614898682,"1":0.12647327780723572,"2":0.11705970764160156,"3":0.010316687636077404,"4":-0.04356516897678375,"5":-0.06995412707328796,"6":0.06962087750434875,"7":-0.1740579605102539,"8":0.052311282604932785,"9":-0.17714378237724304,"10":0.14945761859416962,"11":-0.1424293965101242,"12":0.0009424916934221983,"13":-0.030787192285060883,"14":0.09060017019510269,"15":0.10448642075061798,"16":0.17313721776008606,"17":-0.06196573004126549,"18":-0.16919438540935516,"19":0.05922289192676544}},"14":{"bias":-0.08346734195947647,"weights":{"0":-0.03022199310362339,"1":-0.1927414983510971,"2":-0.06384900957345963,"3":0.1995881348848343,"4":-0.17179042100906372,"5":0.07282835245132446,"6":-0.014630137011408806,"7":0.01282445527613163,"8":-0.11716090142726898,"9":0.0827694907784462,"10":0.06483493745326996,"11":0.014022616669535637,"12":0.043360982090234756,"13":0.15362486243247986,"14":0.050696127116680145,"15":0.1394202560186386,"16":0.04056534171104431,"17":0.07079887390136719,"18":-0.15101556479930878,"19":0.03905339911580086}},"15":{"bias":-0.12205144762992859,"weights":{"0":0.14806081354618073,"1":-0.10965921729803085,"2":0.022444745525717735,"3":0.13541103899478912,"4":-0.023065464571118355,"5":-0.14808055758476257,"6":0.12995684146881104,"7":0.17314791679382324,"8":0.11642126739025116,"9":0.0073302569799125195,"10":0.182919442653656,"11":-0.1233735904097557,"12":-0.10945739597082138,"13":-0.0889444649219513,"14":-0.02207774855196476,"15":0.1736505925655365,"16":-0.06913767755031586,"17":-0.11216790229082108,"18":0.016000455245375633,"19":-0.1406923085451126}},"16":{"bias":0.15799902379512787,"weights":{"0":0.09744024276733398,"1":-0.11096655577421188,"2":-0.1764438897371292,"3":-0.15115003287792206,"4":-0.1041409894824028,"5":-0.09397982060909271,"6":-0.008986042812466621,"7":-0.05220487713813782,"8":-0.026326164603233337,"9":0.11285094916820526,"10":0.07616277039051056,"11":-0.10059841722249985,"12":-0.05488043650984764,"13":0.10084183514118195,"14":-0.1994560956954956,"15":0.17489853501319885,"16":0.09928690642118454,"17":0.11066091805696487,"18":0.18807995319366455,"19":0.14793819189071655}},"17":{"bias":-0.05464017391204834,"weights":{"0":-0.17378400266170502,"1":-0.18736597895622253,"2":0.11372994631528854,"3":-0.16485756635665894,"4":-0.12993402779102325,"5":0.005755268037319183,"6":-0.11673352122306824,"7":0.12491681426763535,"8":0.014550277963280678,"9":0.08387941867113113,"10":0.06837017834186554,"11":-0.009213714860379696,"12":0.040360227227211,"13":0.0783783569931984,"14":0.03284834697842598,"15":0.047576747834682465,"16":0.1940382421016693,"17":-0.11791323125362396,"18":0.10160260647535324,"19":0.12057529389858246}},"18":{"bias":-0.05242138355970383,"weights":{"0":0.0533737987279892,"1":-0.1756811887025833,"2":0.09003854542970657,"3":-0.0007011991692706943,"4":-0.03587609902024269,"5":-0.04005320370197296,"6":-0.15485544502735138,"7":-0.009052038192749023,"8":0.05237702280282974,"9":0.03838707134127617,"10":-0.18297237157821655,"11":-0.13129398226737976,"12":0.19239668548107147,"13":-0.1545470803976059,"14":0.08152114599943161,"15":-0.17565661668777466,"16":-0.033538348972797394,"17":0.07282976061105728,"18":0.05317217856645584,"19":-0.03030908666551113}},"19":{"bias":0.10741475969552994,"weights":{"0":-0.09666001796722412,"1":0.006718095391988754,"2":0.17506904900074005,"3":-0.09478787332773209,"4":0.09515819698572159,"5":-0.11519204080104828,"6":0.15073172748088837,"7":-0.1545581966638565,"8":0.09299665689468384,"9":-0.08969850838184357,"10":-0.012509558349847794,"11":0.14761514961719513,"12":0.10283758491277695,"13":-0.19303330779075623,"14":0.04189221188426018,"15":0.18714912235736847,"16":-0.06464823335409164,"17":0.017884977161884308,"18":0.05091812461614609,"19":0.17469480633735657}}},{"0":{"bias":-0.13028109073638916,"weights":{"0":-0.13292296230793,"1":-0.14690428972244263,"2":0.047861795872449875,"3":0.1280377060174942,"4":-0.14535915851593018,"5":-0.026340264827013016,"6":0.021438777446746826,"7":0.1316349059343338,"8":-0.1280684769153595,"9":-0.04675242304801941,"10":-0.0058440594002604485,"11":-0.15738162398338318,"12":-0.11179231107234955,"13":-0.18409065902233124,"14":0.09352820366621017,"15":0.03327975794672966,"16":0.10159191489219666,"17":0.13534104824066162,"18":-0.180192232131958,"19":0.12411589920520782}},"1":{"bias":0.043048255145549774,"weights":{"0":-0.1803005337715149,"1":0.04413105919957161,"2":-0.15039174258708954,"3":-0.13262015581130981,"4":-0.18656939268112183,"5":-0.026989301666617393,"6":0.05822090059518814,"7":-0.17855392396450043,"8":-0.1840074211359024,"9":-0.191938117146492,"10":0.11538642644882202,"11":0.10624337196350098,"12":0.07763684540987015,"13":-0.051529210060834885,"14":-0.0066447933204472065,"15":-0.011803323403000832,"16":-0.010113932192325592,"17":-0.1735674887895584,"18":0.011836382560431957,"19":-0.10389939695596695}},"2":{"bias":-0.13153168559074402,"weights":{"0":-0.19569221138954163,"1":-0.1527833342552185,"2":-0.011410980485379696,"3":0.07935179769992828,"4":0.12473750114440918,"5":0.13359349966049194,"6":-0.14864376187324524,"7":0.1326170563697815,"8":0.13513165712356567,"9":0.1879892796278,"10":-0.04763847589492798,"11":-0.08133579045534134,"12":0.023652154952287674,"13":-0.17835789918899536,"14":-0.10953580588102341,"15":-0.09228308498859406,"16":-0.012261198833584785,"17":-0.12085285037755966,"18":0.15983112156391144,"19":0.15399423241615295}},"3":{"bias":-0.1089276522397995,"weights":{"0":-0.06800688058137894,"1":-0.07163730263710022,"2":0.037858087569475174,"3":0.09159557521343231,"4":-0.1446574181318283,"5":-0.16377784311771393,"6":-0.03077004663646221,"7":0.10705322027206421,"8":0.006204613018780947,"9":0.1424136906862259,"10":0.11554577946662903,"11":-0.05191725119948387,"12":0.07804742455482483,"13":-0.004427072126418352,"14":0.06571976840496063,"15":-0.02943674474954605,"16":0.10218687355518341,"17":0.09930539131164551,"18":-0.09048093855381012,"19":-0.05351630970835686}},"4":{"bias":-0.1664474904537201,"weights":{"0":-0.025556303560733795,"1":0.16694220900535583,"2":-0.08386626839637756,"3":-0.09605055302381516,"4":0.1049041673541069,"5":-0.19895145297050476,"6":0.1739070564508438,"7":-0.04418356344103813,"8":-0.0689249113202095,"9":-0.009969506412744522,"10":-0.08593972027301788,"11":0.001855167793110013,"12":-0.05240952596068382,"13":0.19880452752113342,"14":-0.16071487963199615,"15":0.09617225080728531,"16":-0.13685747981071472,"17":0.07574711740016937,"18":0.03970317915081978,"19":-0.11862029135227203}},"5":{"bias":0.07519257813692093,"weights":{"0":-0.05224013701081276,"1":-0.0025397739373147488,"2":0.17515800893306732,"3":-0.09504181146621704,"4":-0.06366148591041565,"5":0.015365725383162498,"6":0.05171344429254532,"7":-0.19624575972557068,"8":-0.06780686229467392,"9":0.14743708074092865,"10":0.19553320109844208,"11":-0.03329213708639145,"12":0.0790158361196518,"13":0.10460691899061203,"14":-0.12037505209445953,"15":-0.06382793933153152,"16":0.023692317306995392,"17":-0.07072903960943222,"18":0.05807153880596161,"19":-0.0656503364443779}},"6":{"bias":0.10797437280416489,"weights":{"0":-0.07451221346855164,"1":-0.08109687268733978,"2":0.06800059229135513,"3":0.18329811096191406,"4":-0.08212146162986755,"5":0.12762534618377686,"6":-0.048928119242191315,"7":-0.16355496644973755,"8":0.01672515831887722,"9":0.03272376209497452,"10":0.01657441072165966,"11":0.016719941049814224,"12":0.17914323508739471,"13":-0.18703602254390717,"14":-0.11815176904201508,"15":0.09091737121343613,"16":0.13923603296279907,"17":0.009399551898241043,"18":-0.12086012959480286,"19":-0.19509130716323853}},"7":{"bias":0.08836840093135834,"weights":{"0":0.18201369047164917,"1":-0.01947176456451416,"2":-0.15332739055156708,"3":0.05944718420505524,"4":0.0529266893863678,"5":-0.14920243620872498,"6":-0.1694020926952362,"7":0.08982374519109726,"8":0.1836756467819214,"9":0.1795908361673355,"10":-0.18542389571666718,"11":0.05368577688932419,"12":-0.17231379449367523,"13":-0.0938936248421669,"14":0.04666589945554733,"15":-0.19470253586769104,"16":0.17714416980743408,"17":-0.062297217547893524,"18":0.06579885631799698,"19":0.10984698683023453}},"8":{"bias":-0.1900695562362671,"weights":{"0":-0.04480981454253197,"1":-0.16819755733013153,"2":-0.012519454583525658,"3":-0.10104983299970627,"4":0.07090239226818085,"5":-0.04111237823963165,"6":-0.07779433578252792,"7":-0.07407429069280624,"8":-0.09727981686592102,"9":0.17614202201366425,"10":-0.14405028522014618,"11":0.11941080540418625,"12":-0.1267177164554596,"13":0.10218273103237152,"14":-0.04884445294737816,"15":-0.12337615340948105,"16":-0.1484743356704712,"17":0.19092297554016113,"18":0.027328094467520714,"19":0.07337432354688644}},"9":{"bias":-0.012298928573727608,"weights":{"0":0.06236432120203972,"1":-0.08790811151266098,"2":0.000920123013202101,"3":-0.16861607134342194,"4":0.19247539341449738,"5":0.05163952335715294,"6":0.007359116803854704,"7":-0.02711394801735878,"8":-0.0869511291384697,"9":-0.0428306944668293,"10":-0.04534705728292465,"11":0.08200515061616898,"12":-0.19773350656032562,"13":0.058971695601940155,"14":-0.10244791209697723,"15":-0.15159642696380615,"16":0.12963195145130157,"17":-0.09831663966178894,"18":-0.04104738309979439,"19":-0.12496056407690048}},"10":{"bias":0.1205098032951355,"weights":{"0":-0.01127270795404911,"1":0.05526141822338104,"2":-0.1786077618598938,"3":0.08624687790870667,"4":0.13905026018619537,"5":-0.07820748537778854,"6":-0.02133970707654953,"7":0.16871818900108337,"8":-0.17475931346416473,"9":0.07684866338968277,"10":0.1928354948759079,"11":0.15216773748397827,"12":0.1282680481672287,"13":0.16235975921154022,"14":-0.10037488490343094,"15":0.05979444831609726,"16":0.02432914264500141,"17":0.18135103583335876,"18":-0.12925003468990326,"19":0.056269288063049316}},"11":{"bias":0.015640651807188988,"weights":{"0":-0.14130713045597076,"1":0.18871352076530457,"2":0.06480519473552704,"3":-0.18247559666633606,"4":0.17470389604568481,"5":0.19143138825893402,"6":0.07229288667440414,"7":-0.19034917652606964,"8":0.19788438081741333,"9":0.10611792653799057,"10":0.19686263799667358,"11":-0.09396593272686005,"12":0.10807520896196365,"13":-0.11814915388822556,"14":-0.009668944403529167,"15":0.18212832510471344,"16":0.09656845033168793,"17":0.16998933255672455,"18":-0.14780962467193604,"19":0.1523362696170807}},"12":{"bias":0.17754167318344116,"weights":{"0":-0.03035246580839157,"1":-0.011127808131277561,"2":0.06750491261482239,"3":0.15842071175575256,"4":0.153806671500206,"5":0.06925619393587112,"6":-0.1704498529434204,"7":0.13232843577861786,"8":-0.1843780130147934,"9":0.05939652770757675,"10":0.06491990387439728,"11":-0.17952266335487366,"12":-0.06380897015333176,"13":-0.12380698323249817,"14":0.13906028866767883,"15":0.07129847258329391,"16":-0.16601422429084778,"17":0.012281572446227074,"18":0.13631488382816315,"19":0.12430780380964279}},"13":{"bias":0.1552160084247589,"weights":{"0":-0.16636566817760468,"1":-0.11997704952955246,"2":0.07987502217292786,"3":-0.02763529121875763,"4":-0.01008779276162386,"5":-0.18017224967479706,"6":0.13791950047016144,"7":-0.18821612000465393,"8":0.07155534625053406,"9":-0.15941902995109558,"10":-0.16308122873306274,"11":-0.1700672060251236,"12":0.10495728254318237,"13":-0.19835081696510315,"14":0.06318027526140213,"15":-0.013604456558823586,"16":-0.13515610992908478,"17":0.17492301762104034,"18":-0.1167900562286377,"19":0.19774699211120605}},"14":{"bias":-0.19584359228610992,"weights":{"0":-0.14950279891490936,"1":0.18284021317958832,"2":0.04467078670859337,"3":-0.04230527579784393,"4":0.04389626532793045,"5":0.170450359582901,"6":-0.09755348414182663,"7":0.09047804027795792,"8":0.13719846308231354,"9":0.10767444223165512,"10":-0.06828435510396957,"11":-0.0073420084081590176,"12":0.1143682450056076,"13":-0.12597224116325378,"14":-0.07335197180509567,"15":-0.0868062898516655,"16":-0.022042589262127876,"17":0.17236465215682983,"18":0.19556252658367157,"19":0.18677787482738495}},"15":{"bias":-0.020427532494068146,"weights":{"0":-0.08566697686910629,"1":0.09807310253381729,"2":-0.03974544629454613,"3":0.16864271461963654,"4":-0.14381319284439087,"5":-0.15210062265396118,"6":-0.09326259046792984,"7":-0.07329600304365158,"8":-0.015136175788939,"9":0.1690499633550644,"10":-0.04052476957440376,"11":0.03771829977631569,"12":0.14573846757411957,"13":0.08277878165245056,"14":-0.0358211025595665,"15":0.11037836223840714,"16":0.017618902027606964,"17":-0.11910407245159149,"18":0.17818185687065125,"19":0.1878846287727356}},"16":{"bias":-0.00030531594529747963,"weights":{"0":0.001030518556945026,"1":-0.14222124218940735,"2":0.1692962795495987,"3":0.18464866280555725,"4":-0.05588501691818237,"5":0.04648629203438759,"6":0.04750482365489006,"7":0.024735189974308014,"8":0.01964610256254673,"9":0.08856485784053802,"10":0.03781669959425926,"11":-0.12680025398731232,"12":0.04117155820131302,"13":-0.15260879695415497,"14":-0.19400641322135925,"15":-0.022336939349770546,"16":-0.07826270163059235,"17":-0.09046699851751328,"18":0.06577480584383011,"19":-0.15731863677501678}},"17":{"bias":-0.0670735165476799,"weights":{"0":0.18452945351600647,"1":0.07121898233890533,"2":-0.07515911757946014,"3":0.1429114043712616,"4":0.024892717599868774,"5":-0.15004099905490875,"6":0.034476663917303085,"7":-0.0728549063205719,"8":0.017715610563755035,"9":0.1670982986688614,"10":-0.1476610004901886,"11":-0.08152911812067032,"12":0.06952913850545883,"13":0.02187454327940941,"14":-0.17845091223716736,"15":0.18607628345489502,"16":0.07080532610416412,"17":0.07391218841075897,"18":0.03136647120118141,"19":0.0831892266869545}},"18":{"bias":0.06506378948688507,"weights":{"0":-0.14601168036460876,"1":0.12606140971183777,"2":0.018986964598298073,"3":-0.04154442623257637,"4":0.00018856102542486042,"5":0.062113966792821884,"6":0.17179487645626068,"7":0.045872870832681656,"8":-0.0820305272936821,"9":-0.09264481067657471,"10":0.02310292050242424,"11":-0.11006992310285568,"12":-0.1911012828350067,"13":-0.10620512813329697,"14":0.1011262908577919,"15":-0.11588617414236069,"16":0.01982405036687851,"17":-0.10566580295562744,"18":0.08075761795043945,"19":-0.16781088709831238}},"19":{"bias":0.13645072281360626,"weights":{"0":0.13258935511112213,"1":-0.0686446875333786,"2":0.18745920062065125,"3":0.0360138975083828,"4":0.10321596264839172,"5":0.05205969512462616,"6":-0.1904115527868271,"7":0.16747133433818817,"8":0.0797676295042038,"9":-0.09913105517625809,"10":-0.1548452377319336,"11":-0.18301032483577728,"12":-0.18434327840805054,"13":0.032267503440380096,"14":0.08180156350135803,"15":-0.026054462417960167,"16":0.11208449304103851,"17":-0.18945834040641785,"18":0.112797312438488,"19":0.17758986353874207}}},{"0":{"bias":-0.176840677857399,"weights":{"0":0.08005208522081375,"1":0.11158857494592667,"2":0.14838995039463043,"3":0.020746735855937004,"4":0.1436772644519806,"5":-0.03794821724295616,"6":0.022994909435510635,"7":0.15154539048671722,"8":-0.06793192774057388,"9":-0.15214592218399048,"10":-0.0697815865278244,"11":0.14897458255290985,"12":0.05196395888924599,"13":-0.08119872957468033,"14":0.18352831900119781,"15":0.00241510639898479,"16":0.15755322575569153,"17":0.11099202930927277,"18":-0.006621344480663538,"19":0.020803174003958702}},"1":{"bias":-0.0052973502315580845,"weights":{"0":-0.13866892457008362,"1":0.06157083809375763,"2":-0.17931582033634186,"3":-0.18745291233062744,"4":0.11993445456027985,"5":0.0754770040512085,"6":-0.15721462666988373,"7":-0.1521908938884735,"8":-0.023526646196842194,"9":0.1708575040102005,"10":0.10550390928983688,"11":0.17128103971481323,"12":-0.10244602710008621,"13":0.04905087128281593,"14":-0.09157343208789825,"15":0.1350373774766922,"16":-0.12321870028972626,"17":-0.05549370124936104,"18":0.11351512372493744,"19":0.08986326307058334}},"2":{"bias":-0.1799127757549286,"weights":{"0":0.12400974333286285,"1":-0.014332866296172142,"2":0.08452186733484268,"3":0.15159660577774048,"4":-0.06867794692516327,"5":-0.11772005259990692,"6":-0.1539100855588913,"7":0.19542068243026733,"8":-0.15116791427135468,"9":-0.15625396370887756,"10":-0.1401197910308838,"11":0.04103277623653412,"12":-0.06464267522096634,"13":-0.19656482338905334,"14":0.07180023193359375,"15":-0.057930853217840195,"16":-0.04015819728374481,"17":0.04190424084663391,"18":0.19236096739768982,"19":0.18559549748897552}},"3":{"bias":0.09051469713449478,"weights":{"0":0.18266825377941132,"1":0.07290729135274887,"2":0.10729425400495529,"3":-0.1172960102558136,"4":0.1586534082889557,"5":-0.16527853906154633,"6":0.19770808517932892,"7":-0.03475081920623779,"8":0.05656801164150238,"9":-0.03206879273056984,"10":0.17590752243995667,"11":0.16704751551151276,"12":0.04263021796941757,"13":0.1600671112537384,"14":-0.12894295156002045,"15":-0.18470054864883423,"16":-0.17519249022006989,"17":0.15307177603244781,"18":0.11274498701095581,"19":0.15627947449684143}},"4":{"bias":0.039924103766679764,"weights":{"0":0.012938100844621658,"1":-0.045494791120290756,"2":0.02272765152156353,"3":-0.12599016726016998,"4":-0.11081568896770477,"5":0.07655990868806839,"6":-0.17382805049419403,"7":0.04946328327059746,"8":0.18533365428447723,"9":-0.16296212375164032,"10":0.07309567183256149,"11":-0.07361746579408646,"12":-0.10145264863967896,"13":0.13258689641952515,"14":0.16860246658325195,"15":0.09776365756988525,"16":0.010259954258799553,"17":0.1524217575788498,"18":-0.16226127743721008,"19":-0.15807318687438965}},"5":{"bias":-0.1824411302804947,"weights":{"0":0.1464940905570984,"1":-0.11220808327198029,"2":-0.08760187029838562,"3":0.08557166159152985,"4":-0.0349535197019577,"5":0.026906218379735947,"6":0.14133091270923615,"7":-0.1463695764541626,"8":0.05214845389127731,"9":0.011889315210282803,"10":0.19934849441051483,"11":-0.19704678654670715,"12":0.09863253682851791,"13":0.09415288269519806,"14":0.009731031022965908,"15":0.08183339238166809,"16":-0.08593089878559113,"17":0.034601468592882156,"18":-0.015543763525784016,"19":0.13649073243141174}},"6":{"bias":-0.19551579654216766,"weights":{"0":0.17871953547000885,"1":0.1372801810503006,"2":-0.03532327339053154,"3":0.15076205134391785,"4":0.0856337696313858,"5":0.05030202865600586,"6":-0.12391270697116852,"7":0.11913277208805084,"8":-0.1340479999780655,"9":0.013896104879677296,"10":0.10463530570268631,"11":-0.02303975820541382,"12":-0.07635827362537384,"13":-0.06428258866071701,"14":0.04225623607635498,"15":-0.03254696726799011,"16":0.14472666382789612,"17":-0.048122841864824295,"18":0.16110235452651978,"19":-0.04628658667206764}},"7":{"bias":0.14253157377243042,"weights":{"0":-0.1216956302523613,"1":-0.1989896148443222,"2":0.16261547803878784,"3":0.031449466943740845,"4":-0.1811336725950241,"5":-0.043112851679325104,"6":-0.04146194085478783,"7":-0.13500699400901794,"8":0.1346389651298523,"9":-0.08534671366214752,"10":-0.06225024163722992,"11":-0.029899239540100098,"12":0.08173153549432755,"13":0.12148743122816086,"14":0.08398827910423279,"15":0.048765987157821655,"16":0.11540326476097107,"17":0.07389960438013077,"18":-0.022728580981492996,"19":0.1325737088918686}},"8":{"bias":-0.11748118698596954,"weights":{"0":-0.10160882025957108,"1":-0.047657035291194916,"2":-0.09786523878574371,"3":0.06817948818206787,"4":0.05233875662088394,"5":-0.10748032480478287,"6":-0.09014482796192169,"7":0.1421757936477661,"8":0.031041625887155533,"9":0.09916649013757706,"10":-0.07789142429828644,"11":0.00716621708124876,"12":-0.09972522407770157,"13":0.07794801890850067,"14":-0.023371433839201927,"15":0.17968817055225372,"16":-0.01148462388664484,"17":0.1126076802611351,"18":0.07532592117786407,"19":0.059700675308704376}},"9":{"bias":0.11960159242153168,"weights":{"0":-0.001664046780206263,"1":0.13230152428150177,"2":0.13010385632514954,"3":0.06325772404670715,"4":0.16855323314666748,"5":0.05438651517033577,"6":-0.09681682288646698,"7":-0.08268796652555466,"8":-0.017205024138092995,"9":-0.08868658542633057,"10":-0.16534484922885895,"11":-0.06414837390184402,"12":0.02161344513297081,"13":0.1011837050318718,"14":0.16996963322162628,"15":-0.16652120649814606,"16":-0.11508236825466156,"17":0.023043140769004822,"18":0.1978747546672821,"19":-0.16160133481025696}},"10":{"bias":0.10152369737625122,"weights":{"0":-0.04497196525335312,"1":-0.08172711730003357,"2":0.03592170402407646,"3":-0.0013708765618503094,"4":-0.0781908705830574,"5":-0.13189968466758728,"6":0.07845499366521835,"7":-0.125233456492424,"8":-0.11999837309122086,"9":0.11736125499010086,"10":-0.17083659768104553,"11":0.17724771797657013,"12":0.12085366994142532,"13":0.010694490745663643,"14":-0.06989769637584686,"15":-0.1897345632314682,"16":-0.06737303733825684,"17":-0.11012599617242813,"18":0.07066110521554947,"19":-0.05051780864596367}},"11":{"bias":0.038056544959545135,"weights":{"0":-0.033702343702316284,"1":0.13470396399497986,"2":0.07137341797351837,"3":0.048044200986623764,"4":0.018202148377895355,"5":-0.1664259433746338,"6":-0.0637882798910141,"7":0.14818790555000305,"8":-0.16685634851455688,"9":0.17084598541259766,"10":-0.07084190100431442,"11":-0.06270823627710342,"12":0.11189168691635132,"13":-0.1033155620098114,"14":0.13083197176456451,"15":0.05816232040524483,"16":0.04211368039250374,"17":0.10640782862901688,"18":0.0916980728507042,"19":0.04024772346019745}},"12":{"bias":0.008734076283872128,"weights":{"0":0.14114555716514587,"1":-0.00948404148221016,"2":0.15317045152187347,"3":0.16112712025642395,"4":-0.19467496871948242,"5":0.01374327763915062,"6":0.0282305758446455,"7":0.18302826583385468,"8":-0.019516130909323692,"9":-0.12511616945266724,"10":0.05656985938549042,"11":-0.19760239124298096,"12":0.06782189011573792,"13":-0.14103209972381592,"14":-0.1093328595161438,"15":-0.1736864596605301,"16":-0.0341084823012352,"17":0.10243891179561615,"18":-0.016537291929125786,"19":0.048548374325037}},"13":{"bias":0.04361283779144287,"weights":{"0":0.05204731598496437,"1":0.026720080524683,"2":-0.08889730274677277,"3":-0.09867484122514725,"4":0.14621052145957947,"5":0.17421448230743408,"6":0.15515774488449097,"7":-0.014627243392169476,"8":-0.0866394117474556,"9":-0.03213399276137352,"10":-0.048007793724536896,"11":0.13215944170951843,"12":-0.19258257746696472,"13":-0.15020938217639923,"14":0.17076553404331207,"15":0.16923318803310394,"16":0.13290080428123474,"17":-0.11868476867675781,"18":-0.13732005655765533,"19":0.030006149783730507}},"14":{"bias":0.08107718080282211,"weights":{"0":0.17303864657878876,"1":-0.09875072538852692,"2":0.17726446688175201,"3":-0.06392660737037659,"4":-0.041501484811306,"5":0.15309399366378784,"6":-0.15685488283634186,"7":-0.11786056309938431,"8":0.005008443258702755,"9":0.05634451285004616,"10":-0.08159363269805908,"11":0.11116672307252884,"12":0.07923904806375504,"13":0.01290349941700697,"14":0.10355458408594131,"15":0.11397449672222137,"16":0.08245734125375748,"17":-0.19459393620491028,"18":-0.0872165709733963,"19":0.0634646862745285}},"15":{"bias":0.16069850325584412,"weights":{"0":-0.1428421586751938,"1":-0.05723486840724945,"2":-0.15532544255256653,"3":0.0629148930311203,"4":0.04405461251735687,"5":-0.07873151451349258,"6":-0.14230823516845703,"7":0.07852906733751297,"8":-0.15315382182598114,"9":-0.17403990030288696,"10":-0.06354855000972748,"11":-0.07994832843542099,"12":0.19311636686325073,"13":0.1697642058134079,"14":0.013744908384978771,"15":0.11904347687959671,"16":0.060335010290145874,"17":0.1927858591079712,"18":0.021225348114967346,"19":0.08766011148691177}},"16":{"bias":0.11011889576911926,"weights":{"0":0.046447642147541046,"1":-0.1837283968925476,"2":0.08886681497097015,"3":0.17646123468875885,"4":0.10579182952642441,"5":-0.15853647887706757,"6":-0.0625254362821579,"7":0.1752951443195343,"8":-0.1019270122051239,"9":0.01863051764667034,"10":0.09143643826246262,"11":0.08351476490497589,"12":0.070906862616539,"13":0.03163469210267067,"14":0.09644535183906555,"15":-0.19182974100112915,"16":-0.14979630708694458,"17":-0.06740963459014893,"18":0.1126185804605484,"19":-0.06766968965530396}},"17":{"bias":-0.08446529507637024,"weights":{"0":0.10111686587333679,"1":0.019596628844738007,"2":-0.02759074606001377,"3":-0.16800598800182343,"4":-0.19592711329460144,"5":-0.19030365347862244,"6":0.17712874710559845,"7":-0.058749549090862274,"8":0.1434197574853897,"9":-0.050017647445201874,"10":-0.16703030467033386,"11":0.1476655751466751,"12":-0.10558976978063583,"13":-0.11486493051052094,"14":0.08394001424312592,"15":0.014382269233465195,"16":0.07717602699995041,"17":-0.1456897258758545,"18":0.18756139278411865,"19":-0.025036586448550224}},"18":{"bias":-0.11261831969022751,"weights":{"0":-0.18405792117118835,"1":-0.13759030401706696,"2":0.014385254122316837,"3":-0.08697982132434845,"4":-0.1478050798177719,"5":-0.12556852400302887,"6":0.10488428175449371,"7":0.0945829525589943,"8":0.07760661840438843,"9":0.050152190029621124,"10":0.12180055677890778,"11":0.021947473287582397,"12":-0.0955577865242958,"13":-0.07151133567094803,"14":0.13833598792552948,"15":-0.047468189150094986,"16":0.19209657609462738,"17":-0.048903752118349075,"18":0.0383426658809185,"19":0.08122006803750992}},"19":{"bias":-0.0005954739754088223,"weights":{"0":-0.043241582810878754,"1":-0.18939147889614105,"2":-0.17592589557170868,"3":-0.17912912368774414,"4":0.08930305391550064,"5":0.16911804676055908,"6":0.029501380398869514,"7":-0.03398241475224495,"8":0.16980095207691193,"9":-0.029174521565437317,"10":-0.1514737755060196,"11":-0.05199579522013664,"12":-0.04341787472367287,"13":0.0175053458660841,"14":-0.17948737740516663,"15":0.09335962682962418,"16":-0.18928705155849457,"17":0.1775626391172409,"18":0.1201837807893753,"19":0.1334444284439087}}},{}],"outputLookup":true,"inputLookup":true,"activation":"tanh","trainOpts":{"iterations":1000,"errorThresh":0.02,"log":true,"logPeriod":10,"learningRate":0.3,"momentum":0.1,"callbackPeriod":100}}
